svm_type c_svc
kernel_type rbf
gamma 0.142857
nr_class 2
total_sv 336
rho 0.00515596
label 1 2
nr_sv 176 160
SV
0.9358379147581884 1:1 2:29 3:1 4:1 5:2 6:1 7:1 
0.4583176386267415 1:1 2:29 3:1 4:2 5:3 6:1 7:1 
0.6072469394440638 1:1 2:31 3:1 4:2 5:2 6:2 7:2 
1 1:2 2:60 3:2 4:1 5:33 6:2 7:3 
0.3654715463273888 1:1 2:34 3:1 4:3 5:0 6:2 7:1 
0.5789038803361805 1:2 2:27 3:3 4:2 5:0 6:2 7:1 
0.7923382424951239 1:1 2:43 3:1 4:1 5:14 6:2 7:4 
0.8271866781284657 1:1 2:31 3:1 4:1 5:3 6:1 7:1 
1 1:1 2:30 3:2 4:1 5:6 6:1 7:1 
1 1:1 2:27 3:2 4:1 5:4 6:1 7:1 
1 1:1 2:33 3:1 4:4 5:7 6:1 7:1 
1 1:1 2:26 3:2 4:1 5:2 6:1 7:1 
1 1:1 2:28 3:2 4:1 5:4 6:1 7:4 
0.4982887729769741 1:2 2:30 3:3 4:1 5:0 6:2 7:1 
1 1:1 2:31 3:2 4:1 5:6 6:2 7:1 
0.0735590976775225 1:1 2:31 3:2 4:1 5:6 6:1 7:1 
0.8309621499053732 1:1 2:29 3:2 4:1 5:4 6:1 7:1 
1 1:1 2:33 3:2 4:1 5:7 6:1 7:1 
1 1:2 2:25 3:2 4:1 5:2 6:1 7:1 
1 1:1 2:33 3:3 4:1 5:1 6:1 7:1 
0.7809358015923917 1:1 2:34 3:1 4:1 5:4 6:1 7:1 
1 1:1 2:34 3:2 4:1 5:4 6:1 7:1 
1 1:1 2:32 3:3 4:2 5:1 6:1 7:1 
0.2369496464397659 1:1 2:27 3:2 4:1 5:0 6:1 7:4 
1 1:1 2:48 3:1 4:2 5:15 6:2 7:1 
1 1:1 2:25 3:4 4:1 5:1 6:1 7:1 
1 1:2 2:30 3:1 4:5 5:4 6:1 7:1 
1 1:1 2:26 3:1 4:1 5:1 6:1 7:1 
1 1:1 2:62 3:3 4:2 5:7 6:2 7:1 
1 1:1 2:43 3:1 4:1 5:2 6:2 7:1 
0.9629820574539056 1:1 2:32 3:3 4:5 5:2 6:2 7:1 
0.4656229722171324 1:2 2:24 3:1 4:4 5:0 6:1 7:1 
1 1:2 2:53 3:3 4:6 5:17 6:2 7:1 
0.4117322853329324 1:1 2:33 3:1 4:1 5:6 6:1 7:1 
0.2177336436734963 1:1 2:36 3:1 4:1 5:1 6:2 7:1 
1 1:1 2:37 3:2 4:1 5:8 6:2 7:1 
1 1:1 2:38 3:1 4:1 5:5 6:2 7:1 
1 1:1 2:47 3:2 4:3 5:24 6:2 7:4 
1 1:1 2:29 3:2 4:1 5:5 6:1 7:1 
1 1:2 2:27 3:2 4:1 5:4 6:1 7:1 
0.755727577377846 1:1 2:47 3:1 4:6 5:3 6:2 7:2 
1 1:2 2:52 3:1 4:6 5:7 6:2 7:1 
1 1:1 2:25 3:3 4:1 5:1 6:1 7:4 
0.7205659555035698 1:1 2:25 3:1 4:2 5:0 6:1 7:1 
1 1:1 2:29 3:1 4:1 5:4 6:1 7:1 
1 1:1 2:34 3:2 4:1 5:6 6:1 7:1 
1 1:1 2:30 3:2 4:1 5:6 6:1 7:1 
1 1:1 2:34 3:2 4:1 5:4 6:1 7:1 
0.5553234295810667 1:2 2:29 3:3 4:2 5:2 6:2 7:1 
1 1:1 2:25 3:2 4:1 5:1 6:1 7:1 
0.8104375962922121 1:1 2:41 3:1 4:1 5:1 6:2 7:1 
0.8623896811184036 1:1 2:47 3:1 4:3 5:4 6:2 7:1 
0.9681880273612483 1:2 2:31 3:1 4:5 5:3 6:1 7:1 
1 1:1 2:26 3:2 4:1 5:1 6:1 7:1 
0.5295064239059252 1:1 2:39 3:1 4:1 5:5 6:2 7:1 
0.8221874931681278 1:1 2:30 3:2 4:1 5:1 6:1 7:5 
1 1:1 2:27 3:1 4:1 5:1 6:1 7:1 
1 1:1 2:34 3:1 4:1 5:3 6:2 7:1 
0.2293090466616286 1:2 2:33 3:2 4:3 5:1 6:1 7:1 
0.9295185534365712 1:1 2:32 3:2 4:1 5:7 6:1 7:1 
1 1:1 2:32 3:1 4:2 5:2 6:2 7:1 
1 1:2 2:25 3:1 4:5 5:0 6:1 7:1 
0.2796805594965532 1:1 2:34 3:1 4:1 5:1 6:1 7:4 
1 1:1 2:38 3:3 4:1 5:13 6:2 7:1 
1 1:2 2:40 3:3 4:2 5:13 6:2 7:1 
1 1:1 2:34 3:1 4:2 5:9 6:1 7:1 
1 1:1 2:28 3:4 4:1 5:3 6:1 7:1 
1 1:1 2:41 3:1 4:2 5:7 6:2 7:1 
0.2293193184084894 1:2 2:29 3:1 4:1 5:1 6:1 7:1 
0.5170230012010674 1:1 2:34 3:1 4:1 5:0 6:2 7:1 
0.9268894296573011 1:2 2:28 3:1 4:1 5:2 6:1 7:1 
0.7448796894139902 1:2 2:45 3:1 4:1 5:13 6:1 7:5 
0.6124615749205398 1:1 2:31 3:4 4:1 5:6 6:2 7:4 
0.6541192798108668 1:1 2:30 3:3 4:5 5:2 6:1 7:1 
1 1:1 2:52 3:1 4:6 5:0 6:2 7:1 
0.8757615610374635 1:2 2:48 3:3 4:6 5:0 6:2 7:1 
1 1:2 2:28 3:5 4:2 5:3 6:2 7:1 
1 1:1 2:38 3:2 4:3 5:3 6:1 7:1 
1 1:1 2:22 3:1 4:1 5:1 6:1 7:1 
1 1:1 2:26 3:1 4:1 5:1 6:1 7:1 
1 1:1 2:24 3:4 4:1 5:1 6:1 7:1 
0.3279008028651437 1:1 2:37 3:1 4:3 5:0 6:2 7:1 
0.863529514796368 1:1 2:39 3:1 4:1 5:1 6:2 7:4 
0.007421166035825742 1:1 2:30 3:1 4:1 5:1 6:1 7:1 
1 1:1 2:29 3:2 4:1 5:4 6:1 7:1 
0.7227737442820853 1:1 2:37 3:4 4:3 5:0 6:2 7:1 
1 1:2 2:28 3:1 4:2 5:4 6:1 7:1 
0.8825306119211699 1:1 2:36 3:1 4:1 5:3 6:1 7:1 
0.3265381062633927 1:1 2:40 3:1 4:1 5:2 6:1 7:1 
1 1:1 2:33 3:2 4:1 5:7 6:1 7:1 
0.2637179077949205 1:1 2:33 3:2 4:1 5:3 6:1 7:1 
1 1:1 2:29 3:2 4:1 5:4 6:1 7:1 
1 1:2 2:27 3:1 4:2 5:1 6:1 7:1 
0.9776781108723652 1:1 2:33 3:2 4:1 5:6 6:2 7:1 
1 1:1 2:40 3:2 4:3 5:8 6:2 7:4 
0.6203456249032191 1:1 2:29 3:1 4:5 5:2 6:2 7:1 
1 1:1 2:26 3:2 4:1 5:2 6:1 7:1 
0.9373612021245683 1:2 2:29 3:6 4:1 5:5 6:1 7:1 
1 1:1 2:30 3:2 4:2 5:5 6:1 7:1 
0.411680785840714 1:1 2:30 3:3 4:2 5:1 6:1 7:1 
1 1:1 2:32 3:1 4:2 5:2 6:2 7:1 
0.8487565530560088 1:1 2:37 3:3 4:5 5:2 6:2 7:1 
1 1:2 2:25 3:3 4:1 5:1 6:1 7:1 
1 1:2 2:26 3:2 4:2 5:2 6:1 7:1 
0.1970259540533926 1:2 2:28 3:2 4:1 5:2 6:1 7:4 
1 1:1 2:35 3:4 4:1 5:1 6:1 7:1 
1 1:1 2:31 3:1 4:1 5:1 6:2 7:1 
1 1:1 2:26 3:4 4:1 5:1 6:1 7:1 
0.5768236515687014 1:1 2:29 3:1 4:1 5:1 6:1 7:1 
1 1:1 2:29 3:2 4:1 5:4 6:1 7:1 
0.529864170851467 1:2 2:28 3:4 4:1 5:3 6:1 7:1 
0.002595710447256126 1:1 2:28 3:1 4:2 5:1 6:1 7:1 
1 1:1 2:35 3:1 4:1 5:2 6:2 7:1 
0.3670303404622928 1:1 2:41 3:1 4:1 5:2 6:2 7:1 
0.8417033827364477 1:1 2:29 3:4 4:1 5:1 6:1 7:1 
1 1:1 2:29 3:1 4:1 5:1 6:2 7:1 
1 1:1 2:26 3:2 4:2 5:3 6:1 7:1 
1 1:1 2:38 3:1 4:1 5:4 6:1 7:1 
1 1:1 2:25 3:1 4:1 5:0 6:1 7:1 
1 1:1 2:24 3:1 4:1 5:0 6:1 7:1 
1 1:1 2:35 3:1 4:1 5:12 6:1 7:1 
1 1:1 2:26 3:2 4:1 5:2 6:1 7:1 
1 1:2 2:25 3:1 4:2 5:1 6:2 7:1 
1 1:1 2:28 3:1 4:1 5:1 6:2 7:1 
1 1:1 2:27 3:1 4:2 5:4 6:2 7:1 
0.2096691245655787 1:1 2:27 3:2 4:1 5:2 6:1 7:1 
1 1:2 2:23 3:1 4:2 5:0 6:1 7:1 
0.7824790264010326 1:1 2:31 3:1 4:1 5:3 6:1 7:5 
1 1:1 2:29 3:2 4:1 5:4 6:1 7:1 
1 1:1 2:27 3:1 4:2 5:2 6:1 7:1 
0.3253832962260915 1:1 2:30 3:2 4:1 5:6 6:1 7:4 
1 1:1 2:26 3:2 4:1 5:3 6:1 7:1 
1 1:2 2:27 3:2 4:2 5:2 6:1 7:1 
1 1:1 2:27 3:2 4:1 5:2 6:1 7:1 
0.4137566038763822 1:1 2:32 3:2 4:1 5:2 6:1 7:1 
0.556531995251464 1:1 2:38 3:1 4:1 5:3 6:1 7:1 
1 1:1 2:31 3:1 4:1 5:4 6:2 7:1 
1 1:2 2:26 3:1 4:1 5:1 6:1 7:1 
0.4026369030798659 1:1 2:29 3:1 4:2 5:1 6:1 7:4 
1 1:1 2:26 3:4 4:1 5:2 6:1 7:1 
1 1:1 2:27 3:1 4:1 5:2 6:1 7:1 
1 1:1 2:26 3:1 4:2 5:3 6:1 7:1 
1 1:1 2:26 3:1 4:2 5:5 6:1 7:1 
0.1383029825251864 1:1 2:30 3:4 4:1 5:2 6:1 7:1 
0.2540330758690562 1:1 2:30 3:1 4:1 5:1 6:1 7:1 
1 1:1 2:27 3:2 4:1 5:2 6:1 7:1 
1 1:2 2:31 3:3 4:2 5:5 6:2 7:1 
1 1:2 2:31 3:1 4:1 5:5 6:1 7:1 
1 1:1 2:26 3:2 4:1 5:1 6:1 7:1 
0.2498377800835369 1:1 2:26 3:2 4:1 5:1 6:1 7:1 
1 1:2 2:30 3:3 4:2 5:6 6:2 7:1 
1 1:1 2:25 3:2 4:1 5:1 6:1 7:1 
0.5621218944121673 1:1 2:34 3:1 4:4 5:1 6:2 7:1 
1 1:1 2:31 3:3 4:1 5:3 6:2 7:2 
1 1:1 2:37 3:1 4:1 5:3 6:1 7:1 
1 1:1 2:38 3:1 4:1 5:6 6:2 7:1 
1 1:1 2:28 3:1 4:2 5:6 6:2 7:1 
1 1:1 2:27 3:2 4:2 5:2 6:1 7:1 
0.9687186382893361 1:2 2:30 3:1 4:1 5:3 6:1 7:1 
0.5000191125740288 1:1 2:30 3:1 4:2 5:0 6:1 7:1 
1 1:1 2:30 3:4 4:1 5:2 6:2 7:1 
1 1:1 2:32 3:1 4:1 5:7 6:1 7:4 
1 1:1 2:30 3:2 4:1 5:5 6:1 7:1 
0.002312578693737321 1:1 2:30 3:1 4:1 5:0 6:2 7:1 
1 1:1 2:34 3:1 4:2 5:6 6:1 7:1 
1 1:1 2:36 3:1 4:2 5:2 6:2 7:1 
0.7302478851168877 1:1 2:29 3:2 4:3 5:1 6:1 7:1 
1 1:1 2:34 3:1 4:1 5:3 6:1 7:5 
0.5666993914523495 1:1 2:30 3:6 4:1 5:1 6:1 7:1 
1 1:1 2:27 3:1 4:1 5:1 6:1 7:1 
1 1:2 2:31 3:3 4:2 5:1 6:1 7:1 
1 1:1 2:35 3:1 4:1 5:5 6:1 7:3 
0.05879727597709741 1:1 2:30 3:4 4:1 5:0 6:1 7:1 
1 1:1 2:32 3:2 4:1 5:7 6:1 7:1 
1 1:1 2:29 3:1 4:1 5:4 6:1 7:1 
0.6887228865494778 1:1 2:28 3:1 4:2 5:1 6:1 7:1 
-0.9924958198779111 1:1 2:52 3:3 4:1 5:4 6:2 7:1 
-1 1:1 2:37 3:1 4:2 5:3 6:2 7:1 
-1 1:1 2:38 3:1 4:1 5:3 6:1 7:1 
-1 1:1 2:30 3:1 4:2 5:1 6:2 7:1 
-1 1:2 2:27 3:3 4:4 5:2 6:1 7:1 
-1 1:2 2:26 3:3 4:2 5:1 6:2 7:1 
-1 1:1 2:25 3:3 4:1 5:1 6:1 7:1 
-1 1:1 2:47 3:2 4:1 5:23 6:2 7:1 
-1 1:1 2:29 3:3 4:2 5:2 6:2 7:5 
-0.6383609029252607 1:1 2:35 3:2 4:2 5:12 6:1 7:1 
-0.9402543924803916 1:1 2:41 3:2 4:1 5:19 6:2 7:4 
-1 1:1 2:33 3:1 4:1 5:7 6:1 7:1 
-0.8868150490397197 1:1 2:38 3:2 4:1 5:11 6:1 7:1 
-1 1:1 2:31 3:2 4:2 5:7 6:2 7:1 
-1 1:2 2:31 3:3 4:1 5:4 6:2 7:1 
-0.6437499612232375 1:1 2:36 3:2 4:2 5:15 6:2 7:1 
-0.3194237388812833 1:2 2:35 3:1 4:1 5:6 6:2 7:1 
-1 1:1 2:25 3:2 4:1 5:2 6:1 7:5 
-0.9492221724807549 1:1 2:39 3:1 4:2 5:15 6:2 7:1 
-0.930067822461027 1:1 2:43 3:1 4:5 5:19 6:1 7:4 
-0.7218983299981169 1:1 2:38 3:1 4:2 5:15 6:2 7:4 
-1 1:2 2:27 3:1 4:1 5:1 6:1 7:1 
-1 1:1 2:26 3:1 4:1 5:1 6:1 7:1 
-0.7436922296447618 1:1 2:41 3:5 4:1 5:4 6:1 7:1 
-1 1:1 2:26 3:3 4:1 5:2 6:1 7:1 
-0.7075690677162949 1:2 2:31 3:2 4:1 5:8 6:2 7:1 
-1 1:2 2:29 3:3 4:2 5:1 6:1 7:1 
-1 1:1 2:43 3:3 4:2 5:2 6:2 7:1 
-1 1:1 2:43 3:3 4:2 5:9 6:2 7:1 
-0.873796080098117 1:1 2:34 3:2 4:1 5:11 6:1 7:5 
-1 1:2 2:26 3:1 4:2 5:2 6:1 7:1 
-1 1:2 2:24 3:2 4:1 5:1 6:1 7:1 
-1 1:1 2:27 3:3 4:1 5:2 6:1 7:1 
-1 1:1 2:27 3:1 4:1 5:1 6:1 7:1 
-1 1:2 2:30 3:1 4:1 5:2 6:2 7:1 
-1 1:1 2:34 3:1 4:2 5:1 6:2 7:1 
-0.3329480091667356 1:1 2:37 3:1 4:2 5:9 6:1 7:1 
-1 1:1 2:30 3:2 4:1 5:7 6:1 7:1 
-1 1:1 2:32 3:1 4:2 5:8 6:1 7:1 
-1 1:1 2:30 3:1 4:2 5:6 6:1 7:1 
-1 1:1 2:33 3:3 4:1 5:2 6:1 7:1 
-0.9983695905236416 1:1 2:51 3:1 4:6 5:21 6:2 7:1 
-1 1:2 2:25 3:1 4:4 5:2 6:1 7:1 
-0.7416279086641492 1:1 2:38 3:1 4:4 5:8 6:2 7:1 
-0.562529297671074 1:1 2:44 3:5 4:1 5:3 6:2 7:1 
-1 1:2 2:37 3:1 4:1 5:2 6:2 7:1 
-1 1:1 2:31 3:1 4:4 5:2 6:1 7:1 
-1 1:1 2:32 3:3 4:2 5:1 6:2 7:1 
-1 1:1 2:25 3:1 4:1 5:1 6:1 7:1 
-1 1:1 2:29 3:1 4:1 5:2 6:1 7:1 
-1 1:1 2:26 3:2 4:1 5:4 6:1 7:1 
-0.6439994067842594 1:1 2:28 3:2 4:4 5:8 6:1 7:1 
-1 1:1 2:30 3:3 4:1 5:5 6:1 7:1 
-0.3425364622103725 1:2 2:29 3:2 4:1 5:6 6:2 7:1 
-1 1:1 2:31 3:1 4:1 5:5 6:1 7:1 
-1 1:2 2:33 3:1 4:5 5:6 6:2 7:1 
-1 1:1 2:56 3:3 4:6 5:21 6:2 7:1 
-1 1:1 2:25 3:2 4:1 5:1 6:1 7:1 
-0.1323595717157781 1:1 2:27 3:1 4:2 5:5 6:1 7:1 
-1 1:1 2:40 3:1 4:3 5:6 6:2 7:5 
-0.8493681052996495 1:2 2:35 3:1 4:2 5:12 6:2 7:1 
-1 1:1 2:33 3:3 4:1 5:4 6:2 7:1 
-1 1:1 2:28 3:2 4:1 5:4 6:1 7:1 
-1 1:2 2:34 3:1 4:2 5:3 6:2 7:5 
-0.07912943046902771 1:1 2:33 3:1 4:1 5:9 6:1 7:1 
-1 1:1 2:52 3:1 4:6 5:4 6:2 7:1 
-1 1:1 2:29 3:1 4:1 5:5 6:1 7:1 
-1 1:1 2:28 3:1 4:1 5:2 6:1 7:1 
-1 1:1 2:35 3:1 4:1 5:4 6:1 7:1 
-1 1:1 2:33 3:1 4:1 5:4 6:2 7:1 
-1 1:1 2:29 3:1 4:1 5:2 6:1 7:1 
-1 1:1 2:26 3:2 4:1 5:2 6:1 7:1 
-1 1:1 2:35 3:1 4:1 5:5 6:1 7:1 
-0.5600253938623949 1:2 2:26 3:1 4:2 5:5 6:2 7:1 
-1 1:1 2:29 3:1 4:1 5:5 6:1 7:1 
-1 1:1 2:30 3:1 4:2 5:1 6:1 7:1 
-1 1:1 2:37 3:1 4:2 5:6 6:1 7:1 
-1 1:2 2:34 3:1 4:2 5:7 6:1 7:1 
-1 1:1 2:41 3:1 4:1 5:7 6:2 7:1 
-0.1478327106250845 1:1 2:29 3:2 4:2 5:6 6:2 7:1 
-1 1:1 2:27 3:1 4:2 5:4 6:1 7:1 
-1 1:1 2:31 3:1 4:5 5:4 6:2 7:1 
-1 1:1 2:29 3:3 4:2 5:2 6:1 7:1 
-0.8193920225729484 1:1 2:23 3:1 4:5 5:5 6:1 7:1 
-1 1:1 2:38 3:3 4:2 5:4 6:2 7:1 
-1 1:2 2:26 3:3 4:2 5:3 6:1 7:1 
-0.2360247615352096 1:1 2:37 3:3 4:2 5:4 6:2 7:1 
-1 1:1 2:30 3:3 4:2 5:1 6:1 7:1 
-1 1:1 2:36 3:3 4:1 5:2 6:2 7:1 
-1 1:1 2:31 3:3 4:5 5:4 6:1 7:1 
-1 1:1 2:38 3:3 4:2 5:12 6:2 7:1 
-1 1:1 2:24 3:5 4:2 5:2 6:1 7:1 
-0.4429541503303757 1:2 2:26 3:2 4:2 5:4 6:2 7:1 
-1 1:2 2:27 3:3 4:2 5:2 6:2 7:1 
-0.853938332908137 1:1 2:44 3:1 4:6 5:15 6:2 7:1 
-0.665613361788347 1:1 2:26 3:1 4:2 5:4 6:1 7:1 
-1 1:1 2:29 3:3 4:1 5:6 6:2 7:1 
-1 1:1 2:28 3:3 4:1 5:4 6:1 7:1 
-1 1:1 2:42 3:1 4:3 5:1 6:2 7:1 
-1 1:1 2:27 3:1 4:1 5:1 6:1 7:1 
-1 1:1 2:31 3:3 4:1 5:2 6:2 7:1 
-1 1:1 2:34 3:1 4:2 5:2 6:1 7:1 
-1 1:1 2:32 3:1 4:1 5:2 6:2 7:1 
-1 1:2 2:27 3:1 4:1 5:1 6:1 7:1 
-1 1:1 2:27 3:1 4:2 5:2 6:1 7:1 
-1 1:2 2:29 3:2 4:1 5:5 6:2 7:1 
-1 1:1 2:30 3:2 4:1 5:5 6:1 7:1 
-0.8195812245869079 1:2 2:23 3:2 4:1 5:1 6:1 7:1 
-0.6749227133353743 1:2 2:31 3:2 4:1 5:9 6:2 7:3 
-0.1232044241814534 1:1 2:25 3:2 4:1 5:3 6:1 7:1 
-1 1:1 2:29 3:4 4:2 5:6 6:1 7:1 
-1 1:1 2:28 3:2 4:1 5:5 6:1 7:1 
-1 1:1 2:30 3:1 4:1 5:4 6:2 7:1 
-1 1:1 2:25 3:2 4:1 5:1 6:1 7:1 
-0.8504573082488389 1:1 2:34 3:1 4:2 5:7 6:2 7:3 
-1 1:1 2:26 3:2 4:1 5:1 6:1 7:1 
-0.4500841837153606 1:1 2:35 3:3 4:2 5:4 6:2 7:1 
-1 1:1 2:27 3:1 4:1 5:4 6:1 7:1 
-1 1:1 2:34 3:1 4:1 5:8 6:1 7:1 
-1 1:1 2:24 3:2 4:1 5:1 6:1 7:1 
-1 1:2 2:26 3:2 4:1 5:3 6:1 7:1 
-1 1:1 2:26 3:3 4:1 5:2 6:1 7:1 
-1 1:1 2:23 3:1 4:2 5:1 6:1 7:1 
-1 1:1 2:35 3:1 4:1 5:4 6:2 7:1 
-1 1:1 2:31 3:1 4:1 5:2 6:2 7:1 
-1 1:1 2:25 3:2 4:1 5:2 6:1 7:1 
-1 1:1 2:25 3:2 4:1 5:1 6:1 7:1 
-1 1:1 2:37 3:1 4:1 5:6 6:2 7:1 
-0.3825421651099496 1:1 2:29 3:2 4:1 5:6 6:1 7:1 
-1 1:2 2:30 3:1 4:2 5:4 6:1 7:1 
-1 1:1 2:32 3:1 4:1 5:4 6:2 7:1 
-1 1:1 2:27 3:3 4:1 5:3 6:1 7:1 
-1 1:2 2:34 3:3 4:2 5:4 6:2 7:1 
-1 1:2 2:31 3:3 4:1 5:2 6:1 7:1 
-1 1:2 2:24 3:5 4:1 5:1 6:1 7:1 
-1 1:1 2:28 3:1 4:1 5:2 6:1 7:1 
-1 1:1 2:34 3:3 4:2 5:1 6:2 7:1 
-0.9746107599265356 1:1 2:21 3:2 4:2 5:1 6:1 7:1 
-1 1:1 2:34 3:1 4:2 5:7 6:1 7:1 
-1 1:1 2:30 3:1 4:1 5:3 6:1 7:4 
-0.3174591885759813 1:2 2:24 3:1 4:1 5:2 6:1 7:1 
-1 1:1 2:27 3:1 4:2 5:4 6:1 7:1 
-1 1:1 2:28 3:1 4:1 5:4 6:1 7:1 
-1 1:1 2:39 3:1 4:2 5:3 6:2 7:1 
-1 1:1 2:26 3:1 4:2 5:1 6:1 7:1 
-1 1:1 2:27 3:1 4:2 5:1 6:1 7:1 
-0.8928401340072687 1:1 2:47 3:1 4:6 5:17 6:2 7:1 
-0.1221570376247281 1:1 2:31 3:1 4:2 5:7 6:2 7:1 
-0.8190520352906723 1:1 2:38 3:1 4:5 5:5 6:2 7:1 
-1 1:1 2:33 3:3 4:1 5:7 6:2 7:1 
-1 1:1 2:28 3:4 4:1 5:2 6:1 7:1 
-1 1:1 2:29 3:4 4:1 5:2 6:1 7:1 
-1 1:1 2:28 3:1 4:1 5:2 6:2 7:1 
-1 1:1 2:34 3:3 4:1 5:9 6:1 7:1 
-1 1:1 2:26 3:1 4:2 5:2 6:1 7:1 
-1 1:1 2:30 3:1 4:1 5:5 6:1 7:1 
-1 1:1 2:30 3:1 4:1 5:5 6:1 7:1 
-1 1:1 2:27 3:1 4:1 5:1 6:1 7:1 
-1 1:1 2:26 3:1 4:1 5:1 6:1 7:1 
-1 1:1 2:34 3:1 4:1 5:6 6:2 7:5 
