svm_type c_svc
kernel_type rbf
gamma 0.142857
nr_class 2
total_sv 356
rho 0.303473
label 1 2
nr_sv 170 186
SV
1 1:1 2:32 3:2 4:1 5:7 6:1 7:1 
1 1:1 2:32 3:1 4:2 5:2 6:2 7:1 
1 1:2 2:25 3:1 4:5 5:0 6:1 7:1 
0.3955459222810938 1:1 2:34 3:1 4:1 5:1 6:1 7:4 
1 1:1 2:38 3:3 4:1 5:13 6:2 7:1 
1 1:2 2:40 3:3 4:2 5:13 6:2 7:1 
1 1:1 2:34 3:1 4:2 5:9 6:1 7:1 
1 1:1 2:28 3:4 4:1 5:3 6:1 7:1 
1 1:1 2:31 3:3 4:3 5:1 6:1 7:1 
1 1:1 2:41 3:1 4:2 5:7 6:2 7:1 
1 1:1 2:34 3:2 4:1 5:5 6:1 7:1 
0.6797825436028799 1:1 2:34 3:1 4:1 5:0 6:2 7:1 
1 1:2 2:28 3:1 4:1 5:2 6:1 7:1 
1 1:2 2:45 3:1 4:1 5:13 6:1 7:5 
0.7578962201776304 1:1 2:31 3:4 4:1 5:6 6:2 7:4 
1 1:1 2:30 3:3 4:5 5:2 6:1 7:1 
1 1:1 2:52 3:1 4:6 5:0 6:2 7:1 
0.8352143783627519 1:2 2:48 3:3 4:6 5:0 6:2 7:1 
1 1:2 2:28 3:5 4:2 5:3 6:2 7:1 
1 1:1 2:38 3:2 4:3 5:3 6:1 7:1 
1 1:1 2:22 3:1 4:1 5:1 6:1 7:1 
1 1:1 2:26 3:1 4:1 5:1 6:1 7:1 
1 1:1 2:24 3:4 4:1 5:1 6:1 7:1 
0.3777948323773447 1:1 2:37 3:1 4:3 5:0 6:2 7:1 
1 1:1 2:30 3:1 4:3 5:3 6:1 7:1 
1 1:1 2:39 3:1 4:1 5:1 6:2 7:4 
0.2685574682727839 1:1 2:38 3:1 4:1 5:2 6:1 7:3 
0.1453978830112297 1:1 2:34 3:2 4:1 5:3 6:1 7:4 
1 1:1 2:29 3:2 4:1 5:4 6:1 7:1 
0.8446596326014245 1:1 2:31 3:1 4:1 5:3 6:1 7:4 
1 1:1 2:37 3:4 4:3 5:0 6:2 7:1 
1 1:2 2:28 3:1 4:2 5:4 6:1 7:1 
0.04056355522700054 1:1 2:36 3:1 4:1 5:3 6:1 7:1 
1 1:1 2:40 3:1 4:1 5:2 6:1 7:1 
1 1:1 2:33 3:2 4:1 5:7 6:1 7:1 
1 1:1 2:33 3:2 4:1 5:3 6:1 7:1 
1 1:1 2:29 3:2 4:1 5:4 6:1 7:1 
1 1:1 2:33 3:2 4:1 5:6 6:2 7:1 
1 1:1 2:40 3:2 4:3 5:8 6:2 7:4 
1 1:1 2:29 3:1 4:5 5:2 6:2 7:1 
1 1:1 2:26 3:2 4:1 5:2 6:1 7:1 
1 1:2 2:29 3:6 4:1 5:5 6:1 7:1 
1 1:1 2:30 3:2 4:2 5:5 6:1 7:1 
1 1:1 2:32 3:1 4:2 5:2 6:2 7:1 
0.9039874747931833 1:1 2:37 3:3 4:5 5:2 6:2 7:1 
1 1:2 2:25 3:3 4:1 5:1 6:1 7:1 
1 1:2 2:26 3:2 4:2 5:2 6:1 7:1 
1 1:1 2:31 3:1 4:1 5:2 6:1 7:1 
1 1:1 2:35 3:4 4:1 5:1 6:1 7:1 
0.5997905509581488 1:1 2:31 3:1 4:1 5:1 6:2 7:1 
0.9801013220100288 1:1 2:26 3:4 4:1 5:1 6:1 7:1 
0.01017088693028408 1:1 2:37 3:3 4:3 5:1 6:1 7:1 
0.8077586855620765 1:1 2:29 3:1 4:1 5:1 6:1 7:1 
1 1:1 2:29 3:2 4:1 5:4 6:1 7:1 
1 1:2 2:28 3:4 4:1 5:3 6:1 7:1 
1 1:1 2:32 3:2 4:1 5:3 6:1 7:1 
1 1:1 2:35 3:1 4:1 5:2 6:2 7:1 
1 1:1 2:41 3:1 4:1 5:2 6:2 7:1 
1 1:1 2:29 3:1 4:1 5:1 6:2 7:1 
1 1:1 2:26 3:2 4:2 5:3 6:1 7:1 
1 1:1 2:38 3:1 4:1 5:4 6:1 7:1 
1 1:1 2:25 3:1 4:1 5:0 6:1 7:1 
1 1:1 2:24 3:1 4:1 5:0 6:1 7:1 
1 1:1 2:35 3:1 4:1 5:12 6:1 7:1 
1 1:1 2:28 3:2 4:1 5:3 6:1 7:1 
1 1:1 2:26 3:2 4:1 5:2 6:1 7:1 
1 1:2 2:25 3:1 4:2 5:1 6:2 7:1 
1 1:1 2:28 3:1 4:1 5:1 6:2 7:1 
1 1:1 2:27 3:1 4:2 5:4 6:2 7:1 
1 1:2 2:23 3:1 4:2 5:0 6:1 7:1 
1 1:1 2:31 3:1 4:1 5:3 6:1 7:5 
1 1:1 2:29 3:2 4:1 5:4 6:1 7:1 
1 1:1 2:27 3:1 4:2 5:2 6:1 7:1 
0.5053228826643935 1:1 2:30 3:2 4:1 5:6 6:1 7:4 
1 1:1 2:26 3:2 4:1 5:3 6:1 7:1 
1 1:2 2:27 3:2 4:2 5:2 6:1 7:1 
0.256878299907072 1:1 2:27 3:2 4:1 5:2 6:1 7:1 
0.3512980173172436 1:1 2:32 3:2 4:1 5:2 6:1 7:1 
0.6821391783274444 1:1 2:38 3:1 4:1 5:3 6:1 7:1 
1 1:1 2:31 3:1 4:1 5:4 6:2 7:1 
1 1:2 2:26 3:1 4:1 5:1 6:1 7:1 
0.3563520736113509 1:1 2:26 3:1 4:1 5:0 6:1 7:1 
1 1:1 2:26 3:1 4:1 5:0 6:1 7:1 
0.2835543723224581 1:1 2:29 3:1 4:2 5:1 6:1 7:4 
1 1:1 2:26 3:4 4:1 5:2 6:1 7:1 
1 1:1 2:27 3:1 4:1 5:2 6:1 7:1 
0.6881894467904917 1:1 2:34 3:1 4:2 5:2 6:1 7:1 
1 1:1 2:26 3:1 4:2 5:3 6:1 7:1 
1 1:1 2:26 3:1 4:2 5:5 6:1 7:1 
0.1058898185105194 1:1 2:30 3:4 4:1 5:2 6:1 7:1 
1 1:1 2:27 3:2 4:1 5:2 6:1 7:1 
1 1:2 2:31 3:3 4:2 5:5 6:2 7:1 
1 1:2 2:31 3:1 4:1 5:5 6:1 7:1 
1 1:1 2:26 3:2 4:1 5:1 6:1 7:1 
1 1:1 2:26 3:2 4:1 5:1 6:1 7:1 
1 1:2 2:30 3:3 4:2 5:6 6:2 7:1 
0.1469612944470673 1:2 2:30 3:1 4:1 5:2 6:1 7:4 
1 1:1 2:25 3:2 4:1 5:1 6:1 7:1 
1 1:1 2:34 3:1 4:4 5:1 6:2 7:1 
0.9865239901094528 1:1 2:31 3:3 4:1 5:3 6:2 7:2 
0.2390860447414765 1:1 2:26 3:1 4:2 5:0 6:1 7:1 
1 1:1 2:38 3:1 4:1 5:6 6:2 7:1 
1 1:1 2:28 3:1 4:2 5:6 6:2 7:1 
0.1200654323702781 1:1 2:27 3:2 4:2 5:2 6:1 7:1 
1 1:2 2:30 3:1 4:1 5:3 6:1 7:1 
1 1:1 2:30 3:4 4:1 5:2 6:2 7:1 
0.1996401505552216 1:1 2:29 3:1 4:1 5:0 6:1 7:1 
1 1:1 2:32 3:1 4:1 5:7 6:1 7:4 
1 1:1 2:30 3:2 4:1 5:5 6:1 7:1 
0.8132288916190241 1:1 2:31 3:3 4:2 5:1 6:1 7:1 
1 1:1 2:34 3:1 4:2 5:6 6:1 7:1 
1 1:1 2:35 3:1 4:1 5:3 6:1 7:1 
0.3485591992214132 1:1 2:31 3:1 4:1 5:2 6:1 7:1 
1 1:1 2:36 3:1 4:2 5:2 6:2 7:1 
1 1:1 2:34 3:1 4:1 5:3 6:1 7:5 
0.9377856082741222 1:1 2:30 3:6 4:1 5:1 6:1 7:1 
1 1:1 2:27 3:1 4:1 5:1 6:1 7:1 
0.3763071145380327 1:2 2:31 3:3 4:2 5:1 6:1 7:1 
0.392817745492834 1:2 2:31 3:3 4:1 5:0 6:1 7:1 
1 1:1 2:35 3:1 4:1 5:5 6:1 7:3 
0.1157603716816624 1:1 2:30 3:4 4:1 5:0 6:1 7:1 
1 1:1 2:32 3:2 4:1 5:7 6:1 7:1 
1 1:1 2:29 3:1 4:1 5:4 6:1 7:1 
1 1:1 2:27 3:1 4:2 5:2 6:1 7:1 
0.9356391640471381 1:1 2:29 3:1 4:2 5:3 6:1 7:4 
1 1:1 2:30 3:1 4:1 5:2 6:1 7:1 
0.9943553346583219 1:1 2:27 3:2 4:2 5:2 6:1 7:1 
1 1:1 2:27 3:1 4:5 5:2 6:1 7:1 
1 1:1 2:41 3:1 4:4 5:1 6:2 7:1 
1 1:1 2:26 3:2 4:2 5:3 6:1 7:1 
1 1:1 2:25 3:4 4:1 5:1 6:1 7:1 
0.5978752313835624 1:1 2:29 3:4 4:1 5:1 6:1 7:1 
1 1:1 2:30 3:2 4:2 5:4 6:1 7:1 
0.4179018476716282 1:1 2:29 3:1 4:3 5:0 6:1 7:1 
0.8257106715554146 1:1 2:30 3:4 4:1 5:0 6:1 7:4 
1 1:1 2:30 3:1 4:1 5:4 6:2 7:1 
1 1:1 2:34 3:2 4:1 5:2 6:1 7:1 
1 1:2 2:34 3:2 4:3 5:6 6:1 7:3 
0.04462290863238689 1:2 2:29 3:1 4:1 5:0 6:1 7:1 
1 1:1 2:29 3:2 4:1 5:4 6:1 7:1 
1 1:1 2:29 3:1 4:1 5:1 6:1 7:1 
0.9116699849336343 1:1 2:38 3:1 4:1 5:3 6:1 7:1 
1 1:2 2:32 3:1 4:1 5:6 6:1 7:1 
1 1:1 2:32 3:4 4:1 5:0 6:2 7:1 
1 1:1 2:33 3:2 4:2 5:6 6:1 7:2 
1 1:1 2:27 3:1 4:2 5:3 6:1 7:1 
1 1:1 2:44 3:2 4:1 5:19 6:2 7:1 
0.7547063347247611 1:2 2:33 3:1 4:2 5:0 6:2 7:1 
1 1:2 2:35 3:1 4:1 5:3 6:1 7:1 
1 1:2 2:26 3:1 4:1 5:2 6:1 7:5 
1 1:1 2:30 3:1 4:4 5:2 6:1 7:1 
1 1:1 2:30 3:3 4:2 5:1 6:2 7:1 
1 1:2 2:42 3:1 4:1 5:6 6:2 7:5 
1 1:2 2:43 3:3 4:2 5:0 6:2 7:1 
1 1:2 2:24 3:1 4:4 5:1 6:1 7:1 
0.4360023333224992 1:2 2:25 3:1 4:2 5:0 6:1 7:1 
0.2878221333468883 1:2 2:38 3:3 4:4 5:0 6:2 7:1 
1 1:2 2:29 3:1 4:2 5:4 6:1 7:1 
1 1:2 2:38 3:2 4:2 5:13 6:2 7:2 
1 1:2 2:31 3:1 4:2 5:2 6:2 7:1 
1 1:2 2:37 3:1 4:2 5:10 6:2 7:1 
0.5444203970864236 1:2 2:20 3:1 4:4 5:1 6:1 7:1 
1 1:1 2:44 3:2 4:1 5:22 6:2 7:4 
1 1:1 2:59 3:1 4:5 5:3 6:2 7:1 
1 1:2 2:51 3:3 4:2 5:22 6:2 7:1 
0.9884479471481833 1:2 2:20 3:1 4:4 5:1 6:1 7:1 
0.9342406316265439 1:2 2:48 3:1 4:6 5:0 6:2 7:1 
1 1:2 2:37 3:3 4:1 5:10 6:2 7:1 
1 1:1 2:43 3:2 4:1 5:19 6:2 7:1 
1 1:1 2:29 3:2 4:2 5:6 6:1 7:2 
-1 1:2 2:30 3:1 4:1 5:2 6:2 7:1 
-1 1:1 2:34 3:1 4:2 5:1 6:2 7:1 
-0.7156205019033484 1:1 2:37 3:1 4:2 5:9 6:1 7:1 
-0.4968230204610003 1:1 2:30 3:2 4:1 5:7 6:1 7:1 
-0.3764628836947492 1:1 2:32 3:1 4:2 5:8 6:1 7:1 
-1 1:1 2:33 3:3 4:1 5:2 6:1 7:1 
-0.5549449306704142 1:1 2:51 3:1 4:6 5:21 6:2 7:1 
-1 1:2 2:25 3:1 4:4 5:2 6:1 7:1 
-0.3603630688512036 1:1 2:38 3:1 4:4 5:8 6:2 7:1 
-0.7342349394536606 1:1 2:37 3:1 4:2 5:12 6:2 7:1 
-0.5292171190816493 1:1 2:44 3:5 4:1 5:3 6:2 7:1 
-1 1:2 2:37 3:1 4:1 5:2 6:2 7:1 
-1 1:1 2:31 3:1 4:4 5:2 6:1 7:1 
-1 1:1 2:32 3:3 4:2 5:1 6:2 7:1 
-1 1:1 2:25 3:1 4:1 5:1 6:1 7:1 
-1 1:1 2:29 3:1 4:1 5:2 6:1 7:1 
-0.2952090409766812 1:1 2:26 3:2 4:1 5:4 6:1 7:1 
-0.4974451242318477 1:1 2:28 3:2 4:4 5:8 6:1 7:1 
-1 1:1 2:30 3:3 4:1 5:5 6:1 7:1 
-0.007204551207655436 1:2 2:29 3:2 4:1 5:6 6:2 7:1 
-1 1:1 2:31 3:1 4:1 5:5 6:1 7:1 
-0.2171397495699578 1:2 2:33 3:1 4:5 5:6 6:2 7:1 
-0.5688923076891348 1:1 2:56 3:3 4:6 5:21 6:2 7:1 
-1 1:1 2:25 3:2 4:1 5:1 6:1 7:1 
-1 1:1 2:40 3:1 4:3 5:6 6:2 7:5 
-0.4596774566035678 1:2 2:35 3:1 4:2 5:12 6:2 7:1 
-1 1:1 2:33 3:3 4:1 5:4 6:2 7:1 
-1 1:1 2:28 3:2 4:1 5:4 6:1 7:1 
-1 1:2 2:34 3:1 4:2 5:3 6:2 7:5 
-0.2533972610566303 1:1 2:33 3:1 4:1 5:9 6:1 7:1 
-0.4050306775218501 1:1 2:52 3:1 4:6 5:4 6:2 7:1 
-0.2889020267661012 1:1 2:29 3:1 4:1 5:5 6:1 7:1 
-1 1:1 2:28 3:1 4:1 5:2 6:1 7:1 
-1 1:1 2:35 3:1 4:1 5:4 6:1 7:1 
-1 1:1 2:33 3:1 4:1 5:4 6:2 7:1 
-1 1:1 2:29 3:1 4:1 5:2 6:1 7:1 
-1 1:1 2:26 3:2 4:1 5:2 6:1 7:1 
-1 1:1 2:35 3:1 4:1 5:5 6:1 7:1 
-0.9845481648344876 1:1 2:29 3:1 4:1 5:5 6:1 7:1 
-1 1:1 2:30 3:1 4:2 5:1 6:1 7:1 
-0.2049514074691822 1:1 2:37 3:1 4:2 5:6 6:1 7:1 
-0.7392078192550882 1:2 2:34 3:1 4:2 5:7 6:1 7:1 
-0.9472783694219817 1:1 2:41 3:1 4:1 5:7 6:2 7:1 
-0.8852413351364784 1:1 2:29 3:2 4:2 5:6 6:2 7:1 
-1 1:1 2:27 3:1 4:2 5:4 6:1 7:1 
-1 1:1 2:29 3:3 4:2 5:2 6:1 7:1 
-0.4771836166780437 1:1 2:23 3:1 4:5 5:5 6:1 7:1 
-0.944878576506744 1:1 2:38 3:3 4:2 5:4 6:2 7:1 
-1 1:2 2:26 3:3 4:2 5:3 6:1 7:1 
-1 1:1 2:30 3:3 4:2 5:1 6:1 7:1 
-1 1:1 2:36 3:3 4:1 5:2 6:2 7:1 
-1 1:1 2:31 3:3 4:5 5:4 6:1 7:1 
-1 1:1 2:38 3:3 4:2 5:12 6:2 7:1 
-0.2264128187350768 1:1 2:24 3:5 4:2 5:2 6:1 7:1 
-1 1:2 2:27 3:3 4:2 5:2 6:2 7:1 
-0.585810160576536 1:1 2:44 3:1 4:6 5:15 6:2 7:1 
-1 1:1 2:26 3:1 4:2 5:4 6:1 7:1 
-0.7653293026970515 1:1 2:29 3:3 4:1 5:6 6:2 7:1 
-1 1:1 2:28 3:3 4:1 5:4 6:1 7:1 
-1 1:1 2:42 3:1 4:3 5:1 6:2 7:1 
-1 1:1 2:27 3:1 4:1 5:1 6:1 7:1 
-1 1:1 2:31 3:3 4:1 5:2 6:2 7:1 
-1 1:1 2:34 3:1 4:2 5:2 6:1 7:1 
-1 1:1 2:32 3:1 4:1 5:2 6:2 7:1 
-1 1:2 2:27 3:1 4:1 5:1 6:1 7:1 
-1 1:1 2:27 3:1 4:2 5:2 6:1 7:1 
-1 1:2 2:29 3:2 4:1 5:5 6:2 7:1 
-1 1:1 2:30 3:2 4:1 5:5 6:1 7:1 
-0.2641937688491431 1:2 2:23 3:2 4:1 5:1 6:1 7:1 
-0.8846500409095479 1:2 2:31 3:2 4:1 5:9 6:2 7:3 
-1 1:1 2:29 3:4 4:2 5:6 6:1 7:1 
-0.2642940481711393 1:1 2:28 3:2 4:1 5:5 6:1 7:1 
-1 1:1 2:30 3:1 4:1 5:4 6:2 7:1 
-1 1:1 2:25 3:2 4:1 5:1 6:1 7:1 
-1 1:1 2:34 3:1 4:2 5:7 6:2 7:3 
-1 1:1 2:26 3:2 4:1 5:1 6:1 7:1 
-1 1:1 2:27 3:1 4:1 5:4 6:1 7:1 
-0.6468670026528469 1:1 2:34 3:1 4:1 5:8 6:1 7:1 
-0.02945267867715952 1:1 2:24 3:2 4:1 5:1 6:1 7:1 
-1 1:2 2:26 3:2 4:1 5:3 6:1 7:1 
-1 1:1 2:26 3:3 4:1 5:2 6:1 7:1 
-1 1:1 2:23 3:1 4:2 5:1 6:1 7:1 
-1 1:1 2:35 3:1 4:1 5:4 6:2 7:1 
-1 1:1 2:31 3:1 4:1 5:2 6:2 7:1 
-1 1:1 2:25 3:2 4:1 5:2 6:1 7:1 
-1 1:1 2:25 3:2 4:1 5:1 6:1 7:1 
-0.6389706927291764 1:1 2:37 3:1 4:1 5:6 6:2 7:1 
-1 1:2 2:30 3:1 4:2 5:4 6:1 7:1 
-1 1:1 2:32 3:1 4:1 5:4 6:2 7:1 
-0.07824299532965052 1:2 2:29 3:1 4:2 5:6 6:1 7:1 
-1 1:1 2:27 3:3 4:1 5:3 6:1 7:1 
-0.4214300768982103 1:2 2:34 3:3 4:2 5:4 6:2 7:1 
-1 1:2 2:31 3:3 4:1 5:2 6:1 7:1 
-1 1:2 2:24 3:5 4:1 5:1 6:1 7:1 
-1 1:1 2:28 3:1 4:1 5:2 6:1 7:1 
-1 1:1 2:34 3:3 4:2 5:1 6:2 7:1 
-1 1:1 2:21 3:2 4:2 5:1 6:1 7:1 
-0.8310485143369724 1:1 2:34 3:1 4:2 5:7 6:1 7:1 
-1 1:1 2:30 3:1 4:1 5:3 6:1 7:4 
-0.005063994798789107 1:2 2:33 3:1 4:1 5:9 6:1 7:1 
-1 1:1 2:27 3:1 4:2 5:4 6:1 7:1 
-1 1:1 2:28 3:1 4:1 5:4 6:1 7:1 
-1 1:1 2:39 3:1 4:2 5:3 6:2 7:1 
-1 1:1 2:26 3:1 4:2 5:1 6:1 7:1 
-1 1:1 2:27 3:1 4:2 5:1 6:1 7:1 
-0.5475225241724423 1:1 2:47 3:1 4:6 5:17 6:2 7:1 
-0.02811926966179584 1:1 2:31 3:1 4:2 5:7 6:2 7:1 
-0.7090327108296549 1:1 2:38 3:1 4:5 5:5 6:2 7:1 
-1 1:1 2:33 3:3 4:1 5:7 6:2 7:1 
-1 1:1 2:28 3:4 4:1 5:2 6:1 7:1 
-1 1:1 2:29 3:4 4:1 5:2 6:1 7:1 
-1 1:1 2:28 3:1 4:1 5:2 6:2 7:1 
-0.5427768429874386 1:1 2:34 3:3 4:1 5:9 6:1 7:1 
-1 1:1 2:26 3:1 4:2 5:2 6:1 7:1 
-1 1:1 2:30 3:1 4:1 5:5 6:1 7:1 
-1 1:1 2:30 3:1 4:1 5:5 6:1 7:1 
-1 1:1 2:27 3:1 4:1 5:1 6:1 7:1 
-1 1:1 2:26 3:1 4:1 5:1 6:1 7:1 
-1 1:1 2:34 3:1 4:1 5:6 6:2 7:5 
-1 1:1 2:31 3:1 4:2 5:3 6:1 7:4 
-1 1:1 2:25 3:5 4:2 5:2 6:1 7:1 
-1 1:1 2:31 3:1 4:2 5:4 6:1 7:2 
-0.251744679263007 1:2 2:30 3:1 4:2 5:7 6:2 7:1 
-0.1303927578342715 1:1 2:31 3:1 4:5 5:7 6:1 7:1 
-0.5642306369078298 1:1 2:54 3:1 4:6 5:16 6:2 7:1 
-1 1:2 2:27 3:3 4:2 5:4 6:1 7:1 
-1 1:1 2:28 3:1 4:1 5:1 6:1 7:1 
-1 1:1 2:30 3:4 4:1 5:1 6:2 7:1 
-1 1:1 2:40 3:1 4:2 5:9 6:2 7:4 
-1 1:1 2:25 3:1 4:1 5:1 6:1 7:1 
-1 1:2 2:35 3:1 4:3 5:4 6:1 7:1 
-1 1:2 2:28 3:1 4:2 5:4 6:1 7:1 
-0.7624252997591905 1:1 2:42 3:1 4:2 5:7 6:2 7:1 
-1 1:1 2:31 3:1 4:4 5:2 6:1 7:1 
-1 1:1 2:30 3:1 4:1 5:3 6:1 7:1 
-1 1:1 2:30 3:1 4:4 5:3 6:1 7:1 
-1 1:1 2:27 3:1 4:4 5:4 6:2 7:1 
-1 1:1 2:26 3:3 4:2 5:2 6:1 7:1 
-1 1:1 2:32 3:2 4:2 5:8 6:1 7:1 
-0.3011102942983302 1:1 2:45 3:1 4:6 5:6 6:2 7:1 
-0.1366129152625627 1:1 2:34 3:1 4:1 5:10 6:2 7:1 
-1 1:2 2:33 3:3 4:1 5:6 6:1 7:1 
-1 1:2 2:24 3:2 4:1 5:1 6:1 7:1 
-1 1:1 2:38 3:3 4:1 5:2 6:2 7:1 
-1 1:1 2:24 3:2 4:1 5:1 6:1 7:1 
-1 1:1 2:31 3:1 4:1 5:1 6:1 7:1 
-1 1:1 2:41 3:1 4:2 5:2 6:2 7:1 
-0.6338591804230548 1:2 2:47 3:1 4:2 5:8 6:2 7:1 
-0.4719224429766137 1:2 2:45 3:1 4:6 5:8 6:2 7:1 
-0.2986173809160377 1:2 2:24 3:1 4:4 5:2 6:1 7:1 
-0.5780204862365189 1:1 2:57 3:1 4:5 5:15 6:2 7:1 
-0.5952380471110009 1:1 2:40 3:2 4:3 5:17 6:2 7:4 
-1 1:1 2:34 3:3 4:2 5:1 6:2 7:1 
-0.3627219227437097 1:1 2:35 3:1 4:4 5:10 6:2 7:1 
-0.8949707666482368 1:2 2:33 3:1 4:5 5:2 6:2 7:1 
-0.2521880001140737 1:1 2:48 3:1 4:6 5:5 6:2 7:1 
-1 1:2 2:38 3:1 4:1 5:5 6:2 7:3 
-0.6812281890631156 1:2 2:49 3:1 4:2 5:22 6:2 7:5 
-1 1:2 2:39 3:1 4:1 5:2 6:1 7:1 
-0.903978485628994 1:2 2:47 3:3 4:1 5:14 6:2 7:4 
-0.5474918529369132 1:1 2:40 3:1 4:1 5:10 6:2 7:1 
-1 1:1 2:32 3:1 4:2 5:6 6:1 7:1 
-1 1:1 2:30 3:3 4:2 5:2 6:2 7:1 
-1 1:1 2:31 3:1 4:2 5:4 6:1 7:1 
-1 1:2 2:43 3:3 4:2 5:1 6:2 7:1 
-0.9362403989035982 1:1 2:42 3:3 4:3 5:18 6:2 7:1 
-0.3249979850081998 1:2 2:47 3:1 4:5 5:23 6:2 7:1 
-1 1:1 2:45 3:1 4:2 5:20 6:2 7:1 
-0.1424674876552782 1:1 2:46 3:1 4:5 5:20 6:2 7:1 
-0.5413187324467694 1:1 2:54 3:1 4:5 5:5 6:2 7:1 
-0.4726244899939351 1:1 2:54 3:1 4:5 5:22 6:2 7:1 
-0.337831019458054 1:1 2:48 3:1 4:5 5:23 6:2 7:1 
-1 1:2 2:25 3:1 4:4 5:2 6:1 7:1 
-0.8573972175145141 1:2 2:49 3:1 4:5 5:3 6:2 7:1 
-1 1:2 2:27 3:1 4:4 5:2 6:2 7:1 
-0.06109718226012455 1:1 2:36 3:1 4:2 5:11 6:2 7:1 
-0.05867734775377905 1:2 2:36 3:1 4:1 5:8 6:2 7:1 
-0.4103661819182227 1:2 2:44 3:3 4:4 5:4 6:2 7:1 
-1 1:1 2:37 3:2 4:1 5:12 6:2 7:1 
-1 1:1 2:45 3:2 4:1 5:23 6:1 7:4 
-0.6852111998545451 1:1 2:43 3:2 4:3 5:20 6:2 7:3 
-0.7566234508263725 1:2 2:37 3:1 4:4 5:15 6:2 7:1 
-0.6962762840633506 1:1 2:61 3:3 4:2 5:32 6:2 7:1 
-0.5141229251305326 1:2 2:34 3:1 4:2 5:12 6:2 7:1 
-0.005482332089170353 1:1 2:54 3:1 4:6 5:22 6:2 7:1 
-0.6464372437528088 1:2 2:44 3:2 4:2 5:21 6:1 7:1 
