svm_type c_svc
kernel_type rbf
gamma 0.142857
nr_class 2
total_sv 378
rho 0.244536
label 1 2
nr_sv 186 192
SV
1 1:1 2:30 3:2 4:1 5:6 6:1 7:4 
1 1:1 2:26 3:2 4:1 5:3 6:1 7:1 
0.3333266730161879 1:1 2:30 3:6 4:1 5:2 6:1 7:1 
0.3339245656321048 1:1 2:30 3:2 4:2 5:3 6:1 7:1 
1 1:2 2:27 3:2 4:2 5:2 6:1 7:1 
1 1:1 2:32 3:2 4:1 5:2 6:1 7:1 
1 1:1 2:38 3:1 4:1 5:3 6:1 7:1 
0.7996025275579441 1:1 2:32 3:1 4:1 5:2 6:1 7:3 
1 1:1 2:31 3:1 4:1 5:4 6:2 7:1 
1 1:2 2:26 3:1 4:1 5:1 6:1 7:1 
0.605037901027452 1:1 2:26 3:1 4:1 5:0 6:1 7:1 
1 1:1 2:29 3:2 4:1 5:4 6:1 7:4 
1 1:1 2:26 3:4 4:1 5:2 6:1 7:1 
1 1:1 2:27 3:1 4:1 5:2 6:1 7:1 
0.3067390977349801 1:1 2:34 3:1 4:2 5:2 6:1 7:1 
1 1:1 2:26 3:1 4:2 5:3 6:1 7:1 
1 1:1 2:26 3:1 4:2 5:5 6:1 7:1 
0.3267379439042656 1:1 2:30 3:4 4:1 5:2 6:1 7:1 
1 1:2 2:31 3:3 4:2 5:5 6:2 7:1 
1 1:2 2:31 3:1 4:1 5:5 6:1 7:1 
1 1:1 2:26 3:2 4:1 5:1 6:1 7:1 
1 1:2 2:30 3:3 4:2 5:6 6:2 7:1 
1 1:2 2:30 3:1 4:1 5:2 6:1 7:4 
1 1:1 2:25 3:2 4:1 5:1 6:1 7:1 
1 1:1 2:34 3:1 4:4 5:1 6:2 7:1 
1 1:1 2:31 3:3 4:1 5:3 6:2 7:2 
1 1:1 2:26 3:1 4:2 5:0 6:1 7:1 
0.694919356485732 1:1 2:30 3:1 4:1 5:0 6:2 7:1 
1 1:1 2:38 3:1 4:1 5:6 6:2 7:1 
1 1:1 2:28 3:1 4:2 5:6 6:2 7:1 
0.322481471649135 1:1 2:27 3:2 4:2 5:2 6:1 7:1 
1 1:2 2:30 3:1 4:1 5:3 6:1 7:1 
1 1:1 2:28 3:1 4:1 5:1 6:1 7:1 
1 1:1 2:30 3:4 4:1 5:2 6:2 7:1 
1 1:1 2:32 3:1 4:1 5:7 6:1 7:4 
0.9651832819946141 1:2 2:28 3:1 4:2 5:2 6:1 7:1 
1 1:1 2:30 3:2 4:1 5:5 6:1 7:1 
1 1:1 2:30 3:1 4:1 5:0 6:2 7:1 
0.254843740646892 1:1 2:31 3:3 4:2 5:1 6:1 7:1 
1 1:1 2:34 3:1 4:2 5:6 6:1 7:1 
0.5012482607244055 1:1 2:36 3:1 4:2 5:2 6:2 7:1 
0.5127087598800929 1:1 2:34 3:1 4:1 5:3 6:1 7:5 
0.517430887062977 1:1 2:30 3:6 4:1 5:1 6:1 7:1 
1 1:1 2:27 3:1 4:1 5:1 6:1 7:1 
0.5689506594769483 1:2 2:31 3:3 4:2 5:1 6:1 7:1 
0.291137391172861 1:2 2:31 3:3 4:1 5:0 6:1 7:1 
1 1:1 2:35 3:1 4:1 5:5 6:1 7:3 
0.3869385369736599 1:1 2:30 3:4 4:1 5:0 6:1 7:1 
1 1:1 2:32 3:2 4:1 5:7 6:1 7:1 
1 1:1 2:29 3:1 4:1 5:4 6:1 7:1 
1 1:1 2:27 3:1 4:2 5:2 6:1 7:1 
1 1:1 2:29 3:1 4:2 5:3 6:1 7:4 
0.9605530218399363 1:1 2:27 3:2 4:2 5:2 6:1 7:1 
1 1:1 2:27 3:1 4:5 5:2 6:1 7:1 
1 1:1 2:41 3:1 4:4 5:1 6:2 7:1 
1 1:1 2:26 3:2 4:2 5:3 6:1 7:1 
0.9764350044842105 1:1 2:28 3:4 4:1 5:2 6:1 7:1 
1 1:1 2:25 3:4 4:1 5:1 6:1 7:1 
1 1:1 2:30 3:1 4:3 5:1 6:2 7:1 
0.9250255483819732 1:1 2:29 3:4 4:1 5:1 6:1 7:1 
1 1:1 2:30 3:2 4:2 5:4 6:1 7:1 
0.5133908269311578 1:1 2:29 3:1 4:3 5:0 6:1 7:1 
0.7796716856728558 1:1 2:29 3:2 4:1 5:3 6:1 7:1 
1 1:1 2:30 3:4 4:1 5:0 6:1 7:4 
0.1315856171262836 1:1 2:30 3:1 4:1 5:2 6:1 7:2 
1 1:1 2:30 3:1 4:1 5:4 6:2 7:1 
1 1:2 2:34 3:2 4:3 5:6 6:1 7:3 
1 1:1 2:29 3:4 4:1 5:3 6:1 7:1 
1 1:1 2:29 3:2 4:1 5:4 6:1 7:1 
0.1874638045519037 1:1 2:29 3:1 4:1 5:1 6:1 7:1 
0.6455585478707182 1:1 2:38 3:1 4:1 5:3 6:1 7:1 
1 1:2 2:32 3:1 4:1 5:6 6:1 7:1 
1 1:1 2:32 3:4 4:1 5:0 6:2 7:1 
1 1:1 2:33 3:2 4:2 5:6 6:1 7:2 
1 1:1 2:27 3:1 4:2 5:3 6:1 7:1 
1 1:1 2:44 3:2 4:1 5:19 6:2 7:1 
0.4772241320571483 1:2 2:33 3:1 4:2 5:0 6:2 7:1 
0.2806741382861181 1:2 2:35 3:1 4:1 5:3 6:1 7:1 
1 1:2 2:26 3:1 4:1 5:2 6:1 7:5 
1 1:1 2:30 3:1 4:4 5:2 6:1 7:1 
1 1:1 2:30 3:3 4:2 5:1 6:2 7:1 
1 1:2 2:42 3:1 4:1 5:6 6:2 7:5 
1 1:2 2:43 3:3 4:2 5:0 6:2 7:1 
1 1:2 2:24 3:1 4:4 5:1 6:1 7:1 
1 1:2 2:25 3:1 4:2 5:0 6:1 7:1 
0.8472241319898338 1:2 2:38 3:3 4:4 5:0 6:2 7:1 
1 1:2 2:29 3:1 4:2 5:4 6:1 7:1 
1 1:2 2:38 3:2 4:2 5:13 6:2 7:2 
1 1:2 2:31 3:1 4:2 5:2 6:2 7:1 
1 1:2 2:37 3:1 4:2 5:10 6:2 7:1 
0.628080788509307 1:2 2:20 3:1 4:4 5:1 6:1 7:1 
1 1:1 2:44 3:2 4:1 5:22 6:2 7:4 
1 1:1 2:59 3:1 4:5 5:3 6:2 7:1 
1 1:2 2:51 3:3 4:2 5:22 6:2 7:1 
0.9966765316877635 1:2 2:20 3:1 4:4 5:1 6:1 7:1 
1 1:2 2:48 3:1 4:6 5:0 6:2 7:1 
0.4264597052358062 1:2 2:37 3:3 4:1 5:10 6:2 7:1 
1 1:1 2:43 3:2 4:1 5:19 6:2 7:1 
1 1:1 2:29 3:2 4:2 5:6 6:1 7:2 
0.3197223328346418 1:1 2:36 3:1 4:3 5:1 6:2 7:1 
0.8383606834374543 1:1 2:43 3:1 4:1 5:0 6:1 7:1 
1 1:1 2:26 3:1 4:1 5:1 6:1 7:1 
1 1:1 2:26 3:4 4:1 5:2 6:1 7:1 
0.1028453286163193 1:1 2:33 3:1 4:1 5:3 6:2 7:2 
0.9136921921139254 1:1 2:36 3:3 4:1 5:3 6:2 7:4 
0.8934781438925012 1:1 2:26 3:2 4:1 5:1 6:1 7:1 
1 1:1 2:26 3:2 4:1 5:2 6:1 7:1 
1 1:1 2:31 3:2 4:1 5:6 6:1 7:1 
0.2156624243731858 1:1 2:32 3:1 4:1 5:0 6:1 7:1 
0.2266229411869962 1:1 2:29 3:2 4:2 5:3 6:1 7:1 
1 1:1 2:31 3:1 4:2 5:2 6:1 7:1 
1 1:1 2:38 3:1 4:1 5:3 6:1 7:5 
1 1:1 2:33 3:2 4:1 5:6 6:2 7:1 
1 1:1 2:31 3:1 4:1 5:3 6:1 7:1 
0.8409255087853598 1:1 2:34 3:3 4:1 5:1 6:1 7:1 
0.810562562478705 1:1 2:33 3:1 4:1 5:2 6:2 7:1 
1 1:1 2:25 3:2 4:1 5:1 6:1 7:1 
1 1:1 2:41 3:1 4:2 5:2 6:1 7:1 
0.3857535217850839 1:1 2:29 3:1 4:1 5:0 6:1 7:4 
0.8653970570355274 1:1 2:40 3:1 4:1 5:0 6:2 7:1 
1 1:1 2:33 3:2 4:1 5:7 6:1 7:1 
1 1:1 2:28 3:4 4:1 5:3 6:1 7:1 
0.5967099789066392 1:1 2:33 3:1 4:1 5:1 6:1 7:5 
0.8354055815748448 1:2 2:34 3:3 4:2 5:1 6:2 7:4 
1 1:1 2:38 3:2 4:1 5:9 6:2 7:1 
1 1:1 2:37 3:2 4:1 5:10 6:2 7:1 
1 1:1 2:31 3:1 4:2 5:2 6:1 7:1 
1 1:1 2:38 3:1 4:1 5:8 6:2 7:1 
0.3978259614319397 1:2 2:29 3:2 4:2 5:1 6:1 7:5 
1 1:1 2:48 3:1 4:1 5:1 6:2 7:1 
0.07491479148425077 1:1 2:35 3:1 4:2 5:0 6:1 7:1 
1 1:1 2:46 3:2 4:1 5:19 6:2 7:4 
1 1:2 2:26 3:2 4:2 5:1 6:1 7:2 
1 1:2 2:61 3:2 4:1 5:40 6:2 7:4 
1 1:2 2:37 3:3 4:1 5:4 6:2 7:1 
1 1:2 2:25 3:5 4:4 5:3 6:1 7:1 
1 1:1 2:43 3:2 4:1 5:19 6:2 7:3 
1 1:1 2:38 3:6 4:1 5:7 6:2 7:3 
1 1:1 2:42 3:1 4:1 5:5 6:2 7:1 
1 1:1 2:27 3:1 4:2 5:3 6:1 7:1 
1 1:1 2:27 3:2 4:1 5:3 6:1 7:4 
0.7580662823145968 1:1 2:41 3:1 4:1 5:4 6:2 7:1 
1 1:1 2:28 3:2 4:1 5:3 6:1 7:1 
1 1:1 2:29 3:2 4:1 5:4 6:1 7:1 
1 1:1 2:44 3:3 4:1 5:3 6:2 7:4 
0.564024205564449 1:1 2:37 3:1 4:1 5:3 6:2 7:1 
1 1:1 2:35 3:5 4:1 5:3 6:2 7:1 
0.5205803717719221 1:1 2:42 3:1 4:1 5:3 6:2 7:1 
1 1:1 2:32 3:1 4:1 5:2 6:2 7:1 
1 1:2 2:36 3:3 4:2 5:2 6:2 7:1 
1 1:2 2:45 3:2 4:1 5:21 6:2 7:3 
1 1:1 2:54 3:5 4:3 5:8 6:2 7:1 
1 1:2 2:56 3:3 4:2 5:20 6:2 7:1 
0.6923984862955037 1:2 2:38 3:1 4:2 5:0 6:2 7:1 
1 1:1 2:47 3:3 4:1 5:13 6:2 7:1 
1 1:2 2:37 3:1 4:2 5:5 6:2 7:1 
1 1:1 2:26 3:2 4:1 5:2 6:1 7:1 
1 1:1 2:27 3:2 4:1 5:2 6:1 7:1 
1 1:2 2:32 3:1 4:1 5:5 6:2 7:1 
1 1:1 2:26 3:5 4:2 5:2 6:1 7:1 
1 1:1 2:28 3:1 4:2 5:3 6:1 7:1 
1 1:1 2:33 3:1 4:2 5:5 6:1 7:1 
1 1:1 2:33 3:5 4:2 5:2 6:2 7:1 
1 1:1 2:32 3:1 4:2 5:8 6:2 7:1 
1 1:2 2:32 3:5 4:4 5:2 6:2 7:1 
1 1:1 2:38 3:1 4:2 5:14 6:2 7:1 
1 1:1 2:30 3:1 4:2 5:6 6:2 7:1 
1 1:1 2:31 3:1 4:4 5:1 6:2 7:1 
0.1373577665700516 1:1 2:32 3:3 4:1 5:5 6:1 7:1 
1 1:1 2:24 3:2 4:1 5:1 6:1 7:1 
1 1:1 2:28 3:1 4:1 5:3 6:1 7:1 
1 1:1 2:37 3:2 4:1 5:12 6:1 7:1 
0.248173650911086 1:1 2:31 3:4 4:1 5:0 6:1 7:1 
0.8551624443006756 1:1 2:30 3:1 4:1 5:2 6:1 7:1 
1 1:1 2:25 3:2 4:1 5:0 6:1 7:1 
1 1:1 2:35 3:2 4:1 5:5 6:1 7:1 
0.3322091271452403 1:1 2:28 3:1 4:1 5:1 6:1 7:1 
1 1:1 2:33 3:2 4:1 5:8 6:2 7:1 
1 1:1 2:39 3:1 4:1 5:5 6:1 7:1 
0.8424384693596462 1:1 2:34 3:3 4:1 5:1 6:1 7:1 
1 1:1 2:36 3:2 4:2 5:6 6:2 7:1 
1 1:1 2:29 3:1 4:1 5:2 6:1 7:1 
1 1:1 2:27 3:2 4:1 5:2 6:1 7:1 
1 1:1 2:34 3:1 4:1 5:5 6:1 7:1 
0.2399259759161101 1:1 2:28 3:2 4:1 5:2 6:1 7:5 
0.8891940109056361 1:1 2:27 3:2 4:1 5:2 6:1 7:1 
-1 1:2 2:29 3:2 4:1 5:5 6:2 7:1 
-1 1:1 2:30 3:2 4:1 5:5 6:1 7:1 
-0.6931112487352553 1:2 2:31 3:2 4:1 5:9 6:2 7:3 
-1 1:1 2:29 3:4 4:2 5:6 6:1 7:1 
-1 1:1 2:30 3:1 4:1 5:4 6:2 7:1 
-1 1:1 2:25 3:2 4:1 5:1 6:1 7:1 
-1 1:1 2:34 3:1 4:2 5:7 6:2 7:3 
-1 1:1 2:26 3:2 4:1 5:1 6:1 7:1 
-1 1:1 2:35 3:3 4:2 5:4 6:2 7:1 
-1 1:1 2:27 3:1 4:1 5:4 6:1 7:1 
-0.1393938923385619 1:1 2:34 3:1 4:1 5:8 6:1 7:1 
-0.2888761286079493 1:1 2:24 3:2 4:1 5:1 6:1 7:1 
-1 1:2 2:26 3:2 4:1 5:3 6:1 7:1 
-1 1:1 2:26 3:3 4:1 5:2 6:1 7:1 
-1 1:1 2:35 3:1 4:1 5:4 6:2 7:1 
-1 1:1 2:31 3:1 4:1 5:2 6:2 7:1 
-1 1:1 2:25 3:2 4:1 5:2 6:1 7:1 
-1 1:1 2:25 3:2 4:1 5:1 6:1 7:1 
-1 1:1 2:37 3:1 4:1 5:6 6:2 7:1 
-0.6067018150207207 1:1 2:29 3:2 4:1 5:6 6:1 7:1 
-1 1:2 2:30 3:1 4:2 5:4 6:1 7:1 
-1 1:1 2:32 3:1 4:1 5:4 6:2 7:1 
-1 1:1 2:27 3:3 4:1 5:3 6:1 7:1 
-1 1:2 2:34 3:3 4:2 5:4 6:2 7:1 
-1 1:2 2:31 3:3 4:1 5:2 6:1 7:1 
-1 1:2 2:24 3:5 4:1 5:1 6:1 7:1 
-1 1:1 2:28 3:1 4:1 5:2 6:1 7:1 
-1 1:1 2:34 3:3 4:2 5:1 6:2 7:1 
-1 1:1 2:21 3:2 4:2 5:1 6:1 7:1 
-1 1:1 2:34 3:1 4:2 5:7 6:1 7:1 
-1 1:1 2:30 3:1 4:1 5:3 6:1 7:4 
-0.07204717467346514 1:2 2:31 3:2 4:1 5:9 6:2 7:1 
-1 1:1 2:27 3:1 4:2 5:4 6:1 7:1 
-1 1:1 2:28 3:1 4:1 5:4 6:1 7:1 
-1 1:1 2:39 3:1 4:2 5:3 6:2 7:1 
-1 1:1 2:26 3:1 4:2 5:1 6:1 7:1 
-1 1:1 2:27 3:1 4:2 5:1 6:1 7:1 
-0.6913249185960753 1:1 2:47 3:1 4:6 5:17 6:2 7:1 
-1 1:1 2:31 3:1 4:2 5:7 6:2 7:1 
-0.6442552232483859 1:1 2:38 3:1 4:5 5:5 6:2 7:1 
-1 1:1 2:33 3:3 4:1 5:7 6:2 7:1 
-1 1:1 2:28 3:4 4:1 5:2 6:1 7:1 
-1 1:1 2:29 3:4 4:1 5:2 6:1 7:1 
-1 1:1 2:28 3:1 4:1 5:2 6:2 7:1 
-0.5857367289014986 1:1 2:34 3:3 4:1 5:9 6:1 7:1 
-1 1:1 2:26 3:1 4:2 5:2 6:1 7:1 
-1 1:1 2:30 3:1 4:1 5:5 6:1 7:1 
-1 1:1 2:30 3:1 4:1 5:5 6:1 7:1 
-1 1:1 2:27 3:1 4:1 5:1 6:1 7:1 
-1 1:1 2:26 3:1 4:1 5:1 6:1 7:1 
-1 1:1 2:34 3:1 4:1 5:6 6:2 7:5 
-1 1:1 2:31 3:1 4:2 5:3 6:1 7:4 
-1 1:1 2:25 3:5 4:2 5:2 6:1 7:1 
-1 1:1 2:31 3:1 4:2 5:4 6:1 7:2 
-0.9202933108788814 1:2 2:30 3:1 4:2 5:7 6:2 7:1 
-1 1:1 2:37 3:1 4:2 5:8 6:2 7:1 
-0.3398327749737176 1:1 2:31 3:1 4:5 5:7 6:1 7:1 
-0.6223451563255071 1:1 2:54 3:1 4:6 5:16 6:2 7:1 
-0.7231292627425286 1:2 2:27 3:3 4:2 5:4 6:1 7:1 
-1 1:1 2:28 3:1 4:1 5:1 6:1 7:1 
-1 1:1 2:30 3:4 4:1 5:1 6:2 7:1 
-0.7459959038987972 1:1 2:40 3:1 4:2 5:9 6:2 7:4 
-1 1:1 2:25 3:1 4:1 5:1 6:1 7:1 
-1 1:2 2:35 3:1 4:3 5:4 6:1 7:1 
-1 1:2 2:28 3:1 4:2 5:4 6:1 7:1 
-0.6506456888123159 1:1 2:42 3:1 4:2 5:7 6:2 7:1 
-1 1:1 2:31 3:1 4:4 5:2 6:1 7:1 
-1 1:1 2:30 3:1 4:1 5:3 6:1 7:1 
-1 1:1 2:30 3:1 4:4 5:3 6:1 7:1 
-0.4873392438333051 1:1 2:27 3:1 4:4 5:4 6:2 7:1 
-1 1:1 2:26 3:3 4:2 5:2 6:1 7:1 
-1 1:1 2:32 3:2 4:2 5:8 6:1 7:1 
-0.3000525591658426 1:1 2:45 3:1 4:6 5:6 6:2 7:1 
-1 1:2 2:33 3:3 4:1 5:6 6:1 7:1 
-0.9312246094721094 1:2 2:24 3:2 4:1 5:1 6:1 7:1 
-1 1:1 2:38 3:3 4:1 5:2 6:2 7:1 
-0.9675837048290133 1:1 2:24 3:2 4:1 5:1 6:1 7:1 
-1 1:1 2:31 3:1 4:1 5:1 6:1 7:1 
-1 1:1 2:41 3:1 4:2 5:2 6:2 7:1 
-0.5258606548810467 1:2 2:47 3:1 4:2 5:8 6:2 7:1 
-0.4942038134837102 1:2 2:45 3:1 4:6 5:8 6:2 7:1 
-0.7313344940484857 1:2 2:24 3:1 4:4 5:2 6:1 7:1 
-0.6287508856819584 1:1 2:57 3:1 4:5 5:15 6:2 7:1 
-1 1:1 2:34 3:3 4:2 5:1 6:2 7:1 
-1 1:2 2:33 3:1 4:5 5:2 6:2 7:1 
-0.3323847280346375 1:1 2:48 3:1 4:6 5:5 6:2 7:1 
-1 1:2 2:38 3:1 4:1 5:5 6:2 7:3 
-0.7897176826055688 1:2 2:49 3:1 4:2 5:22 6:2 7:5 
-1 1:2 2:39 3:1 4:1 5:2 6:1 7:1 
-0.7852505060531979 1:2 2:47 3:3 4:1 5:14 6:2 7:4 
-0.02319954443857334 1:1 2:23 3:2 4:2 5:4 6:1 7:1 
-1 1:1 2:40 3:1 4:1 5:10 6:2 7:1 
-0.02434310171474443 1:1 2:33 3:2 4:2 5:11 6:2 7:1 
-1 1:1 2:32 3:1 4:2 5:6 6:1 7:1 
-0.01298198458415829 1:1 2:32 3:1 4:4 5:7 6:1 7:1 
-1 1:1 2:30 3:3 4:2 5:2 6:2 7:1 
-1 1:1 2:31 3:1 4:2 5:4 6:1 7:1 
-1 1:2 2:43 3:3 4:2 5:1 6:2 7:1 
-0.8790144109023315 1:1 2:42 3:3 4:3 5:18 6:2 7:1 
-0.2359955997600688 1:2 2:47 3:1 4:5 5:23 6:2 7:1 
-1 1:1 2:45 3:1 4:2 5:20 6:2 7:1 
-0.2332739877448292 1:1 2:46 3:1 4:5 5:20 6:2 7:1 
-0.7735204609676247 1:1 2:54 3:1 4:5 5:5 6:2 7:1 
-0.6212564608917395 1:1 2:54 3:1 4:5 5:22 6:2 7:1 
-0.4998492561837072 1:1 2:48 3:1 4:5 5:23 6:2 7:1 
-0.8862688773319624 1:2 2:25 3:1 4:4 5:2 6:1 7:1 
-0.8522641692145467 1:2 2:49 3:1 4:5 5:3 6:2 7:1 
-1 1:2 2:27 3:1 4:4 5:2 6:2 7:1 
-1 1:1 2:36 3:1 4:2 5:11 6:2 7:1 
-0.3463465207716296 1:2 2:36 3:1 4:1 5:8 6:2 7:1 
-0.6200328750092604 1:2 2:44 3:3 4:4 5:4 6:2 7:1 
-1 1:1 2:37 3:2 4:1 5:12 6:2 7:1 
-0.7497672349422837 1:1 2:45 3:2 4:1 5:23 6:1 7:4 
-0.2169120499408842 1:1 2:43 3:2 4:3 5:20 6:2 7:3 
-0.8270170483570783 1:2 2:37 3:1 4:4 5:15 6:2 7:1 
-0.7557187763550308 1:1 2:61 3:3 4:2 5:32 6:2 7:1 
-0.2184782318492149 1:2 2:34 3:1 4:2 5:12 6:2 7:1 
-0.2404478477191792 1:1 2:54 3:1 4:6 5:22 6:2 7:1 
-0.9954570703717999 1:2 2:44 3:2 4:2 5:21 6:1 7:1 
-0.3744967397883594 1:1 2:46 3:2 4:3 5:24 6:2 7:4 
-1 1:1 2:27 3:3 4:1 5:1 6:1 7:1 
-1 1:1 2:27 3:4 4:2 5:2 6:1 7:1 
-1 1:1 2:27 3:2 4:1 5:3 6:1 7:1 
-0.8534877002407005 1:1 2:41 3:2 4:1 5:15 6:2 7:1 
-1 1:1 2:28 3:1 4:1 5:2 6:2 7:1 
-1 1:1 2:29 3:1 4:2 5:1 6:2 7:1 
-1 1:1 2:28 3:1 4:1 5:1 6:1 7:1 
-1 1:1 2:30 3:4 4:1 5:1 6:1 7:1 
-1 1:1 2:33 3:3 4:1 5:2 6:2 7:1 
-1 1:1 2:31 3:4 4:1 5:2 6:1 7:4 
-1 1:1 2:34 3:1 4:1 5:6 6:2 7:1 
-0.3360624285606906 1:1 2:35 3:1 4:1 5:10 6:1 7:1 
-1 1:1 2:30 3:1 4:1 5:3 6:1 7:1 
-1 1:1 2:32 3:3 4:1 5:4 6:2 7:1 
-1 1:1 2:25 3:1 4:1 5:1 6:1 7:1 
-1 1:1 2:39 3:3 4:1 5:6 6:1 7:1 
-1 1:1 2:31 3:3 4:1 5:1 6:2 7:1 
-1 1:1 2:26 3:2 4:1 5:3 6:1 7:1 
-0.9670004712275853 1:1 2:38 3:3 4:2 5:5 6:2 7:3 
-1 1:1 2:45 3:3 4:1 5:2 6:2 7:1 
-1 1:2 2:34 3:1 4:1 5:5 6:1 7:1 
-1 1:1 2:32 3:1 4:1 5:7 6:1 7:1 
-1 1:1 2:42 3:1 4:1 5:6 6:1 7:1 
-1 1:1 2:28 3:3 4:1 5:3 6:1 7:1 
-0.7080709101528385 1:1 2:35 3:2 4:1 5:12 6:2 7:4 
-0.4018637209673981 1:1 2:43 3:2 4:1 5:23 6:2 7:5 
-1 1:1 2:43 3:2 4:1 5:19 6:2 7:4 
-0.5941152523249396 1:2 2:50 3:3 4:1 5:14 6:2 7:4 
-0.5282759601829934 1:2 2:46 3:1 4:1 5:9 6:2 7:4 
-0.4655329792510912 1:2 2:39 3:3 4:2 5:5 6:2 7:2 
-0.2504377924713366 1:2 2:44 3:2 4:1 5:24 6:2 7:3 
-1 1:2 2:28 3:3 4:2 5:2 6:2 7:1 
-1 1:1 2:34 3:5 4:1 5:3 6:2 7:4 
-1 1:1 2:27 3:3 4:1 5:2 6:1 7:4 
-1 1:1 2:31 3:1 4:2 5:1 6:1 7:1 
-1 1:1 2:28 3:1 4:4 5:1 6:2 7:1 
-0.6709812030526028 1:1 2:37 3:1 4:2 5:7 6:2 7:1 
-1 1:1 2:37 3:1 4:2 5:2 6:1 7:1 
-1 1:1 2:43 3:1 4:1 5:4 6:2 7:5 
-1 1:1 2:32 3:3 4:1 5:1 6:2 7:1 
-0.8800935561565524 1:1 2:43 3:2 4:1 5:21 6:2 7:4 
-0.3500629842212644 1:1 2:44 3:2 4:1 5:23 6:2 7:3 
-0.5463536095445759 1:2 2:39 3:2 4:3 5:17 6:2 7:4 
-0.7548990417911103 1:1 2:54 3:2 4:1 5:34 6:2 7:4 
-0.5564534334236969 1:2 2:46 3:3 4:3 5:10 6:2 7:3 
-0.617618084024798 1:2 2:35 3:3 4:1 5:7 6:2 7:1 
-1 1:1 2:42 3:2 4:1 5:19 6:2 7:3 
-1 1:1 2:36 3:1 4:1 5:6 6:2 7:1 
-1 1:1 2:27 3:2 4:2 5:4 6:1 7:1 
-1 1:1 2:32 3:1 4:2 5:2 6:2 7:1 
-0.5358983788248231 1:1 2:28 3:1 4:5 5:5 6:1 7:1 
-0.1569219898076913 1:1 2:32 3:1 4:2 5:8 6:2 7:1 
-0.03106536758578892 1:1 2:30 3:1 4:1 5:6 6:1 7:1 
-0.8719397455491623 1:1 2:37 3:2 4:2 5:16 6:2 7:1 
-0.9098007410379561 1:1 2:37 3:1 4:4 5:11 6:2 7:1 
-1 1:1 2:31 3:1 4:1 5:7 6:1 7:1 
-1 1:1 2:26 3:1 4:2 5:3 6:1 7:1 
-1 1:1 2:30 3:1 4:2 5:2 6:1 7:1 
-0.5856252209998252 1:1 2:34 3:1 4:4 5:6 6:2 7:1 
-1 1:2 2:30 3:3 4:2 5:3 6:2 7:1 
-1 1:1 2:32 3:1 4:2 5:1 6:1 7:1 
-1 1:1 2:30 3:1 4:1 5:2 6:1 7:4 
-1 1:1 2:29 3:2 4:1 5:5 6:1 7:1 
-1 1:1 2:31 3:2 4:1 5:6 6:2 7:4 
-1 1:1 2:28 3:1 4:1 5:2 6:1 7:1 
-1 1:1 2:28 3:1 4:1 5:2 6:1 7:1 
-0.238049410476597 1:2 2:29 3:2 4:1 5:6 6:1 7:1 
-1 1:2 2:30 3:1 4:1 5:5 6:2 7:5 
-1 1:1 2:29 3:1 4:1 5:4 6:1 7:1 
-1 1:2 2:26 3:1 4:2 5:1 6:1 7:1 
-1 1:2 2:26 3:2 4:1 5:3 6:1 7:4 
-1 1:1 2:26 3:2 4:1 5:2 6:1 7:1 
