svm_type c_svc
kernel_type rbf
gamma 0.142857
nr_class 2
total_sv 374
rho 0.2125
label 1 2
nr_sv 187 187
SV
0.4807717123352393 1:1 2:26 3:4 4:1 5:1 6:1 7:1 
0.6604339624652223 1:1 2:37 3:3 4:3 5:1 6:1 7:1 
1 1:1 2:29 3:2 4:1 5:4 6:1 7:1 
1 1:2 2:28 3:4 4:1 5:3 6:1 7:1 
0.6739486230125281 1:1 2:41 3:1 4:1 5:2 6:2 7:1 
1 1:1 2:29 3:1 4:1 5:1 6:2 7:1 
1 1:1 2:26 3:2 4:2 5:3 6:1 7:1 
0.9114380801814261 1:2 2:27 3:2 4:1 5:2 6:1 7:1 
1 1:1 2:38 3:1 4:1 5:4 6:1 7:1 
1 1:1 2:25 3:1 4:1 5:0 6:1 7:1 
1 1:1 2:24 3:1 4:1 5:0 6:1 7:1 
1 1:1 2:35 3:1 4:1 5:12 6:1 7:1 
1 1:1 2:28 3:2 4:1 5:3 6:1 7:1 
1 1:1 2:26 3:2 4:1 5:2 6:1 7:1 
1 1:2 2:25 3:1 4:2 5:1 6:2 7:1 
1 1:1 2:28 3:1 4:1 5:1 6:2 7:1 
1 1:1 2:27 3:1 4:2 5:4 6:2 7:1 
1 1:2 2:23 3:1 4:2 5:0 6:1 7:1 
1 1:1 2:31 3:1 4:1 5:3 6:1 7:5 
1 1:1 2:29 3:2 4:1 5:4 6:1 7:1 
1 1:1 2:27 3:1 4:2 5:2 6:1 7:1 
0.7571397247723859 1:1 2:30 3:2 4:1 5:6 6:1 7:4 
1 1:1 2:26 3:2 4:1 5:3 6:1 7:1 
0.1902974967970976 1:1 2:30 3:6 4:1 5:2 6:1 7:1 
1 1:2 2:27 3:2 4:2 5:2 6:1 7:1 
1 1:1 2:32 3:2 4:1 5:2 6:1 7:1 
0.1262740718633531 1:1 2:38 3:1 4:1 5:3 6:1 7:1 
1 1:1 2:31 3:1 4:1 5:4 6:2 7:1 
1 1:2 2:26 3:1 4:1 5:1 6:1 7:1 
0.06607491166762874 1:1 2:29 3:2 4:1 5:4 6:1 7:4 
1 1:1 2:26 3:4 4:1 5:2 6:1 7:1 
1 1:1 2:27 3:1 4:1 5:2 6:1 7:1 
0.9352180264177206 1:1 2:34 3:1 4:2 5:2 6:1 7:1 
1 1:1 2:26 3:1 4:2 5:3 6:1 7:1 
1 1:1 2:26 3:1 4:2 5:5 6:1 7:1 
1 1:1 2:30 3:4 4:1 5:2 6:1 7:1 
0.8373275939834081 1:2 2:31 3:3 4:2 5:5 6:2 7:1 
1 1:2 2:31 3:1 4:1 5:5 6:1 7:1 
0.8144972439397899 1:1 2:26 3:2 4:1 5:1 6:1 7:1 
1 1:1 2:26 3:2 4:1 5:1 6:1 7:1 
1 1:2 2:30 3:3 4:2 5:6 6:2 7:1 
0.5390083484290803 1:2 2:30 3:1 4:1 5:2 6:1 7:4 
1 1:1 2:25 3:2 4:1 5:1 6:1 7:1 
1 1:1 2:34 3:1 4:4 5:1 6:2 7:1 
1 1:1 2:31 3:3 4:1 5:3 6:2 7:2 
0.1281187905389632 1:1 2:26 3:1 4:2 5:0 6:1 7:1 
1 1:1 2:38 3:1 4:1 5:6 6:2 7:1 
1 1:1 2:28 3:1 4:2 5:6 6:2 7:1 
0.3037588522975836 1:2 2:30 3:1 4:1 5:3 6:1 7:1 
1 1:1 2:28 3:1 4:1 5:1 6:1 7:1 
1 1:1 2:30 3:4 4:1 5:2 6:2 7:1 
1 1:1 2:32 3:1 4:1 5:7 6:1 7:4 
0.3379075593516436 1:2 2:28 3:1 4:2 5:2 6:1 7:1 
1 1:1 2:30 3:2 4:1 5:5 6:1 7:1 
0.8628384707276634 1:1 2:30 3:1 4:1 5:0 6:2 7:1 
0.5632920430225994 1:1 2:31 3:3 4:2 5:1 6:1 7:1 
1 1:1 2:34 3:1 4:2 5:6 6:1 7:1 
0.3467439523996353 1:1 2:31 3:1 4:1 5:2 6:1 7:1 
0.6073898684779999 1:1 2:36 3:1 4:2 5:2 6:2 7:1 
0.2457769497841617 1:1 2:34 3:1 4:1 5:3 6:1 7:5 
0.5766152116462941 1:1 2:30 3:6 4:1 5:1 6:1 7:1 
1 1:1 2:27 3:1 4:1 5:1 6:1 7:1 
0.8386959923325767 1:2 2:31 3:3 4:1 5:0 6:1 7:1 
1 1:1 2:35 3:1 4:1 5:5 6:1 7:3 
0.3905593815028708 1:1 2:30 3:4 4:1 5:0 6:1 7:1 
1 1:1 2:32 3:2 4:1 5:7 6:1 7:1 
1 1:1 2:29 3:1 4:1 5:4 6:1 7:1 
0.1816274026595916 1:1 2:28 3:3 4:2 5:0 6:1 7:1 
0.7002415697920059 1:1 2:27 3:1 4:2 5:2 6:1 7:1 
0.8203875592570974 1:1 2:29 3:1 4:2 5:3 6:1 7:4 
0.02615736367994972 1:1 2:30 3:1 4:1 5:2 6:1 7:1 
1 1:1 2:27 3:1 4:5 5:2 6:1 7:1 
1 1:1 2:41 3:1 4:4 5:1 6:2 7:1 
1 1:1 2:26 3:2 4:2 5:3 6:1 7:1 
0.8728012155484994 1:1 2:28 3:4 4:1 5:2 6:1 7:1 
1 1:1 2:25 3:4 4:1 5:1 6:1 7:1 
0.7633570573874335 1:1 2:30 3:1 4:3 5:1 6:2 7:1 
0.734704300890078 1:1 2:29 3:4 4:1 5:1 6:1 7:1 
0.04053595430707937 1:1 2:34 3:1 4:1 5:1 6:2 7:1 
0.8413035972056412 1:1 2:30 3:2 4:2 5:4 6:1 7:1 
0.362081175542627 1:1 2:29 3:1 4:3 5:0 6:1 7:1 
1 1:1 2:30 3:4 4:1 5:0 6:1 7:4 
1 1:1 2:30 3:1 4:1 5:4 6:2 7:1 
0.099834121868154 1:1 2:34 3:2 4:1 5:2 6:1 7:1 
1 1:2 2:34 3:2 4:3 5:6 6:1 7:3 
0.3245642586436781 1:1 2:29 3:4 4:1 5:3 6:1 7:1 
1 1:1 2:29 3:2 4:1 5:4 6:1 7:1 
0.6667834012812912 1:1 2:29 3:1 4:1 5:1 6:1 7:1 
1 1:1 2:38 3:1 4:1 5:3 6:1 7:1 
1 1:2 2:32 3:1 4:1 5:6 6:1 7:1 
1 1:1 2:32 3:4 4:1 5:0 6:2 7:1 
1 1:1 2:33 3:2 4:2 5:6 6:1 7:2 
1 1:1 2:27 3:1 4:2 5:3 6:1 7:1 
1 1:1 2:44 3:2 4:1 5:19 6:2 7:1 
0.4597337988028196 1:2 2:33 3:1 4:2 5:0 6:2 7:1 
0.7988967768660615 1:2 2:35 3:1 4:1 5:3 6:1 7:1 
0.7812437082050712 1:2 2:26 3:1 4:1 5:2 6:1 7:5 
1 1:1 2:30 3:1 4:4 5:2 6:1 7:1 
1 1:1 2:30 3:3 4:2 5:1 6:2 7:1 
1 1:2 2:42 3:1 4:1 5:6 6:2 7:5 
1 1:2 2:43 3:3 4:2 5:0 6:2 7:1 
1 1:2 2:24 3:1 4:4 5:1 6:1 7:1 
0.3853824378648449 1:2 2:25 3:1 4:2 5:0 6:1 7:1 
0.5814803000669968 1:2 2:38 3:3 4:4 5:0 6:2 7:1 
1 1:2 2:29 3:1 4:2 5:4 6:1 7:1 
1 1:2 2:38 3:2 4:2 5:13 6:2 7:2 
1 1:2 2:31 3:1 4:2 5:2 6:2 7:1 
1 1:2 2:37 3:1 4:2 5:10 6:2 7:1 
0.6230499822633461 1:2 2:20 3:1 4:4 5:1 6:1 7:1 
1 1:1 2:44 3:2 4:1 5:22 6:2 7:4 
1 1:1 2:59 3:1 4:5 5:3 6:2 7:1 
1 1:2 2:51 3:3 4:2 5:22 6:2 7:1 
0.9613634295162972 1:2 2:20 3:1 4:4 5:1 6:1 7:1 
1 1:2 2:48 3:1 4:6 5:0 6:2 7:1 
0.5818877164401874 1:2 2:37 3:3 4:1 5:10 6:2 7:1 
1 1:1 2:43 3:2 4:1 5:19 6:2 7:1 
1 1:1 2:29 3:2 4:2 5:6 6:1 7:2 
0.07475159748309555 1:1 2:36 3:1 4:3 5:1 6:2 7:1 
1 1:1 2:43 3:1 4:1 5:0 6:1 7:1 
1 1:1 2:26 3:1 4:1 5:1 6:1 7:1 
1 1:1 2:26 3:4 4:1 5:2 6:1 7:1 
0.7239142775874732 1:1 2:33 3:1 4:1 5:3 6:2 7:2 
0.9370444454096654 1:1 2:36 3:3 4:1 5:3 6:2 7:4 
1 1:1 2:26 3:2 4:1 5:1 6:1 7:1 
1 1:1 2:26 3:2 4:1 5:2 6:1 7:1 
1 1:1 2:31 3:2 4:1 5:6 6:1 7:1 
0.247109156170544 1:1 2:32 3:1 4:1 5:0 6:1 7:1 
0.8528531276113741 1:1 2:31 3:1 4:2 5:2 6:1 7:1 
1 1:1 2:27 3:1 4:2 5:0 6:1 7:1 
1 1:1 2:38 3:1 4:1 5:3 6:1 7:5 
1 1:1 2:33 3:2 4:1 5:6 6:2 7:1 
0.7553620721719421 1:1 2:31 3:1 4:1 5:3 6:1 7:1 
1 1:1 2:34 3:3 4:1 5:1 6:1 7:1 
1 1:1 2:33 3:1 4:1 5:2 6:2 7:1 
1 1:1 2:25 3:2 4:1 5:1 6:1 7:1 
1 1:1 2:41 3:1 4:2 5:2 6:1 7:1 
0.2626437326354243 1:1 2:29 3:1 4:1 5:0 6:1 7:4 
0.8010769391634306 1:1 2:40 3:1 4:1 5:0 6:2 7:1 
1 1:1 2:33 3:2 4:1 5:7 6:1 7:1 
1 1:1 2:28 3:4 4:1 5:3 6:1 7:1 
0.5026320950720031 1:1 2:33 3:1 4:1 5:1 6:1 7:5 
0.9411718252411974 1:2 2:34 3:3 4:2 5:1 6:2 7:4 
1 1:1 2:38 3:2 4:1 5:9 6:2 7:1 
1 1:1 2:37 3:2 4:1 5:10 6:2 7:1 
0.56320165751514 1:1 2:31 3:2 4:1 5:2 6:1 7:1 
1 1:1 2:31 3:1 4:2 5:2 6:1 7:1 
1 1:1 2:38 3:1 4:1 5:8 6:2 7:1 
0.388206013954893 1:2 2:29 3:2 4:2 5:1 6:1 7:5 
0.9898392891249788 1:1 2:33 3:2 4:1 5:4 6:1 7:1 
1 1:1 2:48 3:1 4:1 5:1 6:2 7:1 
0.1271956896469246 1:1 2:35 3:1 4:2 5:0 6:1 7:1 
1 1:1 2:46 3:2 4:1 5:19 6:2 7:4 
0.308836033985657 1:2 2:26 3:2 4:2 5:1 6:1 7:2 
1 1:2 2:61 3:2 4:1 5:40 6:2 7:4 
1 1:2 2:37 3:3 4:1 5:4 6:2 7:1 
1 1:2 2:25 3:5 4:4 5:3 6:1 7:1 
1 1:1 2:43 3:2 4:1 5:19 6:2 7:3 
1 1:1 2:38 3:6 4:1 5:7 6:2 7:3 
1 1:1 2:42 3:1 4:1 5:5 6:2 7:1 
1 1:1 2:27 3:1 4:2 5:3 6:1 7:1 
0.9596805263649014 1:1 2:27 3:2 4:1 5:3 6:1 7:4 
0.9859125778686156 1:1 2:41 3:1 4:1 5:4 6:2 7:1 
1 1:1 2:28 3:2 4:1 5:3 6:1 7:1 
1 1:1 2:29 3:2 4:1 5:4 6:1 7:1 
1 1:1 2:44 3:3 4:1 5:3 6:2 7:4 
0.412594553069706 1:1 2:37 3:1 4:1 5:3 6:2 7:1 
1 1:1 2:35 3:5 4:1 5:3 6:2 7:1 
0.2018089846618788 1:1 2:42 3:1 4:1 5:3 6:2 7:1 
1 1:1 2:32 3:1 4:1 5:2 6:2 7:1 
0.966003439527894 1:2 2:36 3:3 4:2 5:2 6:2 7:1 
1 1:2 2:45 3:2 4:1 5:21 6:2 7:3 
1 1:1 2:54 3:5 4:3 5:8 6:2 7:1 
1 1:2 2:56 3:3 4:2 5:20 6:2 7:1 
0.701533173188416 1:2 2:38 3:1 4:2 5:0 6:2 7:1 
1 1:1 2:47 3:3 4:1 5:13 6:2 7:1 
1 1:2 2:37 3:1 4:2 5:5 6:2 7:1 
1 1:1 2:26 3:2 4:1 5:2 6:1 7:1 
0.9175727603128822 1:2 2:32 3:1 4:1 5:5 6:2 7:1 
1 1:1 2:26 3:5 4:2 5:2 6:1 7:1 
1 1:1 2:28 3:1 4:2 5:3 6:1 7:1 
1 1:1 2:33 3:1 4:2 5:5 6:1 7:1 
1 1:1 2:33 3:5 4:2 5:2 6:2 7:1 
1 1:1 2:32 3:1 4:2 5:8 6:2 7:1 
1 1:2 2:32 3:5 4:4 5:2 6:2 7:1 
1 1:1 2:38 3:1 4:2 5:14 6:2 7:1 
1 1:1 2:30 3:1 4:2 5:6 6:2 7:1 
1 1:1 2:31 3:1 4:4 5:1 6:2 7:1 
-1 1:1 2:29 3:3 4:1 5:6 6:2 7:1 
-1 1:1 2:28 3:3 4:1 5:4 6:1 7:1 
-1 1:1 2:42 3:1 4:3 5:1 6:2 7:1 
-1 1:1 2:27 3:1 4:1 5:1 6:1 7:1 
-1 1:1 2:31 3:3 4:1 5:2 6:2 7:1 
-1 1:1 2:34 3:1 4:2 5:2 6:1 7:1 
-1 1:1 2:32 3:1 4:1 5:2 6:2 7:1 
-1 1:2 2:27 3:1 4:1 5:1 6:1 7:1 
-1 1:1 2:27 3:1 4:2 5:2 6:1 7:1 
-1 1:2 2:29 3:2 4:1 5:5 6:2 7:1 
-1 1:1 2:30 3:2 4:1 5:5 6:1 7:1 
-0.8826459978639491 1:2 2:31 3:2 4:1 5:9 6:2 7:3 
-1 1:1 2:25 3:2 4:1 5:3 6:1 7:1 
-1 1:1 2:29 3:4 4:2 5:6 6:1 7:1 
-0.1679909184383153 1:1 2:28 3:2 4:1 5:5 6:1 7:1 
-1 1:1 2:30 3:1 4:1 5:4 6:2 7:1 
-1 1:1 2:25 3:2 4:1 5:1 6:1 7:1 
-1 1:1 2:34 3:1 4:2 5:7 6:2 7:3 
-1 1:1 2:26 3:2 4:1 5:1 6:1 7:1 
-1 1:1 2:35 3:3 4:2 5:4 6:2 7:1 
-1 1:1 2:27 3:1 4:1 5:4 6:1 7:1 
-0.601136388282516 1:1 2:24 3:2 4:1 5:1 6:1 7:1 
-1 1:2 2:26 3:2 4:1 5:3 6:1 7:1 
-1 1:1 2:26 3:3 4:1 5:2 6:1 7:1 
-1 1:1 2:35 3:1 4:1 5:4 6:2 7:1 
-1 1:1 2:31 3:1 4:1 5:2 6:2 7:1 
-1 1:1 2:25 3:2 4:1 5:2 6:1 7:1 
-1 1:1 2:25 3:2 4:1 5:1 6:1 7:1 
-1 1:1 2:37 3:1 4:1 5:6 6:2 7:1 
-0.4397944096648108 1:1 2:29 3:2 4:1 5:6 6:1 7:1 
-1 1:2 2:30 3:1 4:2 5:4 6:1 7:1 
-1 1:1 2:32 3:1 4:1 5:4 6:2 7:1 
-0.1085947714203932 1:2 2:29 3:1 4:2 5:6 6:1 7:1 
-1 1:1 2:27 3:3 4:1 5:3 6:1 7:1 
-1 1:2 2:34 3:3 4:2 5:4 6:2 7:1 
-0.5216438089702738 1:2 2:26 3:1 4:2 5:5 6:1 7:1 
-1 1:2 2:31 3:3 4:1 5:2 6:1 7:1 
-1 1:2 2:24 3:5 4:1 5:1 6:1 7:1 
-1 1:1 2:28 3:1 4:1 5:2 6:1 7:1 
-1 1:1 2:34 3:3 4:2 5:1 6:2 7:1 
-0.8153740915650881 1:1 2:21 3:2 4:2 5:1 6:1 7:1 
-0.9762730422297679 1:1 2:34 3:1 4:2 5:7 6:1 7:1 
-1 1:1 2:30 3:1 4:1 5:3 6:1 7:4 
-1 1:1 2:27 3:1 4:2 5:4 6:1 7:1 
-1 1:1 2:28 3:1 4:1 5:4 6:1 7:1 
-1 1:1 2:39 3:1 4:2 5:3 6:2 7:1 
-1 1:1 2:26 3:1 4:2 5:1 6:1 7:1 
-1 1:1 2:27 3:1 4:2 5:1 6:1 7:1 
-0.7194250227695407 1:1 2:47 3:1 4:6 5:17 6:2 7:1 
-1 1:1 2:31 3:1 4:2 5:7 6:2 7:1 
-0.6605931104012804 1:1 2:38 3:1 4:5 5:5 6:2 7:1 
-1 1:1 2:33 3:3 4:1 5:7 6:2 7:1 
-1 1:1 2:28 3:4 4:1 5:2 6:1 7:1 
-1 1:1 2:29 3:4 4:1 5:2 6:1 7:1 
-1 1:1 2:28 3:1 4:1 5:2 6:2 7:1 
-0.2045755049682544 1:1 2:34 3:3 4:1 5:9 6:1 7:1 
-1 1:1 2:26 3:1 4:2 5:2 6:1 7:1 
-1 1:1 2:30 3:1 4:1 5:5 6:1 7:1 
-1 1:1 2:30 3:1 4:1 5:5 6:1 7:1 
-1 1:1 2:27 3:1 4:1 5:1 6:1 7:1 
-1 1:1 2:26 3:1 4:1 5:1 6:1 7:1 
-1 1:1 2:34 3:1 4:1 5:6 6:2 7:5 
-1 1:1 2:31 3:1 4:2 5:3 6:1 7:4 
-1 1:1 2:25 3:5 4:2 5:2 6:1 7:1 
-1 1:1 2:31 3:1 4:2 5:4 6:1 7:2 
-1 1:2 2:30 3:1 4:2 5:7 6:2 7:1 
-1 1:1 2:37 3:1 4:2 5:8 6:2 7:1 
-0.2495065847687256 1:1 2:31 3:1 4:5 5:7 6:1 7:1 
-0.6488349612780516 1:1 2:54 3:1 4:6 5:16 6:2 7:1 
-1 1:2 2:27 3:3 4:2 5:4 6:1 7:1 
-1 1:1 2:28 3:1 4:1 5:1 6:1 7:1 
-1 1:1 2:30 3:4 4:1 5:1 6:2 7:1 
-0.7890620418616489 1:1 2:40 3:1 4:2 5:9 6:2 7:4 
-1 1:1 2:25 3:1 4:1 5:1 6:1 7:1 
-1 1:2 2:35 3:1 4:3 5:4 6:1 7:1 
-1 1:2 2:28 3:1 4:2 5:4 6:1 7:1 
-0.6201036546274541 1:1 2:42 3:1 4:2 5:7 6:2 7:1 
-1 1:1 2:31 3:1 4:4 5:2 6:1 7:1 
-1 1:1 2:30 3:1 4:1 5:3 6:1 7:1 
-1 1:1 2:30 3:1 4:4 5:3 6:1 7:1 
-1 1:1 2:27 3:1 4:4 5:4 6:2 7:1 
-1 1:1 2:26 3:3 4:2 5:2 6:1 7:1 
-1 1:1 2:32 3:2 4:2 5:8 6:1 7:1 
-0.3198790643855782 1:1 2:45 3:1 4:6 5:6 6:2 7:1 
-1 1:2 2:33 3:3 4:1 5:6 6:1 7:1 
-1 1:2 2:24 3:2 4:1 5:1 6:1 7:1 
-1 1:1 2:38 3:3 4:1 5:2 6:2 7:1 
-1 1:1 2:24 3:2 4:1 5:1 6:1 7:1 
-1 1:1 2:31 3:1 4:1 5:1 6:1 7:1 
-1 1:1 2:41 3:1 4:2 5:2 6:2 7:1 
-0.5492708916647964 1:2 2:47 3:1 4:2 5:8 6:2 7:1 
-0.5146485486604564 1:2 2:45 3:1 4:6 5:8 6:2 7:1 
-1 1:2 2:24 3:1 4:4 5:2 6:1 7:1 
-0.6558253598231168 1:1 2:57 3:1 4:5 5:15 6:2 7:1 
-0.005777815564497742 1:1 2:40 3:2 4:3 5:17 6:2 7:4 
-1 1:1 2:34 3:3 4:2 5:1 6:2 7:1 
-0.1939572605084807 1:1 2:35 3:1 4:4 5:10 6:2 7:1 
-1 1:2 2:33 3:1 4:5 5:2 6:2 7:1 
-0.3489048532650289 1:1 2:48 3:1 4:6 5:5 6:2 7:1 
-1 1:2 2:38 3:1 4:1 5:5 6:2 7:3 
-0.8188249439267057 1:2 2:49 3:1 4:2 5:22 6:2 7:5 
-1 1:2 2:39 3:1 4:1 5:2 6:1 7:1 
-0.8084635542088269 1:2 2:47 3:3 4:1 5:14 6:2 7:4 
-1 1:1 2:40 3:1 4:1 5:10 6:2 7:1 
-0.2626846285389302 1:1 2:25 3:2 4:2 5:4 6:1 7:1 
-1 1:1 2:32 3:1 4:2 5:6 6:1 7:1 
-0.3544006354261205 1:1 2:32 3:1 4:4 5:7 6:1 7:1 
-1 1:1 2:30 3:3 4:2 5:2 6:2 7:1 
-1 1:1 2:31 3:1 4:2 5:4 6:1 7:1 
-1 1:2 2:43 3:3 4:2 5:1 6:2 7:1 
-0.9037273925966245 1:1 2:42 3:3 4:3 5:18 6:2 7:1 
-0.2484135386683774 1:2 2:47 3:1 4:5 5:23 6:2 7:1 
-1 1:1 2:45 3:1 4:2 5:20 6:2 7:1 
-0.2515387263288414 1:1 2:46 3:1 4:5 5:20 6:2 7:1 
-0.8054746314291832 1:1 2:54 3:1 4:5 5:5 6:2 7:1 
-0.6390896261607361 1:1 2:54 3:1 4:5 5:22 6:2 7:1 
-0.517653766196467 1:1 2:48 3:1 4:5 5:23 6:2 7:1 
-1 1:2 2:25 3:1 4:4 5:2 6:1 7:1 
-0.8776259824920121 1:2 2:49 3:1 4:5 5:3 6:2 7:1 
-1 1:2 2:27 3:1 4:4 5:2 6:2 7:1 
-1 1:1 2:36 3:1 4:2 5:11 6:2 7:1 
-0.5891724844468326 1:2 2:36 3:1 4:1 5:8 6:2 7:1 
-0.5847299207334464 1:2 2:44 3:3 4:4 5:4 6:2 7:1 
-1 1:1 2:37 3:2 4:1 5:12 6:2 7:1 
-0.7595540493118277 1:1 2:45 3:2 4:1 5:23 6:1 7:4 
-0.2316126108567081 1:1 2:43 3:2 4:3 5:20 6:2 7:3 
-0.9138784101548645 1:2 2:37 3:1 4:4 5:15 6:2 7:1 
-0.7875197456601803 1:1 2:61 3:3 4:2 5:32 6:2 7:1 
-0.5327461370035611 1:2 2:34 3:1 4:2 5:12 6:2 7:1 
-0.2566083198114456 1:1 2:54 3:1 4:6 5:22 6:2 7:1 
-1 1:2 2:44 3:2 4:2 5:21 6:1 7:1 
-0.3921678756052664 1:1 2:46 3:2 4:3 5:24 6:2 7:4 
-1 1:1 2:27 3:3 4:1 5:1 6:1 7:1 
-1 1:1 2:27 3:4 4:2 5:2 6:1 7:1 
-1 1:1 2:27 3:2 4:1 5:3 6:1 7:1 
-0.8615288319544728 1:1 2:41 3:2 4:1 5:15 6:2 7:1 
-1 1:1 2:28 3:1 4:1 5:2 6:2 7:1 
-1 1:1 2:29 3:1 4:2 5:1 6:2 7:1 
-1 1:1 2:28 3:1 4:1 5:1 6:1 7:1 
-1 1:1 2:30 3:4 4:1 5:1 6:1 7:1 
-1 1:1 2:33 3:3 4:1 5:2 6:2 7:1 
-1 1:1 2:31 3:4 4:1 5:2 6:1 7:4 
-1 1:1 2:34 3:1 4:1 5:6 6:2 7:1 
-0.6394460960100188 1:1 2:35 3:1 4:1 5:10 6:1 7:1 
-1 1:1 2:30 3:1 4:1 5:3 6:1 7:1 
-1 1:1 2:32 3:3 4:1 5:4 6:2 7:1 
-1 1:1 2:25 3:1 4:1 5:1 6:1 7:1 
-1 1:1 2:39 3:3 4:1 5:6 6:1 7:1 
-1 1:1 2:31 3:3 4:1 5:1 6:2 7:1 
-1 1:1 2:26 3:2 4:1 5:3 6:1 7:1 
-0.874035508444847 1:1 2:38 3:3 4:2 5:5 6:2 7:3 
-1 1:1 2:45 3:3 4:1 5:2 6:2 7:1 
-1 1:2 2:34 3:1 4:1 5:5 6:1 7:1 
-1 1:1 2:32 3:1 4:1 5:7 6:1 7:1 
-1 1:1 2:42 3:1 4:1 5:6 6:1 7:1 
-1 1:1 2:28 3:3 4:1 5:3 6:1 7:1 
-0.7374300516429476 1:1 2:35 3:2 4:1 5:12 6:2 7:4 
-0.4163701672602854 1:1 2:43 3:2 4:1 5:23 6:2 7:5 
-0.007724986601226706 1:1 2:44 3:2 4:1 5:23 6:2 7:3 
-1 1:1 2:43 3:2 4:1 5:19 6:2 7:4 
-0.1398604471653971 1:1 2:34 3:2 4:2 5:12 6:2 7:1 
-0.6192255275092022 1:2 2:50 3:3 4:1 5:14 6:2 7:4 
-0.550735569432677 1:2 2:46 3:1 4:1 5:9 6:2 7:4 
-0.3921212126595992 1:2 2:39 3:3 4:2 5:5 6:2 7:2 
-0.2727839384575154 1:2 2:44 3:2 4:1 5:24 6:2 7:3 
-1 1:2 2:28 3:3 4:2 5:2 6:2 7:1 
-1 1:1 2:34 3:5 4:1 5:3 6:2 7:4 
-1 1:1 2:28 3:2 4:1 5:5 6:1 7:1 
-0.6026264038462477 1:1 2:22 3:1 4:2 5:1 6:1 7:1 
-1 1:1 2:27 3:3 4:1 5:2 6:1 7:4 
-1 1:1 2:31 3:1 4:2 5:1 6:1 7:1 
-1 1:1 2:28 3:1 4:4 5:1 6:2 7:1 
-0.4311293730792064 1:1 2:37 3:1 4:2 5:7 6:2 7:1 
-1 1:1 2:37 3:1 4:2 5:2 6:1 7:1 
-1 1:1 2:43 3:1 4:1 5:4 6:2 7:5 
-1 1:1 2:32 3:3 4:1 5:1 6:2 7:1 
-0.894800175572266 1:1 2:43 3:2 4:1 5:21 6:2 7:4 
-0.3301000823919538 1:1 2:44 3:2 4:1 5:23 6:2 7:3 
-0.5694772838509883 1:2 2:39 3:2 4:3 5:17 6:2 7:4 
-0.7872960462517581 1:1 2:54 3:2 4:1 5:34 6:2 7:4 
-0.5780835805566407 1:2 2:46 3:3 4:3 5:10 6:2 7:3 
-1 1:1 2:42 3:2 4:1 5:19 6:2 7:3 
-1 1:1 2:27 3:2 4:2 5:4 6:1 7:1 
-1 1:1 2:32 3:1 4:2 5:2 6:2 7:1 
-0.3571504685647717 1:1 2:28 3:1 4:5 5:5 6:1 7:1 
-1 1:1 2:30 3:1 4:1 5:6 6:1 7:1 
-0.8308571300126554 1:1 2:37 3:2 4:2 5:16 6:2 7:1 
