svm_type c_svc
kernel_type rbf
gamma 0.142857
nr_class 2
total_sv 386
rho -0.231445
label 2 1
nr_sv 194 192
SV
1 1:1 2:37 3:1 4:1 5:6 6:2 7:1 
0.2841938601496509 1:1 2:29 3:2 4:1 5:6 6:1 7:1 
1 1:2 2:30 3:1 4:2 5:4 6:1 7:1 
1 1:1 2:32 3:1 4:1 5:4 6:2 7:1 
0.1070016993732545 1:2 2:29 3:1 4:2 5:6 6:1 7:1 
1 1:1 2:27 3:3 4:1 5:3 6:1 7:1 
1 1:2 2:34 3:3 4:2 5:4 6:2 7:1 
1 1:2 2:31 3:3 4:1 5:2 6:1 7:1 
1 1:2 2:24 3:5 4:1 5:1 6:1 7:1 
1 1:1 2:28 3:1 4:1 5:2 6:1 7:1 
1 1:1 2:34 3:3 4:2 5:1 6:2 7:1 
1 1:1 2:21 3:2 4:2 5:1 6:1 7:1 
1 1:1 2:34 3:1 4:2 5:7 6:1 7:1 
1 1:1 2:30 3:1 4:1 5:3 6:1 7:4 
1 1:1 2:27 3:1 4:2 5:4 6:1 7:1 
1 1:1 2:28 3:1 4:1 5:4 6:1 7:1 
1 1:1 2:39 3:1 4:2 5:3 6:2 7:1 
1 1:1 2:26 3:1 4:2 5:1 6:1 7:1 
1 1:1 2:27 3:1 4:2 5:1 6:1 7:1 
0.7027289730235804 1:1 2:47 3:1 4:6 5:17 6:2 7:1 
1 1:1 2:31 3:1 4:2 5:7 6:2 7:1 
0.5458063237150135 1:1 2:38 3:1 4:5 5:5 6:2 7:1 
1 1:1 2:33 3:3 4:1 5:7 6:2 7:1 
1 1:1 2:28 3:4 4:1 5:2 6:1 7:1 
1 1:1 2:29 3:4 4:1 5:2 6:1 7:1 
1 1:1 2:28 3:1 4:1 5:2 6:2 7:1 
0.2394434224749149 1:1 2:34 3:3 4:1 5:9 6:1 7:1 
1 1:1 2:26 3:1 4:2 5:2 6:1 7:1 
1 1:1 2:30 3:1 4:1 5:5 6:1 7:1 
1 1:1 2:30 3:1 4:1 5:5 6:1 7:1 
1 1:1 2:27 3:1 4:1 5:1 6:1 7:1 
1 1:1 2:26 3:1 4:1 5:1 6:1 7:1 
1 1:1 2:34 3:1 4:1 5:6 6:2 7:5 
1 1:1 2:31 3:1 4:2 5:3 6:1 7:4 
1 1:1 2:30 3:1 4:4 5:6 6:1 7:1 
1 1:1 2:25 3:5 4:2 5:2 6:1 7:1 
1 1:1 2:31 3:1 4:2 5:4 6:1 7:2 
1 1:2 2:30 3:1 4:2 5:7 6:2 7:1 
1 1:1 2:37 3:1 4:2 5:8 6:2 7:1 
0.7866506627091622 1:1 2:31 3:1 4:5 5:7 6:1 7:1 
0.6334797209134057 1:1 2:54 3:1 4:6 5:16 6:2 7:1 
1 1:2 2:27 3:3 4:2 5:4 6:1 7:1 
1 1:1 2:28 3:1 4:1 5:1 6:1 7:1 
1 1:1 2:30 3:4 4:1 5:1 6:2 7:1 
0.7582442191094689 1:1 2:40 3:1 4:2 5:9 6:2 7:4 
1 1:1 2:25 3:1 4:1 5:1 6:1 7:1 
1 1:2 2:35 3:1 4:3 5:4 6:1 7:1 
1 1:2 2:28 3:1 4:2 5:4 6:1 7:1 
0.6780195408468652 1:1 2:42 3:1 4:2 5:7 6:2 7:1 
1 1:1 2:31 3:1 4:4 5:2 6:1 7:1 
1 1:1 2:30 3:1 4:1 5:3 6:1 7:1 
1 1:1 2:30 3:1 4:4 5:3 6:1 7:1 
0.667455728778638 1:1 2:27 3:1 4:4 5:4 6:2 7:1 
1 1:1 2:26 3:3 4:2 5:2 6:1 7:1 
0.8653290145141053 1:1 2:32 3:2 4:2 5:8 6:1 7:1 
0.3004113603891129 1:1 2:45 3:1 4:6 5:6 6:2 7:1 
1 1:2 2:33 3:3 4:1 5:6 6:1 7:1 
1 1:2 2:24 3:2 4:1 5:1 6:1 7:1 
1 1:1 2:38 3:3 4:1 5:2 6:2 7:1 
1 1:1 2:24 3:2 4:1 5:1 6:1 7:1 
1 1:1 2:31 3:1 4:1 5:1 6:1 7:1 
1 1:1 2:41 3:1 4:2 5:2 6:2 7:1 
0.5341607500612264 1:2 2:47 3:1 4:2 5:8 6:2 7:1 
0.5045078009684897 1:2 2:45 3:1 4:6 5:8 6:2 7:1 
0.8462991887065425 1:2 2:24 3:1 4:4 5:2 6:1 7:1 
0.6401187982382293 1:1 2:57 3:1 4:5 5:15 6:2 7:1 
1 1:1 2:34 3:3 4:2 5:1 6:2 7:1 
1 1:2 2:33 3:1 4:5 5:2 6:2 7:1 
0.3404309399325551 1:1 2:48 3:1 4:6 5:5 6:2 7:1 
1 1:2 2:38 3:1 4:1 5:5 6:2 7:3 
0.8018644688726251 1:2 2:49 3:1 4:2 5:22 6:2 7:5 
1 1:2 2:39 3:1 4:1 5:2 6:1 7:1 
0.7948386770597933 1:2 2:47 3:3 4:1 5:14 6:2 7:4 
0.08652104640549269 1:1 2:23 3:2 4:2 5:4 6:1 7:1 
1 1:1 2:40 3:1 4:1 5:10 6:2 7:1 
0.2447077291382507 1:1 2:33 3:2 4:2 5:11 6:2 7:1 
0.05708752601068861 1:1 2:25 3:2 4:2 5:4 6:1 7:1 
1 1:1 2:32 3:1 4:2 5:6 6:1 7:1 
1 1:1 2:30 3:3 4:2 5:2 6:2 7:1 
1 1:1 2:31 3:1 4:2 5:4 6:1 7:1 
1 1:2 2:43 3:3 4:2 5:1 6:2 7:1 
0.8881176223889138 1:1 2:42 3:3 4:3 5:18 6:2 7:1 
0.2407312935514368 1:2 2:47 3:1 4:5 5:23 6:2 7:1 
1 1:1 2:45 3:1 4:2 5:20 6:2 7:1 
0.2405769435958102 1:1 2:46 3:1 4:5 5:20 6:2 7:1 
0.786847636223184 1:1 2:54 3:1 4:5 5:5 6:2 7:1 
0.6274862895572767 1:1 2:54 3:1 4:5 5:22 6:2 7:1 
0.5071540159217487 1:1 2:48 3:1 4:5 5:23 6:2 7:1 
0.42084524515391 1:2 2:25 3:1 4:4 5:2 6:1 7:1 
0.8616133154280686 1:2 2:49 3:1 4:5 5:3 6:2 7:1 
0.9591157165052091 1:2 2:27 3:1 4:4 5:2 6:2 7:1 
1 1:1 2:36 3:1 4:2 5:11 6:2 7:1 
0.6292382138202315 1:2 2:36 3:1 4:1 5:8 6:2 7:1 
0.6494946478318088 1:2 2:44 3:3 4:4 5:4 6:2 7:1 
1 1:1 2:37 3:2 4:1 5:12 6:2 7:1 
0.7530311571133446 1:1 2:45 3:2 4:1 5:23 6:1 7:4 
0.2232529082622327 1:1 2:43 3:2 4:3 5:20 6:2 7:3 
0.8615689074962356 1:2 2:37 3:1 4:4 5:15 6:2 7:1 
0.7689232617428139 1:1 2:61 3:3 4:2 5:32 6:2 7:1 
0.1108577672359395 1:2 2:34 3:1 4:2 5:12 6:2 7:1 
0.2480559325651534 1:1 2:54 3:1 4:6 5:22 6:2 7:1 
1 1:2 2:44 3:2 4:2 5:21 6:1 7:1 
0.3817510936110654 1:1 2:46 3:2 4:3 5:24 6:2 7:4 
1 1:1 2:27 3:3 4:1 5:1 6:1 7:1 
1 1:1 2:27 3:4 4:2 5:2 6:1 7:1 
1 1:1 2:27 3:2 4:1 5:3 6:1 7:1 
0.865120545967724 1:1 2:41 3:2 4:1 5:15 6:2 7:1 
1 1:1 2:28 3:1 4:1 5:2 6:2 7:1 
1 1:1 2:29 3:1 4:2 5:1 6:2 7:1 
1 1:1 2:28 3:1 4:1 5:1 6:1 7:1 
1 1:1 2:30 3:4 4:1 5:1 6:1 7:1 
1 1:1 2:33 3:3 4:1 5:2 6:2 7:1 
1 1:1 2:31 3:4 4:1 5:2 6:1 7:4 
1 1:1 2:34 3:1 4:1 5:6 6:2 7:1 
0.3401949149481399 1:1 2:35 3:1 4:1 5:10 6:1 7:1 
1 1:1 2:30 3:1 4:1 5:3 6:1 7:1 
1 1:1 2:32 3:3 4:1 5:4 6:2 7:1 
1 1:1 2:25 3:1 4:1 5:1 6:1 7:1 
1 1:1 2:39 3:3 4:1 5:6 6:1 7:1 
1 1:1 2:31 3:3 4:1 5:1 6:2 7:1 
1 1:1 2:26 3:2 4:1 5:3 6:1 7:1 
1 1:1 2:38 3:3 4:2 5:5 6:2 7:3 
1 1:1 2:45 3:3 4:1 5:2 6:2 7:1 
1 1:2 2:34 3:1 4:1 5:5 6:1 7:1 
1 1:1 2:32 3:1 4:1 5:7 6:1 7:1 
1 1:1 2:42 3:1 4:1 5:6 6:1 7:1 
1 1:1 2:28 3:3 4:1 5:3 6:1 7:1 
0.7167807966744877 1:1 2:35 3:2 4:1 5:12 6:2 7:4 
0.4087703897251846 1:1 2:43 3:2 4:1 5:23 6:2 7:5 
1 1:1 2:43 3:2 4:1 5:19 6:2 7:4 
0.6042337906732697 1:2 2:50 3:3 4:1 5:14 6:2 7:4 
0.5376547212554224 1:2 2:46 3:1 4:1 5:9 6:2 7:4 
0.3932563871826129 1:2 2:39 3:3 4:2 5:5 6:2 7:2 
0.2586529361260678 1:2 2:44 3:2 4:1 5:24 6:2 7:3 
1 1:2 2:28 3:3 4:2 5:2 6:2 7:1 
1 1:1 2:34 3:5 4:1 5:3 6:2 7:4 
1 1:1 2:28 3:2 4:1 5:5 6:1 7:1 
1 1:1 2:27 3:3 4:1 5:2 6:1 7:4 
1 1:1 2:31 3:1 4:2 5:1 6:1 7:1 
1 1:1 2:28 3:1 4:4 5:1 6:2 7:1 
0.01036191539745701 1:1 2:37 3:1 4:2 5:7 6:2 7:1 
1 1:1 2:37 3:1 4:2 5:2 6:1 7:1 
1 1:1 2:43 3:1 4:1 5:4 6:2 7:5 
1 1:1 2:32 3:3 4:1 5:1 6:2 7:1 
0.8846795388750213 1:1 2:43 3:2 4:1 5:21 6:2 7:4 
0.3461624759668557 1:1 2:44 3:2 4:1 5:23 6:2 7:3 
0.5559846112990288 1:2 2:39 3:2 4:3 5:17 6:2 7:4 
0.7682056642127967 1:1 2:54 3:2 4:1 5:34 6:2 7:4 
0.5651490542276599 1:2 2:46 3:3 4:3 5:10 6:2 7:3 
0.8547334034538816 1:2 2:35 3:3 4:1 5:7 6:2 7:1 
1 1:1 2:42 3:2 4:1 5:19 6:2 7:3 
1 1:1 2:36 3:1 4:1 5:6 6:2 7:1 
1 1:1 2:27 3:2 4:2 5:4 6:1 7:1 
1 1:1 2:32 3:1 4:2 5:2 6:2 7:1 
0.4807020477213186 1:1 2:28 3:1 4:5 5:5 6:1 7:1 
1 1:1 2:30 3:1 4:1 5:6 6:1 7:1 
0.8732686987301861 1:1 2:37 3:2 4:2 5:16 6:2 7:1 
0.7665036155226773 1:1 2:31 3:1 4:2 5:7 6:1 7:1 
0.5648583795238435 1:1 2:37 3:1 4:4 5:11 6:2 7:1 
0.1955772558031545 1:1 2:31 3:1 4:1 5:7 6:1 7:1 
1 1:1 2:26 3:1 4:2 5:3 6:1 7:1 
1 1:1 2:30 3:1 4:2 5:2 6:1 7:1 
0.8479570907272078 1:1 2:34 3:1 4:4 5:6 6:2 7:1 
1 1:2 2:30 3:3 4:2 5:3 6:2 7:1 
1 1:1 2:32 3:1 4:2 5:1 6:1 7:1 
1 1:1 2:30 3:1 4:1 5:2 6:1 7:4 
1 1:1 2:29 3:2 4:1 5:5 6:1 7:1 
1 1:1 2:31 3:2 4:1 5:6 6:2 7:4 
1 1:1 2:28 3:1 4:1 5:2 6:1 7:1 
1 1:1 2:28 3:1 4:1 5:2 6:1 7:1 
1 1:2 2:29 3:2 4:1 5:6 6:1 7:1 
1 1:1 2:28 3:2 4:1 5:5 6:1 7:1 
1 1:2 2:30 3:1 4:1 5:5 6:2 7:5 
1 1:1 2:29 3:1 4:1 5:4 6:1 7:1 
1 1:2 2:26 3:1 4:2 5:1 6:1 7:1 
1 1:2 2:26 3:2 4:1 5:3 6:1 7:4 
1 1:1 2:26 3:2 4:1 5:2 6:1 7:1 
1 1:1 2:37 3:1 4:2 5:6 6:1 7:1 
1 1:2 2:27 3:1 4:1 5:2 6:1 7:1 
1 1:1 2:33 3:1 4:1 5:2 6:1 7:1 
1 1:1 2:30 3:3 4:1 5:4 6:2 7:1 
1 1:1 2:30 3:4 4:1 5:4 6:1 7:1 
1 1:1 2:32 3:1 4:1 5:6 6:2 7:1 
1 1:1 2:26 3:2 4:1 5:2 6:1 7:1 
1 1:1 2:30 3:4 4:1 5:4 6:1 7:1 
1 1:1 2:32 3:2 4:1 5:8 6:1 7:1 
0.2817516841095785 1:1 2:35 3:2 4:1 5:8 6:1 7:1 
0.06717691578174037 1:1 2:34 3:1 4:5 5:7 6:1 7:1 
0.4487101122335005 1:1 2:37 3:1 4:6 5:9 6:2 7:1 
1 1:1 2:36 3:1 4:2 5:10 6:2 7:1 
1 1:1 2:29 3:1 4:1 5:1 6:2 7:1 
1 1:1 2:24 3:2 4:2 5:1 6:1 7:1 
0.7411548911077647 1:2 2:31 3:2 4:1 5:8 6:1 7:3 
0.07002931129919585 1:2 2:24 3:3 4:2 5:2 6:2 7:1 
-0.6635173173153485 1:1 2:30 3:4 4:1 5:2 6:1 7:1 
-0.008326646013007375 1:1 2:27 3:2 4:1 5:2 6:1 7:1 
-0.7996718640119981 1:2 2:31 3:3 4:2 5:5 6:2 7:1 
-1 1:2 2:31 3:1 4:1 5:5 6:1 7:1 
-1 1:2 2:30 3:3 4:2 5:6 6:2 7:1 
-1 1:2 2:30 3:1 4:1 5:2 6:1 7:4 
-1 1:1 2:25 3:2 4:1 5:1 6:1 7:1 
-0.5361892677311439 1:2 2:28 3:1 4:2 5:1 6:1 7:1 
-1 1:1 2:34 3:1 4:4 5:1 6:2 7:1 
-1 1:1 2:31 3:3 4:1 5:3 6:2 7:2 
-1 1:1 2:26 3:1 4:2 5:0 6:1 7:1 
-0.8231330903519317 1:1 2:30 3:1 4:1 5:0 6:2 7:1 
-1 1:1 2:38 3:1 4:1 5:6 6:2 7:1 
-1 1:1 2:28 3:1 4:2 5:6 6:2 7:1 
-0.8885237766516184 1:1 2:27 3:2 4:2 5:2 6:1 7:1 
-1 1:1 2:28 3:1 4:1 5:1 6:1 7:1 
-1 1:1 2:30 3:4 4:1 5:2 6:2 7:1 
-1 1:1 2:32 3:1 4:1 5:7 6:1 7:4 
-1 1:2 2:28 3:1 4:2 5:2 6:1 7:1 
-1 1:1 2:30 3:2 4:1 5:5 6:1 7:1 
-1 1:1 2:30 3:1 4:1 5:0 6:2 7:1 
-1 1:1 2:34 3:1 4:2 5:6 6:1 7:1 
-0.5310181031451991 1:1 2:31 3:1 4:1 5:2 6:1 7:1 
-0.001608009754922876 1:1 2:36 3:1 4:2 5:2 6:2 7:1 
-0.4148729006297249 1:1 2:34 3:1 4:1 5:3 6:1 7:5 
-0.6404277421500265 1:1 2:30 3:6 4:1 5:1 6:1 7:1 
-1 1:1 2:27 3:1 4:1 5:1 6:1 7:1 
-0.5959042874002551 1:2 2:31 3:3 4:2 5:1 6:1 7:1 
-0.3334906799057161 1:2 2:31 3:3 4:1 5:0 6:1 7:1 
-0.8696831741665254 1:1 2:35 3:1 4:1 5:5 6:1 7:3 
-0.4755443081487648 1:1 2:30 3:4 4:1 5:0 6:1 7:1 
-1 1:1 2:32 3:2 4:1 5:7 6:1 7:1 
-1 1:1 2:29 3:1 4:1 5:4 6:1 7:1 
-0.485142421439558 1:2 2:26 3:1 4:2 5:0 6:1 7:1 
-1 1:1 2:27 3:1 4:2 5:2 6:1 7:1 
-0.6511624340772212 1:1 2:29 3:1 4:2 5:3 6:1 7:4 
-0.9941679244348834 1:1 2:27 3:2 4:2 5:2 6:1 7:1 
-1 1:1 2:27 3:1 4:5 5:2 6:1 7:1 
-0.9940522969959822 1:1 2:41 3:1 4:4 5:1 6:2 7:1 
-1 1:1 2:26 3:2 4:2 5:3 6:1 7:1 
-0.0136590708661517 1:1 2:31 3:2 4:1 5:2 6:1 7:1 
-1 1:1 2:25 3:4 4:1 5:1 6:1 7:1 
-1 1:1 2:30 3:1 4:3 5:1 6:2 7:1 
-0.3188126970220727 1:1 2:29 3:4 4:1 5:1 6:1 7:1 
-0.9876705240345154 1:1 2:30 3:2 4:2 5:4 6:1 7:1 
-0.2751106909331793 1:1 2:29 3:1 4:3 5:0 6:1 7:1 
-1 1:1 2:30 3:4 4:1 5:0 6:1 7:4 
-0.4587067920458286 1:1 2:30 3:1 4:1 5:2 6:1 7:2 
-1 1:1 2:30 3:1 4:1 5:4 6:2 7:1 
-1 1:2 2:34 3:2 4:3 5:6 6:1 7:3 
-1 1:1 2:29 3:4 4:1 5:3 6:1 7:1 
-1 1:1 2:29 3:2 4:1 5:4 6:1 7:1 
-0.1387387428919844 1:1 2:29 3:1 4:1 5:1 6:1 7:1 
-1 1:1 2:38 3:1 4:1 5:3 6:1 7:1 
-1 1:2 2:32 3:1 4:1 5:6 6:1 7:1 
-1 1:1 2:32 3:4 4:1 5:0 6:2 7:1 
-0.5487455947494276 1:1 2:33 3:2 4:2 5:6 6:1 7:2 
-1 1:1 2:27 3:1 4:2 5:3 6:1 7:1 
-1 1:1 2:44 3:2 4:1 5:19 6:2 7:1 
-0.1823030386452772 1:2 2:33 3:1 4:2 5:0 6:2 7:1 
-0.05742743541824748 1:2 2:35 3:1 4:1 5:3 6:1 7:1 
-1 1:2 2:26 3:1 4:1 5:2 6:1 7:5 
-1 1:1 2:30 3:1 4:4 5:2 6:1 7:1 
-1 1:1 2:30 3:3 4:2 5:1 6:2 7:1 
-1 1:2 2:42 3:1 4:1 5:6 6:2 7:5 
-1 1:2 2:43 3:3 4:2 5:0 6:2 7:1 
-1 1:2 2:24 3:1 4:4 5:1 6:1 7:1 
-1 1:2 2:25 3:1 4:2 5:0 6:1 7:1 
-0.8119504913194951 1:2 2:38 3:3 4:4 5:0 6:2 7:1 
-1 1:2 2:29 3:1 4:2 5:4 6:1 7:1 
-1 1:2 2:38 3:2 4:2 5:13 6:2 7:2 
-1 1:2 2:31 3:1 4:2 5:2 6:2 7:1 
-1 1:2 2:37 3:1 4:2 5:10 6:2 7:1 
-0.6575719464215695 1:2 2:20 3:1 4:4 5:1 6:1 7:1 
-1 1:1 2:44 3:2 4:1 5:22 6:2 7:4 
-1 1:1 2:59 3:1 4:5 5:3 6:2 7:1 
-1 1:2 2:51 3:3 4:2 5:22 6:2 7:1 
-0.9828458054002491 1:2 2:20 3:1 4:4 5:1 6:1 7:1 
-1 1:2 2:48 3:1 4:6 5:0 6:2 7:1 
-0.5966093902307531 1:2 2:37 3:3 4:1 5:10 6:2 7:1 
-1 1:1 2:43 3:2 4:1 5:19 6:2 7:1 
-1 1:1 2:29 3:2 4:2 5:6 6:1 7:2 
-0.5818192242078044 1:1 2:36 3:1 4:3 5:1 6:2 7:1 
-0.5788242215595493 1:1 2:43 3:1 4:1 5:0 6:1 7:1 
-0.2627482548283672 1:1 2:27 3:2 4:1 5:2 6:1 7:1 
-1 1:1 2:26 3:1 4:1 5:1 6:1 7:1 
-1 1:1 2:26 3:4 4:1 5:2 6:1 7:1 
-0.2530490625241668 1:1 2:33 3:1 4:1 5:3 6:2 7:2 
-0.7971578051271164 1:1 2:36 3:3 4:1 5:3 6:2 7:4 
-0.5806284751895963 1:2 2:26 3:1 4:1 5:0 6:1 7:1 
-1 1:1 2:26 3:2 4:1 5:2 6:1 7:1 
-1 1:1 2:31 3:2 4:1 5:6 6:1 7:1 
-0.2704710536173268 1:1 2:32 3:1 4:1 5:0 6:1 7:1 
-1 1:1 2:33 3:1 4:2 5:1 6:1 7:1 
-1 1:1 2:31 3:1 4:2 5:2 6:1 7:1 
-1 1:1 2:38 3:1 4:1 5:3 6:1 7:5 
-1 1:1 2:33 3:2 4:1 5:6 6:2 7:1 
-0.49594786853816 1:1 2:32 3:2 4:1 5:3 6:1 7:1 
-1 1:1 2:31 3:1 4:1 5:3 6:1 7:1 
-1 1:1 2:34 3:3 4:1 5:1 6:1 7:1 
-1 1:1 2:33 3:1 4:1 5:2 6:2 7:1 
-1 1:1 2:25 3:2 4:1 5:1 6:1 7:1 
-1 1:1 2:41 3:1 4:2 5:2 6:1 7:1 
-0.4575051801221545 1:1 2:29 3:1 4:1 5:0 6:1 7:4 
-0.6868553865986948 1:1 2:40 3:1 4:1 5:0 6:2 7:1 
-1 1:1 2:33 3:2 4:1 5:7 6:1 7:1 
-1 1:1 2:28 3:4 4:1 5:3 6:1 7:1 
-0.8050371557146135 1:1 2:33 3:1 4:1 5:1 6:1 7:5 
-0.8612228901160438 1:2 2:34 3:3 4:2 5:1 6:2 7:4 
-1 1:1 2:38 3:2 4:1 5:9 6:2 7:1 
-1 1:1 2:37 3:2 4:1 5:10 6:2 7:1 
-0.245879389345371 1:2 2:32 3:2 4:1 5:3 6:1 7:1 
-1 1:1 2:31 3:1 4:2 5:2 6:1 7:1 
-1 1:1 2:38 3:1 4:1 5:8 6:2 7:1 
-0.226576306373991 1:2 2:29 3:2 4:2 5:1 6:1 7:5 
-0.5555961724929587 1:1 2:28 3:4 4:1 5:1 6:1 7:1 
-1 1:1 2:48 3:1 4:1 5:1 6:2 7:1 
-0.1001306739813651 1:1 2:35 3:1 4:2 5:0 6:1 7:1 
-1 1:1 2:46 3:2 4:1 5:19 6:2 7:4 
-1 1:2 2:26 3:2 4:2 5:1 6:1 7:2 
-1 1:2 2:61 3:2 4:1 5:40 6:2 7:4 
-1 1:2 2:37 3:3 4:1 5:4 6:2 7:1 
-1 1:2 2:25 3:5 4:4 5:3 6:1 7:1 
-1 1:1 2:43 3:2 4:1 5:19 6:2 7:3 
-1 1:1 2:38 3:6 4:1 5:7 6:2 7:3 
-1 1:1 2:42 3:1 4:1 5:5 6:2 7:1 
-1 1:1 2:27 3:1 4:2 5:3 6:1 7:1 
-1 1:1 2:27 3:2 4:1 5:3 6:1 7:4 
-1 1:1 2:41 3:1 4:1 5:4 6:2 7:1 
-0.5623631624324251 1:1 2:28 3:2 4:1 5:3 6:1 7:1 
-1 1:1 2:29 3:2 4:1 5:4 6:1 7:1 
-1 1:1 2:44 3:3 4:1 5:3 6:2 7:4 
-0.7096449740883511 1:1 2:37 3:1 4:1 5:3 6:2 7:1 
-1 1:1 2:35 3:5 4:1 5:3 6:2 7:1 
-0.1455644526777558 1:1 2:42 3:1 4:1 5:3 6:2 7:1 
-1 1:1 2:32 3:1 4:1 5:2 6:2 7:1 
-0.6931963602749717 1:2 2:36 3:3 4:2 5:2 6:2 7:1 
-1 1:2 2:45 3:2 4:1 5:21 6:2 7:3 
-1 1:1 2:54 3:5 4:3 5:8 6:2 7:1 
-1 1:2 2:56 3:3 4:2 5:20 6:2 7:1 
-0.8595670998212112 1:2 2:38 3:1 4:2 5:0 6:2 7:1 
-1 1:1 2:47 3:3 4:1 5:13 6:2 7:1 
-1 1:2 2:37 3:1 4:2 5:5 6:2 7:1 
-1 1:1 2:26 3:2 4:1 5:2 6:1 7:1 
-1 1:1 2:27 3:2 4:1 5:2 6:1 7:1 
-1 1:2 2:32 3:1 4:1 5:5 6:2 7:1 
-1 1:1 2:26 3:5 4:2 5:2 6:1 7:1 
-1 1:1 2:28 3:1 4:2 5:3 6:1 7:1 
-1 1:1 2:33 3:1 4:2 5:5 6:1 7:1 
-1 1:1 2:33 3:5 4:2 5:2 6:2 7:1 
-1 1:1 2:32 3:1 4:2 5:8 6:2 7:1 
-1 1:2 2:32 3:5 4:4 5:2 6:2 7:1 
-1 1:1 2:38 3:1 4:2 5:14 6:2 7:1 
-1 1:1 2:30 3:1 4:2 5:6 6:2 7:1 
-1 1:1 2:31 3:1 4:4 5:1 6:2 7:1 
-0.4238071918398834 1:1 2:32 3:3 4:1 5:5 6:1 7:1 
-1 1:1 2:24 3:2 4:1 5:1 6:1 7:1 
-1 1:1 2:28 3:1 4:1 5:3 6:1 7:1 
-1 1:1 2:37 3:2 4:1 5:12 6:1 7:1 
-0.9804976797594359 1:1 2:25 3:2 4:1 5:0 6:1 7:1 
-1 1:1 2:35 3:2 4:1 5:5 6:1 7:1 
-1 1:1 2:28 3:1 4:1 5:1 6:1 7:1 
-1 1:1 2:33 3:2 4:1 5:8 6:2 7:1 
-1 1:1 2:39 3:1 4:1 5:5 6:1 7:1 
-0.7599142174569442 1:1 2:34 3:3 4:1 5:1 6:1 7:1 
-1 1:1 2:36 3:2 4:2 5:6 6:2 7:1 
-1 1:1 2:29 3:1 4:1 5:2 6:1 7:1 
-1 1:1 2:27 3:2 4:1 5:2 6:1 7:1 
-0.8279687173840237 1:1 2:34 3:1 4:1 5:5 6:1 7:1 
-0.008439174036170727 1:1 2:28 3:2 4:1 5:2 6:1 7:5 
-0.9567585175034473 1:1 2:27 3:2 4:1 5:2 6:1 7:1 
-1 1:1 2:31 3:4 4:1 5:2 6:1 7:1 
-0.3564382218084088 1:1 2:31 3:2 4:1 5:2 6:1 7:1 
-0.3334388301467329 1:1 2:37 3:1 4:1 5:3 6:1 7:1 
-1 1:1 2:28 3:1 4:1 5:1 6:1 7:1 
-0.9731842939904592 1:1 2:42 3:3 4:1 5:1 6:2 7:1 
-1 1:1 2:31 3:1 4:1 5:5 6:1 7:5 
-1 1:1 2:30 3:1 4:2 5:5 6:2 7:1 
-1 1:1 2:28 3:4 4:1 5:3 6:1 7:1 
-1 1:1 2:29 3:4 4:1 5:3 6:1 7:1 
-0.9267416356365795 1:1 2:28 3:2 4:1 5:3 6:1 7:1 
-1 1:1 2:26 3:2 4:2 5:4 6:1 7:1 
-1 1:1 2:30 3:2 4:2 5:3 6:1 7:4 
-1 1:2 2:29 3:2 4:1 5:4 6:1 7:1 
-0.01203245444456786 1:2 2:28 3:2 4:1 5:2 6:1 7:1 
-1 1:1 2:30 3:1 4:5 5:7 6:1 7:1 
-1 1:1 2:35 3:1 4:2 5:9 6:2 7:1 
-1 1:1 2:29 3:2 4:1 5:4 6:1 7:5 
-1 1:1 2:28 3:1 4:1 5:3 6:1 7:1 
-1 1:1 2:31 3:2 4:2 5:6 6:1 7:1 
-1 1:1 2:27 3:2 4:2 5:4 6:1 7:1 
-1 1:1 2:31 3:1 4:2 5:6 6:1 7:1 
