svm_type c_svc
kernel_type rbf
gamma 0.142857
nr_class 2
total_sv 361
rho -0.301541
label 2 1
nr_sv 184 177
SV
1 1:1 2:40 3:1 4:3 5:6 6:2 7:5 
0.5828790861599096 1:2 2:35 3:1 4:2 5:12 6:2 7:1 
1 1:1 2:33 3:3 4:1 5:4 6:2 7:1 
1 1:1 2:28 3:2 4:1 5:4 6:1 7:1 
1 1:2 2:34 3:1 4:2 5:3 6:2 7:5 
0.4064833127528942 1:1 2:52 3:1 4:6 5:4 6:2 7:1 
0.7999115027845135 1:1 2:29 3:1 4:1 5:5 6:1 7:1 
1 1:1 2:28 3:1 4:1 5:2 6:1 7:1 
1 1:1 2:35 3:1 4:1 5:4 6:1 7:1 
1 1:1 2:33 3:1 4:1 5:4 6:2 7:1 
1 1:1 2:29 3:1 4:1 5:2 6:1 7:1 
1 1:1 2:26 3:2 4:1 5:2 6:1 7:1 
1 1:1 2:35 3:1 4:1 5:5 6:1 7:1 
1 1:1 2:29 3:1 4:1 5:5 6:1 7:1 
1 1:1 2:30 3:1 4:2 5:1 6:1 7:1 
0.09369380067173103 1:1 2:37 3:1 4:2 5:6 6:1 7:1 
0.8571864461068788 1:2 2:34 3:1 4:2 5:7 6:1 7:1 
0.2914499200808529 1:1 2:41 3:1 4:1 5:7 6:2 7:1 
0.7576234010512606 1:1 2:29 3:2 4:2 5:6 6:2 7:1 
1 1:1 2:27 3:1 4:2 5:4 6:1 7:1 
0.146421571933312 1:1 2:31 3:1 4:5 5:4 6:2 7:1 
1 1:1 2:29 3:3 4:2 5:2 6:1 7:1 
0.4878988779371922 1:1 2:23 3:1 4:5 5:5 6:1 7:1 
0.5957012225520717 1:1 2:38 3:3 4:2 5:4 6:2 7:1 
1 1:2 2:26 3:3 4:2 5:3 6:1 7:1 
0.1034113231229996 1:1 2:37 3:3 4:2 5:4 6:2 7:1 
1 1:1 2:30 3:3 4:2 5:1 6:1 7:1 
1 1:1 2:36 3:3 4:1 5:2 6:2 7:1 
1 1:1 2:31 3:3 4:5 5:4 6:1 7:1 
0.8764330929823178 1:1 2:38 3:3 4:2 5:12 6:2 7:1 
0.1136267187339777 1:1 2:37 3:1 4:5 5:6 6:1 7:1 
0.2988778552859235 1:1 2:24 3:5 4:2 5:2 6:1 7:1 
1 1:2 2:27 3:3 4:2 5:2 6:2 7:1 
0.5807002639909368 1:1 2:44 3:1 4:6 5:15 6:2 7:1 
1 1:1 2:26 3:1 4:2 5:4 6:1 7:1 
1 1:1 2:29 3:3 4:1 5:6 6:2 7:1 
1 1:1 2:28 3:3 4:1 5:4 6:1 7:1 
1 1:1 2:42 3:1 4:3 5:1 6:2 7:1 
1 1:1 2:27 3:1 4:1 5:1 6:1 7:1 
1 1:1 2:31 3:3 4:1 5:2 6:2 7:1 
1 1:1 2:34 3:1 4:2 5:2 6:1 7:1 
1 1:1 2:32 3:1 4:1 5:2 6:2 7:1 
1 1:2 2:27 3:1 4:1 5:1 6:1 7:1 
1 1:1 2:27 3:1 4:2 5:2 6:1 7:1 
1 1:2 2:29 3:2 4:1 5:5 6:2 7:1 
1 1:1 2:30 3:2 4:1 5:5 6:1 7:1 
0.1920683198055907 1:2 2:23 3:2 4:1 5:1 6:1 7:1 
0.8879855830983692 1:2 2:31 3:2 4:1 5:9 6:2 7:3 
0.3324314320035713 1:1 2:25 3:2 4:1 5:3 6:1 7:1 
1 1:1 2:29 3:4 4:2 5:6 6:1 7:1 
1 1:1 2:30 3:1 4:1 5:4 6:2 7:1 
1 1:1 2:25 3:2 4:1 5:1 6:1 7:1 
1 1:1 2:34 3:1 4:2 5:7 6:2 7:3 
1 1:1 2:26 3:2 4:1 5:1 6:1 7:1 
0.5532031504548235 1:1 2:27 3:1 4:1 5:4 6:1 7:1 
0.05231952697661164 1:1 2:34 3:1 4:1 5:8 6:1 7:1 
1 1:1 2:24 3:2 4:1 5:1 6:1 7:1 
1 1:2 2:26 3:2 4:1 5:3 6:1 7:1 
1 1:1 2:26 3:3 4:1 5:2 6:1 7:1 
1 1:1 2:23 3:1 4:2 5:1 6:1 7:1 
1 1:1 2:35 3:1 4:1 5:4 6:2 7:1 
1 1:1 2:31 3:1 4:1 5:2 6:2 7:1 
1 1:1 2:25 3:2 4:1 5:2 6:1 7:1 
1 1:1 2:25 3:2 4:1 5:1 6:1 7:1 
0.2757394521542303 1:1 2:37 3:1 4:1 5:6 6:2 7:1 
0.6073124391226098 1:1 2:29 3:2 4:1 5:6 6:1 7:1 
1 1:2 2:30 3:1 4:2 5:4 6:1 7:1 
1 1:1 2:32 3:1 4:1 5:4 6:2 7:1 
0.2328841352686263 1:2 2:29 3:1 4:2 5:6 6:1 7:1 
1 1:1 2:27 3:3 4:1 5:3 6:1 7:1 
0.03992261736541028 1:2 2:34 3:3 4:2 5:4 6:2 7:1 
1 1:2 2:31 3:3 4:1 5:2 6:1 7:1 
1 1:2 2:24 3:5 4:1 5:1 6:1 7:1 
1 1:1 2:28 3:1 4:1 5:2 6:1 7:1 
1 1:1 2:34 3:3 4:2 5:1 6:2 7:1 
1 1:1 2:21 3:2 4:2 5:1 6:1 7:1 
0.3051566567847968 1:1 2:34 3:1 4:2 5:7 6:1 7:1 
1 1:1 2:30 3:1 4:1 5:3 6:1 7:4 
1 1:1 2:27 3:1 4:2 5:4 6:1 7:1 
1 1:1 2:28 3:1 4:1 5:4 6:1 7:1 
1 1:1 2:39 3:1 4:2 5:3 6:2 7:1 
1 1:1 2:26 3:1 4:2 5:1 6:1 7:1 
1 1:1 2:27 3:1 4:2 5:1 6:1 7:1 
0.5541623718866956 1:1 2:47 3:1 4:6 5:17 6:2 7:1 
1 1:1 2:31 3:1 4:2 5:7 6:2 7:1 
0.7005054876001768 1:1 2:38 3:1 4:5 5:5 6:2 7:1 
1 1:1 2:33 3:3 4:1 5:7 6:2 7:1 
1 1:1 2:28 3:4 4:1 5:2 6:1 7:1 
1 1:1 2:29 3:4 4:1 5:2 6:1 7:1 
1 1:1 2:28 3:1 4:1 5:2 6:2 7:1 
0.3647351331817138 1:1 2:34 3:3 4:1 5:9 6:1 7:1 
1 1:1 2:26 3:1 4:2 5:2 6:1 7:1 
1 1:1 2:30 3:1 4:1 5:5 6:1 7:1 
1 1:1 2:30 3:1 4:1 5:5 6:1 7:1 
1 1:1 2:27 3:1 4:1 5:1 6:1 7:1 
1 1:1 2:26 3:1 4:1 5:1 6:1 7:1 
1 1:1 2:34 3:1 4:1 5:6 6:2 7:5 
1 1:1 2:31 3:1 4:2 5:3 6:1 7:4 
1 1:1 2:25 3:5 4:2 5:2 6:1 7:1 
1 1:1 2:31 3:1 4:2 5:4 6:1 7:2 
0.09032826010744459 1:2 2:30 3:1 4:2 5:7 6:2 7:1 
0.5928237935860465 1:1 2:37 3:1 4:2 5:8 6:2 7:1 
0.209790757751673 1:1 2:31 3:1 4:5 5:7 6:1 7:1 
0.5731654788005131 1:1 2:54 3:1 4:6 5:16 6:2 7:1 
1 1:2 2:27 3:3 4:2 5:4 6:1 7:1 
1 1:1 2:28 3:1 4:1 5:1 6:1 7:1 
1 1:1 2:30 3:4 4:1 5:1 6:2 7:1 
1 1:1 2:40 3:1 4:2 5:9 6:2 7:4 
1 1:1 2:25 3:1 4:1 5:1 6:1 7:1 
1 1:2 2:35 3:1 4:3 5:4 6:1 7:1 
1 1:2 2:28 3:1 4:2 5:4 6:1 7:1 
0.3691781983021062 1:1 2:42 3:1 4:2 5:7 6:2 7:1 
1 1:1 2:31 3:1 4:4 5:2 6:1 7:1 
1 1:1 2:30 3:1 4:1 5:3 6:1 7:1 
1 1:1 2:30 3:1 4:4 5:3 6:1 7:1 
1 1:1 2:27 3:1 4:4 5:4 6:2 7:1 
1 1:1 2:26 3:3 4:2 5:2 6:1 7:1 
1 1:1 2:32 3:2 4:2 5:8 6:1 7:1 
0.298182263120699 1:1 2:45 3:1 4:6 5:6 6:2 7:1 
1 1:2 2:33 3:3 4:1 5:6 6:1 7:1 
1 1:2 2:24 3:2 4:1 5:1 6:1 7:1 
1 1:1 2:38 3:3 4:1 5:2 6:2 7:1 
1 1:1 2:24 3:2 4:1 5:1 6:1 7:1 
1 1:1 2:31 3:1 4:1 5:1 6:1 7:1 
1 1:1 2:41 3:1 4:2 5:2 6:2 7:1 
0.6401959902103695 1:2 2:47 3:1 4:2 5:8 6:2 7:1 
0.4763742147650132 1:2 2:45 3:1 4:6 5:8 6:2 7:1 
0.8126116088708012 1:2 2:24 3:1 4:4 5:2 6:1 7:1 
0.5795343734244867 1:1 2:57 3:1 4:5 5:15 6:2 7:1 
0.5331441730052303 1:1 2:40 3:2 4:3 5:17 6:2 7:4 
1 1:1 2:34 3:3 4:2 5:1 6:2 7:1 
0.204362024827264 1:1 2:35 3:1 4:4 5:10 6:2 7:1 
1 1:2 2:33 3:1 4:5 5:2 6:2 7:1 
0.2541141549430721 1:1 2:48 3:1 4:6 5:5 6:2 7:1 
1 1:2 2:38 3:1 4:1 5:5 6:2 7:3 
0.6532975950279175 1:2 2:49 3:1 4:2 5:22 6:2 7:5 
1 1:2 2:39 3:1 4:1 5:2 6:1 7:1 
0.6973502950827537 1:2 2:47 3:3 4:1 5:14 6:2 7:4 
0.4801583228967569 1:1 2:40 3:1 4:1 5:10 6:2 7:1 
1 1:1 2:32 3:1 4:2 5:6 6:1 7:1 
1 1:1 2:30 3:3 4:2 5:2 6:2 7:1 
1 1:1 2:31 3:1 4:2 5:4 6:1 7:1 
1 1:2 2:43 3:3 4:2 5:1 6:2 7:1 
0.8546353452546168 1:1 2:42 3:3 4:3 5:18 6:2 7:1 
0.2188259235300243 1:2 2:47 3:1 4:5 5:23 6:2 7:1 
1 1:1 2:45 3:1 4:2 5:20 6:2 7:1 
0.1524910455958065 1:1 2:46 3:1 4:5 5:20 6:2 7:1 
0.54283243712868 1:1 2:54 3:1 4:5 5:5 6:2 7:1 
0.4720720002213477 1:1 2:54 3:1 4:5 5:22 6:2 7:1 
0.4694765067168464 1:1 2:48 3:1 4:5 5:23 6:2 7:1 
1 1:2 2:25 3:1 4:4 5:2 6:1 7:1 
0.854627886637041 1:2 2:49 3:1 4:5 5:3 6:2 7:1 
1 1:2 2:27 3:1 4:4 5:2 6:2 7:1 
0.4589743762853881 1:1 2:36 3:1 4:2 5:11 6:2 7:1 
0.4439293320914894 1:2 2:44 3:3 4:4 5:4 6:2 7:1 
0.9777487407045251 1:1 2:37 3:2 4:1 5:12 6:2 7:1 
1 1:1 2:45 3:2 4:1 5:23 6:1 7:4 
0.6994292709355496 1:1 2:43 3:2 4:3 5:20 6:2 7:3 
0.724698606397008 1:2 2:37 3:1 4:4 5:15 6:2 7:1 
0.698508321644613 1:1 2:61 3:3 4:2 5:32 6:2 7:1 
0.2798075823285573 1:2 2:34 3:1 4:2 5:12 6:2 7:1 
0.2971371885171181 1:1 2:54 3:1 4:6 5:22 6:2 7:1 
0.6422474607891988 1:2 2:44 3:2 4:2 5:21 6:1 7:1 
0.3532349095036076 1:1 2:46 3:2 4:3 5:24 6:2 7:4 
1 1:1 2:27 3:3 4:1 5:1 6:1 7:1 
1 1:1 2:27 3:4 4:2 5:2 6:1 7:1 
1 1:1 2:27 3:2 4:1 5:3 6:1 7:1 
0.6326451147475604 1:1 2:41 3:2 4:1 5:15 6:2 7:1 
1 1:1 2:28 3:1 4:1 5:2 6:2 7:1 
1 1:1 2:29 3:1 4:2 5:1 6:2 7:1 
1 1:1 2:28 3:1 4:1 5:1 6:1 7:1 
1 1:1 2:30 3:4 4:1 5:1 6:1 7:1 
1 1:1 2:33 3:3 4:1 5:2 6:2 7:1 
1 1:1 2:31 3:4 4:1 5:2 6:1 7:4 
0.7982452936838562 1:1 2:34 3:1 4:1 5:6 6:2 7:1 
0.4276513764468375 1:1 2:35 3:1 4:1 5:10 6:1 7:1 
1 1:1 2:30 3:1 4:1 5:3 6:1 7:1 
1 1:1 2:32 3:3 4:1 5:4 6:2 7:1 
1 1:1 2:25 3:1 4:1 5:1 6:1 7:1 
0.6238688751389322 1:1 2:39 3:3 4:1 5:6 6:1 7:1 
1 1:1 2:31 3:3 4:1 5:1 6:2 7:1 
1 1:1 2:26 3:2 4:1 5:3 6:1 7:1 
0.36564898793519 1:1 2:38 3:3 4:2 5:5 6:2 7:3 
0.6681189083402505 1:1 2:45 3:3 4:1 5:2 6:2 7:1 
-0.8387080484932697 1:1 2:31 3:4 4:1 5:6 6:2 7:4 
-1 1:1 2:30 3:3 4:5 5:2 6:1 7:1 
-1 1:1 2:52 3:1 4:6 5:0 6:2 7:1 
-0.8362766277228764 1:2 2:48 3:3 4:6 5:0 6:2 7:1 
-1 1:2 2:28 3:5 4:2 5:3 6:2 7:1 
-1 1:1 2:38 3:2 4:3 5:3 6:1 7:1 
-1 1:1 2:22 3:1 4:1 5:1 6:1 7:1 
-1 1:1 2:26 3:1 4:1 5:1 6:1 7:1 
-1 1:1 2:24 3:4 4:1 5:1 6:1 7:1 
-0.3305188302966851 1:1 2:37 3:1 4:3 5:0 6:2 7:1 
-1 1:1 2:30 3:1 4:3 5:3 6:1 7:1 
-0.8173928509600398 1:1 2:39 3:1 4:1 5:1 6:2 7:4 
-1 1:1 2:29 3:2 4:1 5:4 6:1 7:1 
-0.79401922784501 1:1 2:31 3:1 4:1 5:3 6:1 7:4 
-1 1:1 2:37 3:4 4:3 5:0 6:2 7:1 
-1 1:2 2:28 3:1 4:2 5:4 6:1 7:1 
-0.6208130736435937 1:1 2:36 3:1 4:1 5:3 6:1 7:1 
-0.8599455161346108 1:1 2:40 3:1 4:1 5:2 6:1 7:1 
-1 1:1 2:33 3:2 4:1 5:7 6:1 7:1 
-1 1:1 2:33 3:2 4:1 5:3 6:1 7:1 
-1 1:1 2:29 3:2 4:1 5:4 6:1 7:1 
-1 1:1 2:33 3:2 4:1 5:6 6:2 7:1 
-1 1:1 2:40 3:2 4:3 5:8 6:2 7:4 
-1 1:1 2:29 3:1 4:5 5:2 6:2 7:1 
-1 1:1 2:26 3:2 4:1 5:2 6:1 7:1 
-1 1:2 2:29 3:6 4:1 5:5 6:1 7:1 
-1 1:1 2:30 3:2 4:2 5:5 6:1 7:1 
-0.003736997230575814 1:1 2:30 3:3 4:2 5:1 6:1 7:1 
-1 1:1 2:32 3:1 4:2 5:2 6:2 7:1 
-0.8919509724444593 1:1 2:37 3:3 4:5 5:2 6:2 7:1 
-1 1:2 2:25 3:3 4:1 5:1 6:1 7:1 
-1 1:2 2:26 3:2 4:2 5:2 6:1 7:1 
-0.3817654343341877 1:1 2:28 3:1 4:1 5:0 6:1 7:1 
-1 1:1 2:35 3:4 4:1 5:1 6:1 7:1 
-1 1:1 2:31 3:1 4:1 5:1 6:2 7:1 
-0.8127864427441057 1:1 2:26 3:4 4:1 5:1 6:1 7:1 
-1 1:1 2:29 3:1 4:1 5:1 6:1 7:1 
-1 1:1 2:29 3:2 4:1 5:4 6:1 7:1 
-1 1:2 2:28 3:4 4:1 5:3 6:1 7:1 
-0.3493585965244921 1:1 2:32 3:2 4:1 5:3 6:1 7:1 
-0.2768015860083091 1:1 2:35 3:1 4:1 5:2 6:2 7:1 
-1 1:1 2:41 3:1 4:1 5:2 6:2 7:1 
-0.04716924700642519 1:1 2:29 3:4 4:1 5:1 6:1 7:1 
-1 1:1 2:29 3:1 4:1 5:1 6:2 7:1 
-1 1:1 2:26 3:2 4:2 5:3 6:1 7:1 
-0.1349271329677518 1:2 2:27 3:2 4:1 5:2 6:1 7:1 
-1 1:1 2:38 3:1 4:1 5:4 6:1 7:1 
-1 1:1 2:25 3:1 4:1 5:0 6:1 7:1 
-1 1:1 2:24 3:1 4:1 5:0 6:1 7:1 
-1 1:1 2:35 3:1 4:1 5:12 6:1 7:1 
-1 1:1 2:28 3:2 4:1 5:3 6:1 7:1 
-1 1:1 2:26 3:2 4:1 5:2 6:1 7:1 
-1 1:2 2:25 3:1 4:2 5:1 6:2 7:1 
-1 1:1 2:28 3:1 4:1 5:1 6:2 7:1 
-1 1:1 2:27 3:1 4:2 5:4 6:2 7:1 
-0.07614518134147108 1:1 2:27 3:2 4:1 5:2 6:1 7:1 
-1 1:2 2:23 3:1 4:2 5:0 6:1 7:1 
-1 1:1 2:31 3:1 4:1 5:3 6:1 7:5 
-1 1:1 2:29 3:2 4:1 5:4 6:1 7:1 
-1 1:1 2:27 3:1 4:2 5:2 6:1 7:1 
-0.1998487148400999 1:1 2:30 3:2 4:1 5:6 6:1 7:4 
-1 1:1 2:26 3:2 4:1 5:3 6:1 7:1 
-0.07402494512541102 1:1 2:30 3:6 4:1 5:2 6:1 7:1 
-1 1:2 2:27 3:2 4:2 5:2 6:1 7:1 
-1 1:1 2:27 3:2 4:1 5:2 6:1 7:1 
-1 1:1 2:31 3:1 4:1 5:4 6:2 7:1 
-1 1:2 2:26 3:1 4:1 5:1 6:1 7:1 
-0.3788929555163515 1:1 2:26 3:1 4:1 5:0 6:1 7:1 
-0.2476851739082635 1:1 2:29 3:2 4:1 5:4 6:1 7:4 
-1 1:1 2:26 3:4 4:1 5:2 6:1 7:1 
-1 1:1 2:27 3:1 4:1 5:2 6:1 7:1 
-0.1677425239500586 1:1 2:34 3:1 4:2 5:2 6:1 7:1 
-1 1:1 2:26 3:1 4:2 5:3 6:1 7:1 
-1 1:1 2:26 3:1 4:2 5:5 6:1 7:1 
-1 1:1 2:30 3:4 4:1 5:2 6:1 7:1 
-0.0009313906701879573 1:1 2:30 3:1 4:1 5:1 6:1 7:1 
-1 1:1 2:27 3:2 4:1 5:2 6:1 7:1 
-0.8205865170830056 1:2 2:31 3:3 4:2 5:5 6:2 7:1 
-1 1:2 2:31 3:1 4:1 5:5 6:1 7:1 
-0.06939184007580565 1:1 2:26 3:2 4:1 5:1 6:1 7:1 
-1 1:2 2:30 3:3 4:2 5:6 6:2 7:1 
-0.1773772700566754 1:2 2:30 3:1 4:1 5:2 6:1 7:4 
-1 1:1 2:25 3:2 4:1 5:1 6:1 7:1 
-1 1:1 2:34 3:1 4:4 5:1 6:2 7:1 
-1 1:1 2:31 3:3 4:1 5:3 6:2 7:2 
-0.5084513133370787 1:1 2:26 3:1 4:2 5:0 6:1 7:1 
-1 1:1 2:38 3:1 4:1 5:6 6:2 7:1 
-1 1:1 2:28 3:1 4:2 5:6 6:2 7:1 
-0.3252181741303731 1:1 2:27 3:2 4:2 5:2 6:1 7:1 
-0.9167573149810082 1:2 2:30 3:1 4:1 5:3 6:1 7:1 
-1 1:1 2:28 3:1 4:1 5:1 6:1 7:1 
-1 1:1 2:30 3:4 4:1 5:2 6:2 7:1 
-1 1:1 2:32 3:1 4:1 5:7 6:1 7:4 
-0.4247844333988312 1:2 2:28 3:1 4:2 5:2 6:1 7:1 
-1 1:1 2:30 3:2 4:1 5:5 6:1 7:1 
-0.3331428977279373 1:1 2:30 3:1 4:1 5:0 6:2 7:1 
-1 1:1 2:31 3:3 4:2 5:1 6:1 7:1 
-1 1:1 2:34 3:1 4:2 5:6 6:1 7:1 
-1 1:1 2:35 3:1 4:1 5:3 6:1 7:1 
-0.6951384625719832 1:1 2:36 3:1 4:2 5:2 6:2 7:1 
-1 1:1 2:34 3:1 4:1 5:3 6:1 7:5 
-0.7742498150752001 1:1 2:30 3:6 4:1 5:1 6:1 7:1 
-1 1:1 2:27 3:1 4:1 5:1 6:1 7:1 
-0.8885555708226082 1:2 2:31 3:3 4:2 5:1 6:1 7:1 
-0.1851268448013763 1:2 2:31 3:3 4:1 5:0 6:1 7:1 
-1 1:1 2:35 3:1 4:1 5:5 6:1 7:3 
-0.5931843370996864 1:1 2:30 3:4 4:1 5:0 6:1 7:1 
-1 1:1 2:32 3:2 4:1 5:7 6:1 7:1 
-1 1:1 2:29 3:1 4:1 5:4 6:1 7:1 
-0.2059431233731792 1:1 2:28 3:3 4:2 5:0 6:1 7:1 
-1 1:1 2:27 3:1 4:2 5:2 6:1 7:1 
-1 1:1 2:29 3:1 4:2 5:3 6:1 7:4 
-1 1:1 2:30 3:1 4:1 5:2 6:1 7:1 
-1 1:1 2:27 3:2 4:2 5:2 6:1 7:1 
-1 1:1 2:27 3:1 4:5 5:2 6:1 7:1 
-1 1:1 2:41 3:1 4:4 5:1 6:2 7:1 
-1 1:1 2:26 3:2 4:2 5:3 6:1 7:1 
-1 1:1 2:28 3:4 4:1 5:2 6:1 7:1 
-1 1:1 2:25 3:4 4:1 5:1 6:1 7:1 
-0.2356777677883193 1:1 2:30 3:1 4:3 5:1 6:2 7:1 
-0.9980225284438593 1:1 2:29 3:4 4:1 5:1 6:1 7:1 
-0.5021899749165698 1:1 2:30 3:2 4:2 5:4 6:1 7:1 
-0.3938224140509236 1:1 2:29 3:1 4:3 5:0 6:1 7:1 
-1 1:1 2:30 3:4 4:1 5:0 6:1 7:4 
-1 1:1 2:30 3:1 4:1 5:4 6:2 7:1 
-0.07562968680756682 1:1 2:34 3:2 4:1 5:2 6:1 7:1 
-1 1:2 2:34 3:2 4:3 5:6 6:1 7:3 
-1 1:1 2:29 3:2 4:1 5:4 6:1 7:1 
-1 1:1 2:29 3:1 4:1 5:1 6:1 7:1 
-0.8302834014123437 1:1 2:38 3:1 4:1 5:3 6:1 7:1 
-1 1:2 2:32 3:1 4:1 5:6 6:1 7:1 
-1 1:1 2:32 3:4 4:1 5:0 6:2 7:1 
-1 1:1 2:33 3:2 4:2 5:6 6:1 7:2 
-1 1:1 2:27 3:1 4:2 5:3 6:1 7:1 
-1 1:1 2:44 3:2 4:1 5:19 6:2 7:1 
-0.5276810797028305 1:2 2:33 3:1 4:2 5:0 6:2 7:1 
-1 1:2 2:35 3:1 4:1 5:3 6:1 7:1 
-1 1:2 2:26 3:1 4:1 5:2 6:1 7:5 
-1 1:1 2:30 3:1 4:4 5:2 6:1 7:1 
-1 1:1 2:30 3:3 4:2 5:1 6:2 7:1 
-1 1:2 2:42 3:1 4:1 5:6 6:2 7:5 
-1 1:2 2:43 3:3 4:2 5:0 6:2 7:1 
-1 1:2 2:24 3:1 4:4 5:1 6:1 7:1 
-0.4312293546280184 1:2 2:25 3:1 4:2 5:0 6:1 7:1 
-0.2322684710069775 1:2 2:38 3:3 4:4 5:0 6:2 7:1 
-1 1:2 2:29 3:1 4:2 5:4 6:1 7:1 
-1 1:2 2:38 3:2 4:2 5:13 6:2 7:2 
-0.5806012094117897 1:2 2:31 3:1 4:2 5:2 6:2 7:1 
-1 1:2 2:37 3:1 4:2 5:10 6:2 7:1 
-0.5811416646995 1:2 2:20 3:1 4:4 5:1 6:1 7:1 
-1 1:1 2:44 3:2 4:1 5:22 6:2 7:4 
-1 1:1 2:59 3:1 4:5 5:3 6:2 7:1 
-1 1:2 2:51 3:3 4:2 5:22 6:2 7:1 
-0.9984123773799334 1:2 2:20 3:1 4:4 5:1 6:1 7:1 
-0.9320939289573588 1:2 2:48 3:1 4:6 5:0 6:2 7:1 
-1 1:2 2:37 3:3 4:1 5:10 6:2 7:1 
-1 1:1 2:43 3:2 4:1 5:19 6:2 7:1 
-1 1:1 2:29 3:2 4:2 5:6 6:1 7:2 
-1 1:1 2:43 3:1 4:1 5:0 6:1 7:1 
-1 1:1 2:27 3:2 4:1 5:2 6:1 7:1 
-1 1:1 2:26 3:1 4:1 5:1 6:1 7:1 
-1 1:1 2:26 3:4 4:1 5:2 6:1 7:1 
-1 1:1 2:33 3:1 4:1 5:3 6:2 7:2 
-1 1:1 2:36 3:3 4:1 5:3 6:2 7:4 
-1 1:1 2:26 3:2 4:1 5:2 6:1 7:1 
-1 1:1 2:31 3:2 4:1 5:6 6:1 7:1 
-0.5796840647366526 1:1 2:31 3:1 4:2 5:2 6:1 7:1 
-0.8673383545543024 1:1 2:38 3:1 4:1 5:3 6:1 7:5 
-1 1:1 2:33 3:2 4:1 5:6 6:2 7:1 
-0.8935189531146387 1:1 2:32 3:2 4:1 5:3 6:1 7:1 
-1 1:1 2:31 3:1 4:1 5:3 6:1 7:1 
-1 1:1 2:34 3:3 4:1 5:1 6:1 7:1 
-1 1:1 2:33 3:1 4:1 5:2 6:2 7:1 
-1 1:1 2:25 3:2 4:1 5:1 6:1 7:1 
-1 1:1 2:41 3:1 4:2 5:2 6:1 7:1 
-0.4920409131020407 1:1 2:29 3:1 4:1 5:0 6:1 7:4 
-0.001206168189580414 1:1 2:35 3:1 4:1 5:2 6:2 7:4 
