svm_type c_svc
kernel_type rbf
gamma 0.142857
nr_class 2
total_sv 345
rho 0.257137
label 1 2
nr_sv 175 170
SV
0.003222429203668004 1:1 2:31 3:1 4:1 5:3 6:1 7:5 
0.9195231887582203 1:1 2:25 3:3 4:1 5:1 6:1 7:4 
1 1:1 2:25 3:1 4:2 5:0 6:1 7:1 
1 1:1 2:29 3:1 4:1 5:4 6:1 7:1 
1 1:1 2:34 3:2 4:1 5:6 6:1 7:1 
1 1:1 2:30 3:2 4:1 5:6 6:1 7:1 
0.4179536614190924 1:1 2:32 3:1 4:2 5:2 6:1 7:1 
1 1:1 2:34 3:2 4:1 5:4 6:1 7:1 
1 1:1 2:25 3:2 4:1 5:1 6:1 7:1 
1 1:1 2:41 3:1 4:1 5:1 6:2 7:1 
1 1:1 2:28 3:2 4:1 5:3 6:1 7:1 
0.1679229236710286 1:1 2:34 3:1 4:2 5:1 6:2 7:1 
1 1:1 2:47 3:1 4:3 5:4 6:2 7:1 
1 1:2 2:31 3:1 4:5 5:3 6:1 7:1 
1 1:1 2:26 3:2 4:1 5:1 6:1 7:1 
1 1:1 2:39 3:1 4:1 5:5 6:2 7:1 
0.1921531352119334 1:1 2:30 3:2 4:1 5:1 6:1 7:5 
1 1:1 2:27 3:1 4:1 5:1 6:1 7:1 
0.292584090065506 1:2 2:31 3:1 4:3 5:1 6:1 7:1 
0.2157354247398766 1:1 2:28 3:1 4:1 5:1 6:1 7:1 
1 1:1 2:34 3:1 4:1 5:3 6:2 7:1 
1 1:2 2:33 3:2 4:3 5:1 6:1 7:1 
1 1:1 2:32 3:2 4:1 5:7 6:1 7:1 
1 1:1 2:32 3:1 4:2 5:2 6:2 7:1 
1 1:2 2:25 3:1 4:5 5:0 6:1 7:1 
0.4288817405923963 1:1 2:34 3:1 4:1 5:1 6:1 7:4 
1 1:1 2:38 3:3 4:1 5:13 6:2 7:1 
1 1:2 2:40 3:3 4:2 5:13 6:2 7:1 
1 1:1 2:34 3:1 4:2 5:9 6:1 7:1 
1 1:1 2:28 3:4 4:1 5:3 6:1 7:1 
0.9454722430134017 1:1 2:31 3:3 4:3 5:1 6:1 7:1 
1 1:1 2:41 3:1 4:2 5:7 6:2 7:1 
1 1:1 2:34 3:2 4:1 5:5 6:1 7:1 
0.868180377431382 1:1 2:34 3:1 4:1 5:0 6:2 7:1 
1 1:2 2:28 3:1 4:1 5:2 6:1 7:1 
1 1:2 2:45 3:1 4:1 5:13 6:1 7:5 
0.7259420664580801 1:1 2:31 3:4 4:1 5:6 6:2 7:4 
1 1:1 2:30 3:3 4:5 5:2 6:1 7:1 
1 1:1 2:52 3:1 4:6 5:0 6:2 7:1 
1 1:2 2:48 3:3 4:6 5:0 6:2 7:1 
1 1:2 2:28 3:5 4:2 5:3 6:2 7:1 
1 1:1 2:38 3:2 4:3 5:3 6:1 7:1 
1 1:1 2:22 3:1 4:1 5:1 6:1 7:1 
1 1:1 2:26 3:1 4:1 5:1 6:1 7:1 
1 1:1 2:24 3:4 4:1 5:1 6:1 7:1 
0.3932379596222719 1:1 2:37 3:1 4:3 5:0 6:2 7:1 
1 1:1 2:30 3:1 4:3 5:3 6:1 7:1 
1 1:1 2:39 3:1 4:1 5:1 6:2 7:4 
0.2669393322712317 1:1 2:38 3:1 4:1 5:2 6:1 7:3 
0.06416139091972399 1:1 2:34 3:2 4:1 5:3 6:1 7:4 
1 1:1 2:29 3:2 4:1 5:4 6:1 7:1 
0.6845212117649577 1:1 2:31 3:1 4:1 5:3 6:1 7:4 
1 1:1 2:37 3:4 4:3 5:0 6:2 7:1 
1 1:2 2:28 3:1 4:2 5:4 6:1 7:1 
0.1079974708231222 1:1 2:36 3:1 4:1 5:3 6:1 7:1 
1 1:1 2:40 3:1 4:1 5:2 6:1 7:1 
1 1:1 2:33 3:2 4:1 5:7 6:1 7:1 
1 1:1 2:33 3:2 4:1 5:3 6:1 7:1 
1 1:1 2:29 3:2 4:1 5:4 6:1 7:1 
1 1:1 2:33 3:2 4:1 5:6 6:2 7:1 
1 1:1 2:40 3:2 4:3 5:8 6:2 7:4 
0.7372986822423997 1:1 2:29 3:1 4:5 5:2 6:2 7:1 
1 1:1 2:26 3:2 4:1 5:2 6:1 7:1 
1 1:2 2:29 3:6 4:1 5:5 6:1 7:1 
1 1:1 2:30 3:2 4:2 5:5 6:1 7:1 
1 1:1 2:32 3:1 4:2 5:2 6:2 7:1 
0.9370262614641377 1:1 2:37 3:3 4:5 5:2 6:2 7:1 
1 1:2 2:25 3:3 4:1 5:1 6:1 7:1 
1 1:2 2:26 3:2 4:2 5:2 6:1 7:1 
0.07604979012194724 1:1 2:31 3:1 4:1 5:2 6:1 7:1 
1 1:1 2:35 3:4 4:1 5:1 6:1 7:1 
1 1:1 2:31 3:1 4:1 5:1 6:2 7:1 
1 1:1 2:26 3:4 4:1 5:1 6:1 7:1 
0.1338725692084876 1:1 2:37 3:3 4:3 5:1 6:1 7:1 
0.5801002697214894 1:1 2:29 3:1 4:1 5:1 6:1 7:1 
1 1:1 2:29 3:2 4:1 5:4 6:1 7:1 
1 1:2 2:28 3:4 4:1 5:3 6:1 7:1 
0.8041856976458154 1:1 2:35 3:1 4:1 5:2 6:2 7:1 
1 1:1 2:41 3:1 4:1 5:2 6:2 7:1 
0.2718386997830822 1:1 2:29 3:4 4:1 5:1 6:1 7:1 
1 1:1 2:29 3:1 4:1 5:1 6:2 7:1 
1 1:1 2:26 3:2 4:2 5:3 6:1 7:1 
1 1:2 2:27 3:2 4:1 5:2 6:1 7:1 
1 1:1 2:38 3:1 4:1 5:4 6:1 7:1 
1 1:1 2:25 3:1 4:1 5:0 6:1 7:1 
1 1:1 2:24 3:1 4:1 5:0 6:1 7:1 
0.002131401779519791 1:1 2:26 3:1 4:1 5:0 6:1 7:1 
1 1:1 2:35 3:1 4:1 5:12 6:1 7:1 
0.4144921243800246 1:1 2:28 3:2 4:1 5:3 6:1 7:1 
1 1:1 2:26 3:2 4:1 5:2 6:1 7:1 
1 1:2 2:25 3:1 4:2 5:1 6:2 7:1 
0.7599917504549485 1:1 2:28 3:1 4:1 5:1 6:2 7:1 
1 1:1 2:27 3:1 4:2 5:4 6:2 7:1 
0.002895964269145535 1:1 2:27 3:2 4:1 5:2 6:1 7:1 
1 1:2 2:23 3:1 4:2 5:0 6:1 7:1 
1 1:1 2:31 3:1 4:1 5:3 6:1 7:5 
1 1:1 2:29 3:2 4:1 5:4 6:1 7:1 
1 1:1 2:27 3:1 4:2 5:2 6:1 7:1 
0.7335886508879209 1:1 2:30 3:2 4:1 5:6 6:1 7:4 
1 1:1 2:26 3:2 4:1 5:3 6:1 7:1 
1 1:2 2:27 3:2 4:2 5:2 6:1 7:1 
0.6426081494954454 1:1 2:27 3:2 4:1 5:2 6:1 7:1 
0.570110200084477 1:1 2:32 3:2 4:1 5:2 6:1 7:1 
0.4124007224262504 1:1 2:38 3:1 4:1 5:3 6:1 7:1 
1 1:1 2:31 3:1 4:1 5:4 6:2 7:1 
1 1:2 2:26 3:1 4:1 5:1 6:1 7:1 
0.1598476211182109 1:1 2:26 3:1 4:1 5:0 6:1 7:1 
1 1:1 2:26 3:1 4:1 5:0 6:1 7:1 
0.1176636356921391 1:1 2:29 3:1 4:2 5:1 6:1 7:4 
1 1:1 2:26 3:4 4:1 5:2 6:1 7:1 
1 1:1 2:27 3:1 4:1 5:2 6:1 7:1 
1 1:1 2:26 3:1 4:2 5:3 6:1 7:1 
1 1:1 2:26 3:1 4:2 5:5 6:1 7:1 
0.9507944825907715 1:1 2:27 3:2 4:1 5:2 6:1 7:1 
1 1:2 2:31 3:3 4:2 5:5 6:2 7:1 
1 1:2 2:31 3:1 4:1 5:5 6:1 7:1 
1 1:1 2:26 3:2 4:1 5:1 6:1 7:1 
1 1:1 2:26 3:2 4:1 5:1 6:1 7:1 
1 1:2 2:30 3:3 4:2 5:6 6:2 7:1 
0.2437990651667137 1:2 2:30 3:1 4:1 5:2 6:1 7:4 
1 1:1 2:25 3:2 4:1 5:1 6:1 7:1 
1 1:1 2:34 3:1 4:4 5:1 6:2 7:1 
0.9034452916221735 1:1 2:31 3:3 4:1 5:3 6:2 7:2 
1 1:1 2:37 3:1 4:1 5:3 6:1 7:1 
1 1:1 2:38 3:1 4:1 5:6 6:2 7:1 
1 1:1 2:28 3:1 4:2 5:6 6:2 7:1 
0.05106313542107304 1:1 2:27 3:2 4:2 5:2 6:1 7:1 
1 1:2 2:30 3:1 4:1 5:3 6:1 7:1 
1 1:1 2:30 3:4 4:1 5:2 6:2 7:1 
0.1525289801413208 1:1 2:29 3:1 4:1 5:0 6:1 7:1 
1 1:1 2:32 3:1 4:1 5:7 6:1 7:4 
1 1:1 2:30 3:2 4:1 5:5 6:1 7:1 
0.1823216471940181 1:1 2:31 3:3 4:2 5:1 6:1 7:1 
1 1:1 2:34 3:1 4:2 5:6 6:1 7:1 
0.9832654848203645 1:1 2:31 3:1 4:1 5:2 6:1 7:1 
1 1:1 2:36 3:1 4:2 5:2 6:2 7:1 
1 1:1 2:34 3:1 4:1 5:3 6:1 7:5 
0.7867909635218399 1:1 2:30 3:6 4:1 5:1 6:1 7:1 
1 1:1 2:27 3:1 4:1 5:1 6:1 7:1 
0.7501089976142848 1:2 2:31 3:3 4:2 5:1 6:1 7:1 
0.4621220142406456 1:2 2:31 3:3 4:1 5:0 6:1 7:1 
1 1:1 2:35 3:1 4:1 5:5 6:1 7:3 
0.1030494654711182 1:1 2:30 3:4 4:1 5:0 6:1 7:1 
1 1:1 2:32 3:2 4:1 5:7 6:1 7:1 
1 1:1 2:29 3:1 4:1 5:4 6:1 7:1 
1 1:1 2:27 3:1 4:2 5:2 6:1 7:1 
1 1:1 2:29 3:1 4:2 5:3 6:1 7:4 
1 1:1 2:30 3:1 4:1 5:2 6:1 7:1 
1 1:1 2:27 3:2 4:2 5:2 6:1 7:1 
1 1:1 2:27 3:1 4:5 5:2 6:1 7:1 
1 1:1 2:41 3:1 4:4 5:1 6:2 7:1 
1 1:1 2:26 3:2 4:2 5:3 6:1 7:1 
0.02400505089766627 1:1 2:28 3:4 4:1 5:2 6:1 7:1 
1 1:1 2:25 3:4 4:1 5:1 6:1 7:1 
1 1:1 2:29 3:4 4:1 5:1 6:1 7:1 
0.4937805166306851 1:1 2:30 3:2 4:2 5:4 6:1 7:1 
0.4085447381134922 1:1 2:29 3:1 4:3 5:0 6:1 7:1 
0.7164534015449092 1:1 2:30 3:4 4:1 5:0 6:1 7:4 
1 1:1 2:30 3:1 4:1 5:4 6:2 7:1 
0.9543826246008096 1:1 2:34 3:2 4:1 5:2 6:1 7:1 
1 1:2 2:34 3:2 4:3 5:6 6:1 7:3 
0.3911259969700486 1:2 2:29 3:1 4:1 5:0 6:1 7:1 
1 1:1 2:29 3:2 4:1 5:4 6:1 7:1 
1 1:1 2:29 3:1 4:1 5:1 6:1 7:1 
0.02617528022534073 1:1 2:38 3:1 4:1 5:3 6:1 7:1 
1 1:2 2:32 3:1 4:1 5:6 6:1 7:1 
1 1:1 2:32 3:4 4:1 5:0 6:2 7:1 
0.3592643721106327 1:1 2:33 3:2 4:2 5:6 6:1 7:2 
1 1:1 2:27 3:1 4:2 5:3 6:1 7:1 
1 1:1 2:44 3:2 4:1 5:19 6:2 7:1 
0.117167680421952 1:2 2:33 3:1 4:2 5:0 6:2 7:1 
1 1:2 2:35 3:1 4:1 5:3 6:1 7:1 
0.7983467413751062 1:2 2:26 3:1 4:1 5:2 6:1 7:5 
1 1:1 2:30 3:1 4:4 5:2 6:1 7:1 
0.8204116768682207 1:1 2:30 3:3 4:2 5:1 6:2 7:1 
-1 1:1 2:26 3:1 4:1 5:1 6:1 7:1 
-0.4968300356469991 1:1 2:41 3:5 4:1 5:4 6:1 7:1 
-1 1:1 2:26 3:3 4:1 5:2 6:1 7:1 
-0.419085574759726 1:2 2:31 3:2 4:1 5:8 6:2 7:1 
-1 1:2 2:29 3:3 4:2 5:1 6:1 7:1 
-0.1012123373113281 1:2 2:33 3:1 4:1 5:8 6:2 7:1 
-0.5608205527966198 1:1 2:43 3:3 4:2 5:2 6:2 7:1 
-0.5331557222883977 1:1 2:43 3:3 4:2 5:9 6:2 7:1 
-0.6810516597222221 1:1 2:34 3:2 4:1 5:11 6:1 7:5 
-1 1:2 2:26 3:1 4:2 5:2 6:1 7:1 
-0.999434851481349 1:2 2:24 3:2 4:1 5:1 6:1 7:1 
-1 1:1 2:27 3:3 4:1 5:2 6:1 7:1 
-1 1:1 2:27 3:1 4:1 5:1 6:1 7:1 
-1 1:2 2:30 3:1 4:1 5:2 6:2 7:1 
-1 1:1 2:34 3:1 4:2 5:1 6:2 7:1 
-0.8288056888424712 1:1 2:30 3:2 4:1 5:7 6:1 7:1 
-0.2886608594617278 1:1 2:32 3:1 4:2 5:8 6:1 7:1 
-0.2141749778897103 1:1 2:30 3:1 4:2 5:6 6:1 7:1 
-1 1:1 2:33 3:3 4:1 5:2 6:1 7:1 
-0.7168078908384464 1:1 2:51 3:1 4:6 5:21 6:2 7:1 
-1 1:2 2:25 3:1 4:4 5:2 6:1 7:1 
-0.3734818832138739 1:1 2:38 3:1 4:4 5:8 6:2 7:1 
-0.6047502658002559 1:1 2:37 3:1 4:2 5:12 6:2 7:1 
-0.4479461574473438 1:1 2:44 3:5 4:1 5:3 6:2 7:1 
-1 1:2 2:37 3:1 4:1 5:2 6:2 7:1 
-1 1:1 2:31 3:1 4:4 5:2 6:1 7:1 
-1 1:1 2:32 3:3 4:2 5:1 6:2 7:1 
-1 1:1 2:25 3:1 4:1 5:1 6:1 7:1 
-1 1:1 2:29 3:1 4:1 5:2 6:1 7:1 
-0.02264565353040044 1:1 2:26 3:2 4:1 5:4 6:1 7:1 
-0.4441135435688335 1:1 2:28 3:2 4:4 5:8 6:1 7:1 
-1 1:1 2:30 3:3 4:1 5:5 6:1 7:1 
-1 1:1 2:31 3:1 4:1 5:5 6:1 7:1 
-0.2271200204079191 1:2 2:33 3:1 4:5 5:6 6:2 7:1 
-0.7242792170825099 1:1 2:56 3:3 4:6 5:21 6:2 7:1 
-1 1:1 2:25 3:2 4:1 5:1 6:1 7:1 
-0.8402255690419809 1:1 2:40 3:1 4:3 5:6 6:2 7:5 
-0.9421246614862767 1:2 2:35 3:1 4:2 5:12 6:2 7:1 
-1 1:1 2:33 3:3 4:1 5:4 6:2 7:1 
-1 1:1 2:28 3:2 4:1 5:4 6:1 7:1 
-1 1:2 2:34 3:1 4:2 5:3 6:2 7:5 
-0.04316973422982703 1:1 2:33 3:1 4:1 5:9 6:1 7:1 
-0.7899835366606508 1:1 2:52 3:1 4:6 5:4 6:2 7:1 
-1 1:1 2:29 3:1 4:1 5:5 6:1 7:1 
-1 1:1 2:28 3:1 4:1 5:2 6:1 7:1 
-1 1:1 2:35 3:1 4:1 5:4 6:1 7:1 
-1 1:1 2:33 3:1 4:1 5:4 6:2 7:1 
-1 1:1 2:29 3:1 4:1 5:2 6:1 7:1 
-1 1:1 2:26 3:2 4:1 5:2 6:1 7:1 
-1 1:1 2:35 3:1 4:1 5:5 6:1 7:1 
-0.06424853158463556 1:2 2:26 3:1 4:2 5:5 6:2 7:1 
-1 1:1 2:29 3:1 4:1 5:5 6:1 7:1 
-1 1:1 2:30 3:1 4:2 5:1 6:1 7:1 
-0.4731765744289523 1:1 2:37 3:1 4:2 5:6 6:1 7:1 
-1 1:2 2:34 3:1 4:2 5:7 6:1 7:1 
-1 1:1 2:41 3:1 4:1 5:7 6:2 7:1 
-1 1:1 2:27 3:1 4:2 5:4 6:1 7:1 
-0.5799729601763935 1:1 2:31 3:1 4:5 5:4 6:2 7:1 
-1 1:1 2:29 3:3 4:2 5:2 6:1 7:1 
-0.5663826675823567 1:1 2:23 3:1 4:5 5:5 6:1 7:1 
-1 1:1 2:38 3:3 4:2 5:4 6:2 7:1 
-1 1:2 2:26 3:3 4:2 5:3 6:1 7:1 
-1 1:1 2:30 3:3 4:2 5:1 6:1 7:1 
-1 1:1 2:36 3:3 4:1 5:2 6:2 7:1 
-1 1:1 2:31 3:3 4:5 5:4 6:1 7:1 
-1 1:1 2:38 3:3 4:2 5:12 6:2 7:1 
-0.1350308682845308 1:1 2:24 3:5 4:2 5:2 6:1 7:1 
-1 1:2 2:27 3:3 4:2 5:2 6:2 7:1 
-0.6453996008559525 1:1 2:44 3:1 4:6 5:15 6:2 7:1 
-1 1:1 2:26 3:1 4:2 5:4 6:1 7:1 
-1 1:1 2:29 3:3 4:1 5:6 6:2 7:1 
-1 1:1 2:28 3:3 4:1 5:4 6:1 7:1 
-1 1:1 2:42 3:1 4:3 5:1 6:2 7:1 
-1 1:1 2:27 3:1 4:1 5:1 6:1 7:1 
-1 1:1 2:31 3:3 4:1 5:2 6:2 7:1 
-1 1:1 2:34 3:1 4:2 5:2 6:1 7:1 
-1 1:1 2:32 3:1 4:1 5:2 6:2 7:1 
-1 1:2 2:27 3:1 4:1 5:1 6:1 7:1 
-1 1:1 2:27 3:1 4:2 5:2 6:1 7:1 
-1 1:2 2:29 3:2 4:1 5:5 6:2 7:1 
-1 1:1 2:30 3:2 4:1 5:5 6:1 7:1 
-0.642743426886102 1:2 2:31 3:2 4:1 5:9 6:2 7:3 
-1 1:1 2:29 3:4 4:2 5:6 6:1 7:1 
-0.2978843683569884 1:1 2:28 3:2 4:1 5:5 6:1 7:1 
-1 1:1 2:30 3:1 4:1 5:4 6:2 7:1 
-1 1:1 2:25 3:2 4:1 5:1 6:1 7:1 
-1 1:1 2:34 3:1 4:2 5:7 6:2 7:3 
-1 1:1 2:26 3:2 4:1 5:1 6:1 7:1 
-0.03557700451662425 1:1 2:35 3:3 4:2 5:4 6:2 7:1 
-1 1:1 2:27 3:1 4:1 5:4 6:1 7:1 
-1 1:1 2:34 3:1 4:1 5:8 6:1 7:1 
-0.2783806433000712 1:1 2:24 3:2 4:1 5:1 6:1 7:1 
-1 1:2 2:26 3:2 4:1 5:3 6:1 7:1 
-1 1:1 2:26 3:3 4:1 5:2 6:1 7:1 
-0.8016734384193943 1:1 2:23 3:1 4:2 5:1 6:1 7:1 
-1 1:1 2:35 3:1 4:1 5:4 6:2 7:1 
-1 1:1 2:31 3:1 4:1 5:2 6:2 7:1 
-1 1:1 2:25 3:2 4:1 5:2 6:1 7:1 
-1 1:1 2:25 3:2 4:1 5:1 6:1 7:1 
-1 1:1 2:37 3:1 4:1 5:6 6:2 7:1 
-1 1:2 2:30 3:1 4:2 5:4 6:1 7:1 
-1 1:1 2:32 3:1 4:1 5:4 6:2 7:1 
-1 1:1 2:27 3:3 4:1 5:3 6:1 7:1 
-1 1:2 2:34 3:3 4:2 5:4 6:2 7:1 
-1 1:2 2:31 3:3 4:1 5:2 6:1 7:1 
-1 1:2 2:24 3:5 4:1 5:1 6:1 7:1 
-1 1:1 2:28 3:1 4:1 5:2 6:1 7:1 
-1 1:1 2:34 3:3 4:2 5:1 6:2 7:1 
-0.9095431518790211 1:1 2:21 3:2 4:2 5:1 6:1 7:1 
-1 1:1 2:34 3:1 4:2 5:7 6:1 7:1 
-1 1:1 2:30 3:1 4:1 5:3 6:1 7:4 
-1 1:1 2:27 3:1 4:2 5:4 6:1 7:1 
-1 1:1 2:28 3:1 4:1 5:4 6:1 7:1 
-1 1:1 2:39 3:1 4:2 5:3 6:2 7:1 
-1 1:1 2:26 3:1 4:2 5:1 6:1 7:1 
-1 1:1 2:27 3:1 4:2 5:1 6:1 7:1 
-0.6369493100182926 1:1 2:47 3:1 4:6 5:17 6:2 7:1 
-0.7639246896965602 1:1 2:31 3:1 4:2 5:7 6:2 7:1 
-0.7476881228995653 1:1 2:38 3:1 4:5 5:5 6:2 7:1 
-1 1:1 2:33 3:3 4:1 5:7 6:2 7:1 
-1 1:1 2:28 3:4 4:1 5:2 6:1 7:1 
-1 1:1 2:29 3:4 4:1 5:2 6:1 7:1 
-1 1:1 2:28 3:1 4:1 5:2 6:2 7:1 
-0.441152154242004 1:1 2:34 3:3 4:1 5:9 6:1 7:1 
-1 1:1 2:26 3:1 4:2 5:2 6:1 7:1 
-1 1:1 2:30 3:1 4:1 5:5 6:1 7:1 
-1 1:1 2:30 3:1 4:1 5:5 6:1 7:1 
-1 1:1 2:27 3:1 4:1 5:1 6:1 7:1 
-1 1:1 2:26 3:1 4:1 5:1 6:1 7:1 
-1 1:1 2:34 3:1 4:1 5:6 6:2 7:5 
-1 1:1 2:31 3:1 4:2 5:3 6:1 7:4 
-1 1:1 2:25 3:5 4:2 5:2 6:1 7:1 
-1 1:1 2:31 3:1 4:2 5:4 6:1 7:2 
-0.1183427409520561 1:1 2:31 3:1 4:5 5:7 6:1 7:1 
-0.6021739615440522 1:1 2:54 3:1 4:6 5:16 6:2 7:1 
-1 1:2 2:27 3:3 4:2 5:4 6:1 7:1 
-1 1:1 2:28 3:1 4:1 5:1 6:1 7:1 
-1 1:1 2:30 3:4 4:1 5:1 6:2 7:1 
-1 1:1 2:40 3:1 4:2 5:9 6:2 7:4 
-1 1:1 2:25 3:1 4:1 5:1 6:1 7:1 
-1 1:2 2:35 3:1 4:3 5:4 6:1 7:1 
-1 1:2 2:28 3:1 4:2 5:4 6:1 7:1 
-0.7601735661150917 1:1 2:42 3:1 4:2 5:7 6:2 7:1 
-1 1:1 2:31 3:1 4:4 5:2 6:1 7:1 
-1 1:1 2:30 3:1 4:1 5:3 6:1 7:1 
-1 1:1 2:30 3:1 4:4 5:3 6:1 7:1 
-1 1:1 2:27 3:1 4:4 5:4 6:2 7:1 
-1 1:1 2:26 3:3 4:2 5:2 6:1 7:1 
-1 1:1 2:32 3:2 4:2 5:8 6:1 7:1 
-0.3881190050911791 1:1 2:45 3:1 4:6 5:6 6:2 7:1 
-0.08217225567812939 1:1 2:34 3:1 4:1 5:10 6:2 7:1 
-1 1:2 2:33 3:3 4:1 5:6 6:1 7:1 
-0.9660520799536518 1:2 2:24 3:2 4:1 5:1 6:1 7:1 
-1 1:1 2:38 3:3 4:1 5:2 6:2 7:1 
-1 1:1 2:24 3:2 4:1 5:1 6:1 7:1 
-1 1:1 2:31 3:1 4:1 5:1 6:1 7:1 
-1 1:1 2:41 3:1 4:2 5:2 6:2 7:1 
-0.7278488205998636 1:2 2:47 3:1 4:2 5:8 6:2 7:1 
-0.4511081406641358 1:2 2:45 3:1 4:6 5:8 6:2 7:1 
-0.201462093100534 1:2 2:24 3:1 4:4 5:2 6:1 7:1 
-0.6157500420019518 1:1 2:57 3:1 4:5 5:15 6:2 7:1 
-0.7721288162794657 1:1 2:40 3:2 4:3 5:17 6:2 7:4 
-1 1:1 2:34 3:3 4:2 5:1 6:2 7:1 
-0.2755759364324189 1:1 2:35 3:1 4:4 5:10 6:2 7:1 
-1 1:2 2:33 3:1 4:5 5:2 6:2 7:1 
-0.7584249609172666 1:1 2:48 3:1 4:6 5:5 6:2 7:1 
-1 1:2 2:38 3:1 4:1 5:5 6:2 7:3 
-0.7403138421023046 1:2 2:49 3:1 4:2 5:22 6:2 7:5 
-1 1:2 2:39 3:1 4:1 5:2 6:1 7:1 
-0.9502242762361051 1:2 2:47 3:3 4:1 5:14 6:2 7:4 
