svm_type c_svc
kernel_type rbf
gamma 0.142857
nr_class 2
total_sv 399
rho -0.23375
label 2 1
nr_sv 207 192
SV
1 1:1 2:31 3:1 4:2 5:3 6:1 7:4 
0.9051198794903337 1:1 2:30 3:1 4:4 5:6 6:1 7:1 
1 1:1 2:25 3:5 4:2 5:2 6:1 7:1 
1 1:1 2:31 3:1 4:2 5:4 6:1 7:2 
0.3418343398456731 1:2 2:30 3:1 4:2 5:7 6:2 7:1 
1 1:1 2:37 3:1 4:2 5:8 6:2 7:1 
0.6679549658883523 1:1 2:31 3:1 4:5 5:7 6:1 7:1 
0.9289046255016976 1:1 2:54 3:1 4:6 5:16 6:2 7:1 
1 1:2 2:27 3:3 4:2 5:4 6:1 7:1 
1 1:1 2:28 3:1 4:1 5:1 6:1 7:1 
1 1:1 2:30 3:4 4:1 5:1 6:2 7:1 
0.7427087073435138 1:1 2:40 3:1 4:2 5:9 6:2 7:4 
1 1:1 2:25 3:1 4:1 5:1 6:1 7:1 
1 1:2 2:35 3:1 4:3 5:4 6:1 7:1 
1 1:2 2:28 3:1 4:2 5:4 6:1 7:1 
1 1:1 2:42 3:1 4:2 5:7 6:2 7:1 
1 1:1 2:31 3:1 4:4 5:2 6:1 7:1 
1 1:1 2:30 3:1 4:1 5:3 6:1 7:1 
1 1:1 2:30 3:1 4:4 5:3 6:1 7:1 
0.9968223785755718 1:1 2:27 3:1 4:4 5:4 6:2 7:1 
1 1:1 2:26 3:3 4:2 5:2 6:1 7:1 
1 1:1 2:32 3:2 4:2 5:8 6:1 7:1 
0.2668231218675144 1:1 2:45 3:1 4:6 5:6 6:2 7:1 
0.0683641929556895 1:1 2:34 3:1 4:1 5:10 6:2 7:1 
1 1:2 2:33 3:3 4:1 5:6 6:1 7:1 
1 1:2 2:24 3:2 4:1 5:1 6:1 7:1 
1 1:1 2:38 3:3 4:1 5:2 6:2 7:1 
1 1:1 2:24 3:2 4:1 5:1 6:1 7:1 
1 1:1 2:31 3:1 4:1 5:1 6:1 7:1 
1 1:1 2:41 3:1 4:2 5:2 6:2 7:1 
0.4997384592178366 1:2 2:47 3:1 4:2 5:8 6:2 7:1 
0.6485071072574862 1:2 2:45 3:1 4:6 5:8 6:2 7:1 
0.4838779928944864 1:2 2:24 3:1 4:4 5:2 6:1 7:1 
1 1:1 2:57 3:1 4:5 5:15 6:2 7:1 
1 1:1 2:34 3:3 4:2 5:1 6:2 7:1 
1 1:2 2:33 3:1 4:5 5:2 6:2 7:1 
0.3075537892780945 1:1 2:48 3:1 4:6 5:5 6:2 7:1 
1 1:2 2:38 3:1 4:1 5:5 6:2 7:3 
0.799181278962372 1:2 2:49 3:1 4:2 5:22 6:2 7:5 
1 1:2 2:39 3:1 4:1 5:2 6:1 7:1 
0.7918393435388572 1:2 2:47 3:3 4:1 5:14 6:2 7:4 
1 1:1 2:40 3:1 4:1 5:10 6:2 7:1 
0.4007233668778712 1:1 2:33 3:2 4:2 5:11 6:2 7:1 
1 1:1 2:32 3:1 4:2 5:6 6:1 7:1 
0.1379485560230549 1:1 2:32 3:1 4:4 5:7 6:1 7:1 
1 1:1 2:30 3:3 4:2 5:2 6:2 7:1 
1 1:1 2:31 3:1 4:2 5:4 6:1 7:1 
1 1:2 2:43 3:3 4:2 5:1 6:2 7:1 
0.4292501520351281 1:1 2:35 3:1 4:2 5:9 6:2 7:1 
0.8913818245251578 1:1 2:42 3:3 4:3 5:18 6:2 7:1 
0.2103094469084834 1:2 2:47 3:1 4:5 5:23 6:2 7:1 
1 1:1 2:45 3:1 4:2 5:20 6:2 7:1 
0.3925831584821238 1:1 2:46 3:1 4:5 5:20 6:2 7:1 
0.7827674380817693 1:1 2:54 3:1 4:5 5:5 6:2 7:1 
0.6402774969016788 1:1 2:54 3:1 4:5 5:22 6:2 7:1 
0.5068894566212792 1:1 2:48 3:1 4:5 5:23 6:2 7:1 
1 1:2 2:25 3:1 4:4 5:2 6:1 7:1 
1 1:2 2:49 3:1 4:5 5:3 6:2 7:1 
1 1:2 2:27 3:1 4:4 5:2 6:2 7:1 
0.4613165516568504 1:1 2:36 3:1 4:2 5:11 6:2 7:1 
0.282543272537118 1:2 2:36 3:1 4:1 5:8 6:2 7:1 
0.3818188590046628 1:2 2:44 3:3 4:4 5:4 6:2 7:1 
1 1:1 2:37 3:2 4:1 5:12 6:2 7:1 
0.7525023427685598 1:1 2:45 3:2 4:1 5:23 6:1 7:4 
0.2115650127695734 1:1 2:43 3:2 4:3 5:20 6:2 7:3 
0.802819861859433 1:2 2:37 3:1 4:4 5:15 6:2 7:1 
0.7666454521390857 1:1 2:61 3:3 4:2 5:32 6:2 7:1 
0.03735823917300658 1:2 2:34 3:1 4:2 5:12 6:2 7:1 
0.2445953662362844 1:1 2:54 3:1 4:6 5:22 6:2 7:1 
0.991990380001169 1:2 2:44 3:2 4:2 5:21 6:1 7:1 
0.3811089321746836 1:1 2:46 3:2 4:3 5:24 6:2 7:4 
1 1:1 2:27 3:3 4:1 5:1 6:1 7:1 
1 1:1 2:27 3:4 4:2 5:2 6:1 7:1 
1 1:1 2:27 3:2 4:1 5:3 6:1 7:1 
0.8505904764540723 1:1 2:41 3:2 4:1 5:15 6:2 7:1 
1 1:1 2:28 3:1 4:1 5:2 6:2 7:1 
1 1:1 2:29 3:1 4:2 5:1 6:2 7:1 
1 1:1 2:28 3:1 4:1 5:1 6:1 7:1 
1 1:1 2:30 3:4 4:1 5:1 6:1 7:1 
1 1:1 2:33 3:3 4:1 5:2 6:2 7:1 
1 1:1 2:31 3:4 4:1 5:2 6:1 7:4 
1 1:1 2:34 3:1 4:1 5:6 6:2 7:1 
0.226788667698444 1:1 2:35 3:1 4:1 5:10 6:1 7:1 
1 1:1 2:30 3:1 4:1 5:3 6:1 7:1 
1 1:1 2:32 3:3 4:1 5:4 6:2 7:1 
1 1:1 2:25 3:1 4:1 5:1 6:1 7:1 
1 1:1 2:39 3:3 4:1 5:6 6:1 7:1 
1 1:1 2:31 3:3 4:1 5:1 6:2 7:1 
1 1:1 2:26 3:2 4:1 5:3 6:1 7:1 
0.9796022533176013 1:1 2:38 3:3 4:2 5:5 6:2 7:3 
1 1:1 2:45 3:3 4:1 5:2 6:2 7:1 
1 1:2 2:34 3:1 4:1 5:5 6:1 7:1 
1 1:1 2:32 3:1 4:1 5:7 6:1 7:1 
1 1:1 2:42 3:1 4:1 5:6 6:1 7:1 
1 1:1 2:28 3:3 4:1 5:3 6:1 7:1 
0.6868773089040079 1:1 2:35 3:2 4:1 5:12 6:2 7:4 
0.4052439915487254 1:1 2:43 3:2 4:1 5:23 6:2 7:5 
1 1:1 2:43 3:2 4:1 5:19 6:2 7:4 
0.6076143044504854 1:2 2:50 3:3 4:1 5:14 6:2 7:4 
0.397241150662323 1:2 2:46 3:1 4:1 5:9 6:2 7:4 
0.3498868486690912 1:2 2:39 3:3 4:2 5:5 6:2 7:2 
0.2586639938810841 1:2 2:44 3:2 4:1 5:24 6:2 7:3 
1 1:2 2:28 3:3 4:2 5:2 6:2 7:1 
1 1:1 2:34 3:5 4:1 5:3 6:2 7:4 
1 1:1 2:22 3:1 4:2 5:1 6:1 7:1 
1 1:1 2:27 3:3 4:1 5:2 6:1 7:4 
1 1:1 2:31 3:1 4:2 5:1 6:1 7:1 
1 1:1 2:28 3:1 4:4 5:1 6:2 7:1 
1 1:1 2:37 3:1 4:2 5:2 6:1 7:1 
1 1:1 2:43 3:1 4:1 5:4 6:2 7:5 
1 1:1 2:32 3:3 4:1 5:1 6:2 7:1 
0.8900152851088895 1:1 2:43 3:2 4:1 5:21 6:2 7:4 
0.3457403658826785 1:1 2:44 3:2 4:1 5:23 6:2 7:3 
0.5606454297555773 1:2 2:39 3:2 4:3 5:17 6:2 7:4 
0.7665870612993333 1:1 2:54 3:2 4:1 5:34 6:2 7:4 
0.5872469629642041 1:2 2:46 3:3 4:3 5:10 6:2 7:3 
1 1:2 2:35 3:3 4:1 5:7 6:2 7:1 
1 1:1 2:42 3:2 4:1 5:19 6:2 7:3 
0.6113692149325626 1:1 2:36 3:1 4:1 5:6 6:2 7:1 
1 1:1 2:27 3:2 4:2 5:4 6:1 7:1 
1 1:1 2:32 3:1 4:2 5:2 6:2 7:1 
0.07456565063051984 1:1 2:28 3:1 4:5 5:5 6:1 7:1 
0.6463389864428913 1:1 2:32 3:1 4:2 5:8 6:2 7:1 
1 1:1 2:30 3:1 4:1 5:6 6:1 7:1 
0.8340858158339162 1:1 2:37 3:2 4:2 5:16 6:2 7:1 
0.9575721005725877 1:1 2:31 3:1 4:2 5:7 6:1 7:1 
0.3355112616551298 1:1 2:37 3:1 4:4 5:11 6:2 7:1 
0.8955596338901107 1:1 2:31 3:1 4:1 5:7 6:1 7:1 
1 1:1 2:26 3:1 4:2 5:3 6:1 7:1 
1 1:1 2:30 3:1 4:2 5:2 6:1 7:1 
0.2306541617489757 1:1 2:34 3:1 4:4 5:6 6:2 7:1 
1 1:2 2:30 3:3 4:2 5:3 6:2 7:1 
1 1:1 2:32 3:1 4:2 5:1 6:1 7:1 
1 1:1 2:30 3:1 4:1 5:2 6:1 7:4 
1 1:1 2:29 3:2 4:1 5:5 6:1 7:1 
0.7615564713719449 1:1 2:31 3:2 4:1 5:6 6:2 7:4 
1 1:1 2:28 3:1 4:1 5:2 6:1 7:1 
1 1:1 2:28 3:1 4:1 5:2 6:1 7:1 
0.1030037308859778 1:2 2:29 3:2 4:1 5:6 6:1 7:1 
1 1:2 2:30 3:1 4:1 5:5 6:2 7:5 
1 1:1 2:29 3:1 4:1 5:4 6:1 7:1 
1 1:1 2:24 3:1 4:2 5:1 6:1 7:1 
1 1:2 2:26 3:1 4:2 5:1 6:1 7:1 
1 1:2 2:26 3:2 4:1 5:3 6:1 7:4 
1 1:1 2:26 3:2 4:1 5:2 6:1 7:1 
0.3572276413535054 1:1 2:25 3:1 4:1 5:2 6:1 7:1 
0.05563912780366155 1:1 2:32 3:2 4:1 5:9 6:1 7:1 
0.07001290118318181 1:1 2:37 3:1 4:2 5:6 6:1 7:1 
1 1:2 2:27 3:1 4:1 5:2 6:1 7:1 
1 1:1 2:33 3:1 4:1 5:2 6:1 7:1 
1 1:1 2:30 3:3 4:1 5:4 6:2 7:1 
1 1:1 2:30 3:4 4:1 5:4 6:1 7:1 
1 1:1 2:32 3:1 4:1 5:6 6:2 7:1 
1 1:1 2:26 3:2 4:1 5:2 6:1 7:1 
1 1:1 2:30 3:4 4:1 5:4 6:1 7:1 
1 1:1 2:32 3:2 4:1 5:8 6:1 7:1 
1 1:1 2:35 3:2 4:1 5:8 6:1 7:1 
0.5873631209518301 1:1 2:34 3:1 4:5 5:7 6:1 7:1 
0.5173183313642564 1:1 2:37 3:1 4:6 5:9 6:2 7:1 
1 1:1 2:36 3:1 4:2 5:10 6:2 7:1 
1 1:1 2:29 3:1 4:1 5:1 6:2 7:1 
0.03068604380872872 1:1 2:24 3:2 4:2 5:1 6:1 7:1 
0.2123511326843178 1:2 2:31 3:2 4:1 5:8 6:1 7:3 
1 1:2 2:26 3:1 4:5 5:2 6:1 7:1 
1 1:1 2:33 3:1 4:2 5:2 6:2 7:1 
0.7313230816966652 1:1 2:29 3:2 4:2 5:6 6:1 7:1 
1 1:1 2:25 3:2 4:1 5:2 6:1 7:1 
1 1:1 2:24 3:3 4:2 5:1 6:1 7:1 
1 1:1 2:30 3:1 4:2 5:4 6:2 7:5 
1 1:1 2:32 3:1 4:2 5:7 6:1 7:1 
0.9950463914347167 1:1 2:24 3:2 4:2 5:1 6:1 7:1 
1 1:1 2:26 3:3 4:4 5:1 6:2 7:1 
1 1:1 2:33 3:1 4:2 5:7 6:2 7:4 
0.6527421622761205 1:1 2:32 3:1 4:4 5:5 6:2 7:1 
1 1:1 2:30 3:1 4:2 5:6 6:1 7:1 
1 1:2 2:26 3:1 4:2 5:2 6:1 7:1 
0.8210079995444968 1:1 2:31 3:1 4:2 5:7 6:2 7:1 
1 1:1 2:33 3:1 4:2 5:5 6:2 7:1 
1 1:1 2:28 3:3 4:2 5:2 6:2 7:1 
1 1:1 2:28 3:3 4:1 5:2 6:1 7:1 
0.6575426352816999 1:2 2:38 3:1 4:2 5:7 6:2 7:1 
1 1:1 2:29 3:3 4:2 5:1 6:1 7:1 
1 1:1 2:28 3:2 4:2 5:5 6:1 7:1 
1 1:1 2:32 3:1 4:2 5:1 6:2 7:1 
1 1:1 2:37 3:1 4:2 5:12 6:1 7:1 
0.3700472329592359 1:1 2:35 3:1 4:4 5:4 6:2 7:1 
0.180911709723432 1:1 2:24 3:1 4:4 5:2 6:1 7:1 
1 1:1 2:27 3:3 4:2 5:2 6:1 7:1 
0.01732106399977875 1:1 2:26 3:1 4:4 5:4 6:1 7:1 
0.5849250745416359 1:1 2:49 3:1 4:1 5:9 6:2 7:4 
0.08629654657929416 1:1 2:32 3:1 4:2 5:8 6:1 7:1 
0.7292893419276895 1:2 2:45 3:3 4:6 5:3 6:2 7:1 
1 1:1 2:37 3:1 4:1 5:6 6:1 7:1 
0.4923068640971869 1:1 2:28 3:2 4:1 5:5 6:1 7:1 
1 1:1 2:30 3:5 4:2 5:1 6:1 7:1 
0.3651601378310858 1:2 2:26 3:3 4:5 5:5 6:1 7:1 
1 1:1 2:28 3:2 4:1 5:5 6:1 7:1 
0.4907466751600299 1:2 2:26 3:5 4:2 5:6 6:1 7:1 
0.3660169008918333 1:2 2:29 3:3 4:2 5:6 6:1 7:1 
1 1:1 2:32 3:1 4:1 5:4 6:1 7:2 
0.379412657022008 1:1 2:29 3:2 4:1 5:6 6:2 7:1 
1 1:2 2:30 3:1 4:1 5:6 6:1 7:1 
0.6990559825280974 1:1 2:24 3:4 4:1 5:2 6:1 7:1 
1 1:1 2:26 3:2 4:1 5:2 6:1 7:5 
1 1:1 2:27 3:2 4:1 5:4 6:1 7:1 
1 1:1 2:27 3:2 4:1 5:4 6:1 7:4 
1 1:1 2:35 3:1 4:2 5:5 6:2 7:1 
-0.4872389861922429 1:1 2:27 3:1 4:2 5:2 6:1 7:1 
-0.9403088053783403 1:1 2:29 3:1 4:2 5:3 6:1 7:4 
-0.9914233733448992 1:1 2:27 3:2 4:2 5:2 6:1 7:1 
-1 1:1 2:27 3:1 4:5 5:2 6:1 7:1 
-0.948665650154124 1:1 2:41 3:1 4:4 5:1 6:2 7:1 
-1 1:1 2:26 3:2 4:2 5:3 6:1 7:1 
-1 1:1 2:25 3:4 4:1 5:1 6:1 7:1 
-1 1:1 2:30 3:1 4:3 5:1 6:2 7:1 
-1 1:1 2:29 3:4 4:1 5:1 6:1 7:1 
-0.0007038420295464946 1:1 2:32 3:1 4:1 5:0 6:1 7:1 
-1 1:1 2:30 3:2 4:2 5:4 6:1 7:1 
-1 1:1 2:30 3:4 4:1 5:0 6:1 7:4 
-0.1081886686737919 1:1 2:30 3:1 4:1 5:2 6:1 7:2 
-0.7266970276887333 1:1 2:30 3:1 4:1 5:0 6:1 7:1 
-1 1:1 2:30 3:1 4:1 5:4 6:2 7:1 
-1 1:2 2:34 3:2 4:3 5:6 6:1 7:3 
-1 1:1 2:29 3:4 4:1 5:3 6:1 7:1 
-1 1:1 2:29 3:2 4:1 5:4 6:1 7:1 
-1 1:1 2:29 3:1 4:1 5:1 6:1 7:1 
-1 1:1 2:38 3:1 4:1 5:3 6:1 7:1 
-1 1:2 2:32 3:1 4:1 5:6 6:1 7:1 
-1 1:1 2:32 3:4 4:1 5:0 6:2 7:1 
-1 1:1 2:33 3:2 4:2 5:6 6:1 7:2 
-1 1:1 2:27 3:1 4:2 5:3 6:1 7:1 
-1 1:1 2:44 3:2 4:1 5:19 6:2 7:1 
-1 1:2 2:33 3:1 4:2 5:0 6:2 7:1 
-0.4656253545420744 1:2 2:35 3:1 4:1 5:3 6:1 7:1 
-1 1:2 2:26 3:1 4:1 5:2 6:1 7:5 
-1 1:1 2:30 3:1 4:4 5:2 6:1 7:1 
-1 1:1 2:30 3:3 4:2 5:1 6:2 7:1 
-1 1:2 2:42 3:1 4:1 5:6 6:2 7:5 
-1 1:2 2:43 3:3 4:2 5:0 6:2 7:1 
-1 1:2 2:24 3:1 4:4 5:1 6:1 7:1 
-0.5621986237719172 1:2 2:25 3:1 4:2 5:0 6:1 7:1 
-0.8494858663778573 1:2 2:38 3:3 4:4 5:0 6:2 7:1 
-1 1:2 2:29 3:1 4:2 5:4 6:1 7:1 
-1 1:2 2:38 3:2 4:2 5:13 6:2 7:2 
-1 1:2 2:31 3:1 4:2 5:2 6:2 7:1 
-1 1:2 2:37 3:1 4:2 5:10 6:2 7:1 
-0.4466357587087383 1:2 2:20 3:1 4:4 5:1 6:1 7:1 
-1 1:1 2:44 3:2 4:1 5:22 6:2 7:4 
-1 1:1 2:59 3:1 4:5 5:3 6:2 7:1 
-1 1:2 2:51 3:3 4:2 5:22 6:2 7:1 
-0.9732633475608123 1:2 2:20 3:1 4:4 5:1 6:1 7:1 
-0.4926829634681095 1:2 2:48 3:1 4:6 5:0 6:2 7:1 
-0.7232066236071271 1:2 2:37 3:3 4:1 5:10 6:2 7:1 
-1 1:1 2:43 3:2 4:1 5:19 6:2 7:1 
-1 1:1 2:29 3:2 4:2 5:6 6:1 7:2 
-1 1:1 2:36 3:1 4:3 5:1 6:2 7:1 
-0.6343718226213368 1:1 2:43 3:1 4:1 5:0 6:1 7:1 
-0.01600481954900359 1:1 2:27 3:2 4:1 5:2 6:1 7:1 
-1 1:1 2:26 3:1 4:1 5:1 6:1 7:1 
-1 1:1 2:26 3:4 4:1 5:2 6:1 7:1 
-1 1:1 2:33 3:1 4:1 5:3 6:2 7:2 
-0.9575738082814367 1:1 2:36 3:3 4:1 5:3 6:2 7:4 
-1 1:1 2:26 3:2 4:1 5:1 6:1 7:1 
-1 1:1 2:26 3:2 4:1 5:2 6:1 7:1 
-1 1:1 2:31 3:2 4:1 5:6 6:1 7:1 
-0.2519696099974743 1:1 2:32 3:1 4:1 5:0 6:1 7:1 
-1 1:1 2:33 3:1 4:2 5:1 6:1 7:1 
-1 1:1 2:31 3:1 4:2 5:2 6:1 7:1 
-1 1:1 2:38 3:1 4:1 5:3 6:1 7:5 
-1 1:1 2:33 3:2 4:1 5:6 6:2 7:1 
-0.1019302675969355 1:1 2:32 3:2 4:1 5:3 6:1 7:1 
-0.540723725503642 1:1 2:31 3:1 4:1 5:3 6:1 7:1 
-1 1:1 2:33 3:1 4:1 5:2 6:2 7:1 
-1 1:1 2:25 3:2 4:1 5:1 6:1 7:1 
-0.6447312356847551 1:1 2:41 3:1 4:2 5:2 6:1 7:1 
-0.5254446483515388 1:1 2:29 3:1 4:1 5:0 6:1 7:4 
-0.7032026285228954 1:1 2:40 3:1 4:1 5:0 6:2 7:1 
-0.4790542378817295 1:1 2:29 3:2 4:1 5:0 6:1 7:1 
-1 1:1 2:33 3:2 4:1 5:7 6:1 7:1 
-1 1:1 2:28 3:4 4:1 5:3 6:1 7:1 
-0.6036838255595105 1:1 2:33 3:1 4:1 5:1 6:1 7:5 
-0.6561320057988022 1:2 2:34 3:3 4:2 5:1 6:2 7:4 
-1 1:1 2:38 3:2 4:1 5:9 6:2 7:1 
-1 1:1 2:37 3:2 4:1 5:10 6:2 7:1 
-0.6623415763642834 1:1 2:31 3:2 4:1 5:2 6:1 7:1 
-1 1:1 2:31 3:1 4:2 5:2 6:1 7:1 
-1 1:1 2:38 3:1 4:1 5:8 6:2 7:1 
-0.6985995304192937 1:1 2:28 3:4 4:1 5:1 6:1 7:1 
-1 1:1 2:48 3:1 4:1 5:1 6:2 7:1 
-0.261222416139996 1:1 2:35 3:1 4:2 5:0 6:1 7:1 
-1 1:1 2:46 3:2 4:1 5:19 6:2 7:4 
-1 1:2 2:26 3:2 4:2 5:1 6:1 7:2 
-1 1:2 2:61 3:2 4:1 5:40 6:2 7:4 
-1 1:2 2:37 3:3 4:1 5:4 6:2 7:1 
-1 1:2 2:25 3:5 4:4 5:3 6:1 7:1 
-1 1:1 2:43 3:2 4:1 5:19 6:2 7:3 
-1 1:1 2:38 3:6 4:1 5:7 6:2 7:3 
-1 1:1 2:42 3:1 4:1 5:5 6:2 7:1 
-1 1:1 2:27 3:1 4:2 5:3 6:1 7:1 
-1 1:1 2:27 3:2 4:1 5:3 6:1 7:4 
-0.9129171177311548 1:1 2:41 3:1 4:1 5:4 6:2 7:1 
-1 1:1 2:29 3:2 4:1 5:4 6:1 7:1 
-1 1:1 2:44 3:3 4:1 5:3 6:2 7:4 
-0.2702300775375743 1:1 2:37 3:1 4:1 5:3 6:2 7:1 
-0.6269329999497663 1:1 2:35 3:5 4:1 5:3 6:2 7:1 
-0.197251448148578 1:1 2:42 3:1 4:1 5:3 6:2 7:1 
-1 1:1 2:32 3:1 4:1 5:2 6:2 7:1 
-0.143966432007867 1:2 2:36 3:3 4:2 5:2 6:2 7:1 
-1 1:2 2:45 3:2 4:1 5:21 6:2 7:3 
-1 1:1 2:54 3:5 4:3 5:8 6:2 7:1 
-1 1:2 2:56 3:3 4:2 5:20 6:2 7:1 
-0.6445776405420772 1:2 2:38 3:1 4:2 5:0 6:2 7:1 
-1 1:1 2:47 3:3 4:1 5:13 6:2 7:1 
-1 1:2 2:37 3:1 4:2 5:5 6:2 7:1 
-1 1:1 2:26 3:2 4:1 5:2 6:1 7:1 
-1 1:2 2:32 3:1 4:1 5:5 6:2 7:1 
-1 1:1 2:26 3:5 4:2 5:2 6:1 7:1 
-1 1:1 2:33 3:1 4:2 5:5 6:1 7:1 
-1 1:1 2:33 3:5 4:2 5:2 6:2 7:1 
-1 1:1 2:32 3:1 4:2 5:8 6:2 7:1 
-1 1:2 2:32 3:5 4:4 5:2 6:2 7:1 
-1 1:1 2:38 3:1 4:2 5:14 6:2 7:1 
-1 1:1 2:30 3:1 4:2 5:6 6:2 7:1 
-1 1:1 2:31 3:1 4:4 5:1 6:2 7:1 
-0.5815086640219205 1:1 2:32 3:3 4:1 5:5 6:1 7:1 
-1 1:1 2:24 3:2 4:1 5:1 6:1 7:1 
-1 1:1 2:28 3:1 4:1 5:3 6:1 7:1 
-1 1:1 2:37 3:2 4:1 5:12 6:1 7:1 
-1 1:1 2:31 3:4 4:1 5:0 6:1 7:1 
-1 1:1 2:25 3:2 4:1 5:0 6:1 7:1 
-1 1:1 2:35 3:2 4:1 5:5 6:1 7:1 
-0.993397432482684 1:1 2:28 3:1 4:1 5:1 6:1 7:1 
-1 1:1 2:33 3:2 4:1 5:8 6:2 7:1 
-1 1:1 2:39 3:1 4:1 5:5 6:1 7:1 
-0.2857268997526154 1:1 2:34 3:3 4:1 5:1 6:1 7:1 
-1 1:1 2:36 3:2 4:2 5:6 6:2 7:1 
-1 1:1 2:34 3:1 4:1 5:5 6:1 7:1 
-0.8738960305365645 1:1 2:28 3:2 4:1 5:2 6:1 7:5 
-0.9023493031581103 1:1 2:27 3:2 4:1 5:2 6:1 7:1 
-1 1:1 2:31 3:4 4:1 5:2 6:1 7:1 
-0.03794250077752308 1:1 2:32 3:1 4:1 5:1 6:1 7:1 
-0.9869800561299148 1:1 2:31 3:2 4:1 5:2 6:1 7:1 
-0.4923899235081012 1:1 2:37 3:1 4:1 5:3 6:1 7:1 
-0.6138005193459269 1:1 2:28 3:1 4:1 5:1 6:1 7:1 
-0.990882078908888 1:1 2:42 3:3 4:1 5:1 6:2 7:1 
-0.1752430682501074 1:1 2:29 3:3 4:1 5:3 6:1 7:1 
-1 1:1 2:31 3:1 4:1 5:5 6:1 7:5 
-1 1:1 2:30 3:1 4:2 5:5 6:2 7:1 
-1 1:1 2:28 3:4 4:1 5:3 6:1 7:1 
-1 1:1 2:31 3:2 4:2 5:5 6:1 7:1 
-1 1:1 2:29 3:4 4:1 5:3 6:1 7:1 
-0.3711779925115182 1:1 2:28 3:2 4:1 5:3 6:1 7:1 
-1 1:1 2:31 3:1 4:2 5:1 6:1 7:1 
-1 1:1 2:26 3:2 4:2 5:4 6:1 7:1 
-1 1:1 2:30 3:2 4:2 5:3 6:1 7:4 
-1 1:2 2:29 3:2 4:1 5:4 6:1 7:1 
-0.1477115613480713 1:2 2:28 3:2 4:1 5:2 6:1 7:1 
-1 1:1 2:30 3:1 4:5 5:7 6:1 7:1 
-1 1:1 2:35 3:1 4:2 5:9 6:2 7:1 
-1 1:1 2:29 3:2 4:1 5:4 6:1 7:5 
-1 1:1 2:28 3:1 4:1 5:3 6:1 7:1 
-1 1:1 2:31 3:2 4:2 5:6 6:1 7:1 
-1 1:1 2:27 3:2 4:2 5:4 6:1 7:1 
-1 1:1 2:31 3:1 4:2 5:6 6:1 7:1 
-1 1:1 2:24 3:1 4:2 5:1 6:1 7:1 
-1 1:1 2:28 3:2 4:2 5:4 6:2 7:1 
-0.5102053001975767 1:1 2:30 3:1 4:2 5:3 6:1 7:1 
-1 1:1 2:27 3:2 4:2 5:3 6:1 7:1 
-1 1:2 2:28 3:1 4:2 5:2 6:2 7:1 
-1 1:2 2:25 3:1 4:2 5:0 6:1 7:1 
-1 1:2 2:33 3:1 4:5 5:4 6:2 7:1 
-1 1:2 2:25 3:3 4:2 5:1 6:1 7:1 
-0.006024049656587562 1:2 2:29 3:1 4:4 5:1 6:1 7:1 
-1 1:2 2:27 3:1 4:4 5:1 6:1 7:1 
-1 1:2 2:29 3:1 4:1 5:1 6:2 7:1 
-1 1:1 2:24 3:1 4:4 5:0 6:1 7:1 
-1 1:1 2:30 3:1 4:1 5:6 6:1 7:1 
-1 1:1 2:32 3:2 4:2 5:8 6:1 7:1 
-1 1:1 2:33 3:1 4:2 5:7 6:1 7:1 
-1 1:1 2:42 3:1 4:4 5:8 6:2 7:1 
-1 1:1 2:33 3:1 4:2 5:7 6:1 7:1 
-1 1:1 2:30 3:1 4:2 5:7 6:1 7:1 
-1 1:1 2:26 3:2 4:2 5:3 6:1 7:1 
-1 1:1 2:28 3:3 4:4 5:1 6:2 7:1 
-0.9727619551117273 1:2 2:47 3:1 4:6 5:1 6:2 7:1 
-1 1:2 2:56 3:1 4:5 5:17 6:2 7:1 
-1 1:2 2:27 3:1 4:4 5:1 6:1 7:1 
-0.5616075921658606 1:1 2:46 3:1 4:5 5:0 6:2 7:1 
-1 1:1 2:50 3:3 4:5 5:12 6:1 7:1 
-1 1:2 2:23 3:1 4:1 5:1 6:1 7:1 
-0.4938759120335767 1:2 2:33 3:1 4:1 5:5 6:1 7:1 
-1 1:2 2:30 3:2 4:1 5:6 6:1 7:1 
-1 1:1 2:29 3:4 4:1 5:2 6:1 7:1 
-1 1:1 2:32 3:2 4:1 5:2 6:1 7:4 
-1 1:1 2:27 3:2 4:1 5:2 6:1 7:1 
-0.4407272806306923 1:2 2:29 3:2 4:1 5:3 6:1 7:5 
-0.2809423483841414 1:1 2:32 3:2 4:1 5:1 6:1 7:1 
-1 1:1 2:34 3:3 4:1 5:2 6:2 7:1 
-1 1:1 2:27 3:2 4:1 5:2 6:1 7:1 
