svm_type c_svc
kernel_type rbf
gamma 0.142857
nr_class 2
total_sv 343
rho 0.00489053
label 1 2
nr_sv 181 162
SV
1 1:2 2:25 3:2 4:1 5:2 6:1 7:1 
1 1:1 2:33 3:3 4:1 5:1 6:1 7:1 
0.9615844901656925 1:1 2:34 3:1 4:1 5:4 6:1 7:1 
1 1:1 2:34 3:2 4:1 5:4 6:1 7:1 
0.9679316267661817 1:1 2:32 3:3 4:2 5:1 6:1 7:1 
0.2765650309260645 1:1 2:27 3:2 4:1 5:0 6:1 7:4 
1 1:1 2:48 3:1 4:2 5:15 6:2 7:1 
1 1:1 2:25 3:4 4:1 5:1 6:1 7:1 
1 1:2 2:30 3:1 4:5 5:4 6:1 7:1 
1 1:1 2:26 3:1 4:1 5:1 6:1 7:1 
1 1:1 2:62 3:3 4:2 5:7 6:2 7:1 
1 1:1 2:43 3:1 4:1 5:2 6:2 7:1 
1 1:1 2:32 3:3 4:5 5:2 6:2 7:1 
0.5917965330693202 1:2 2:24 3:1 4:4 5:0 6:1 7:1 
1 1:2 2:53 3:3 4:6 5:17 6:2 7:1 
0.748760332897538 1:1 2:33 3:1 4:1 5:6 6:1 7:1 
0.03588420451956086 1:1 2:36 3:1 4:1 5:1 6:2 7:1 
1 1:1 2:37 3:2 4:1 5:8 6:2 7:1 
1 1:1 2:38 3:1 4:1 5:5 6:2 7:1 
1 1:1 2:47 3:2 4:3 5:24 6:2 7:4 
1 1:1 2:30 3:1 4:1 5:3 6:1 7:1 
1 1:1 2:29 3:2 4:1 5:5 6:1 7:1 
1 1:2 2:27 3:2 4:1 5:4 6:1 7:1 
0.7542030811611884 1:1 2:47 3:1 4:6 5:3 6:2 7:2 
1 1:2 2:52 3:1 4:6 5:7 6:2 7:1 
1 1:1 2:25 3:3 4:1 5:1 6:1 7:4 
0.9364381766977937 1:1 2:25 3:1 4:2 5:0 6:1 7:1 
1 1:1 2:29 3:1 4:1 5:4 6:1 7:1 
1 1:1 2:34 3:2 4:1 5:6 6:1 7:1 
1 1:1 2:30 3:2 4:1 5:6 6:1 7:1 
0.2934461293662418 1:1 2:32 3:1 4:2 5:2 6:1 7:1 
1 1:1 2:34 3:2 4:1 5:4 6:1 7:1 
0.4071151760719214 1:2 2:29 3:3 4:2 5:2 6:2 7:1 
1 1:1 2:25 3:2 4:1 5:1 6:1 7:1 
0.5881380927148475 1:1 2:41 3:1 4:1 5:1 6:2 7:1 
0.9797602940692522 1:1 2:28 3:2 4:1 5:3 6:1 7:1 
0.8590208043159977 1:1 2:47 3:1 4:3 5:4 6:2 7:1 
1 1:2 2:31 3:1 4:5 5:3 6:1 7:1 
0.08767897821250405 1:1 2:26 3:2 4:1 5:1 6:1 7:1 
0.2101759925641691 1:2 2:31 3:2 4:1 5:3 6:1 7:1 
0.7629258797250036 1:1 2:39 3:1 4:1 5:5 6:2 7:1 
0.1313760461356468 1:1 2:30 3:2 4:1 5:1 6:1 7:5 
1 1:1 2:27 3:1 4:1 5:1 6:1 7:1 
0.1320350426048393 1:2 2:31 3:1 4:3 5:1 6:1 7:1 
1 1:1 2:28 3:1 4:1 5:1 6:1 7:1 
1 1:1 2:34 3:1 4:1 5:3 6:2 7:1 
0.3806334713936634 1:2 2:33 3:2 4:3 5:1 6:1 7:1 
1 1:1 2:32 3:2 4:1 5:7 6:1 7:1 
1 1:1 2:32 3:1 4:2 5:2 6:2 7:1 
0.5313331983988754 1:2 2:25 3:1 4:5 5:0 6:1 7:1 
0.3476156134467294 1:1 2:34 3:1 4:1 5:1 6:1 7:4 
1 1:1 2:38 3:3 4:1 5:13 6:2 7:1 
1 1:2 2:40 3:3 4:2 5:13 6:2 7:1 
1 1:1 2:34 3:1 4:2 5:9 6:1 7:1 
1 1:1 2:28 3:4 4:1 5:3 6:1 7:1 
1 1:1 2:41 3:1 4:2 5:7 6:2 7:1 
0.5990931221784992 1:2 2:29 3:1 4:1 5:1 6:1 7:1 
0.6522598351264691 1:1 2:34 3:1 4:1 5:0 6:2 7:1 
1 1:2 2:28 3:1 4:1 5:2 6:1 7:1 
0.9981340278544023 1:2 2:45 3:1 4:1 5:13 6:1 7:5 
0.6287455179712941 1:1 2:31 3:4 4:1 5:6 6:2 7:4 
0.8031662155877621 1:1 2:30 3:3 4:5 5:2 6:1 7:1 
1 1:1 2:52 3:1 4:6 5:0 6:2 7:1 
0.8751324188095364 1:2 2:48 3:3 4:6 5:0 6:2 7:1 
1 1:2 2:28 3:5 4:2 5:3 6:2 7:1 
1 1:1 2:38 3:2 4:3 5:3 6:1 7:1 
1 1:1 2:22 3:1 4:1 5:1 6:1 7:1 
1 1:1 2:26 3:1 4:1 5:1 6:1 7:1 
1 1:1 2:24 3:4 4:1 5:1 6:1 7:1 
0.1926161085455001 1:1 2:37 3:1 4:3 5:0 6:2 7:1 
1 1:1 2:30 3:1 4:3 5:3 6:1 7:1 
0.8449071005097391 1:1 2:39 3:1 4:1 5:1 6:2 7:4 
1 1:1 2:29 3:2 4:1 5:4 6:1 7:1 
0.7468989836942559 1:1 2:31 3:1 4:1 5:3 6:1 7:4 
0.7475879612186491 1:1 2:37 3:4 4:3 5:0 6:2 7:1 
1 1:2 2:28 3:1 4:2 5:4 6:1 7:1 
1 1:1 2:36 3:1 4:1 5:3 6:1 7:1 
0.1621738785117866 1:1 2:40 3:1 4:1 5:2 6:1 7:1 
1 1:1 2:33 3:2 4:1 5:7 6:1 7:1 
0.2286829683489879 1:1 2:33 3:2 4:1 5:3 6:1 7:1 
1 1:1 2:29 3:2 4:1 5:4 6:1 7:1 
0.4842539489093287 1:2 2:27 3:1 4:2 5:1 6:1 7:1 
1 1:1 2:33 3:2 4:1 5:6 6:2 7:1 
1 1:1 2:40 3:2 4:3 5:8 6:2 7:4 
0.0383950989634579 1:1 2:29 3:1 4:5 5:2 6:2 7:1 
1 1:1 2:26 3:2 4:1 5:2 6:1 7:1 
0.9652142073814335 1:2 2:29 3:6 4:1 5:5 6:1 7:1 
1 1:1 2:30 3:2 4:2 5:5 6:1 7:1 
0.7951636774321935 1:1 2:30 3:3 4:2 5:1 6:1 7:1 
1 1:1 2:32 3:1 4:2 5:2 6:2 7:1 
0.7779087746558041 1:1 2:37 3:3 4:5 5:2 6:2 7:1 
1 1:2 2:25 3:3 4:1 5:1 6:1 7:1 
1 1:2 2:26 3:2 4:2 5:2 6:1 7:1 
0.03206176799786913 1:1 2:31 3:1 4:1 5:2 6:1 7:1 
0.02322567473229327 1:2 2:28 3:2 4:1 5:2 6:1 7:4 
1 1:1 2:35 3:4 4:1 5:1 6:1 7:1 
1 1:1 2:31 3:1 4:1 5:1 6:2 7:1 
0.2115225336467911 1:1 2:29 3:1 4:1 5:1 6:1 7:1 
1 1:1 2:29 3:2 4:1 5:4 6:1 7:1 
1 1:2 2:28 3:4 4:1 5:3 6:1 7:1 
0.5312424751207842 1:1 2:32 3:2 4:1 5:3 6:1 7:1 
1 1:1 2:35 3:1 4:1 5:2 6:2 7:1 
0.3746717652845201 1:1 2:41 3:1 4:1 5:2 6:2 7:1 
0.169400177506491 1:1 2:29 3:4 4:1 5:1 6:1 7:1 
1 1:1 2:29 3:1 4:1 5:1 6:2 7:1 
1 1:1 2:26 3:2 4:2 5:3 6:1 7:1 
0.07998045328999007 1:2 2:27 3:2 4:1 5:2 6:1 7:1 
0.6471059115314612 1:1 2:38 3:1 4:1 5:4 6:1 7:1 
1 1:1 2:25 3:1 4:1 5:0 6:1 7:1 
1 1:1 2:24 3:1 4:1 5:0 6:1 7:1 
1 1:1 2:35 3:1 4:1 5:12 6:1 7:1 
1 1:1 2:28 3:2 4:1 5:3 6:1 7:1 
1 1:1 2:26 3:2 4:1 5:2 6:1 7:1 
1 1:2 2:25 3:1 4:2 5:1 6:2 7:1 
0.7888376202177442 1:1 2:28 3:1 4:1 5:1 6:2 7:1 
1 1:1 2:27 3:1 4:2 5:4 6:2 7:1 
0.9656704532273718 1:1 2:27 3:2 4:1 5:2 6:1 7:1 
1 1:2 2:23 3:1 4:2 5:0 6:1 7:1 
0.81397704159161 1:1 2:31 3:1 4:1 5:3 6:1 7:5 
1 1:1 2:29 3:2 4:1 5:4 6:1 7:1 
1 1:1 2:27 3:1 4:2 5:2 6:1 7:1 
0.6775297101727957 1:1 2:30 3:2 4:1 5:6 6:1 7:4 
1 1:1 2:26 3:2 4:1 5:3 6:1 7:1 
1 1:2 2:27 3:2 4:2 5:2 6:1 7:1 
1 1:1 2:27 3:2 4:1 5:2 6:1 7:1 
1 1:1 2:31 3:1 4:1 5:4 6:2 7:1 
1 1:2 2:26 3:1 4:1 5:1 6:1 7:1 
0.2969511826431128 1:1 2:26 3:1 4:1 5:0 6:1 7:1 
0.1154455216404489 1:1 2:29 3:1 4:2 5:1 6:1 7:4 
1 1:1 2:26 3:4 4:1 5:2 6:1 7:1 
1 1:1 2:27 3:1 4:1 5:2 6:1 7:1 
0.004970556465290646 1:1 2:34 3:1 4:2 5:2 6:1 7:1 
1 1:1 2:26 3:1 4:2 5:3 6:1 7:1 
1 1:1 2:26 3:1 4:2 5:5 6:1 7:1 
0.1093797119574185 1:1 2:30 3:4 4:1 5:2 6:1 7:1 
0.08390130843190537 1:1 2:27 3:2 4:1 5:2 6:1 7:1 
1 1:2 2:31 3:3 4:2 5:5 6:2 7:1 
1 1:2 2:31 3:1 4:1 5:5 6:1 7:1 
1 1:1 2:26 3:2 4:1 5:1 6:1 7:1 
1 1:1 2:26 3:2 4:1 5:1 6:1 7:1 
1 1:2 2:30 3:3 4:2 5:6 6:2 7:1 
0.2260154066574675 1:2 2:30 3:1 4:1 5:2 6:1 7:4 
1 1:1 2:25 3:2 4:1 5:1 6:1 7:1 
0.9507006855670852 1:1 2:34 3:1 4:4 5:1 6:2 7:1 
1 1:1 2:31 3:3 4:1 5:3 6:2 7:2 
0.3380799081601715 1:1 2:37 3:1 4:1 5:3 6:1 7:1 
1 1:1 2:38 3:1 4:1 5:6 6:2 7:1 
1 1:1 2:28 3:1 4:2 5:6 6:2 7:1 
0.007172201320090735 1:1 2:27 3:2 4:2 5:2 6:1 7:1 
1 1:2 2:30 3:1 4:1 5:3 6:1 7:1 
1 1:1 2:28 3:1 4:1 5:1 6:1 7:1 
1 1:1 2:30 3:4 4:1 5:2 6:2 7:1 
1 1:1 2:32 3:1 4:1 5:7 6:1 7:4 
1 1:1 2:30 3:2 4:1 5:5 6:1 7:1 
1 1:1 2:34 3:1 4:2 5:6 6:1 7:1 
0.6407602003969811 1:1 2:31 3:1 4:1 5:2 6:1 7:1 
1 1:1 2:36 3:1 4:2 5:2 6:2 7:1 
1 1:1 2:34 3:1 4:1 5:3 6:1 7:5 
0.5743197757831943 1:1 2:30 3:6 4:1 5:1 6:1 7:1 
1 1:1 2:27 3:1 4:1 5:1 6:1 7:1 
0.9356130171697399 1:2 2:31 3:3 4:2 5:1 6:1 7:1 
0.1579322816908899 1:2 2:31 3:3 4:1 5:0 6:1 7:1 
1 1:1 2:35 3:1 4:1 5:5 6:1 7:3 
0.5651489362268027 1:1 2:30 3:4 4:1 5:0 6:1 7:1 
1 1:1 2:32 3:2 4:1 5:7 6:1 7:1 
1 1:1 2:29 3:1 4:1 5:4 6:1 7:1 
1 1:1 2:27 3:1 4:2 5:2 6:1 7:1 
1 1:1 2:29 3:1 4:2 5:3 6:1 7:4 
0.1045316189774582 1:1 2:30 3:1 4:1 5:2 6:1 7:1 
0.3465531241968999 1:1 2:27 3:2 4:2 5:2 6:1 7:1 
0.9200829353057871 1:1 2:27 3:1 4:5 5:2 6:1 7:1 
1 1:1 2:41 3:1 4:4 5:1 6:2 7:1 
1 1:1 2:26 3:2 4:2 5:3 6:1 7:1 
1 1:1 2:25 3:4 4:1 5:1 6:1 7:1 
0.3741185965943299 1:1 2:30 3:1 4:3 5:1 6:2 7:1 
1 1:1 2:29 3:4 4:1 5:1 6:1 7:1 
0.3380770460927897 1:1 2:30 3:2 4:2 5:4 6:1 7:1 
0.6974222751405967 1:1 2:29 3:1 4:3 5:0 6:1 7:1 
0.5235423120404195 1:1 2:30 3:4 4:1 5:0 6:1 7:4 
1 1:1 2:30 3:1 4:1 5:4 6:2 7:1 
1 1:2 2:34 3:2 4:3 5:6 6:1 7:3 
-0.9533158517342242 1:1 2:38 3:2 4:1 5:11 6:1 7:1 
-1 1:1 2:31 3:2 4:2 5:7 6:2 7:1 
-1 1:2 2:31 3:3 4:1 5:4 6:2 7:1 
-0.7419570484492066 1:1 2:36 3:2 4:2 5:15 6:2 7:1 
-0.3153552425431688 1:2 2:35 3:1 4:1 5:6 6:2 7:1 
-1 1:1 2:25 3:2 4:1 5:2 6:1 7:5 
-0.9158579007223137 1:1 2:39 3:1 4:2 5:15 6:2 7:1 
-0.9694859737944721 1:1 2:43 3:1 4:5 5:19 6:1 7:4 
-0.7188045095690271 1:1 2:38 3:1 4:2 5:15 6:2 7:4 
-1 1:2 2:27 3:1 4:1 5:1 6:1 7:1 
-0.3968373884007457 1:1 2:25 3:1 4:4 5:4 6:1 7:1 
-1 1:1 2:26 3:1 4:1 5:1 6:1 7:1 
-0.7212852474412572 1:1 2:41 3:5 4:1 5:4 6:1 7:1 
-1 1:1 2:26 3:3 4:1 5:2 6:1 7:1 
-0.3186126687120673 1:2 2:31 3:2 4:1 5:8 6:2 7:1 
-1 1:2 2:29 3:3 4:2 5:1 6:1 7:1 
-0.1025376155897955 1:2 2:33 3:1 4:1 5:8 6:2 7:1 
-1 1:1 2:43 3:3 4:2 5:2 6:2 7:1 
-0.7555840524018892 1:1 2:43 3:3 4:2 5:9 6:2 7:1 
-0.8951982689084994 1:1 2:34 3:2 4:1 5:11 6:1 7:5 
-1 1:2 2:26 3:1 4:2 5:2 6:1 7:1 
-1 1:2 2:24 3:2 4:1 5:1 6:1 7:1 
-1 1:1 2:27 3:3 4:1 5:2 6:1 7:1 
-1 1:1 2:27 3:1 4:1 5:1 6:1 7:1 
-1 1:2 2:30 3:1 4:1 5:2 6:2 7:1 
-1 1:1 2:34 3:1 4:2 5:1 6:2 7:1 
-0.05426430000470703 1:1 2:37 3:1 4:2 5:9 6:1 7:1 
-0.9211684756400176 1:1 2:30 3:2 4:1 5:7 6:1 7:1 
-0.9571967519478805 1:1 2:32 3:1 4:2 5:8 6:1 7:1 
-1 1:1 2:33 3:3 4:1 5:2 6:1 7:1 
-0.9925509554609935 1:1 2:51 3:1 4:6 5:21 6:2 7:1 
-1 1:2 2:25 3:1 4:4 5:2 6:1 7:1 
-0.5124295279702051 1:1 2:38 3:1 4:4 5:8 6:2 7:1 
-0.06886573150997052 1:1 2:37 3:1 4:2 5:12 6:2 7:1 
-0.56274958820434 1:1 2:44 3:5 4:1 5:3 6:2 7:1 
-1 1:2 2:37 3:1 4:1 5:2 6:2 7:1 
-0.003224516161468978 1:1 2:23 3:2 4:1 5:1 6:1 7:1 
-1 1:1 2:31 3:1 4:4 5:2 6:1 7:1 
-1 1:1 2:32 3:3 4:2 5:1 6:2 7:1 
-1 1:1 2:25 3:1 4:1 5:1 6:1 7:1 
-1 1:1 2:29 3:1 4:1 5:2 6:1 7:1 
-0.2731115423345404 1:1 2:26 3:2 4:1 5:4 6:1 7:1 
-0.598269366766275 1:1 2:28 3:2 4:4 5:8 6:1 7:1 
-1 1:1 2:30 3:3 4:1 5:5 6:1 7:1 
-1 1:1 2:31 3:1 4:1 5:5 6:1 7:1 
-0.5117400928431611 1:2 2:33 3:1 4:5 5:6 6:2 7:1 
-0.9946610625375573 1:1 2:56 3:3 4:6 5:21 6:2 7:1 
-1 1:1 2:25 3:2 4:1 5:1 6:1 7:1 
-1 1:1 2:40 3:1 4:3 5:6 6:2 7:5 
-1 1:2 2:35 3:1 4:2 5:12 6:2 7:1 
-1 1:1 2:33 3:3 4:1 5:4 6:2 7:1 
-1 1:1 2:28 3:2 4:1 5:4 6:1 7:1 
-1 1:2 2:34 3:1 4:2 5:3 6:2 7:5 
-0.2043641384959479 1:1 2:33 3:1 4:1 5:9 6:1 7:1 
-1 1:1 2:52 3:1 4:6 5:4 6:2 7:1 
-1 1:1 2:29 3:1 4:1 5:5 6:1 7:1 
-1 1:1 2:28 3:1 4:1 5:2 6:1 7:1 
-1 1:1 2:35 3:1 4:1 5:4 6:1 7:1 
-1 1:1 2:33 3:1 4:1 5:4 6:2 7:1 
-1 1:1 2:29 3:1 4:1 5:2 6:1 7:1 
-1 1:1 2:26 3:2 4:1 5:2 6:1 7:1 
-1 1:1 2:35 3:1 4:1 5:5 6:1 7:1 
-0.2330472202493117 1:2 2:26 3:1 4:2 5:5 6:2 7:1 
-1 1:1 2:29 3:1 4:1 5:5 6:1 7:1 
-1 1:1 2:30 3:1 4:2 5:1 6:1 7:1 
-1 1:1 2:37 3:1 4:2 5:6 6:1 7:1 
-1 1:2 2:34 3:1 4:2 5:7 6:1 7:1 
-1 1:1 2:41 3:1 4:1 5:7 6:2 7:1 
-1 1:1 2:27 3:1 4:2 5:4 6:1 7:1 
-1 1:1 2:31 3:1 4:5 5:4 6:2 7:1 
-1 1:1 2:29 3:3 4:2 5:2 6:1 7:1 
-0.7163829539451435 1:1 2:23 3:1 4:5 5:5 6:1 7:1 
-1 1:1 2:38 3:3 4:2 5:4 6:2 7:1 
-1 1:2 2:26 3:3 4:2 5:3 6:1 7:1 
-0.4795389056408833 1:1 2:37 3:3 4:2 5:4 6:2 7:1 
-1 1:1 2:30 3:3 4:2 5:1 6:1 7:1 
-1 1:1 2:36 3:3 4:1 5:2 6:2 7:1 
-1 1:1 2:31 3:3 4:5 5:4 6:1 7:1 
-1 1:1 2:38 3:3 4:2 5:12 6:2 7:1 
-0.854642440645471 1:1 2:24 3:5 4:2 5:2 6:1 7:1 
-0.453021442597045 1:2 2:26 3:2 4:2 5:4 6:2 7:1 
-1 1:2 2:27 3:3 4:2 5:2 6:2 7:1 
-0.8493731123307454 1:1 2:44 3:1 4:6 5:15 6:2 7:1 
-0.8091295713763117 1:1 2:26 3:1 4:2 5:4 6:1 7:1 
-0.9316274105271195 1:1 2:29 3:3 4:1 5:6 6:2 7:1 
-1 1:1 2:28 3:3 4:1 5:4 6:1 7:1 
-1 1:1 2:42 3:1 4:3 5:1 6:2 7:1 
-1 1:1 2:27 3:1 4:1 5:1 6:1 7:1 
-1 1:1 2:31 3:3 4:1 5:2 6:2 7:1 
-1 1:1 2:34 3:1 4:2 5:2 6:1 7:1 
-1 1:1 2:32 3:1 4:1 5:2 6:2 7:1 
-1 1:2 2:27 3:1 4:1 5:1 6:1 7:1 
-1 1:1 2:27 3:1 4:2 5:2 6:1 7:1 
-1 1:2 2:29 3:2 4:1 5:5 6:2 7:1 
-1 1:1 2:30 3:2 4:1 5:5 6:1 7:1 
-1 1:2 2:23 3:2 4:1 5:1 6:1 7:1 
-0.8142981879432897 1:2 2:31 3:2 4:1 5:9 6:2 7:3 
-0.414609960692474 1:1 2:25 3:2 4:1 5:3 6:1 7:1 
-0.1105414642535671 1:1 2:23 3:2 4:1 5:1 6:1 7:1 
-1 1:1 2:29 3:4 4:2 5:6 6:1 7:1 
-1 1:1 2:28 3:2 4:1 5:5 6:1 7:1 
-1 1:1 2:30 3:1 4:1 5:4 6:2 7:1 
-1 1:1 2:25 3:2 4:1 5:1 6:1 7:1 
-1 1:1 2:34 3:1 4:2 5:7 6:2 7:3 
-1 1:1 2:26 3:2 4:1 5:1 6:1 7:1 
-0.2905992501686268 1:1 2:35 3:3 4:2 5:4 6:2 7:1 
-1 1:1 2:27 3:1 4:1 5:4 6:1 7:1 
-1 1:1 2:34 3:1 4:1 5:8 6:1 7:1 
-1 1:1 2:24 3:2 4:1 5:1 6:1 7:1 
-1 1:2 2:26 3:2 4:1 5:3 6:1 7:1 
-1 1:1 2:26 3:3 4:1 5:2 6:1 7:1 
-1 1:1 2:23 3:1 4:2 5:1 6:1 7:1 
-1 1:1 2:35 3:1 4:1 5:4 6:2 7:1 
-1 1:1 2:31 3:1 4:1 5:2 6:2 7:1 
-1 1:1 2:25 3:2 4:1 5:2 6:1 7:1 
-1 1:1 2:25 3:2 4:1 5:1 6:1 7:1 
-1 1:1 2:37 3:1 4:1 5:6 6:2 7:1 
-1 1:2 2:30 3:1 4:2 5:4 6:1 7:1 
-1 1:1 2:32 3:1 4:1 5:4 6:2 7:1 
-1 1:1 2:27 3:3 4:1 5:3 6:1 7:1 
-1 1:2 2:34 3:3 4:2 5:4 6:2 7:1 
-1 1:2 2:31 3:3 4:1 5:2 6:1 7:1 
-1 1:2 2:24 3:5 4:1 5:1 6:1 7:1 
-1 1:1 2:28 3:1 4:1 5:2 6:1 7:1 
-1 1:1 2:34 3:3 4:2 5:1 6:2 7:1 
-0.9330124629541658 1:1 2:21 3:2 4:2 5:1 6:1 7:1 
-1 1:1 2:34 3:1 4:2 5:7 6:1 7:1 
-1 1:1 2:30 3:1 4:1 5:3 6:1 7:4 
-1 1:1 2:27 3:1 4:2 5:4 6:1 7:1 
-1 1:1 2:28 3:1 4:1 5:4 6:1 7:1 
-1 1:1 2:39 3:1 4:2 5:3 6:2 7:1 
-1 1:1 2:26 3:1 4:2 5:1 6:1 7:1 
-1 1:1 2:27 3:1 4:2 5:1 6:1 7:1 
-0.892796117720161 1:1 2:47 3:1 4:6 5:17 6:2 7:1 
-0.8653665178410069 1:1 2:38 3:1 4:5 5:5 6:2 7:1 
-1 1:1 2:33 3:3 4:1 5:7 6:2 7:1 
-1 1:1 2:28 3:4 4:1 5:2 6:1 7:1 
-1 1:1 2:29 3:4 4:1 5:2 6:1 7:1 
-1 1:1 2:28 3:1 4:1 5:2 6:2 7:1 
-0.9747175908607748 1:1 2:34 3:3 4:1 5:9 6:1 7:1 
-1 1:1 2:26 3:1 4:2 5:2 6:1 7:1 
-1 1:1 2:30 3:1 4:1 5:5 6:1 7:1 
-1 1:1 2:30 3:1 4:1 5:5 6:1 7:1 
-1 1:1 2:27 3:1 4:1 5:1 6:1 7:1 
-1 1:1 2:26 3:1 4:1 5:1 6:1 7:1 
-1 1:1 2:34 3:1 4:1 5:6 6:2 7:5 
-1 1:1 2:31 3:1 4:2 5:3 6:1 7:4 
-0.6763097397125352 1:1 2:30 3:1 4:4 5:6 6:1 7:1 
-1 1:1 2:25 3:5 4:2 5:2 6:1 7:1 
-1 1:1 2:31 3:1 4:2 5:4 6:1 7:2 
-0.3922540600983698 1:1 2:37 3:1 4:2 5:8 6:2 7:1 
-1 1:1 2:54 3:1 4:6 5:16 6:2 7:1 
-1 1:2 2:27 3:3 4:2 5:4 6:1 7:1 
-1 1:1 2:28 3:1 4:1 5:1 6:1 7:1 
-1 1:1 2:30 3:4 4:1 5:1 6:2 7:1 
-1 1:1 2:40 3:1 4:2 5:9 6:2 7:4 
-1 1:1 2:25 3:1 4:1 5:1 6:1 7:1 
-1 1:2 2:35 3:1 4:3 5:4 6:1 7:1 
-1 1:2 2:28 3:1 4:2 5:4 6:1 7:1 
-1 1:1 2:42 3:1 4:2 5:7 6:2 7:1 
-1 1:1 2:31 3:1 4:4 5:2 6:1 7:1 
-1 1:1 2:30 3:1 4:1 5:3 6:1 7:1 
