svm_type c_svc
kernel_type rbf
gamma 0.142857
nr_class 2
total_sv 397
rho -0.221328
label 2 1
nr_sv 200 197
SV
1 1:1 2:27 3:1 4:2 5:1 6:1 7:1 
0.7112574036361887 1:1 2:47 3:1 4:6 5:17 6:2 7:1 
0.6133142996066159 1:1 2:38 3:1 4:5 5:5 6:2 7:1 
1 1:1 2:33 3:3 4:1 5:7 6:2 7:1 
1 1:1 2:28 3:4 4:1 5:2 6:1 7:1 
1 1:1 2:29 3:4 4:1 5:2 6:1 7:1 
1 1:1 2:28 3:1 4:1 5:2 6:2 7:1 
0.337791573011042 1:1 2:34 3:3 4:1 5:9 6:1 7:1 
1 1:1 2:26 3:1 4:2 5:2 6:1 7:1 
1 1:1 2:30 3:1 4:1 5:5 6:1 7:1 
1 1:1 2:30 3:1 4:1 5:5 6:1 7:1 
1 1:1 2:27 3:1 4:1 5:1 6:1 7:1 
1 1:1 2:26 3:1 4:1 5:1 6:1 7:1 
1 1:1 2:34 3:1 4:1 5:6 6:2 7:5 
1 1:1 2:31 3:1 4:2 5:3 6:1 7:4 
0.7499656807075975 1:1 2:30 3:1 4:4 5:6 6:1 7:1 
1 1:1 2:25 3:5 4:2 5:2 6:1 7:1 
1 1:1 2:31 3:1 4:2 5:4 6:1 7:2 
0.3377785334219474 1:2 2:30 3:1 4:2 5:7 6:2 7:1 
1 1:1 2:37 3:1 4:2 5:8 6:2 7:1 
0.7312367005233035 1:1 2:31 3:1 4:5 5:7 6:1 7:1 
0.6418688196443449 1:1 2:54 3:1 4:6 5:16 6:2 7:1 
1 1:2 2:27 3:3 4:2 5:4 6:1 7:1 
1 1:1 2:28 3:1 4:1 5:1 6:1 7:1 
1 1:1 2:30 3:4 4:1 5:1 6:2 7:1 
0.7636895718325862 1:1 2:40 3:1 4:2 5:9 6:2 7:4 
1 1:1 2:25 3:1 4:1 5:1 6:1 7:1 
1 1:2 2:35 3:1 4:3 5:4 6:1 7:1 
1 1:2 2:28 3:1 4:2 5:4 6:1 7:1 
1 1:1 2:42 3:1 4:2 5:7 6:2 7:1 
1 1:1 2:31 3:1 4:4 5:2 6:1 7:1 
1 1:1 2:30 3:1 4:1 5:3 6:1 7:1 
1 1:1 2:30 3:1 4:4 5:3 6:1 7:1 
0.9970011837561714 1:1 2:27 3:1 4:4 5:4 6:2 7:1 
1 1:1 2:26 3:3 4:2 5:2 6:1 7:1 
1 1:1 2:32 3:2 4:2 5:8 6:1 7:1 
0.3306571048285096 1:1 2:45 3:1 4:6 5:6 6:2 7:1 
1 1:2 2:33 3:3 4:1 5:6 6:1 7:1 
1 1:2 2:24 3:2 4:1 5:1 6:1 7:1 
1 1:1 2:38 3:3 4:1 5:2 6:2 7:1 
0.6747534790283447 1:1 2:24 3:2 4:1 5:1 6:1 7:1 
1 1:1 2:31 3:1 4:1 5:1 6:1 7:1 
1 1:1 2:41 3:1 4:2 5:2 6:2 7:1 
0.5402010438874423 1:2 2:47 3:1 4:2 5:8 6:2 7:1 
0.6275502279919457 1:2 2:45 3:1 4:6 5:8 6:2 7:1 
1 1:2 2:24 3:1 4:4 5:2 6:1 7:1 
0.6483619008759005 1:1 2:57 3:1 4:5 5:15 6:2 7:1 
0.0006735422629378139 1:1 2:40 3:2 4:3 5:17 6:2 7:4 
1 1:1 2:34 3:3 4:2 5:1 6:2 7:1 
1 1:2 2:33 3:1 4:5 5:2 6:2 7:1 
0.3305783516675167 1:1 2:48 3:1 4:6 5:5 6:2 7:1 
1 1:2 2:38 3:1 4:1 5:5 6:2 7:3 
0.8107928935404995 1:2 2:49 3:1 4:2 5:22 6:2 7:5 
1 1:2 2:39 3:1 4:1 5:2 6:1 7:1 
0.8018244534831975 1:2 2:47 3:3 4:1 5:14 6:2 7:4 
1 1:1 2:40 3:1 4:1 5:10 6:2 7:1 
0.2528493348093517 1:1 2:33 3:2 4:2 5:11 6:2 7:1 
1 1:1 2:32 3:1 4:2 5:6 6:1 7:1 
0.1360616537650382 1:1 2:32 3:1 4:4 5:7 6:1 7:1 
1 1:1 2:30 3:3 4:2 5:2 6:2 7:1 
1 1:1 2:31 3:1 4:2 5:4 6:1 7:1 
1 1:2 2:43 3:3 4:2 5:1 6:2 7:1 
0.00251077121651406 1:1 2:35 3:1 4:2 5:9 6:2 7:1 
0.8951302087848978 1:1 2:42 3:3 4:3 5:18 6:2 7:1 
0.2445723252316019 1:2 2:47 3:1 4:5 5:23 6:2 7:1 
1 1:1 2:45 3:1 4:2 5:20 6:2 7:1 
0.2466838660984801 1:1 2:46 3:1 4:5 5:20 6:2 7:1 
0.7973494740357168 1:1 2:54 3:1 4:5 5:5 6:2 7:1 
0.6339252624333901 1:1 2:54 3:1 4:5 5:22 6:2 7:1 
0.5124079702918329 1:1 2:48 3:1 4:5 5:23 6:2 7:1 
0.09110289131354617 1:2 2:25 3:1 4:4 5:2 6:1 7:1 
0.8742973369949277 1:2 2:49 3:1 4:5 5:3 6:2 7:1 
1 1:2 2:27 3:1 4:4 5:2 6:2 7:1 
1 1:1 2:36 3:1 4:2 5:11 6:2 7:1 
0.4727500163800952 1:2 2:36 3:1 4:1 5:8 6:2 7:1 
0.6606941621721126 1:2 2:44 3:3 4:4 5:4 6:2 7:1 
1 1:1 2:37 3:2 4:1 5:12 6:2 7:1 
0.7559045999261474 1:1 2:45 3:2 4:1 5:23 6:1 7:4 
0.2278923579651575 1:1 2:43 3:2 4:3 5:20 6:2 7:3 
0.8679473727299387 1:2 2:37 3:1 4:4 5:15 6:2 7:1 
0.7788037077783312 1:1 2:61 3:3 4:2 5:32 6:2 7:1 
0.107156937679231 1:2 2:34 3:1 4:2 5:12 6:2 7:1 
0.2522299203144793 1:1 2:54 3:1 4:6 5:22 6:2 7:1 
1 1:2 2:44 3:2 4:2 5:21 6:1 7:1 
0.3874139919316258 1:1 2:46 3:2 4:3 5:24 6:2 7:4 
1 1:1 2:27 3:3 4:1 5:1 6:1 7:1 
1 1:1 2:27 3:4 4:2 5:2 6:1 7:1 
1 1:1 2:27 3:2 4:1 5:3 6:1 7:1 
0.8737857009654691 1:1 2:41 3:2 4:1 5:15 6:2 7:1 
1 1:1 2:28 3:1 4:1 5:2 6:2 7:1 
1 1:1 2:29 3:1 4:2 5:1 6:2 7:1 
1 1:1 2:28 3:1 4:1 5:1 6:1 7:1 
1 1:1 2:30 3:4 4:1 5:1 6:1 7:1 
1 1:1 2:33 3:3 4:1 5:2 6:2 7:1 
1 1:1 2:31 3:4 4:1 5:2 6:1 7:4 
1 1:1 2:34 3:1 4:1 5:6 6:2 7:1 
0.3456592654649173 1:1 2:35 3:1 4:1 5:10 6:1 7:1 
1 1:1 2:30 3:1 4:1 5:3 6:1 7:1 
1 1:1 2:32 3:3 4:1 5:4 6:2 7:1 
1 1:1 2:25 3:1 4:1 5:1 6:1 7:1 
1 1:1 2:39 3:3 4:1 5:6 6:1 7:1 
1 1:1 2:31 3:3 4:1 5:1 6:2 7:1 
1 1:1 2:26 3:2 4:1 5:3 6:1 7:1 
1 1:1 2:38 3:3 4:2 5:5 6:2 7:3 
1 1:1 2:45 3:3 4:1 5:2 6:2 7:1 
1 1:2 2:34 3:1 4:1 5:5 6:1 7:1 
1 1:1 2:32 3:1 4:1 5:7 6:1 7:1 
1 1:1 2:42 3:1 4:1 5:6 6:1 7:1 
1 1:1 2:28 3:3 4:1 5:3 6:1 7:1 
0.7112826200163712 1:1 2:35 3:2 4:1 5:12 6:2 7:4 
0.4128306969361448 1:1 2:43 3:2 4:1 5:23 6:2 7:5 
1 1:1 2:43 3:2 4:1 5:19 6:2 7:4 
0.6125393338609552 1:2 2:50 3:3 4:1 5:14 6:2 7:4 
0.5440533842475376 1:2 2:46 3:1 4:1 5:9 6:2 7:4 
0.3030243226938082 1:2 2:39 3:3 4:2 5:5 6:2 7:2 
0.2663514185862239 1:2 2:44 3:2 4:1 5:24 6:2 7:3 
1 1:2 2:28 3:3 4:2 5:2 6:2 7:1 
1 1:1 2:34 3:5 4:1 5:3 6:2 7:4 
1 1:1 2:28 3:2 4:1 5:5 6:1 7:1 
0.7189764696321221 1:1 2:22 3:1 4:2 5:1 6:1 7:1 
1 1:1 2:27 3:3 4:1 5:2 6:1 7:4 
1 1:1 2:31 3:1 4:2 5:1 6:1 7:1 
1 1:1 2:28 3:1 4:4 5:1 6:2 7:1 
1 1:1 2:37 3:1 4:2 5:2 6:1 7:1 
1 1:1 2:43 3:1 4:1 5:4 6:2 7:5 
1 1:1 2:32 3:3 4:1 5:1 6:2 7:1 
0.8904153129180391 1:1 2:43 3:2 4:1 5:21 6:2 7:4 
0.3416271500607221 1:1 2:44 3:2 4:1 5:23 6:2 7:3 
0.5641275119848491 1:2 2:39 3:2 4:3 5:17 6:2 7:4 
0.7786770392357941 1:1 2:54 3:2 4:1 5:34 6:2 7:4 
0.5785578890933386 1:2 2:46 3:3 4:3 5:10 6:2 7:3 
1 1:2 2:35 3:3 4:1 5:7 6:2 7:1 
1 1:1 2:42 3:2 4:1 5:19 6:2 7:3 
1 1:1 2:36 3:1 4:1 5:6 6:2 7:1 
1 1:1 2:27 3:2 4:2 5:4 6:1 7:1 
1 1:1 2:32 3:1 4:2 5:2 6:2 7:1 
0.2567331038785637 1:1 2:28 3:1 4:5 5:5 6:1 7:1 
0.9460996680741819 1:1 2:32 3:1 4:2 5:8 6:2 7:1 
1 1:1 2:30 3:1 4:1 5:6 6:1 7:1 
0.8808307185553195 1:1 2:37 3:2 4:2 5:16 6:2 7:1 
1 1:1 2:31 3:1 4:2 5:7 6:1 7:1 
0.5809476422547717 1:1 2:37 3:1 4:4 5:11 6:2 7:1 
1 1:1 2:31 3:1 4:1 5:7 6:1 7:1 
1 1:1 2:26 3:1 4:2 5:3 6:1 7:1 
1 1:1 2:30 3:1 4:2 5:2 6:1 7:1 
1 1:1 2:34 3:1 4:4 5:6 6:2 7:1 
1 1:2 2:30 3:3 4:2 5:3 6:2 7:1 
1 1:1 2:32 3:1 4:2 5:1 6:1 7:1 
1 1:1 2:30 3:1 4:1 5:2 6:1 7:4 
1 1:1 2:29 3:2 4:1 5:5 6:1 7:1 
1 1:1 2:31 3:2 4:1 5:6 6:2 7:4 
1 1:1 2:28 3:1 4:1 5:2 6:1 7:1 
1 1:1 2:28 3:1 4:1 5:2 6:1 7:1 
0.2928963537640111 1:2 2:29 3:2 4:1 5:6 6:1 7:1 
1 1:1 2:28 3:2 4:1 5:5 6:1 7:1 
1 1:2 2:30 3:1 4:1 5:5 6:2 7:5 
1 1:1 2:29 3:1 4:1 5:4 6:1 7:1 
0.1133814627106633 1:1 2:24 3:1 4:2 5:1 6:1 7:1 
1 1:2 2:26 3:1 4:2 5:1 6:1 7:1 
1 1:2 2:26 3:2 4:1 5:3 6:1 7:4 
1 1:1 2:26 3:2 4:1 5:2 6:1 7:1 
1 1:1 2:37 3:1 4:2 5:6 6:1 7:1 
1 1:2 2:27 3:1 4:1 5:2 6:1 7:1 
1 1:1 2:33 3:1 4:1 5:2 6:1 7:1 
1 1:1 2:30 3:3 4:1 5:4 6:2 7:1 
1 1:1 2:30 3:4 4:1 5:4 6:1 7:1 
1 1:1 2:32 3:1 4:1 5:6 6:2 7:1 
1 1:1 2:26 3:2 4:1 5:2 6:1 7:1 
1 1:1 2:30 3:4 4:1 5:4 6:1 7:1 
1 1:1 2:32 3:2 4:1 5:8 6:1 7:1 
1 1:1 2:35 3:2 4:1 5:8 6:1 7:1 
0.329190897471937 1:1 2:34 3:1 4:5 5:7 6:1 7:1 
0.4183409138077728 1:1 2:37 3:1 4:6 5:9 6:2 7:1 
1 1:1 2:36 3:1 4:2 5:10 6:2 7:1 
1 1:1 2:29 3:1 4:1 5:1 6:2 7:1 
0.8765359751643549 1:1 2:24 3:2 4:2 5:1 6:1 7:1 
0.5642482939933686 1:2 2:31 3:2 4:1 5:8 6:1 7:3 
0.1651968084865018 1:2 2:26 3:1 4:1 5:4 6:1 7:1 
1 1:2 2:26 3:1 4:5 5:2 6:1 7:1 
1 1:1 2:33 3:1 4:2 5:2 6:2 7:1 
1 1:1 2:29 3:2 4:2 5:6 6:1 7:1 
1 1:1 2:25 3:2 4:1 5:2 6:1 7:1 
1 1:1 2:24 3:3 4:2 5:1 6:1 7:1 
1 1:1 2:30 3:1 4:2 5:4 6:2 7:5 
0.6202237432138661 1:1 2:25 3:2 4:2 5:4 6:1 7:1 
1 1:1 2:32 3:1 4:2 5:7 6:1 7:1 
1 1:1 2:24 3:2 4:2 5:1 6:1 7:1 
1 1:1 2:26 3:3 4:4 5:1 6:2 7:1 
0.9856068522975738 1:1 2:33 3:1 4:2 5:7 6:2 7:4 
0.5665582747415806 1:1 2:32 3:1 4:4 5:5 6:2 7:1 
1 1:1 2:30 3:1 4:2 5:6 6:1 7:1 
1 1:2 2:26 3:1 4:2 5:2 6:1 7:1 
0.6715354548285375 1:1 2:31 3:1 4:2 5:7 6:2 7:1 
1 1:1 2:33 3:1 4:2 5:5 6:2 7:1 
1 1:1 2:28 3:3 4:2 5:2 6:2 7:1 
1 1:1 2:28 3:3 4:1 5:2 6:1 7:1 
0.5276390103882665 1:2 2:38 3:1 4:2 5:7 6:2 7:1 
1 1:1 2:29 3:3 4:2 5:1 6:1 7:1 
1 1:1 2:28 3:2 4:2 5:5 6:1 7:1 
1 1:1 2:32 3:1 4:2 5:1 6:2 7:1 
-1 1:1 2:28 3:1 4:1 5:1 6:1 7:1 
-1 1:1 2:30 3:4 4:1 5:2 6:2 7:1 
-1 1:1 2:32 3:1 4:1 5:7 6:1 7:4 
-0.066419126104107 1:2 2:28 3:1 4:2 5:2 6:1 7:1 
-1 1:1 2:30 3:2 4:1 5:5 6:1 7:1 
-1 1:1 2:30 3:1 4:1 5:0 6:2 7:1 
-0.7508020910925838 1:1 2:31 3:3 4:2 5:1 6:1 7:1 
-1 1:1 2:34 3:1 4:2 5:6 6:1 7:1 
-0.360386791447449 1:1 2:31 3:1 4:2 5:1 6:1 7:1 
-0.1457592645361276 1:1 2:36 3:1 4:2 5:2 6:2 7:1 
-0.395878846725656 1:1 2:34 3:1 4:1 5:3 6:1 7:5 
-0.480192482657864 1:1 2:30 3:6 4:1 5:1 6:1 7:1 
-1 1:1 2:27 3:1 4:1 5:1 6:1 7:1 
-1 1:1 2:35 3:1 4:1 5:5 6:1 7:3 
-0.4166785268642126 1:1 2:30 3:4 4:1 5:0 6:1 7:1 
-0.8897627664478135 1:1 2:32 3:1 4:1 5:2 6:1 7:1 
-1 1:1 2:32 3:2 4:1 5:7 6:1 7:1 
-1 1:1 2:29 3:1 4:1 5:4 6:1 7:1 
-1 1:1 2:29 3:4 4:1 5:2 6:1 7:1 
-0.4816782131345431 1:1 2:28 3:3 4:2 5:0 6:1 7:1 
-1 1:1 2:27 3:1 4:2 5:2 6:1 7:1 
-0.9281060084818027 1:1 2:29 3:1 4:2 5:3 6:1 7:4 
-1 1:1 2:27 3:2 4:2 5:2 6:1 7:1 
-1 1:1 2:27 3:1 4:5 5:2 6:1 7:1 
-0.9625527624608201 1:1 2:41 3:1 4:4 5:1 6:2 7:1 
-1 1:1 2:26 3:2 4:2 5:3 6:1 7:1 
-1 1:1 2:25 3:4 4:1 5:1 6:1 7:1 
-1 1:1 2:30 3:1 4:3 5:1 6:2 7:1 
-0.00303638254082726 1:1 2:27 3:1 4:1 5:0 6:1 7:1 
-1 1:1 2:29 3:4 4:1 5:1 6:1 7:1 
-0.001848225528621335 1:1 2:27 3:1 4:1 5:0 6:1 7:1 
-0.001475636618807765 1:1 2:32 3:1 4:1 5:0 6:1 7:1 
-0.01531989515786779 1:1 2:34 3:1 4:1 5:1 6:2 7:1 
-1 1:1 2:30 3:2 4:2 5:4 6:1 7:1 
-1 1:1 2:30 3:4 4:1 5:0 6:1 7:4 
-0.4599374911902269 1:1 2:30 3:1 4:1 5:2 6:1 7:2 
-1 1:1 2:30 3:1 4:1 5:4 6:2 7:1 
-1 1:2 2:34 3:2 4:3 5:6 6:1 7:3 
-1 1:1 2:29 3:4 4:1 5:3 6:1 7:1 
-1 1:1 2:29 3:2 4:1 5:4 6:1 7:1 
-1 1:1 2:29 3:1 4:1 5:1 6:1 7:1 
-1 1:1 2:38 3:1 4:1 5:3 6:1 7:1 
-1 1:2 2:32 3:1 4:1 5:6 6:1 7:1 
-1 1:1 2:32 3:4 4:1 5:0 6:2 7:1 
-0.2383064236854324 1:1 2:33 3:2 4:2 5:6 6:1 7:2 
-1 1:1 2:27 3:1 4:2 5:3 6:1 7:1 
-1 1:1 2:44 3:2 4:1 5:19 6:2 7:1 
-0.9543677592675277 1:2 2:33 3:1 4:2 5:0 6:2 7:1 
-0.2170769149398727 1:2 2:35 3:1 4:1 5:3 6:1 7:1 
-1 1:2 2:26 3:1 4:1 5:2 6:1 7:5 
-1 1:1 2:30 3:1 4:4 5:2 6:1 7:1 
-1 1:1 2:30 3:3 4:2 5:1 6:2 7:1 
-1 1:2 2:42 3:1 4:1 5:6 6:2 7:5 
-1 1:2 2:43 3:3 4:2 5:0 6:2 7:1 
-1 1:2 2:24 3:1 4:4 5:1 6:1 7:1 
-1 1:2 2:25 3:1 4:2 5:0 6:1 7:1 
-0.8155137481172917 1:2 2:38 3:3 4:4 5:0 6:2 7:1 
-1 1:2 2:29 3:1 4:2 5:4 6:1 7:1 
-1 1:2 2:38 3:2 4:2 5:13 6:2 7:2 
-1 1:2 2:31 3:1 4:2 5:2 6:2 7:1 
-1 1:2 2:37 3:1 4:2 5:10 6:2 7:1 
-0.3950033202677851 1:2 2:20 3:1 4:4 5:1 6:1 7:1 
-1 1:1 2:44 3:2 4:1 5:22 6:2 7:4 
-1 1:1 2:59 3:1 4:5 5:3 6:2 7:1 
-1 1:2 2:51 3:3 4:2 5:22 6:2 7:1 
-1 1:2 2:20 3:1 4:4 5:1 6:1 7:1 
-1 1:2 2:48 3:1 4:6 5:0 6:2 7:1 
-0.7488415509666028 1:2 2:37 3:3 4:1 5:10 6:2 7:1 
-1 1:1 2:43 3:2 4:1 5:19 6:2 7:1 
-1 1:1 2:29 3:2 4:2 5:6 6:1 7:2 
-1 1:1 2:36 3:1 4:3 5:1 6:2 7:1 
-0.6376476342770073 1:1 2:43 3:1 4:1 5:0 6:1 7:1 
-0.34044591788256 1:1 2:27 3:2 4:1 5:2 6:1 7:1 
-1 1:1 2:26 3:1 4:1 5:1 6:1 7:1 
-1 1:1 2:26 3:4 4:1 5:2 6:1 7:1 
-1 1:1 2:33 3:1 4:1 5:3 6:2 7:2 
-0.7754243775017774 1:1 2:36 3:3 4:1 5:3 6:2 7:4 
-0.4141204584642439 1:2 2:26 3:1 4:1 5:0 6:1 7:1 
-1 1:1 2:26 3:2 4:1 5:1 6:1 7:1 
-1 1:1 2:26 3:2 4:1 5:2 6:1 7:1 
-1 1:1 2:31 3:2 4:1 5:6 6:1 7:1 
-0.4419509731660735 1:1 2:32 3:1 4:1 5:0 6:1 7:1 
-1 1:1 2:33 3:1 4:2 5:1 6:1 7:1 
-1 1:1 2:31 3:1 4:2 5:2 6:1 7:1 
-1 1:1 2:38 3:1 4:1 5:3 6:1 7:5 
-1 1:1 2:33 3:2 4:1 5:6 6:2 7:1 
-0.09855652980314622 1:1 2:31 3:1 4:1 5:3 6:1 7:1 
-0.05392217267077171 1:1 2:34 3:3 4:1 5:1 6:1 7:1 
-1 1:1 2:33 3:1 4:1 5:2 6:2 7:1 
-1 1:1 2:25 3:2 4:1 5:1 6:1 7:1 
-0.6632785140014438 1:1 2:41 3:1 4:2 5:2 6:1 7:1 
-0.5346791692149633 1:1 2:29 3:1 4:1 5:0 6:1 7:4 
-0.6877891475566132 1:1 2:40 3:1 4:1 5:0 6:2 7:1 
-1 1:1 2:33 3:2 4:1 5:7 6:1 7:1 
-1 1:1 2:28 3:4 4:1 5:3 6:1 7:1 
-0.8532458026475318 1:1 2:33 3:1 4:1 5:1 6:1 7:5 
-0.7995775645376605 1:2 2:34 3:3 4:2 5:1 6:2 7:4 
-1 1:1 2:38 3:2 4:1 5:9 6:2 7:1 
-1 1:1 2:37 3:2 4:1 5:10 6:2 7:1 
-0.1695614657317018 1:1 2:31 3:2 4:1 5:2 6:1 7:1 
-1 1:1 2:31 3:1 4:2 5:2 6:1 7:1 
-1 1:1 2:38 3:1 4:1 5:8 6:2 7:1 
-0.4820069766916534 1:2 2:29 3:2 4:2 5:1 6:1 7:5 
-0.4669058176865734 1:1 2:28 3:4 4:1 5:1 6:1 7:1 
-1 1:1 2:48 3:1 4:1 5:1 6:2 7:1 
-0.09430598584674545 1:1 2:35 3:1 4:2 5:0 6:1 7:1 
-1 1:1 2:46 3:2 4:1 5:19 6:2 7:4 
-1 1:2 2:26 3:2 4:2 5:1 6:1 7:2 
-1 1:2 2:61 3:2 4:1 5:40 6:2 7:4 
-1 1:2 2:37 3:3 4:1 5:4 6:2 7:1 
-1 1:2 2:25 3:5 4:4 5:3 6:1 7:1 
-1 1:1 2:43 3:2 4:1 5:19 6:2 7:3 
-1 1:1 2:38 3:6 4:1 5:7 6:2 7:3 
-1 1:1 2:42 3:1 4:1 5:5 6:2 7:1 
-1 1:1 2:27 3:1 4:2 5:3 6:1 7:1 
-1 1:1 2:27 3:2 4:1 5:3 6:1 7:4 
-0.9145167069148978 1:1 2:41 3:1 4:1 5:4 6:2 7:1 
-1 1:1 2:29 3:2 4:1 5:4 6:1 7:1 
-1 1:1 2:44 3:3 4:1 5:3 6:2 7:4 
-0.09138420447166966 1:1 2:37 3:1 4:1 5:3 6:2 7:1 
-0.8557187494931101 1:1 2:35 3:5 4:1 5:3 6:2 7:1 
-0.1987351904280316 1:1 2:42 3:1 4:1 5:3 6:2 7:1 
-1 1:1 2:32 3:1 4:1 5:2 6:2 7:1 
-0.2486800558593922 1:2 2:36 3:3 4:2 5:2 6:2 7:1 
-1 1:2 2:45 3:2 4:1 5:21 6:2 7:3 
-1 1:1 2:54 3:5 4:3 5:8 6:2 7:1 
-1 1:2 2:56 3:3 4:2 5:20 6:2 7:1 
-0.6716429396762675 1:2 2:38 3:1 4:2 5:0 6:2 7:1 
-1 1:1 2:47 3:3 4:1 5:13 6:2 7:1 
-1 1:2 2:37 3:1 4:2 5:5 6:2 7:1 
-1 1:1 2:26 3:2 4:1 5:2 6:1 7:1 
-1 1:1 2:27 3:2 4:1 5:2 6:1 7:1 
-1 1:2 2:32 3:1 4:1 5:5 6:2 7:1 
-1 1:1 2:26 3:5 4:2 5:2 6:1 7:1 
-1 1:1 2:33 3:1 4:2 5:5 6:1 7:1 
-0.9214897744506781 1:1 2:33 3:5 4:2 5:2 6:2 7:1 
-1 1:1 2:32 3:1 4:2 5:8 6:2 7:1 
-0.9596448477926437 1:2 2:32 3:5 4:4 5:2 6:2 7:1 
-1 1:1 2:38 3:1 4:2 5:14 6:2 7:1 
-1 1:1 2:30 3:1 4:2 5:6 6:2 7:1 
-1 1:1 2:31 3:1 4:4 5:1 6:2 7:1 
-0.9637026916633966 1:1 2:32 3:3 4:1 5:5 6:1 7:1 
-1 1:1 2:24 3:2 4:1 5:1 6:1 7:1 
-1 1:1 2:28 3:1 4:1 5:3 6:1 7:1 
-1 1:1 2:37 3:2 4:1 5:12 6:1 7:1 
-1 1:1 2:25 3:2 4:1 5:0 6:1 7:1 
-1 1:1 2:35 3:2 4:1 5:5 6:1 7:1 
-1 1:1 2:28 3:1 4:1 5:1 6:1 7:1 
-1 1:1 2:33 3:2 4:1 5:8 6:2 7:1 
-1 1:1 2:39 3:1 4:1 5:5 6:1 7:1 
-0.9949720990232821 1:1 2:34 3:3 4:1 5:1 6:1 7:1 
-1 1:1 2:36 3:2 4:2 5:6 6:2 7:1 
-1 1:1 2:27 3:2 4:1 5:2 6:1 7:1 
-0.06465887399137528 1:1 2:34 3:1 4:1 5:5 6:1 7:1 
-0.9839881270580565 1:1 2:27 3:2 4:1 5:2 6:1 7:1 
-1 1:1 2:31 3:4 4:1 5:2 6:1 7:1 
-1 1:1 2:31 3:2 4:1 5:2 6:1 7:1 
-0.4030192052916997 1:1 2:37 3:1 4:1 5:3 6:1 7:1 
-1 1:1 2:28 3:1 4:1 5:1 6:1 7:1 
-0.9839932050516572 1:1 2:42 3:3 4:1 5:1 6:2 7:1 
-0.100043312872271 1:1 2:29 3:3 4:1 5:3 6:1 7:1 
-1 1:1 2:31 3:1 4:1 5:5 6:1 7:5 
-1 1:1 2:30 3:1 4:2 5:5 6:2 7:1 
-1 1:1 2:28 3:4 4:1 5:3 6:1 7:1 
-1 1:1 2:31 3:2 4:2 5:5 6:1 7:1 
-1 1:1 2:29 3:4 4:1 5:3 6:1 7:1 
-1 1:1 2:26 3:2 4:2 5:4 6:1 7:1 
-1 1:1 2:30 3:2 4:2 5:3 6:1 7:4 
-1 1:2 2:29 3:2 4:1 5:4 6:1 7:1 
-0.09260990348423219 1:2 2:28 3:2 4:1 5:2 6:1 7:1 
-1 1:1 2:30 3:1 4:5 5:7 6:1 7:1 
-1 1:1 2:35 3:1 4:2 5:9 6:2 7:1 
-1 1:1 2:29 3:2 4:1 5:4 6:1 7:5 
-1 1:1 2:28 3:1 4:1 5:3 6:1 7:1 
-1 1:1 2:31 3:2 4:2 5:6 6:1 7:1 
-1 1:1 2:27 3:2 4:2 5:4 6:1 7:1 
-1 1:1 2:31 3:1 4:2 5:6 6:1 7:1 
-1 1:1 2:24 3:1 4:2 5:1 6:1 7:1 
-1 1:1 2:28 3:2 4:2 5:4 6:2 7:1 
-0.4155778108791784 1:1 2:30 3:1 4:2 5:3 6:1 7:1 
-1 1:1 2:27 3:2 4:2 5:3 6:1 7:1 
-1 1:2 2:28 3:1 4:2 5:2 6:2 7:1 
-1 1:2 2:25 3:1 4:2 5:0 6:1 7:1 
-1 1:2 2:33 3:1 4:5 5:4 6:2 7:1 
-1 1:2 2:25 3:3 4:2 5:1 6:1 7:1 
-0.4781137805699221 1:2 2:29 3:1 4:4 5:1 6:1 7:1 
-1 1:2 2:27 3:1 4:4 5:1 6:1 7:1 
-1 1:2 2:29 3:1 4:1 5:1 6:2 7:1 
-1 1:1 2:24 3:1 4:4 5:0 6:1 7:1 
-1 1:1 2:30 3:1 4:1 5:6 6:1 7:1 
-1 1:1 2:32 3:2 4:2 5:8 6:1 7:1 
-1 1:1 2:33 3:1 4:2 5:7 6:1 7:1 
-1 1:1 2:42 3:1 4:4 5:8 6:2 7:1 
-1 1:1 2:33 3:1 4:2 5:7 6:1 7:1 
-1 1:1 2:30 3:1 4:2 5:7 6:1 7:1 
-1 1:1 2:26 3:2 4:2 5:3 6:1 7:1 
-1 1:1 2:28 3:3 4:4 5:1 6:2 7:1 
