svm_type c_svc
kernel_type rbf
gamma 0.142857
nr_class 2
total_sv 360
rho 0.289791
label 1 2
nr_sv 178 182
SV
1 1:1 2:33 3:2 4:1 5:3 6:1 7:1 
1 1:1 2:29 3:2 4:1 5:4 6:1 7:1 
1 1:1 2:33 3:2 4:1 5:6 6:2 7:1 
1 1:1 2:40 3:2 4:3 5:8 6:2 7:4 
1 1:1 2:29 3:1 4:5 5:2 6:2 7:1 
1 1:1 2:26 3:2 4:1 5:2 6:1 7:1 
1 1:2 2:29 3:6 4:1 5:5 6:1 7:1 
1 1:1 2:30 3:2 4:2 5:5 6:1 7:1 
0.3939278717817848 1:1 2:30 3:3 4:2 5:1 6:1 7:1 
1 1:1 2:32 3:1 4:2 5:2 6:2 7:1 
1 1:1 2:37 3:3 4:5 5:2 6:2 7:1 
1 1:2 2:25 3:3 4:1 5:1 6:1 7:1 
1 1:2 2:26 3:2 4:2 5:2 6:1 7:1 
0.8758271782292506 1:1 2:28 3:1 4:1 5:0 6:1 7:1 
1 1:1 2:35 3:4 4:1 5:1 6:1 7:1 
0.9413688573636934 1:1 2:31 3:1 4:1 5:1 6:2 7:1 
1 1:1 2:26 3:4 4:1 5:1 6:1 7:1 
0.729736228528333 1:1 2:37 3:3 4:3 5:1 6:1 7:1 
1 1:1 2:29 3:2 4:1 5:4 6:1 7:1 
1 1:2 2:28 3:4 4:1 5:3 6:1 7:1 
0.2284476492772536 1:1 2:35 3:1 4:1 5:2 6:2 7:1 
0.8021704526027823 1:1 2:41 3:1 4:1 5:2 6:2 7:1 
0.1375578425204089 1:1 2:29 3:4 4:1 5:1 6:1 7:1 
1 1:1 2:29 3:1 4:1 5:1 6:2 7:1 
1 1:1 2:26 3:2 4:2 5:3 6:1 7:1 
1 1:2 2:27 3:2 4:1 5:2 6:1 7:1 
1 1:1 2:38 3:1 4:1 5:4 6:1 7:1 
1 1:1 2:25 3:1 4:1 5:0 6:1 7:1 
1 1:1 2:24 3:1 4:1 5:0 6:1 7:1 
1 1:1 2:35 3:1 4:1 5:12 6:1 7:1 
1 1:1 2:28 3:2 4:1 5:3 6:1 7:1 
1 1:1 2:26 3:2 4:1 5:2 6:1 7:1 
1 1:2 2:25 3:1 4:2 5:1 6:2 7:1 
1 1:1 2:28 3:1 4:1 5:1 6:2 7:1 
1 1:1 2:27 3:1 4:2 5:4 6:2 7:1 
0.8635519455724892 1:1 2:27 3:2 4:1 5:2 6:1 7:1 
1 1:2 2:23 3:1 4:2 5:0 6:1 7:1 
1 1:1 2:31 3:1 4:1 5:3 6:1 7:5 
1 1:1 2:29 3:2 4:1 5:4 6:1 7:1 
1 1:1 2:27 3:1 4:2 5:2 6:1 7:1 
0.6821550209760504 1:1 2:30 3:2 4:1 5:6 6:1 7:4 
1 1:1 2:26 3:2 4:1 5:3 6:1 7:1 
0.06090259737885594 1:1 2:30 3:6 4:1 5:2 6:1 7:1 
1 1:2 2:27 3:2 4:2 5:2 6:1 7:1 
0.2403191404177547 1:1 2:32 3:2 4:1 5:2 6:1 7:1 
0.668783614244542 1:1 2:38 3:1 4:1 5:3 6:1 7:1 
1 1:1 2:31 3:1 4:1 5:4 6:2 7:1 
1 1:2 2:26 3:1 4:1 5:1 6:1 7:1 
0.6273518577948468 1:1 2:26 3:1 4:1 5:0 6:1 7:1 
0.1536434993597446 1:1 2:29 3:2 4:1 5:4 6:1 7:4 
1 1:1 2:26 3:4 4:1 5:2 6:1 7:1 
1 1:1 2:27 3:1 4:1 5:2 6:1 7:1 
0.2477806812672858 1:1 2:34 3:1 4:2 5:2 6:1 7:1 
1 1:1 2:26 3:1 4:2 5:3 6:1 7:1 
1 1:1 2:26 3:1 4:2 5:5 6:1 7:1 
1 1:1 2:30 3:4 4:1 5:2 6:1 7:1 
0.8835168937834218 1:2 2:31 3:3 4:2 5:5 6:2 7:1 
1 1:2 2:31 3:1 4:1 5:5 6:1 7:1 
0.005055460274986644 1:1 2:26 3:2 4:1 5:1 6:1 7:1 
1 1:2 2:30 3:3 4:2 5:6 6:2 7:1 
0.5024613640584099 1:2 2:30 3:1 4:1 5:2 6:1 7:4 
1 1:1 2:25 3:2 4:1 5:1 6:1 7:1 
1 1:1 2:34 3:1 4:4 5:1 6:2 7:1 
1 1:1 2:31 3:3 4:1 5:3 6:2 7:2 
0.4318070460994168 1:1 2:26 3:1 4:2 5:0 6:1 7:1 
1 1:1 2:38 3:1 4:1 5:6 6:2 7:1 
1 1:1 2:28 3:1 4:2 5:6 6:2 7:1 
0.2628163619504052 1:1 2:27 3:2 4:2 5:2 6:1 7:1 
0.6402435141775595 1:2 2:30 3:1 4:1 5:3 6:1 7:1 
1 1:1 2:28 3:1 4:1 5:1 6:1 7:1 
1 1:1 2:30 3:4 4:1 5:2 6:2 7:1 
1 1:1 2:32 3:1 4:1 5:7 6:1 7:4 
0.447888952088011 1:2 2:28 3:1 4:2 5:2 6:1 7:1 
1 1:1 2:30 3:2 4:1 5:5 6:1 7:1 
0.2644040630440886 1:1 2:30 3:1 4:1 5:0 6:2 7:1 
1 1:1 2:31 3:3 4:2 5:1 6:1 7:1 
1 1:1 2:34 3:1 4:2 5:6 6:1 7:1 
0.100255261954771 1:1 2:35 3:1 4:1 5:3 6:1 7:1 
1 1:1 2:36 3:1 4:2 5:2 6:2 7:1 
0.2863114832032078 1:1 2:34 3:1 4:1 5:3 6:1 7:5 
0.7949326257412924 1:1 2:30 3:6 4:1 5:1 6:1 7:1 
0.9361208276065582 1:1 2:27 3:1 4:1 5:1 6:1 7:1 
0.9601866320684377 1:2 2:31 3:3 4:2 5:1 6:1 7:1 
0.1608016957873439 1:2 2:31 3:3 4:1 5:0 6:1 7:1 
1 1:1 2:35 3:1 4:1 5:5 6:1 7:3 
0.1965721260338612 1:1 2:30 3:4 4:1 5:0 6:1 7:1 
1 1:1 2:32 3:2 4:1 5:7 6:1 7:1 
1 1:1 2:29 3:1 4:1 5:4 6:1 7:1 
0.4412996606648915 1:1 2:29 3:4 4:1 5:2 6:1 7:1 
0.5007254750616906 1:1 2:28 3:3 4:2 5:0 6:1 7:1 
1 1:1 2:27 3:1 4:2 5:2 6:1 7:1 
1 1:1 2:29 3:1 4:2 5:3 6:1 7:4 
0.8849798043038183 1:1 2:30 3:1 4:1 5:2 6:1 7:1 
1 1:1 2:27 3:2 4:2 5:2 6:1 7:1 
1 1:1 2:27 3:1 4:5 5:2 6:1 7:1 
1 1:1 2:41 3:1 4:4 5:1 6:2 7:1 
1 1:1 2:26 3:2 4:2 5:3 6:1 7:1 
1 1:1 2:28 3:4 4:1 5:2 6:1 7:1 
1 1:1 2:25 3:4 4:1 5:1 6:1 7:1 
0.4461983245096847 1:1 2:30 3:1 4:3 5:1 6:2 7:1 
1 1:1 2:29 3:4 4:1 5:1 6:1 7:1 
1 1:1 2:30 3:2 4:2 5:4 6:1 7:1 
0.06877908114728921 1:1 2:29 3:1 4:3 5:0 6:1 7:1 
1 1:1 2:30 3:4 4:1 5:0 6:1 7:4 
1 1:1 2:30 3:1 4:1 5:4 6:2 7:1 
0.002706959712105973 1:1 2:34 3:2 4:1 5:2 6:1 7:1 
1 1:2 2:34 3:2 4:3 5:6 6:1 7:3 
1 1:1 2:29 3:2 4:1 5:4 6:1 7:1 
0.3099347097080585 1:1 2:29 3:1 4:1 5:1 6:1 7:1 
0.8126254007702697 1:1 2:38 3:1 4:1 5:3 6:1 7:1 
1 1:2 2:32 3:1 4:1 5:6 6:1 7:1 
1 1:1 2:32 3:4 4:1 5:0 6:2 7:1 
1 1:1 2:33 3:2 4:2 5:6 6:1 7:2 
1 1:1 2:27 3:1 4:2 5:3 6:1 7:1 
1 1:1 2:44 3:2 4:1 5:19 6:2 7:1 
0.2717412745340206 1:2 2:33 3:1 4:2 5:0 6:2 7:1 
1 1:2 2:35 3:1 4:1 5:3 6:1 7:1 
0.8651287300215196 1:2 2:26 3:1 4:1 5:2 6:1 7:5 
1 1:1 2:30 3:1 4:4 5:2 6:1 7:1 
1 1:1 2:30 3:3 4:2 5:1 6:2 7:1 
1 1:2 2:42 3:1 4:1 5:6 6:2 7:5 
1 1:2 2:43 3:3 4:2 5:0 6:2 7:1 
1 1:2 2:24 3:1 4:4 5:1 6:1 7:1 
0.2468080784131106 1:2 2:25 3:1 4:2 5:0 6:1 7:1 
0.5713698281810043 1:2 2:38 3:3 4:4 5:0 6:2 7:1 
1 1:2 2:29 3:1 4:2 5:4 6:1 7:1 
1 1:2 2:38 3:2 4:2 5:13 6:2 7:2 
0.7768860608351 1:2 2:31 3:1 4:2 5:2 6:2 7:1 
1 1:2 2:37 3:1 4:2 5:10 6:2 7:1 
0.6513021388201736 1:2 2:20 3:1 4:4 5:1 6:1 7:1 
1 1:1 2:44 3:2 4:1 5:22 6:2 7:4 
1 1:1 2:59 3:1 4:5 5:3 6:2 7:1 
1 1:2 2:51 3:3 4:2 5:22 6:2 7:1 
0.9744236073246637 1:2 2:20 3:1 4:4 5:1 6:1 7:1 
1 1:2 2:48 3:1 4:6 5:0 6:2 7:1 
1 1:2 2:37 3:3 4:1 5:10 6:2 7:1 
1 1:1 2:43 3:2 4:1 5:19 6:2 7:1 
1 1:1 2:29 3:2 4:2 5:6 6:1 7:2 
1 1:1 2:43 3:1 4:1 5:0 6:1 7:1 
1 1:1 2:26 3:1 4:1 5:1 6:1 7:1 
1 1:1 2:26 3:4 4:1 5:2 6:1 7:1 
0.682185776157535 1:1 2:33 3:1 4:1 5:3 6:2 7:2 
1 1:1 2:36 3:3 4:1 5:3 6:2 7:4 
0.705586574890964 1:1 2:26 3:2 4:1 5:1 6:1 7:1 
1 1:1 2:26 3:2 4:1 5:2 6:1 7:1 
1 1:1 2:31 3:2 4:1 5:6 6:1 7:1 
0.2772833600550307 1:1 2:29 3:2 4:2 5:3 6:1 7:1 
1 1:1 2:38 3:1 4:1 5:3 6:1 7:5 
1 1:1 2:33 3:2 4:1 5:6 6:2 7:1 
1 1:1 2:31 3:1 4:1 5:3 6:1 7:1 
1 1:1 2:34 3:3 4:1 5:1 6:1 7:1 
0.9280478599175744 1:1 2:33 3:1 4:1 5:2 6:2 7:1 
1 1:1 2:25 3:2 4:1 5:1 6:1 7:1 
1 1:1 2:41 3:1 4:2 5:2 6:1 7:1 
0.2677661781615394 1:1 2:29 3:1 4:1 5:0 6:1 7:4 
1 1:1 2:40 3:1 4:1 5:0 6:2 7:1 
1 1:1 2:33 3:2 4:1 5:7 6:1 7:1 
1 1:1 2:28 3:4 4:1 5:3 6:1 7:1 
0.5337159096956176 1:1 2:33 3:1 4:1 5:1 6:1 7:5 
1 1:2 2:34 3:3 4:2 5:1 6:2 7:4 
1 1:1 2:38 3:2 4:1 5:9 6:2 7:1 
1 1:1 2:37 3:2 4:1 5:10 6:2 7:1 
0.6743183902984557 1:1 2:31 3:1 4:2 5:2 6:1 7:1 
1 1:1 2:38 3:1 4:1 5:8 6:2 7:1 
0.2768874994803082 1:2 2:29 3:2 4:2 5:1 6:1 7:5 
0.7881642761456137 1:1 2:33 3:2 4:1 5:4 6:1 7:1 
1 1:1 2:48 3:1 4:1 5:1 6:2 7:1 
0.2220665515584297 1:1 2:35 3:1 4:2 5:0 6:1 7:1 
1 1:1 2:46 3:2 4:1 5:19 6:2 7:4 
1 1:2 2:61 3:2 4:1 5:40 6:2 7:4 
1 1:2 2:37 3:3 4:1 5:4 6:2 7:1 
1 1:2 2:25 3:5 4:4 5:3 6:1 7:1 
1 1:1 2:43 3:2 4:1 5:19 6:2 7:3 
1 1:1 2:38 3:6 4:1 5:7 6:2 7:3 
1 1:1 2:42 3:1 4:1 5:5 6:2 7:1 
1 1:1 2:27 3:1 4:2 5:3 6:1 7:1 
0.2361202625631639 1:1 2:27 3:2 4:1 5:3 6:1 7:4 
1 1:1 2:41 3:1 4:1 5:4 6:2 7:1 
-0.05806544448280486 1:1 2:37 3:1 4:2 5:6 6:1 7:1 
-0.0263499730600473 1:2 2:34 3:1 4:2 5:7 6:1 7:1 
-0.7164817913553108 1:1 2:41 3:1 4:1 5:7 6:2 7:1 
-0.9654236069314167 1:1 2:29 3:2 4:2 5:6 6:2 7:1 
-1 1:1 2:27 3:1 4:2 5:4 6:1 7:1 
-1 1:1 2:29 3:3 4:2 5:2 6:1 7:1 
-0.5036366989872424 1:1 2:23 3:1 4:5 5:5 6:1 7:1 
-0.1983675874636791 1:1 2:38 3:3 4:2 5:4 6:2 7:1 
-1 1:2 2:26 3:3 4:2 5:3 6:1 7:1 
-0.6439646485649839 1:1 2:37 3:3 4:2 5:4 6:2 7:1 
-1 1:1 2:30 3:3 4:2 5:1 6:1 7:1 
-1 1:1 2:36 3:3 4:1 5:2 6:2 7:1 
-0.6370699009892837 1:1 2:31 3:3 4:5 5:4 6:1 7:1 
-1 1:1 2:38 3:3 4:2 5:12 6:2 7:1 
-0.1361716385214039 1:1 2:37 3:1 4:5 5:6 6:1 7:1 
-0.1818687298026201 1:1 2:24 3:5 4:2 5:2 6:1 7:1 
-1 1:2 2:27 3:3 4:2 5:2 6:2 7:1 
-0.5893410559681025 1:1 2:44 3:1 4:6 5:15 6:2 7:1 
-1 1:1 2:26 3:1 4:2 5:4 6:1 7:1 
-1 1:1 2:29 3:3 4:1 5:6 6:2 7:1 
-1 1:1 2:28 3:3 4:1 5:4 6:1 7:1 
-1 1:1 2:42 3:1 4:3 5:1 6:2 7:1 
-1 1:1 2:27 3:1 4:1 5:1 6:1 7:1 
-1 1:1 2:31 3:3 4:1 5:2 6:2 7:1 
-1 1:1 2:34 3:1 4:2 5:2 6:1 7:1 
-1 1:1 2:32 3:1 4:1 5:2 6:2 7:1 
-1 1:2 2:27 3:1 4:1 5:1 6:1 7:1 
-1 1:1 2:27 3:1 4:2 5:2 6:1 7:1 
-1 1:2 2:29 3:2 4:1 5:5 6:2 7:1 
-1 1:1 2:30 3:2 4:1 5:5 6:1 7:1 
-0.7620771129195578 1:2 2:31 3:2 4:1 5:9 6:2 7:3 
-0.7431253693731477 1:1 2:25 3:2 4:1 5:3 6:1 7:1 
-1 1:1 2:29 3:4 4:2 5:6 6:1 7:1 
-1 1:1 2:30 3:1 4:1 5:4 6:2 7:1 
-1 1:1 2:25 3:2 4:1 5:1 6:1 7:1 
-1 1:1 2:34 3:1 4:2 5:7 6:2 7:3 
-1 1:1 2:26 3:2 4:1 5:1 6:1 7:1 
-1 1:1 2:27 3:1 4:1 5:4 6:1 7:1 
-0.6780730282752726 1:1 2:24 3:2 4:1 5:1 6:1 7:1 
-1 1:2 2:26 3:2 4:1 5:3 6:1 7:1 
-1 1:1 2:26 3:3 4:1 5:2 6:1 7:1 
-0.390534311288754 1:1 2:23 3:1 4:2 5:1 6:1 7:1 
-1 1:1 2:35 3:1 4:1 5:4 6:2 7:1 
-1 1:1 2:31 3:1 4:1 5:2 6:2 7:1 
-1 1:1 2:25 3:2 4:1 5:2 6:1 7:1 
-1 1:1 2:25 3:2 4:1 5:1 6:1 7:1 
-1 1:1 2:37 3:1 4:1 5:6 6:2 7:1 
-1 1:1 2:29 3:2 4:1 5:6 6:1 7:1 
-1 1:2 2:30 3:1 4:2 5:4 6:1 7:1 
-1 1:1 2:32 3:1 4:1 5:4 6:2 7:1 
-0.477989961385788 1:2 2:29 3:1 4:2 5:6 6:1 7:1 
-1 1:1 2:27 3:3 4:1 5:3 6:1 7:1 
-1 1:2 2:34 3:3 4:2 5:4 6:2 7:1 
-1 1:2 2:31 3:3 4:1 5:2 6:1 7:1 
-1 1:2 2:24 3:5 4:1 5:1 6:1 7:1 
-1 1:1 2:28 3:1 4:1 5:2 6:1 7:1 
-1 1:1 2:34 3:3 4:2 5:1 6:2 7:1 
-1 1:1 2:21 3:2 4:2 5:1 6:1 7:1 
-0.5683096185186748 1:1 2:34 3:1 4:2 5:7 6:1 7:1 
-1 1:1 2:30 3:1 4:1 5:3 6:1 7:4 
-1 1:1 2:27 3:1 4:2 5:4 6:1 7:1 
-1 1:1 2:28 3:1 4:1 5:4 6:1 7:1 
-1 1:1 2:39 3:1 4:2 5:3 6:2 7:1 
-1 1:1 2:26 3:1 4:2 5:1 6:1 7:1 
-1 1:1 2:27 3:1 4:2 5:1 6:1 7:1 
-0.5627447098498273 1:1 2:47 3:1 4:6 5:17 6:2 7:1 
-0.7107626423348292 1:1 2:31 3:1 4:2 5:7 6:2 7:1 
-0.5168059097021763 1:1 2:38 3:1 4:5 5:5 6:2 7:1 
-1 1:1 2:33 3:3 4:1 5:7 6:2 7:1 
-1 1:1 2:28 3:4 4:1 5:2 6:1 7:1 
-1 1:1 2:29 3:4 4:1 5:2 6:1 7:1 
-1 1:1 2:28 3:1 4:1 5:2 6:2 7:1 
-0.3179252521362611 1:1 2:34 3:3 4:1 5:9 6:1 7:1 
-1 1:1 2:26 3:1 4:2 5:2 6:1 7:1 
-1 1:1 2:30 3:1 4:1 5:5 6:1 7:1 
-1 1:1 2:30 3:1 4:1 5:5 6:1 7:1 
-1 1:1 2:27 3:1 4:1 5:1 6:1 7:1 
-1 1:1 2:26 3:1 4:1 5:1 6:1 7:1 
-1 1:1 2:34 3:1 4:1 5:6 6:2 7:5 
-1 1:1 2:31 3:1 4:2 5:3 6:1 7:4 
-1 1:1 2:25 3:5 4:2 5:2 6:1 7:1 
-1 1:1 2:31 3:1 4:2 5:4 6:1 7:2 
-0.006542955172704555 1:2 2:30 3:1 4:2 5:7 6:2 7:1 
-1 1:1 2:37 3:1 4:2 5:8 6:2 7:1 
-0.2910010890059462 1:1 2:31 3:1 4:5 5:7 6:1 7:1 
-0.5829813401250246 1:1 2:54 3:1 4:6 5:16 6:2 7:1 
-0.5096520274664291 1:2 2:27 3:3 4:2 5:4 6:1 7:1 
-1 1:1 2:28 3:1 4:1 5:1 6:1 7:1 
-1 1:1 2:30 3:4 4:1 5:1 6:2 7:1 
-1 1:1 2:40 3:1 4:2 5:9 6:2 7:4 
-1 1:1 2:25 3:1 4:1 5:1 6:1 7:1 
-1 1:2 2:35 3:1 4:3 5:4 6:1 7:1 
-1 1:2 2:28 3:1 4:2 5:4 6:1 7:1 
-0.1214523115611611 1:1 2:42 3:1 4:2 5:7 6:2 7:1 
-1 1:1 2:31 3:1 4:4 5:2 6:1 7:1 
-1 1:1 2:30 3:1 4:1 5:3 6:1 7:1 
-1 1:1 2:30 3:1 4:4 5:3 6:1 7:1 
-1 1:1 2:27 3:1 4:4 5:4 6:2 7:1 
-1 1:1 2:26 3:3 4:2 5:2 6:1 7:1 
-1 1:1 2:32 3:2 4:2 5:8 6:1 7:1 
-0.292995022672218 1:1 2:45 3:1 4:6 5:6 6:2 7:1 
-1 1:2 2:33 3:3 4:1 5:6 6:1 7:1 
-1 1:2 2:24 3:2 4:1 5:1 6:1 7:1 
-1 1:1 2:38 3:3 4:1 5:2 6:2 7:1 
-1 1:1 2:24 3:2 4:1 5:1 6:1 7:1 
-1 1:1 2:31 3:1 4:1 5:1 6:1 7:1 
-1 1:1 2:41 3:1 4:2 5:2 6:2 7:1 
-0.5390240436943387 1:2 2:47 3:1 4:2 5:8 6:2 7:1 
-0.4913404839759212 1:2 2:45 3:1 4:6 5:8 6:2 7:1 
-1 1:2 2:24 3:1 4:4 5:2 6:1 7:1 
-0.588825488299538 1:1 2:57 3:1 4:5 5:15 6:2 7:1 
-0.5162281680192564 1:1 2:40 3:2 4:3 5:17 6:2 7:4 
-1 1:1 2:34 3:3 4:2 5:1 6:2 7:1 
-0.126545881523167 1:1 2:35 3:1 4:4 5:10 6:2 7:1 
-1 1:2 2:33 3:1 4:5 5:2 6:2 7:1 
-0.3048787689830195 1:1 2:48 3:1 4:6 5:5 6:2 7:1 
-1 1:2 2:38 3:1 4:1 5:5 6:2 7:3 
-0.7233437696296863 1:2 2:49 3:1 4:2 5:22 6:2 7:5 
-1 1:2 2:39 3:1 4:1 5:2 6:1 7:1 
-0.5657559381058369 1:2 2:47 3:3 4:1 5:14 6:2 7:4 
-1 1:1 2:40 3:1 4:1 5:10 6:2 7:1 
-1 1:1 2:32 3:1 4:2 5:6 6:1 7:1 
-1 1:1 2:30 3:3 4:2 5:2 6:2 7:1 
-1 1:1 2:31 3:1 4:2 5:4 6:1 7:1 
-1 1:2 2:43 3:3 4:2 5:1 6:2 7:1 
-0.9640354540857717 1:1 2:42 3:3 4:3 5:18 6:2 7:1 
-0.2176375302790197 1:2 2:47 3:1 4:5 5:23 6:2 7:1 
-1 1:1 2:45 3:1 4:2 5:20 6:2 7:1 
-0.1753006827444629 1:1 2:46 3:1 4:5 5:20 6:2 7:1 
-0.7133945834308977 1:1 2:54 3:1 4:5 5:5 6:2 7:1 
-0.477179787781435 1:1 2:54 3:1 4:5 5:22 6:2 7:1 
-0.4784563560767099 1:1 2:48 3:1 4:5 5:23 6:2 7:1 
-1 1:2 2:25 3:1 4:4 5:2 6:1 7:1 
-0.8197363078647389 1:2 2:49 3:1 4:5 5:3 6:2 7:1 
-1 1:2 2:27 3:1 4:4 5:2 6:2 7:1 
-1 1:1 2:36 3:1 4:2 5:11 6:2 7:1 
-0.7517893307800052 1:2 2:36 3:1 4:1 5:8 6:2 7:1 
-0.4968971758453087 1:2 2:44 3:3 4:4 5:4 6:2 7:1 
-1 1:1 2:37 3:2 4:1 5:12 6:2 7:1 
-0.4834574155366412 1:1 2:45 3:2 4:1 5:23 6:1 7:4 
-0.7552201699774426 1:1 2:43 3:2 4:3 5:20 6:2 7:3 
-0.7453941445456675 1:2 2:37 3:1 4:4 5:15 6:2 7:1 
-0.7100708268606634 1:1 2:61 3:3 4:2 5:32 6:2 7:1 
-0.5083651969728383 1:2 2:34 3:1 4:2 5:12 6:2 7:1 
-0.3043548326320751 1:1 2:54 3:1 4:6 5:22 6:2 7:1 
-0.7082629658747057 1:2 2:44 3:2 4:2 5:21 6:1 7:1 
-0.346764763299408 1:1 2:46 3:2 4:3 5:24 6:2 7:4 
-1 1:1 2:27 3:3 4:1 5:1 6:1 7:1 
-1 1:1 2:27 3:4 4:2 5:2 6:1 7:1 
-1 1:1 2:27 3:2 4:1 5:3 6:1 7:1 
-0.6347761195098551 1:1 2:41 3:2 4:1 5:15 6:2 7:1 
-1 1:1 2:28 3:1 4:1 5:2 6:2 7:1 
-1 1:1 2:29 3:1 4:2 5:1 6:2 7:1 
-1 1:1 2:28 3:1 4:1 5:1 6:1 7:1 
-1 1:1 2:30 3:4 4:1 5:1 6:1 7:1 
-1 1:1 2:33 3:3 4:1 5:2 6:2 7:1 
-1 1:1 2:31 3:4 4:1 5:2 6:1 7:4 
-1 1:1 2:34 3:1 4:1 5:6 6:2 7:1 
-0.5921745195335455 1:1 2:35 3:1 4:1 5:10 6:1 7:1 
-1 1:1 2:30 3:1 4:1 5:3 6:1 7:1 
-1 1:1 2:32 3:3 4:1 5:4 6:2 7:1 
-1 1:1 2:25 3:1 4:1 5:1 6:1 7:1 
-1 1:1 2:39 3:3 4:1 5:6 6:1 7:1 
-1 1:1 2:31 3:3 4:1 5:1 6:2 7:1 
-1 1:1 2:26 3:2 4:1 5:3 6:1 7:1 
-0.6756758663048965 1:1 2:38 3:3 4:2 5:5 6:2 7:3 
-0.8538657223145369 1:1 2:45 3:3 4:1 5:2 6:2 7:1 
-1 1:2 2:34 3:1 4:1 5:5 6:1 7:1 
-1 1:1 2:32 3:1 4:1 5:7 6:1 7:1 
-1 1:1 2:42 3:1 4:1 5:6 6:1 7:1 
-1 1:1 2:28 3:3 4:1 5:3 6:1 7:1 
-0.6428594502986879 1:1 2:35 3:2 4:1 5:12 6:2 7:4 
-0.7883693873954127 1:1 2:43 3:2 4:1 5:23 6:2 7:5 
-0.3963912365582077 1:1 2:44 3:2 4:1 5:23 6:2 7:3 
-1 1:1 2:43 3:2 4:1 5:19 6:2 7:4 
-0.01356059289851905 1:1 2:34 3:2 4:2 5:12 6:2 7:1 
-0.5545140513836151 1:2 2:50 3:3 4:1 5:14 6:2 7:4 
-0.6141080723307059 1:2 2:46 3:1 4:1 5:9 6:2 7:4 
-0.1089851391562568 1:2 2:44 3:2 4:1 5:24 6:2 7:3 
-1 1:2 2:28 3:3 4:2 5:2 6:2 7:1 
-1 1:1 2:34 3:5 4:1 5:3 6:2 7:4 
-0.366696555701019 1:1 2:28 3:2 4:1 5:5 6:1 7:1 
