svm_type c_svc
kernel_type rbf
gamma 0.142857
nr_class 2
total_sv 829
rho -0.183302
label 1 -1
nr_sv 414 415
SV
1 1:1 2:33 3:3 4:1 5:2 6:1 7:1 
1 1:1 2:27 3:2 4:1 5:4 6:1 7:4 
1 1:1 2:27 3:1 4:2 5:4 6:1 7:1 
1 1:1 2:31 3:1 4:1 5:1 6:1 7:1 
1 1:1 2:32 3:1 4:2 5:7 6:1 7:1 
1 1:1 2:29 3:1 4:2 5:6 6:1 7:1 
1 1:1 2:40 3:1 4:1 5:10 6:2 7:1 
1 1:1 2:37 3:1 4:1 5:6 6:2 7:1 
1 1:1 2:36 3:1 4:2 5:10 6:2 7:1 
1 1:1 2:30 3:1 4:1 5:2 6:1 7:4 
1 1:1 2:34 3:1 4:1 5:9 6:1 7:1 
0.8829923373449792 1:2 2:33 3:1 4:5 5:6 6:2 7:1 
1 1:1 2:30 3:4 4:1 5:1 6:1 7:1 
1 1:1 2:41 3:1 4:2 5:2 6:2 7:1 
1 1:1 2:26 3:1 4:2 5:4 6:1 7:1 
1 1:1 2:26 3:2 4:1 5:2 6:1 7:1 
1 1:1 2:30 3:1 4:2 5:2 6:1 7:1 
1 1:1 2:26 3:2 4:1 5:2 6:1 7:1 
1 1:1 2:29 3:1 4:2 5:6 6:1 7:1 
1 1:1 2:31 3:1 4:1 5:1 6:1 7:1 
0.9663308153847961 1:1 2:33 3:1 4:2 5:7 6:2 7:4 
1 1:1 2:32 3:1 4:2 5:6 6:1 7:1 
1 1:1 2:30 3:1 4:1 5:3 6:1 7:1 
1 1:1 2:31 3:1 4:1 5:1 6:1 7:1 
1 1:1 2:30 3:1 4:1 5:2 6:1 7:4 
1 1:1 2:30 3:3 4:1 5:4 6:2 7:1 
1 1:1 2:33 3:1 4:1 5:7 6:1 7:1 
1 1:1 2:26 3:2 4:1 5:1 6:1 7:1 
1 1:1 2:27 3:2 4:1 5:4 6:1 7:1 
1 1:1 2:28 3:1 4:5 5:5 6:1 7:1 
1 1:1 2:27 3:1 4:1 5:1 6:1 7:1 
1 1:1 2:33 3:3 4:1 5:7 6:2 7:1 
1 1:1 2:32 3:1 4:2 5:8 6:1 7:1 
1 1:2 2:30 3:1 4:2 5:4 6:1 7:1 
1 1:1 2:27 3:2 4:1 5:3 6:1 7:1 
0.7626606501106965 1:1 2:29 3:3 4:1 5:6 6:2 7:1 
1 1:1 2:32 3:1 4:2 5:6 6:1 7:1 
1 1:1 2:26 3:2 4:1 5:2 6:1 7:1 
1 1:2 2:30 3:1 4:1 5:7 6:1 7:1 
1 1:1 2:30 3:1 4:1 5:3 6:1 7:1 
1 1:1 2:27 3:2 4:1 5:4 6:1 7:4 
1 1:1 2:35 3:2 4:1 5:12 6:2 7:4 
1 1:1 2:33 3:3 4:1 5:7 6:2 7:1 
1 1:1 2:26 3:2 4:1 5:2 6:1 7:1 
1 1:2 2:28 3:3 4:2 5:2 6:2 7:1 
1 1:1 2:29 3:2 4:2 5:6 6:1 7:1 
1 1:1 2:32 3:1 4:2 5:7 6:1 7:1 
1 1:1 2:30 3:1 4:1 5:3 6:1 7:1 
1 1:1 2:31 3:1 4:1 5:1 6:1 7:1 
1 1:1 2:37 3:1 4:2 5:2 6:1 7:1 
1 1:1 2:28 3:3 4:1 5:4 6:1 7:1 
0.7103244245544381 1:1 2:37 3:2 4:2 5:16 6:2 7:1 
1 1:1 2:30 3:1 4:1 5:2 6:1 7:4 
1 1:1 2:33 3:3 4:1 5:2 6:1 7:1 
1 1:1 2:25 3:2 4:1 5:1 6:1 7:1 
1 1:1 2:32 3:1 4:2 5:1 6:1 7:1 
1 1:1 2:30 3:1 4:2 5:2 6:1 7:1 
1 1:1 2:42 3:1 4:3 5:1 6:2 7:1 
0.929486179852605 1:2 2:38 3:1 4:1 5:5 6:2 7:3 
1 1:1 2:33 3:1 4:2 5:2 6:2 7:1 
1 1:1 2:24 3:2 4:2 5:4 6:1 7:1 
1 1:1 2:24 3:1 4:2 5:1 6:1 7:1 
1 1:1 2:33 3:3 4:1 5:2 6:1 7:1 
1 1:1 2:32 3:2 4:1 5:8 6:1 7:1 
1 1:1 2:24 3:2 4:2 5:1 6:1 7:1 
1 1:1 2:28 3:3 4:1 5:3 6:1 7:1 
1 1:1 2:27 3:2 4:1 5:4 6:1 7:1 
1 1:1 2:31 3:1 4:2 5:1 6:1 7:1 
0.6767149584390525 1:1 2:26 3:3 4:4 5:1 6:2 7:1 
0.03666293136759814 1:1 2:23 3:1 4:5 5:5 6:1 7:1 
1 1:1 2:32 3:1 4:2 5:7 6:1 7:1 
1 1:1 2:30 3:3 4:2 5:1 6:1 7:1 
1 1:1 2:35 3:1 4:1 5:4 6:1 7:1 
1 1:1 2:29 3:2 4:1 5:6 6:2 7:1 
1 1:1 2:29 3:4 4:1 5:2 6:1 7:1 
0.9362976586682371 1:1 2:32 3:1 4:1 5:2 6:2 7:1 
1 1:2 2:29 3:3 4:2 5:6 6:1 7:1 
1 1:1 2:32 3:1 4:2 5:7 6:1 7:1 
1 1:1 2:25 3:2 4:2 5:4 6:1 7:1 
1 1:1 2:27 3:1 4:1 5:1 6:1 7:1 
0.7388479520287357 1:1 2:37 3:1 4:2 5:12 6:1 7:1 
1 1:1 2:26 3:2 4:1 5:1 6:1 7:1 
1 1:1 2:27 3:2 4:1 5:3 6:1 7:1 
1 1:2 2:34 3:1 4:1 5:5 6:1 7:1 
1 1:1 2:35 3:1 4:1 5:4 6:1 7:1 
0.9713343725616663 1:2 2:27 3:1 4:1 5:2 6:1 7:1 
1 1:1 2:28 3:2 4:2 5:6 6:1 7:1 
1 1:1 2:33 3:1 4:2 5:2 6:2 7:1 
0.6117441706496058 1:1 2:46 3:1 4:6 5:17 6:2 7:1 
0.9738459131454884 1:1 2:30 3:4 4:1 5:4 6:1 7:1 
1 1:1 2:26 3:3 4:1 5:2 6:1 7:1 
1 1:1 2:30 3:1 4:2 5:6 6:1 7:1 
1 1:1 2:32 3:1 4:2 5:1 6:1 7:1 
1 1:1 2:28 3:3 4:1 5:2 6:1 7:1 
1 1:2 2:27 3:3 4:2 5:4 6:1 7:1 
1 1:1 2:30 3:4 4:1 5:4 6:1 7:1 
0.6113477795536296 1:1 2:44 3:1 4:6 5:15 6:2 7:1 
0.06485251896604952 1:1 2:54 3:1 4:6 5:16 6:2 7:1 
0.5132388022903317 1:1 2:29 3:3 4:2 5:1 6:1 7:1 
1 1:1 2:29 3:3 4:2 5:1 6:1 7:1 
0.8629419568369109 1:1 2:29 3:1 4:1 5:4 6:1 7:1 
1 1:1 2:26 3:3 4:4 5:1 6:2 7:1 
1 1:1 2:30 3:3 4:1 5:5 6:1 7:1 
1 1:1 2:32 3:1 4:2 5:8 6:2 7:1 
1 1:1 2:28 3:1 4:1 5:1 6:1 7:1 
1 1:1 2:27 3:3 4:2 5:2 6:1 7:1 
0.8164540239185334 1:1 2:37 3:1 4:2 5:6 6:1 7:1 
1 1:1 2:31 3:1 4:1 5:1 6:1 7:1 
1 1:1 2:33 3:3 4:1 5:4 6:2 7:1 
1 1:1 2:27 3:3 4:2 5:2 6:1 7:1 
1 1:1 2:30 3:1 4:1 5:3 6:1 7:1 
1 1:1 2:31 3:1 4:1 5:1 6:1 7:1 
1 1:1 2:26 3:1 4:2 5:3 6:1 7:1 
1 1:1 2:26 3:2 4:1 5:2 6:1 7:1 
1 1:1 2:32 3:1 4:4 5:5 6:2 7:1 
1 1:1 2:34 3:2 4:2 5:12 6:2 7:1 
1 1:1 2:31 3:1 4:1 5:1 6:1 7:1 
0.282129409608454 1:1 2:37 3:1 4:1 5:6 6:1 7:1 
1 1:1 2:27 3:2 4:1 5:4 6:1 7:4 
1 1:1 2:32 3:1 4:2 5:1 6:1 7:1 
1 1:1 2:26 3:2 4:1 5:2 6:1 7:1 
1 1:1 2:30 3:1 4:1 5:3 6:1 7:1 
1 1:1 2:41 3:5 4:1 5:4 6:1 7:1 
1 1:2 2:24 3:1 4:1 5:2 6:1 7:1 
1 1:1 2:27 3:3 4:2 5:2 6:1 7:1 
1 1:1 2:24 3:2 4:2 5:1 6:1 7:1 
1 1:1 2:37 3:1 4:2 5:2 6:1 7:1 
1 1:1 2:29 3:1 4:1 5:4 6:1 7:1 
1 1:1 2:26 3:2 4:1 5:2 6:1 7:1 
0.5530608033560468 1:1 2:27 3:3 4:1 5:2 6:1 7:4 
1 1:1 2:29 3:1 4:1 5:4 6:1 7:1 
1 1:1 2:29 3:3 4:2 5:1 6:1 7:1 
0.6944482418358087 1:2 2:30 3:1 4:1 5:5 6:2 7:5 
0.6502619835051604 1:1 2:26 3:1 4:4 5:4 6:1 7:1 
1 1:1 2:29 3:3 4:2 5:2 6:2 7:5 
1 1:2 2:26 3:1 4:5 5:2 6:1 7:1 
1 1:1 2:29 3:1 4:2 5:6 6:1 7:1 
1 1:1 2:30 3:4 4:1 5:1 6:1 7:1 
1 1:1 2:26 3:1 4:1 5:1 6:1 7:1 
1 1:2 2:33 3:1 4:5 5:6 6:2 7:1 
1 1:1 2:29 3:1 4:1 5:4 6:1 7:1 
1 1:1 2:26 3:3 4:4 5:1 6:2 7:1 
1 1:1 2:26 3:2 4:1 5:1 6:1 7:1 
0.09411529829698465 1:2 2:44 3:2 4:1 5:24 6:2 7:3 
1 1:2 2:26 3:1 4:5 5:2 6:1 7:1 
1 1:1 2:27 3:2 4:1 5:4 6:1 7:1 
1 1:1 2:34 3:1 4:2 5:7 6:1 7:1 
1 1:1 2:28 3:3 4:1 5:4 6:1 7:1 
0.8611509664841038 1:1 2:32 3:1 4:1 5:4 6:1 7:2 
1 1:1 2:28 3:3 4:1 5:2 6:1 7:1 
1 1:1 2:32 3:1 4:2 5:7 6:1 7:1 
1 1:2 2:30 3:1 4:2 5:4 6:1 7:1 
1 1:1 2:27 3:3 4:2 5:2 6:1 7:1 
1 1:1 2:31 3:1 4:1 5:1 6:1 7:1 
1 1:2 2:31 3:3 4:1 5:4 6:2 7:1 
1 1:1 2:32 3:1 4:1 5:4 6:1 7:2 
1 1:1 2:28 3:1 4:1 5:1 6:1 7:1 
1 1:1 2:25 3:2 4:2 5:4 6:1 7:1 
0.1456779733291723 1:1 2:54 3:1 4:6 5:15 6:2 7:1 
1 1:1 2:29 3:3 4:2 5:1 6:1 7:1 
1 1:1 2:31 3:1 4:1 5:1 6:1 7:1 
1 1:1 2:32 3:1 4:1 5:2 6:2 7:1 
1 1:1 2:31 3:1 4:2 5:3 6:1 7:4 
1 1:1 2:29 3:1 4:2 5:1 6:2 7:1 
1 1:1 2:32 3:1 4:2 5:1 6:2 7:1 
1 1:1 2:25 3:2 4:1 5:2 6:1 7:1 
1 1:1 2:31 3:2 4:1 5:6 6:2 7:4 
0.6159936961656159 1:2 2:26 3:3 4:5 5:5 6:1 7:1 
1 1:1 2:38 3:3 4:2 5:12 6:2 7:1 
1 1:1 2:26 3:2 4:1 5:2 6:1 7:1 
0.9961934350352114 1:2 2:44 3:2 4:1 5:24 6:2 7:3 
1 1:1 2:31 3:1 4:2 5:1 6:1 7:1 
1 1:1 2:45 3:3 4:1 5:2 6:2 7:1 
0.9725750959192937 1:2 2:30 3:1 4:1 5:5 6:2 7:5 
1 1:1 2:25 3:1 4:1 5:1 6:1 7:1 
0.5091578234737325 1:1 2:30 3:1 4:2 5:4 6:2 7:5 
1 1:1 2:30 3:1 4:2 5:6 6:1 7:1 
1 1:1 2:42 3:1 4:1 5:6 6:1 7:1 
1 1:1 2:29 3:1 4:1 5:4 6:1 7:1 
1 1:1 2:30 3:2 4:1 5:5 6:1 7:1 
0.7134000608194951 1:1 2:37 3:1 4:6 5:9 6:2 7:1 
1 1:1 2:32 3:1 4:4 5:5 6:2 7:1 
1 1:2 2:29 3:2 4:1 5:6 6:2 7:1 
1 1:1 2:32 3:1 4:2 5:8 6:2 7:1 
1 1:1 2:32 3:1 4:2 5:1 6:2 7:1 
1 1:1 2:33 3:3 4:1 5:2 6:1 7:1 
1 1:1 2:31 3:1 4:1 5:1 6:1 7:1 
1 1:2 2:24 3:1 4:1 5:2 6:1 7:1 
1 1:1 2:38 3:1 4:1 5:3 6:1 7:1 
1 1:1 2:31 3:1 4:1 5:1 6:1 7:1 
1 1:2 2:45 3:3 4:6 5:3 6:2 7:1 
1 1:1 2:30 3:1 4:1 5:6 6:1 7:1 
1 1:1 2:27 3:3 4:2 5:2 6:1 7:1 
1 1:1 2:37 3:1 4:2 5:12 6:1 7:1 
1 1:2 2:23 3:2 4:1 5:1 6:1 7:1 
1 1:1 2:30 3:3 4:2 5:2 6:2 7:1 
1 1:1 2:28 3:3 4:1 5:2 6:1 7:1 
1 1:2 2:24 3:2 4:1 5:1 6:1 7:1 
1 1:1 2:30 3:1 4:2 5:2 6:1 7:1 
1 1:1 2:25 3:1 4:2 5:3 6:1 7:1 
1 1:1 2:26 3:2 4:1 5:1 6:1 7:1 
1 1:1 2:30 3:1 4:2 5:1 6:2 7:1 
1 1:1 2:30 3:1 4:2 5:2 6:1 7:1 
1 1:1 2:30 3:3 4:1 5:5 6:1 7:1 
0.9057569347048031 1:1 2:30 3:2 4:2 5:8 6:1 7:1 
1 1:2 2:30 3:2 4:2 5:8 6:1 7:1 
1 1:1 2:30 3:1 4:1 5:6 6:1 7:1 
1 1:1 2:31 3:2 4:2 5:7 6:2 7:1 
0.6985871399173651 1:2 2:26 3:5 4:2 5:6 6:1 7:1 
1 1:1 2:32 3:1 4:1 5:6 6:2 7:1 
1 1:1 2:28 3:1 4:1 5:2 6:1 7:1 
1 1:1 2:35 3:1 4:1 5:5 6:1 7:1 
1 1:1 2:32 3:1 4:1 5:4 6:1 7:2 
1 1:1 2:24 3:2 4:2 5:1 6:1 7:1 
0.7970939029775626 1:2 2:30 3:3 4:2 5:3 6:2 7:1 
1 1:1 2:30 3:5 4:2 5:1 6:1 7:1 
1 1:2 2:30 3:3 4:2 5:3 6:2 7:1 
1 1:1 2:26 3:3 4:1 5:2 6:1 7:1 
1 1:1 2:31 3:1 4:1 5:1 6:1 7:1 
1 1:1 2:32 3:2 4:1 5:8 6:1 7:1 
1 1:1 2:25 3:1 4:1 5:2 6:1 7:1 
1 1:2 2:26 3:1 4:2 5:5 6:2 7:1 
1 1:1 2:37 3:3 4:2 5:4 6:2 7:1 
0.8770412705683673 1:2 2:26 3:1 4:1 5:4 6:1 7:1 
1 1:1 2:43 3:2 4:3 5:20 6:2 7:3 
1 1:1 2:27 3:1 4:2 5:1 6:1 7:1 
1 1:1 2:27 3:3 4:1 5:2 6:1 7:4 
0.3484510146076392 1:1 2:35 3:1 4:4 5:4 6:2 7:1 
1 1:1 2:33 3:1 4:2 5:5 6:2 7:1 
1 1:1 2:29 3:1 4:1 5:4 6:1 7:1 
1 1:1 2:29 3:1 4:1 5:4 6:1 7:1 
1 1:1 2:27 3:1 4:2 5:4 6:1 7:1 
1 1:1 2:33 3:3 4:1 5:4 6:2 7:1 
1 1:2 2:30 3:3 4:2 5:3 6:2 7:1 
0.8783731458435244 1:2 2:49 3:1 4:2 5:22 6:2 7:5 
1 1:1 2:28 3:1 4:1 5:2 6:1 7:1 
1 1:1 2:30 3:1 4:1 5:3 6:1 7:1 
1 1:1 2:31 3:1 4:1 5:1 6:1 7:1 
1 1:1 2:25 3:1 4:1 5:1 6:1 7:1 
1 1:1 2:30 3:1 4:2 5:6 6:1 7:1 
1 1:1 2:31 3:1 4:1 5:2 6:2 7:1 
1 1:1 2:27 3:3 4:2 5:2 6:1 7:1 
0.4660788338391532 1:1 2:25 3:1 4:2 5:3 6:1 7:1 
0.6710318404330246 1:2 2:46 3:3 4:3 5:10 6:2 7:3 
1 1:1 2:27 3:1 4:2 5:2 6:1 7:1 
1 1:1 2:38 3:3 4:2 5:12 6:2 7:1 
0.6463050929207452 1:1 2:49 3:1 4:1 5:9 6:2 7:4 
1 1:1 2:28 3:1 4:1 5:2 6:1 7:1 
1 1:1 2:31 3:1 4:1 5:1 6:1 7:1 
1 1:1 2:33 3:1 4:2 5:2 6:2 7:1 
0.9794349988068733 1:1 2:27 3:3 4:1 5:2 6:1 7:4 
1 1:2 2:27 3:1 4:1 5:2 6:1 7:1 
1 1:1 2:30 3:4 4:1 5:1 6:1 7:1 
1 1:1 2:29 3:1 4:2 5:6 6:1 7:1 
0.1892787442193526 1:1 2:41 3:1 4:1 5:7 6:2 7:1 
1 1:1 2:28 3:1 4:1 5:2 6:1 7:1 
1 1:2 2:26 3:3 4:2 5:3 6:1 7:1 
1 1:1 2:26 3:2 4:1 5:2 6:1 7:1 
0.2535395875971626 1:1 2:25 3:2 4:1 5:2 6:1 7:5 
0.9348205322410569 1:1 2:34 3:1 4:5 5:7 6:1 7:1 
1 1:1 2:37 3:1 4:2 5:12 6:2 7:1 
0.5242655739725255 1:1 2:42 3:2 4:1 5:19 6:2 7:3 
1 1:1 2:32 3:1 4:2 5:7 6:1 7:1 
1 1:1 2:27 3:2 4:1 5:3 6:1 7:1 
1 1:2 2:43 3:3 4:2 5:1 6:2 7:1 
1 1:1 2:26 3:3 4:1 5:2 6:1 7:1 
0.01891143526475207 1:2 2:31 3:2 4:1 5:8 6:1 7:3 
1 1:1 2:32 3:1 4:2 5:7 6:1 7:1 
1 1:1 2:32 3:1 4:2 5:8 6:2 7:1 
1 1:1 2:37 3:1 4:2 5:12 6:1 7:1 
1 1:1 2:31 3:3 4:1 5:1 6:2 7:1 
1 1:1 2:32 3:3 4:1 5:1 6:2 7:1 
1 1:1 2:27 3:3 4:2 5:2 6:1 7:1 
1 1:1 2:26 3:2 4:1 5:2 6:1 7:1 
0.9611313181950418 1:1 2:24 3:4 4:1 5:2 6:1 7:1 
1 1:1 2:29 3:1 4:1 5:2 6:1 7:1 
0.8346368751632791 1:1 2:27 3:3 4:2 5:2 6:1 7:1 
1 1:2 2:26 3:1 4:2 5:2 6:1 7:1 
1 1:1 2:24 3:2 4:2 5:1 6:1 7:1 
0.1730601682074689 1:1 2:41 3:2 4:1 5:19 6:2 7:4 
1 1:1 2:32 3:1 4:2 5:6 6:1 7:1 
1 1:1 2:43 3:1 4:1 5:4 6:2 7:5 
1 1:1 2:33 3:1 4:1 5:9 6:1 7:1 
1 1:1 2:28 3:1 4:1 5:1 6:1 7:1 
1 1:1 2:30 3:3 4:2 5:1 6:1 7:1 
0.4272351466446193 1:1 2:42 3:3 4:3 5:18 6:2 7:1 
1 1:1 2:38 3:2 4:1 5:11 6:1 7:1 
1 1:1 2:23 3:1 4:2 5:1 6:1 7:1 
1 1:1 2:37 3:1 4:2 5:2 6:1 7:1 
0.5618285001381033 1:1 2:31 3:1 4:2 5:7 6:2 7:1 
0.4308537285825458 1:2 2:35 3:3 4:1 5:7 6:2 7:1 
1 1:1 2:29 3:1 4:2 5:1 6:2 7:1 
1 1:1 2:31 3:1 4:2 5:3 6:1 7:4 
1 1:2 2:33 3:1 4:5 5:2 6:2 7:1 
1 1:1 2:31 3:1 4:2 5:7 6:2 7:1 
1 1:1 2:28 3:1 4:1 5:2 6:1 7:1 
1 1:1 2:31 3:1 4:2 5:7 6:2 7:1 
0.9747084602617998 1:2 2:45 3:1 4:6 5:8 6:2 7:1 
1 1:1 2:37 3:1 4:2 5:2 6:1 7:1 
0.9603890204917538 1:1 2:36 3:1 4:1 5:6 6:2 7:1 
1 1:1 2:26 3:2 4:1 5:2 6:1 7:5 
1 1:1 2:37 3:1 4:2 5:12 6:1 7:1 
0.9502564844515883 1:1 2:26 3:1 4:4 5:4 6:1 7:1 
1 1:1 2:32 3:1 4:1 5:4 6:1 7:2 
1 1:2 2:33 3:3 4:1 5:6 6:1 7:1 
1 1:1 2:29 3:1 4:1 5:2 6:1 7:1 
1 1:1 2:27 3:1 4:2 5:4 6:1 7:1 
1 1:1 2:30 3:1 4:2 5:4 6:2 7:5 
1 1:1 2:33 3:3 4:1 5:2 6:2 7:1 
1 1:1 2:31 3:1 4:2 5:7 6:2 7:1 
1 1:1 2:26 3:3 4:1 5:2 6:1 7:1 
1 1:1 2:31 3:1 4:2 5:7 6:2 7:1 
1 1:2 2:27 3:1 4:1 5:2 6:1 7:1 
1 1:1 2:28 3:1 4:1 5:1 6:1 7:1 
0.9546530391709096 1:2 2:27 3:1 4:1 5:2 6:1 7:1 
1 1:1 2:28 3:1 4:1 5:2 6:1 7:1 
1 1:1 2:28 3:1 4:4 5:1 6:2 7:1 
1 1:1 2:28 3:3 4:1 5:2 6:1 7:1 
1 1:2 2:31 3:3 4:1 5:2 6:1 7:1 
1 1:1 2:28 3:1 4:1 5:2 6:1 7:1 
1 1:2 2:30 3:1 4:1 5:6 6:1 7:1 
1 1:2 2:24 3:2 4:1 5:1 6:1 7:1 
1 1:1 2:35 3:1 4:1 5:4 6:1 7:1 
0.5868308575013739 1:1 2:31 3:1 4:1 5:7 6:1 7:1 
1 1:1 2:30 3:1 4:2 5:6 6:1 7:1 
0.8169119014503333 1:1 2:54 3:2 4:1 5:34 6:2 7:4 
1 1:2 2:35 3:3 4:1 5:7 6:2 7:1 
1 1:2 2:30 3:3 4:2 5:3 6:2 7:1 
1 1:1 2:30 3:4 4:1 5:4 6:1 7:1 
0.2891619714414086 1:1 2:38 3:1 4:5 5:5 6:2 7:1 
1 1:1 2:32 3:1 4:1 5:4 6:1 7:2 
1 1:1 2:34 3:1 4:2 5:7 6:1 7:1 
1 1:1 2:27 3:2 4:1 5:3 6:1 7:1 
1 1:1 2:34 3:3 4:1 5:9 6:1 7:1 
0.8389710739624912 1:1 2:42 3:2 4:1 5:19 6:2 7:3 
1 1:1 2:32 3:1 4:2 5:1 6:1 7:1 
1 1:2 2:24 3:3 4:2 5:2 6:2 7:1 
1 1:1 2:26 3:2 4:1 5:2 6:1 7:1 
1 1:2 2:26 3:1 4:2 5:1 6:1 7:1 
1 1:1 2:41 3:1 4:1 5:7 6:2 7:1 
1 1:1 2:30 3:1 4:2 5:4 6:2 7:5 
0.8291525808112555 1:2 2:50 3:3 4:1 5:14 6:2 7:4 
1 1:1 2:32 3:1 4:2 5:8 6:1 7:1 
1 1:1 2:28 3:3 4:1 5:3 6:1 7:1 
1 1:1 2:35 3:1 4:1 5:4 6:1 7:1 
1 1:1 2:33 3:3 4:1 5:2 6:2 7:1 
0.7940964778837903 1:1 2:27 3:3 4:1 5:3 6:1 7:1 
1 1:1 2:29 3:3 4:2 5:1 6:1 7:1 
1 1:1 2:29 3:4 4:1 5:2 6:1 7:1 
1 1:1 2:30 3:2 4:1 5:5 6:1 7:1 
1 1:2 2:39 3:3 4:2 5:5 6:2 7:2 
1 1:1 2:28 3:2 4:1 5:4 6:1 7:1 
0.322923075893759 1:1 2:32 3:1 4:2 5:8 6:1 7:1 
1 1:1 2:32 3:2 4:1 5:8 6:1 7:1 
1 1:1 2:31 3:1 4:1 5:1 6:1 7:1 
1 1:1 2:29 3:3 4:2 5:1 6:1 7:1 
0.9304224272067972 1:2 2:28 3:3 4:2 5:2 6:2 7:1 
1 1:1 2:31 3:1 4:2 5:4 6:1 7:1 
1 1:1 2:32 3:1 4:4 5:5 6:2 7:1 
1 1:1 2:31 3:1 4:1 5:2 6:2 7:1 
1 1:1 2:38 3:2 4:1 5:11 6:1 7:1 
1 1:1 2:31 3:1 4:2 5:7 6:2 7:1 
1 1:1 2:30 3:1 4:2 5:6 6:1 7:1 
1 1:1 2:29 3:2 4:2 5:6 6:1 7:1 
0.7616756798754416 1:1 2:39 3:1 4:2 5:15 6:2 7:1 
1 1:1 2:32 3:1 4:1 5:4 6:1 7:2 
0.6046363223847403 1:1 2:25 3:5 4:2 5:2 6:1 7:1 
1 1:1 2:28 3:1 4:1 5:2 6:1 7:1 
0.5593828583830794 1:2 2:46 3:1 4:1 5:9 6:2 7:4 
1 1:2 2:31 3:3 4:1 5:4 6:2 7:1 
0.9489586277305895 1:2 2:35 3:3 4:1 5:7 6:2 7:1 
1 1:1 2:22 3:1 4:2 5:1 6:1 7:1 
1 1:1 2:30 3:3 4:2 5:1 6:1 7:1 
1 1:1 2:27 3:1 4:2 5:2 6:1 7:1 
0.5988583953897122 1:1 2:28 3:3 4:1 5:4 6:1 7:1 
1 1:1 2:30 3:5 4:2 5:1 6:1 7:1 
1 1:1 2:44 3:2 4:1 5:23 6:2 7:3 
1 1:1 2:32 3:1 4:2 5:7 6:1 7:1 
1 1:1 2:24 3:2 4:2 5:1 6:1 7:1 
1 1:1 2:28 3:3 4:1 5:2 6:1 7:1 
1 1:2 2:31 3:2 4:1 5:8 6:1 7:3 
1 1:1 2:32 3:1 4:2 5:7 6:1 7:1 
1 1:1 2:32 3:1 4:1 5:2 6:2 7:1 
1 1:1 2:28 3:3 4:1 5:3 6:1 7:1 
0.150734644359 1:1 2:30 3:5 4:2 5:1 6:1 7:1 
1 1:1 2:26 3:3 4:2 5:2 6:1 7:1 
1 1:1 2:29 3:1 4:1 5:2 6:1 7:1 
1 1:2 2:38 3:1 4:2 5:7 6:2 7:1 
1 1:1 2:30 3:1 4:2 5:6 6:1 7:1 
1 1:1 2:35 3:1 4:4 5:4 6:2 7:1 
1 1:2 2:26 3:2 4:1 5:3 6:1 7:4 
0.9646744227500778 1:1 2:32 3:1 4:1 5:4 6:1 7:2 
1 1:1 2:24 3:3 4:2 5:1 6:1 7:1 
1 1:1 2:25 3:1 4:2 5:4 6:1 7:1 
1 1:1 2:28 3:1 4:4 5:1 6:2 7:1 
1 1:2 2:27 3:1 4:1 5:1 6:1 7:1 
1 1:1 2:37 3:1 4:2 5:9 6:1 7:1 
1 1:1 2:35 3:2 4:1 5:8 6:1 7:1 
1 1:1 2:31 3:1 4:1 5:1 6:1 7:1 
1 1:1 2:37 3:1 4:2 5:2 6:1 7:1 
1 1:2 2:26 3:1 4:2 5:2 6:1 7:1 
1 1:1 2:33 3:1 4:1 5:2 6:1 7:1 
1 1:1 2:30 3:1 4:2 5:6 6:1 7:1 
1 1:1 2:28 3:1 4:1 5:1 6:1 7:1 
0.9990764692112255 1:1 2:41 3:1 4:1 5:7 6:2 7:1 
1 1:1 2:27 3:2 4:1 5:3 6:1 7:1 
1 1:1 2:28 3:1 4:1 5:1 6:1 7:1 
1 1:1 2:29 3:4 4:1 5:2 6:1 7:1 
1 1:1 2:33 3:3 4:1 5:2 6:1 7:1 
1 1:1 2:54 3:1 4:6 5:16 6:2 7:1 
1 1:2 2:30 3:1 4:1 5:6 6:1 7:1 
1 1:1 2:28 3:1 4:1 5:1 6:1 7:1 
1 1:1 2:29 3:3 4:2 5:1 6:1 7:1 
1 1:1 2:28 3:3 4:1 5:2 6:1 7:1 
-1 1:1 2:29 3:4 4:1 5:3 6:1 7:1 
-1 1:1 2:33 3:2 4:1 5:3 6:1 7:1 
-1 1:1 2:47 3:1 4:3 5:4 6:2 7:1 
-1 1:1 2:27 3:2 4:1 5:2 6:1 7:1 
-1 1:1 2:43 3:2 4:1 5:19 6:2 7:3 
-1 1:1 2:29 3:1 4:1 5:2 6:1 7:1 
-1 1:1 2:32 3:1 4:2 5:2 6:2 7:1 
-1 1:1 2:29 3:1 4:1 5:1 6:1 7:1 
-1 1:1 2:24 3:1 4:2 5:1 6:1 7:1 
-1 1:1 2:28 3:1 4:1 5:1 6:2 7:1 
-1 1:1 2:38 3:1 4:1 5:8 6:2 7:1 
-1 1:1 2:33 3:1 4:2 5:5 6:1 7:1 
-1 1:1 2:28 3:4 4:1 5:1 6:1 7:1 
-1 1:1 2:28 3:2 4:1 5:3 6:1 7:1 
-1 1:1 2:33 3:1 4:2 5:7 6:1 7:1 
-1 1:1 2:33 3:5 4:2 5:2 6:2 7:1 
-1 1:1 2:28 3:1 4:2 5:6 6:2 7:1 
-1 1:1 2:41 3:1 4:2 5:2 6:1 7:1 
-1 1:1 2:33 3:5 4:2 5:2 6:2 7:1 
-1 1:2 2:56 3:3 4:2 5:20 6:2 7:1 
-0.5116761223121371 1:1 2:44 3:2 4:1 5:22 6:2 7:4 
-1 1:1 2:30 3:1 4:2 5:7 6:1 7:1 
-1 1:1 2:31 3:1 4:1 5:0 6:1 7:1 
-1 1:1 2:27 3:2 4:2 5:3 6:1 7:1 
-1 1:1 2:31 3:1 4:2 5:2 6:2 7:2 
-1 1:1 2:30 3:2 4:1 5:3 6:1 7:1 
-1 1:1 2:28 3:2 4:1 5:2 6:1 7:1 
-1 1:1 2:25 3:2 4:1 5:1 6:1 7:1 
-1 1:1 2:30 3:1 4:1 5:4 6:2 7:1 
-1 1:1 2:29 3:2 4:1 5:4 6:1 7:1 
-1 1:1 2:33 3:2 4:1 5:3 6:1 7:1 
-1 1:1 2:30 3:1 4:2 5:7 6:1 7:1 
-1 1:1 2:30 3:1 4:2 5:7 6:1 7:1 
-1 1:1 2:28 3:1 4:2 5:1 6:1 7:1 
-1 1:1 2:30 3:1 4:2 5:7 6:1 7:1 
-1 1:1 2:30 3:1 4:2 5:7 6:1 7:1 
-0.4095704255369444 1:1 2:42 3:1 4:4 5:8 6:2 7:1 
-1 1:1 2:33 3:1 4:2 5:7 6:1 7:1 
-1 1:1 2:26 3:2 4:2 5:3 6:1 7:1 
-1 1:1 2:31 3:1 4:1 5:0 6:1 7:1 
-1 1:1 2:26 3:1 4:1 5:1 6:1 7:1 
-1 1:1 2:31 3:1 4:2 5:1 6:1 7:1 
-1 1:1 2:27 3:2 4:2 5:2 6:1 7:1 
-1 1:1 2:29 3:4 4:1 5:3 6:1 7:1 
-1 1:1 2:26 3:2 4:1 5:3 6:1 7:1 
-1 1:1 2:33 3:1 4:2 5:7 6:1 7:1 
-0.629705359604887 1:2 2:27 3:1 4:4 5:1 6:1 7:1 
-1 1:1 2:30 3:1 4:1 5:1 6:1 7:1 
-1 1:1 2:30 3:1 4:1 5:6 6:1 7:1 
-1 1:1 2:34 3:1 4:3 5:0 6:2 7:1 
-1 1:1 2:31 3:1 4:2 5:6 6:1 7:1 
-1 1:1 2:33 3:2 4:1 5:4 6:1 7:1 
-1 1:1 2:31 3:2 4:1 5:2 6:1 7:1 
-1 1:1 2:30 3:2 4:2 5:3 6:1 7:4 
-1 1:1 2:31 3:1 4:1 5:0 6:1 7:1 
-1 1:1 2:25 3:2 4:1 5:1 6:1 7:1 
-1 1:2 2:37 3:1 4:2 5:10 6:2 7:1 
-1 1:1 2:28 3:4 4:1 5:3 6:1 7:1 
-1 1:1 2:31 3:1 4:1 5:1 6:1 7:1 
-1 1:2 2:28 3:1 4:2 5:2 6:1 7:1 
-1 1:1 2:27 3:2 4:1 5:2 6:1 7:1 
-1 1:1 2:32 3:1 4:1 5:1 6:1 7:1 
-1 1:1 2:24 3:1 4:2 5:1 6:1 7:1 
-0.5167361361641583 1:1 2:26 3:2 4:2 5:4 6:1 7:1 
-1 1:1 2:39 3:1 4:1 5:5 6:1 7:1 
-1 1:1 2:32 3:2 4:1 5:1 6:1 7:1 
-1 1:1 2:33 3:1 4:2 5:7 6:1 7:1 
-1 1:1 2:38 3:6 4:1 5:7 6:2 7:3 
-1 1:1 2:29 3:1 4:2 5:3 6:1 7:1 
-1 1:1 2:31 3:1 4:1 5:0 6:1 7:1 
-1 1:1 2:33 3:2 4:1 5:3 6:1 7:1 
-1 1:1 2:30 3:1 4:1 5:1 6:1 7:1 
-1 1:1 2:26 3:2 4:2 5:4 6:1 7:1 
-1 1:1 2:32 3:1 4:2 5:2 6:2 7:1 
-1 1:1 2:28 3:4 4:1 5:1 6:1 7:1 
-1 1:2 2:25 3:1 4:5 5:0 6:1 7:1 
-1 1:1 2:33 3:1 4:1 5:6 6:1 7:1 
-1 1:1 2:29 3:4 4:1 5:3 6:1 7:1 
-1 1:2 2:25 3:3 4:2 5:1 6:1 7:1 
-1 1:1 2:28 3:2 4:1 5:2 6:1 7:5 
-1 1:1 2:27 3:2 4:2 5:4 6:1 7:1 
-0.4409588661207469 1:1 2:30 3:1 4:5 5:7 6:1 7:1 
-1 1:1 2:26 3:2 4:2 5:3 6:1 7:1 
-1 1:1 2:28 3:3 4:4 5:1 6:2 7:1 
-1 1:1 2:32 3:3 4:1 5:5 6:1 7:1 
-1 1:1 2:32 3:2 4:2 5:8 6:1 7:1 
-1 1:1 2:31 3:4 4:1 5:2 6:1 7:1 
-1 1:2 2:25 3:2 4:1 5:2 6:1 7:1 
-1 1:2 2:38 3:1 4:2 5:0 6:2 7:1 
-1 1:1 2:24 3:2 4:1 5:1 6:1 7:1 
-1 1:1 2:29 3:2 4:2 5:6 6:1 7:2 
-1 1:1 2:27 3:2 4:2 5:2 6:1 7:1 
-1 1:1 2:29 3:4 4:1 5:2 6:1 7:1 
-1 1:1 2:35 3:1 4:1 5:2 6:2 7:1 
-1 1:2 2:37 3:3 4:1 5:4 6:2 7:1 
-1 1:1 2:26 3:2 4:2 5:3 6:1 7:1 
-1 1:1 2:29 3:4 4:1 5:2 6:1 7:1 
-0.7915976297020539 1:1 2:26 3:1 4:1 5:0 6:1 7:1 
-1 1:1 2:31 3:2 4:1 5:6 6:2 7:1 
-1 1:1 2:30 3:1 4:1 5:1 6:1 7:1 
-0.2669706077055308 1:1 2:30 3:1 4:2 5:5 6:2 7:1 
-0.8363545004427698 1:1 2:30 3:1 4:1 5:0 6:2 7:1 
-1 1:1 2:27 3:2 4:2 5:4 6:1 7:1 
-1 1:1 2:29 3:1 4:1 5:1 6:1 7:1 
-1 1:1 2:26 3:2 4:2 5:4 6:1 7:1 
-1 1:1 2:37 3:1 4:1 5:2 6:1 7:1 
-1 1:1 2:30 3:1 4:2 5:5 6:2 7:1 
-1 1:1 2:27 3:2 4:1 5:1 6:1 7:1 
-1 1:1 2:33 3:1 4:2 5:5 6:1 7:1 
-1 1:1 2:30 3:4 4:1 5:2 6:2 7:1 
-1 1:1 2:29 3:2 4:2 5:3 6:1 7:1 
-1 1:1 2:26 3:4 4:1 5:2 6:1 7:1 
-1 1:1 2:28 3:4 4:1 5:1 6:1 7:1 
-1 1:1 2:28 3:3 4:4 5:1 6:2 7:1 
-1 1:1 2:28 3:1 4:1 5:1 6:1 7:1 
-1 1:1 2:32 3:1 4:1 5:1 6:1 7:1 
-1 1:1 2:30 3:1 4:1 5:1 6:1 7:1 
-1 1:1 2:28 3:3 4:4 5:1 6:2 7:1 
-1 1:1 2:28 3:1 4:2 5:3 6:1 7:1 
-1 1:1 2:38 3:1 4:1 5:2 6:1 7:3 
-0.9050133226960302 1:2 2:30 3:2 4:1 5:6 6:1 7:1 
-1 1:1 2:27 3:2 4:1 5:2 6:1 7:1 
-1 1:2 2:29 3:2 4:1 5:4 6:1 7:1 
-1 1:2 2:32 3:1 4:1 5:6 6:1 7:1 
-1 1:2 2:26 3:1 4:1 5:2 6:1 7:5 
-0.182790650309485 1:2 2:33 3:1 4:5 5:4 6:2 7:1 
-1 1:1 2:39 3:1 4:1 5:5 6:1 7:1 
-1 1:1 2:35 3:1 4:1 5:2 6:1 7:1 
-1 1:1 2:24 3:1 4:2 5:1 6:1 7:1 
-1 1:1 2:35 3:2 4:1 5:5 6:1 7:1 
-1 1:1 2:30 3:2 4:2 5:4 6:1 7:1 
-1 1:2 2:31 3:1 4:2 5:2 6:2 7:1 
-1 1:1 2:33 3:1 4:2 5:5 6:1 7:1 
-1 1:1 2:29 3:2 4:2 5:6 6:1 7:2 
-0.4865978997841497 1:1 2:28 3:2 4:2 5:4 6:2 7:1 
-1 1:1 2:29 3:2 4:1 5:2 6:1 7:1 
-1 1:2 2:33 3:1 4:5 5:4 6:2 7:1 
-1 1:1 2:29 3:4 4:1 5:2 6:1 7:1 
-1 1:1 2:37 3:1 4:1 5:3 6:1 7:1 
-1 1:1 2:27 3:2 4:2 5:4 6:1 7:1 
-0.3872200743031576 1:1 2:27 3:2 4:2 5:4 6:1 7:1 
-1 1:1 2:28 3:2 4:1 5:1 6:1 7:1 
-1 1:1 2:29 3:2 4:2 5:6 6:1 7:2 
-1 1:1 2:28 3:2 4:1 5:3 6:1 7:1 
-1 1:1 2:31 3:1 4:2 5:2 6:2 7:2 
-1 1:2 2:30 3:2 4:1 5:6 6:1 7:1 
-1 1:2 2:30 3:2 4:1 5:6 6:1 7:1 
-1 1:1 2:24 3:1 4:2 5:1 6:1 7:1 
-1 1:1 2:44 3:2 4:1 5:22 6:2 7:4 
-1 1:1 2:32 3:2 4:2 5:8 6:1 7:1 
-1 1:1 2:36 3:2 4:2 5:6 6:2 7:1 
-1 1:2 2:45 3:1 4:1 5:13 6:1 7:5 
-1 1:1 2:33 3:1 4:2 5:7 6:1 7:1 
-1 1:1 2:30 3:3 4:2 5:1 6:2 7:1 
-0.5796588923684238 1:1 2:41 3:1 4:1 5:4 6:2 7:1 
-1 1:1 2:28 3:3 4:4 5:1 6:2 7:1 
-1 1:1 2:52 3:1 4:6 5:0 6:2 7:1 
-1 1:1 2:41 3:1 4:2 5:7 6:2 7:1 
-1 1:2 2:25 3:2 4:1 5:2 6:1 7:1 
-1 1:2 2:25 3:2 4:1 5:2 6:1 7:1 
-1 1:1 2:29 3:1 4:2 5:3 6:1 7:4 
-1 1:1 2:30 3:2 4:1 5:6 6:1 7:4 
-0.7548362713238069 1:2 2:40 3:3 4:2 5:13 6:2 7:1 
-1 1:2 2:53 3:3 4:6 5:17 6:2 7:1 
-1 1:1 2:32 3:1 4:1 5:2 6:2 7:1 
-1 1:2 2:28 3:2 4:1 5:2 6:1 7:1 
-1 1:1 2:32 3:2 4:1 5:1 6:1 7:1 
-1 1:1 2:28 3:1 4:1 5:3 6:1 7:1 
-1 1:1 2:33 3:2 4:1 5:8 6:2 7:1 
-1 1:1 2:30 3:1 4:2 5:6 6:2 7:1 
-1 1:1 2:28 3:1 4:1 5:1 6:1 7:1 
-1 1:1 2:31 3:1 4:1 5:3 6:1 7:1 
-0.7756006274051612 1:1 2:37 3:4 4:3 5:0 6:2 7:1 
-1 1:1 2:26 3:2 4:2 5:3 6:1 7:1 
-1 1:1 2:26 3:2 4:2 5:4 6:1 7:1 
-1 1:1 2:26 3:2 4:2 5:4 6:1 7:1 
-1 1:1 2:29 3:1 4:1 5:2 6:1 7:1 
-1 1:1 2:31 3:1 4:2 5:6 6:1 7:1 
-1 1:1 2:28 3:4 4:1 5:1 6:1 7:1 
-1 1:1 2:29 3:1 4:1 5:2 6:1 7:1 
-1 1:1 2:32 3:1 4:2 5:8 6:2 7:1 
-1 1:1 2:26 3:2 4:2 5:4 6:1 7:1 
-1 1:1 2:30 3:1 4:1 5:4 6:2 7:1 
-1 1:1 2:31 3:1 4:2 5:2 6:2 7:2 
-0.4936286638053735 1:1 2:30 3:2 4:1 5:2 6:1 7:1 
-1 1:1 2:26 3:2 4:1 5:1 6:1 7:1 
-1 1:1 2:27 3:2 4:1 5:2 6:1 7:1 
-1 1:2 2:30 3:2 4:1 5:6 6:1 7:1 
-1 1:2 2:34 3:2 4:3 5:6 6:1 7:3 
-1 1:1 2:30 3:1 4:2 5:6 6:2 7:1 
-0.8817105656305947 1:2 2:32 3:2 4:1 5:3 6:1 7:1 
-1 1:1 2:32 3:1 4:2 5:8 6:2 7:1 
-1 1:1 2:33 3:1 4:2 5:7 6:1 7:1 
-0.8705460544260617 1:1 2:29 3:2 4:1 5:4 6:1 7:5 
-1 1:1 2:24 3:2 4:1 5:1 6:1 7:1 
-1 1:1 2:31 3:1 4:4 5:1 6:2 7:1 
-0.02421427377249394 1:1 2:29 3:1 4:3 5:0 6:1 7:1 
-1 1:1 2:28 3:2 4:2 5:4 6:2 7:1 
-1 1:2 2:37 3:1 4:2 5:10 6:2 7:1 
-1 1:1 2:26 3:2 4:2 5:3 6:1 7:1 
-1 1:1 2:30 3:6 4:1 5:1 6:1 7:1 
-1 1:1 2:28 3:3 4:4 5:1 6:2 7:1 
-1 1:2 2:30 3:2 4:1 5:6 6:1 7:1 
-1 1:2 2:40 3:3 4:2 5:13 6:2 7:1 
-1 1:2 2:32 3:2 4:1 5:3 6:1 7:1 
-1 1:1 2:30 3:1 4:5 5:7 6:1 7:1 
-1 1:1 2:29 3:4 4:1 5:3 6:1 7:1 
-1 1:1 2:28 3:2 4:1 5:2 6:1 7:5 
-1 1:1 2:32 3:1 4:2 5:8 6:2 7:1 
-0.9166123924498182 1:1 2:32 3:4 4:1 5:0 6:2 7:1 
-1 1:1 2:30 3:2 4:1 5:2 6:1 7:1 
-1 1:1 2:33 3:2 4:1 5:8 6:2 7:1 
-1 1:1 2:32 3:1 4:2 5:2 6:2 7:1 
-1 1:1 2:30 3:2 4:1 5:2 6:1 7:1 
-1 1:1 2:28 3:2 4:1 5:1 6:1 7:1 
-1 1:1 2:26 3:2 4:2 5:3 6:1 7:1 
-1 1:2 2:33 3:1 4:5 5:4 6:2 7:1 
-1 1:1 2:26 3:2 4:2 5:4 6:1 7:1 
-1 1:1 2:27 3:2 4:1 5:2 6:1 7:1 
-1 1:1 2:30 3:1 4:2 5:5 6:2 7:1 
-0.8868392045083239 1:1 2:37 3:2 4:1 5:12 6:1 7:1 
-1 1:1 2:33 3:2 4:1 5:8 6:2 7:1 
-1 1:1 2:37 3:2 4:1 5:12 6:1 7:1 
-1 1:1 2:27 3:2 4:1 5:3 6:1 7:4 
-1 1:1 2:32 3:1 4:2 5:8 6:2 7:1 
-1 1:1 2:31 3:1 4:1 5:5 6:1 7:5 
-0.571600299741842 1:2 2:29 3:2 4:2 5:1 6:1 7:5 
-1 1:1 2:31 3:4 4:1 5:2 6:1 7:1 
-1 1:1 2:27 3:2 4:1 5:2 6:1 7:1 
-1 1:1 2:37 3:1 4:1 5:2 6:1 7:1 
-1 1:1 2:31 3:1 4:2 5:2 6:2 7:2 
-0.6273259126439495 1:2 2:29 3:1 4:1 5:1 6:2 7:1 
-0.9026471705023422 1:1 2:46 3:2 4:1 5:19 6:2 7:4 
-1 1:1 2:27 3:1 4:1 5:2 6:1 7:1 
-1 1:2 2:27 3:2 4:1 5:4 6:1 7:1 
-1 1:2 2:25 3:2 4:1 5:2 6:1 7:1 
-1 1:1 2:26 3:5 4:2 5:2 6:1 7:1 
-0.7492286002387898 1:2 2:30 3:1 4:5 5:4 6:1 7:1 
-1 1:1 2:26 3:2 4:2 5:3 6:1 7:1 
-1 1:1 2:26 3:2 4:1 5:3 6:1 7:1 
-1 1:1 2:31 3:1 4:1 5:5 6:1 7:5 
-0.0757607498617716 1:1 2:38 3:2 4:1 5:9 6:2 7:1 
-1 1:1 2:28 3:1 4:2 5:3 6:1 7:1 
-1 1:2 2:29 3:1 4:1 5:1 6:2 7:1 
-1 1:1 2:35 3:2 4:1 5:5 6:1 7:1 
-1 1:1 2:37 3:2 4:1 5:12 6:1 7:1 
-1 1:1 2:30 3:1 4:1 5:6 6:1 7:1 
-1 1:1 2:29 3:1 4:1 5:2 6:1 7:1 
-1 1:1 2:38 3:2 4:1 5:9 6:2 7:1 
-1 1:1 2:32 3:1 4:1 5:1 6:1 7:1 
-1 1:1 2:28 3:4 4:1 5:1 6:1 7:1 
-1 1:1 2:30 3:1 4:2 5:7 6:1 7:1 
-1 1:1 2:30 3:1 4:2 5:7 6:1 7:1 
-1 1:1 2:25 3:2 4:1 5:1 6:1 7:1 
-1 1:2 2:32 3:1 4:1 5:5 6:2 7:1 
-1 1:1 2:31 3:2 4:1 5:6 6:1 7:1 
-1 1:1 2:26 3:2 4:1 5:2 6:1 7:1 
-1 1:1 2:30 3:1 4:1 5:2 6:1 7:1 
-1 1:2 2:25 3:2 4:1 5:2 6:1 7:1 
-1 1:2 2:27 3:2 4:1 5:4 6:1 7:1 
-0.9112967130119831 1:1 2:31 3:4 4:1 5:0 6:1 7:1 
-1 1:1 2:28 3:2 4:1 5:4 6:1 7:4 
-1 1:1 2:36 3:2 4:2 5:6 6:2 7:1 
-1 1:2 2:30 3:2 4:1 5:6 6:1 7:1 
-0.0368273965787341 1:1 2:42 3:3 4:1 5:1 6:2 7:1 
-1 1:1 2:29 3:2 4:3 5:1 6:1 7:1 
-1 1:1 2:40 3:2 4:3 5:8 6:2 7:4 
-1 1:1 2:28 3:2 4:1 5:1 6:1 7:1 
-1 1:1 2:31 3:1 4:2 5:2 6:1 7:1 
-1 1:1 2:33 3:1 4:2 5:7 6:1 7:1 
-1 1:1 2:31 3:1 4:1 5:3 6:1 7:1 
-1 1:1 2:30 3:4 4:1 5:0 6:1 7:1 
-1 1:2 2:30 3:2 4:1 5:6 6:1 7:1 
-1 1:1 2:50 3:3 4:5 5:12 6:1 7:1 
-1 1:1 2:31 3:3 4:1 5:3 6:2 7:2 
-0.9919129330861663 1:1 2:44 3:2 4:1 5:22 6:2 7:4 
-1 1:1 2:32 3:1 4:2 5:8 6:2 7:1 
-1 1:1 2:37 3:2 4:1 5:12 6:1 7:1 
-0.8738322473615603 1:1 2:46 3:1 4:5 5:0 6:2 7:1 
-1 1:2 2:33 3:1 4:5 5:4 6:2 7:1 
-1 1:1 2:26 3:2 4:1 5:1 6:1 7:1 
-1 1:2 2:30 3:2 4:1 5:6 6:1 7:1 
-1 1:2 2:25 3:2 4:1 5:2 6:1 7:1 
-1 1:1 2:42 3:3 4:1 5:1 6:2 7:1 
-1 1:1 2:30 3:1 4:2 5:5 6:2 7:1 
-1 1:1 2:27 3:1 4:1 5:1 6:1 7:1 
-1 1:1 2:27 3:2 4:1 5:2 6:1 7:1 
-0.2044704031041732 1:1 2:35 3:1 4:1 5:12 6:1 7:1 
-1 1:1 2:31 3:1 4:2 5:1 6:1 7:1 
-1 1:1 2:26 3:2 4:2 5:4 6:1 7:1 
-0.9211629767323123 1:1 2:32 3:3 4:1 5:5 6:1 7:1 
-1 1:1 2:30 3:1 4:2 5:6 6:2 7:1 
-1 1:1 2:33 3:1 4:2 5:7 6:1 7:1 
-0.999544690458239 1:1 2:31 3:4 4:1 5:0 6:1 7:1 
-1 1:1 2:25 3:2 4:1 5:1 6:1 7:1 
-1 1:1 2:29 3:2 4:2 5:6 6:1 7:2 
-0.6392900109643349 1:1 2:35 3:1 4:2 5:9 6:2 7:1 
-1 1:1 2:30 3:1 4:2 5:5 6:2 7:1 
-1 1:1 2:29 3:4 4:1 5:3 6:1 7:1 
-1 1:1 2:28 3:3 4:1 5:2 6:1 7:1 
-1 1:1 2:27 3:2 4:1 5:3 6:1 7:4 
-1 1:1 2:29 3:2 4:1 5:4 6:1 7:1 
-1 1:1 2:37 3:1 4:1 5:3 6:1 7:1 
-1 1:1 2:26 3:2 4:1 5:2 6:1 7:1 
-0.7303527214021676 1:1 2:35 3:1 4:2 5:1 6:2 7:1 
-1 1:1 2:32 3:2 4:2 5:8 6:1 7:1 
-1 1:1 2:35 3:1 4:1 5:12 6:1 7:1 
-0.2522584050847174 1:1 2:33 3:2 4:1 5:7 6:1 7:1 
-1 1:2 2:23 3:1 4:1 5:1 6:1 7:1 
-0.8707734117616259 1:2 2:36 3:3 4:2 5:2 6:2 7:1 
-1 1:1 2:33 3:1 4:2 5:7 6:1 7:1 
-1 1:2 2:25 3:3 4:2 5:1 6:1 7:1 
-1 1:2 2:23 3:1 4:1 5:1 6:1 7:1 
-1 1:2 2:25 3:2 4:1 5:2 6:1 7:1 
-1 1:2 2:37 3:1 4:2 5:10 6:2 7:1 
-1 1:1 2:33 3:2 4:1 5:7 6:1 7:1 
-1 1:1 2:25 3:2 4:1 5:1 6:1 7:1 
-1 1:1 2:30 3:1 4:2 5:7 6:1 7:1 
-1 1:2 2:26 3:2 4:2 5:2 6:1 7:1 
-1 1:1 2:31 3:2 4:2 5:5 6:1 7:1 
-0.2611094860310843 1:1 2:30 3:2 4:1 5:1 6:1 7:5 
-1 1:1 2:28 3:1 4:2 5:1 6:1 7:1 
-1 1:1 2:31 3:1 4:2 5:2 6:1 7:1 
-1 1:1 2:30 3:1 4:2 5:0 6:1 7:1 
-1 1:1 2:33 3:1 4:2 5:1 6:1 7:1 
-1 1:1 2:26 3:2 4:1 5:1 6:1 7:1 
-1 1:1 2:38 3:3 4:1 5:13 6:2 7:1 
-1 1:2 2:30 3:2 4:1 5:6 6:1 7:1 
-1 1:1 2:36 3:2 4:2 5:6 6:2 7:1 
-1 1:1 2:27 3:1 4:1 5:0 6:1 7:1 
-0.7014597048376762 1:1 2:44 3:3 4:1 5:3 6:2 7:4 
-1 1:1 2:31 3:1 4:1 5:3 6:1 7:5 
-1 1:1 2:28 3:2 4:1 5:2 6:1 7:1 
-1 1:2 2:30 3:1 4:1 5:3 6:1 7:1 
-1 1:1 2:31 3:1 4:2 5:6 6:1 7:1 
-1 1:1 2:28 3:1 4:1 5:3 6:1 7:1 
-1 1:1 2:31 3:1 4:1 5:1 6:1 7:1 
-0.4880232354696847 1:1 2:38 3:3 4:1 5:13 6:2 7:1 
-1 1:1 2:42 3:3 4:1 5:1 6:2 7:1 
-1 1:1 2:31 3:1 4:2 5:2 6:1 7:1 
-1 1:1 2:36 3:1 4:1 5:3 6:1 7:1 
-0.9965417808811168 1:1 2:41 3:1 4:1 5:4 6:2 7:1 
-1 1:1 2:28 3:3 4:1 5:2 6:1 7:1 
-0.145418232143167 1:1 2:31 3:2 4:2 5:5 6:1 7:1 
-1 1:2 2:31 3:3 4:2 5:1 6:1 7:1 
-0.5082466366272671 1:2 2:30 3:1 4:2 5:3 6:1 7:1 
-0.1727899023206257 1:1 2:30 3:2 4:2 5:3 6:1 7:1 
-0.9990764692112255 1:1 2:42 3:1 4:4 5:8 6:2 7:1 
-1 1:1 2:31 3:1 4:1 5:3 6:1 7:4 
-1 1:1 2:30 3:2 4:1 5:2 6:1 7:1 
-1 1:1 2:30 3:1 4:1 5:6 6:1 7:1 
-1 1:1 2:32 3:3 4:2 5:1 6:1 7:1 
-0.9931362735618093 1:1 2:44 3:3 4:1 5:3 6:2 7:4 
-1 1:1 2:28 3:1 4:2 5:1 6:1 7:1 
-1 1:1 2:26 3:2 4:2 5:3 6:1 7:1 
-1 1:1 2:32 3:2 4:1 5:1 6:1 7:1 
-0.7480329273090429 1:2 2:23 3:1 4:1 5:1 6:1 7:1 
-1 1:2 2:27 3:2 4:2 5:2 6:1 7:1 
-1 1:1 2:31 3:2 4:1 5:3 6:1 7:1 
-0.4177363868361435 1:1 2:28 3:1 4:2 5:0 6:1 7:1 
-1 1:1 2:37 3:2 4:1 5:12 6:1 7:1 
-1 1:1 2:34 3:2 4:1 5:2 6:1 7:1 
-0.5084337040472409 1:1 2:34 3:3 4:1 5:1 6:1 7:1 
-1 1:1 2:32 3:1 4:1 5:1 6:1 7:1 
-1 1:1 2:33 3:1 4:2 5:7 6:1 7:1 
-1 1:1 2:31 3:4 4:1 5:6 6:2 7:4 
-1 1:2 2:27 3:2 4:1 5:4 6:1 7:1 
-0.9753903881190124 1:1 2:35 3:1 4:1 5:12 6:1 7:1 
-1 1:1 2:24 3:1 4:2 5:1 6:1 7:1 
-1 1:1 2:29 3:2 4:1 5:3 6:1 7:1 
-1 1:1 2:33 3:1 4:2 5:7 6:1 7:1 
-0.301817429004349 1:1 2:37 3:2 4:1 5:10 6:2 7:1 
-1 1:1 2:25 3:2 4:1 5:1 6:1 7:1 
-1 1:2 2:27 3:1 4:4 5:1 6:1 7:1 
-1 1:1 2:32 3:1 4:1 5:1 6:1 7:1 
-1 1:1 2:26 3:2 4:2 5:4 6:1 7:1 
-0.5428818915276762 1:1 2:34 3:2 4:1 5:2 6:1 7:4 
-1 1:1 2:27 3:2 4:1 5:3 6:1 7:4 
-1 1:1 2:24 3:1 4:2 5:1 6:1 7:1 
-0.9847859460126424 1:2 2:27 3:1 4:4 5:1 6:1 7:1 
-1 1:1 2:34 3:1 4:2 5:9 6:1 7:1 
-0.7194718232807057 1:2 2:29 3:2 4:1 5:2 6:1 7:1 
-1 1:1 2:29 3:1 4:1 5:2 6:1 7:1 
-1 1:1 2:38 3:1 4:1 5:8 6:2 7:1 
-1 1:2 2:32 3:5 4:4 5:2 6:2 7:1 
-0.4878256417709805 1:1 2:33 3:1 4:1 5:1 6:1 7:5 
-0.2458990213412273 1:2 2:33 3:2 4:3 5:1 6:1 7:1 
-1 1:1 2:31 3:2 4:1 5:2 6:1 7:1 
-1 1:1 2:28 3:1 4:1 5:3 6:1 7:1 
-0.8010371010229526 1:2 2:47 3:1 4:6 5:1 6:2 7:1 
-1 1:1 2:33 3:2 4:1 5:8 6:2 7:1 
-1 1:1 2:29 3:2 4:2 5:3 6:1 7:1 
-1 1:1 2:26 3:4 4:1 5:2 6:1 7:1 
-1 1:1 2:33 3:2 4:1 5:6 6:2 7:1 
-1 1:1 2:27 3:1 4:1 5:2 6:1 7:1 
-1 1:1 2:28 3:2 4:1 5:3 6:1 7:1 
-1 1:1 2:26 3:2 4:1 5:1 6:1 7:1 
-1 1:2 2:26 3:2 4:2 5:2 6:1 7:1 
-1 1:1 2:30 3:1 4:2 5:5 6:2 7:1 
-0.7969398454737388 1:1 2:32 3:2 4:1 5:2 6:1 7:4 
-0.1151763058091325 1:1 2:33 3:1 4:1 5:0 6:1 7:1 
-1 1:1 2:31 3:1 4:1 5:3 6:1 7:1 
-0.5273610754120294 1:1 2:40 3:1 4:1 5:0 6:2 7:1 
-0.2806351846438247 1:1 2:33 3:1 4:2 5:7 6:1 7:1 
-1 1:1 2:33 3:1 4:2 5:5 6:1 7:1 
-1 1:1 2:33 3:2 4:1 5:3 6:1 7:1 
-1 1:1 2:25 3:4 4:1 5:1 6:1 7:1 
-1 1:1 2:30 3:1 4:2 5:6 6:2 7:1 
-1 1:1 2:28 3:2 4:1 5:3 6:1 7:1 
-1 1:1 2:30 3:1 4:5 5:7 6:1 7:1 
-1 1:2 2:30 3:1 4:1 5:2 6:1 7:4 
-1 1:2 2:26 3:1 4:1 5:1 6:1 7:1 
-1 1:1 2:24 3:1 4:2 5:1 6:1 7:1 
-1 1:2 2:33 3:1 4:5 5:4 6:2 7:1 
-0.9420832333573528 1:2 2:26 3:2 4:2 5:1 6:1 7:2 
