svm_type c_svc
kernel_type rbf
gamma 0.142857
nr_class 2
total_sv 793
rho 0.0222155
label 1 -1
nr_sv 394 399
SV
1 1:1 2:34 3:1 4:2 5:7 6:1 7:1 
1 1:1 2:30 3:1 4:2 5:1 6:2 7:1 
1 1:1 2:33 3:3 4:1 5:2 6:1 7:1 
1 1:1 2:57 3:1 4:5 5:15 6:2 7:1 
1 1:1 2:37 3:1 4:2 5:2 6:1 7:1 
0.614920760443367 1:1 2:32 3:1 4:4 5:5 6:2 7:1 
1 1:1 2:30 3:1 4:2 5:2 6:1 7:1 
1 1:1 2:27 3:1 4:1 5:1 6:1 7:1 
1 1:1 2:26 3:2 4:1 5:1 6:1 7:1 
1 1:2 2:26 3:1 4:2 5:5 6:2 7:1 
1 1:1 2:33 3:3 4:1 5:2 6:1 7:1 
0.905972878418242 1:2 2:26 3:5 4:2 5:6 6:1 7:1 
0.8856427376505003 1:2 2:24 3:2 4:1 5:1 6:1 7:1 
1 1:1 2:29 3:1 4:1 5:1 6:2 7:1 
1 1:1 2:29 3:3 4:2 5:1 6:1 7:1 
1 1:1 2:27 3:3 4:2 5:2 6:1 7:1 
1 1:2 2:24 3:2 4:1 5:1 6:1 7:1 
1 1:1 2:26 3:2 4:1 5:2 6:1 7:1 
1 1:1 2:27 3:1 4:2 5:4 6:1 7:1 
0.8387951708141225 1:2 2:46 3:3 4:3 5:10 6:2 7:3 
1 1:1 2:29 3:2 4:2 5:6 6:1 7:1 
1 1:2 2:26 3:1 4:2 5:5 6:1 7:1 
1 1:1 2:33 3:3 4:1 5:2 6:1 7:1 
1 1:1 2:26 3:1 4:1 5:1 6:1 7:1 
1 1:1 2:31 3:1 4:2 5:7 6:2 7:1 
1 1:1 2:31 3:1 4:1 5:7 6:1 7:1 
1 1:1 2:28 3:1 4:4 5:1 6:2 7:1 
1 1:1 2:22 3:1 4:2 5:1 6:1 7:1 
1 1:1 2:27 3:2 4:1 5:3 6:1 7:1 
1 1:1 2:37 3:1 4:2 5:8 6:2 7:1 
1 1:1 2:32 3:1 4:2 5:7 6:1 7:1 
1 1:2 2:33 3:1 4:1 5:8 6:2 7:1 
1 1:2 2:34 3:1 4:2 5:7 6:1 7:1 
1 1:1 2:43 3:2 4:1 5:19 6:2 7:4 
0.08315598715328451 1:1 2:29 3:1 4:1 5:2 6:1 7:1 
1 1:1 2:36 3:1 4:1 5:6 6:2 7:1 
1 1:1 2:25 3:2 4:1 5:1 6:1 7:1 
1 1:1 2:31 3:1 4:2 5:7 6:1 7:1 
1 1:1 2:38 3:3 4:2 5:12 6:2 7:1 
0.5164811599251496 1:1 2:37 3:1 4:4 5:11 6:2 7:1 
1 1:2 2:27 3:1 4:1 5:1 6:1 7:1 
0.05740329035178445 1:2 2:31 3:2 4:1 5:8 6:1 7:3 
1 1:1 2:28 3:3 4:1 5:2 6:1 7:1 
1 1:1 2:32 3:1 4:2 5:7 6:1 7:1 
1 1:1 2:29 3:3 4:2 5:2 6:1 7:1 
1 1:2 2:30 3:1 4:2 5:4 6:1 7:1 
1 1:1 2:54 3:2 4:1 5:34 6:2 7:4 
1 1:1 2:26 3:1 4:2 5:4 6:1 7:1 
0.3819465436846953 1:1 2:29 3:1 4:1 5:4 6:1 7:1 
1 1:1 2:28 3:1 4:4 5:1 6:2 7:1 
1 1:1 2:37 3:2 4:1 5:12 6:2 7:1 
0.9293727062799828 1:1 2:27 3:2 4:1 5:4 6:1 7:4 
0.593404651155709 1:1 2:32 3:1 4:2 5:8 6:1 7:1 
1 1:1 2:27 3:2 4:2 5:4 6:1 7:1 
1 1:1 2:37 3:1 4:2 5:2 6:1 7:1 
1 1:1 2:29 3:1 4:1 5:2 6:1 7:1 
1 1:1 2:30 3:4 4:1 5:1 6:2 7:1 
1 1:1 2:27 3:1 4:1 5:1 6:1 7:1 
0.9717795935758756 1:1 2:25 3:5 4:2 5:2 6:1 7:1 
1 1:1 2:31 3:1 4:2 5:7 6:1 7:1 
1 1:1 2:30 3:4 4:1 5:1 6:1 7:1 
1 1:1 2:43 3:2 4:1 5:21 6:2 7:4 
1 1:1 2:31 3:1 4:2 5:1 6:1 7:1 
1 1:1 2:29 3:1 4:2 5:6 6:1 7:1 
1 1:1 2:30 3:3 4:1 5:5 6:1 7:1 
1 1:1 2:29 3:1 4:1 5:1 6:2 7:1 
0.994672981455977 1:2 2:31 3:2 4:1 5:8 6:1 7:3 
1 1:1 2:43 3:2 4:1 5:21 6:2 7:4 
1 1:1 2:30 3:1 4:2 5:2 6:1 7:1 
0.03136997381713429 1:1 2:27 3:3 4:1 5:2 6:1 7:4 
1 1:1 2:29 3:1 4:1 5:4 6:1 7:1 
0.7565308859320394 1:2 2:24 3:5 4:1 5:1 6:1 7:1 
1 1:2 2:30 3:1 4:1 5:7 6:1 7:1 
1 1:1 2:30 3:1 4:2 5:1 6:1 7:1 
1 1:1 2:25 3:2 4:1 5:1 6:1 7:1 
1 1:1 2:33 3:3 4:1 5:2 6:1 7:1 
0.8810150447756414 1:1 2:42 3:1 4:3 5:1 6:2 7:1 
0.5433185875459648 1:1 2:29 3:4 4:1 5:2 6:1 7:1 
1 1:1 2:29 3:1 4:1 5:2 6:1 7:1 
1 1:1 2:30 3:4 4:1 5:4 6:1 7:1 
1 1:1 2:25 3:2 4:1 5:1 6:1 7:1 
1 1:1 2:29 3:2 4:1 5:6 6:2 7:1 
1 1:1 2:30 3:1 4:2 5:2 6:1 7:1 
1 1:1 2:24 3:1 4:4 5:2 6:1 7:1 
0.1461760061198674 1:2 2:26 3:3 4:5 5:5 6:1 7:1 
1 1:1 2:32 3:1 4:1 5:7 6:1 7:1 
1 1:1 2:27 3:2 4:1 5:4 6:1 7:4 
1 1:1 2:31 3:1 4:1 5:7 6:1 7:1 
0.4020518067163648 1:1 2:32 3:1 4:2 5:1 6:1 7:1 
1 1:1 2:27 3:2 4:1 5:3 6:1 7:1 
0.1246154001271834 1:2 2:26 3:2 4:1 5:3 6:1 7:4 
0.651052688985629 1:1 2:35 3:2 4:2 5:12 6:1 7:1 
1 1:1 2:27 3:3 4:1 5:2 6:1 7:4 
1 1:1 2:30 3:1 4:1 5:4 6:2 7:1 
0.4728999899382458 1:1 2:28 3:2 4:1 5:4 6:1 7:1 
0.8784381796417199 1:1 2:48 3:1 4:6 5:5 6:2 7:1 
1 1:1 2:38 3:2 4:1 5:11 6:1 7:1 
1 1:1 2:27 3:2 4:1 5:4 6:1 7:1 
1 1:1 2:28 3:2 4:2 5:6 6:1 7:1 
1 1:1 2:31 3:1 4:2 5:1 6:1 7:1 
1 1:2 2:26 3:2 4:2 5:4 6:2 7:1 
1 1:1 2:32 3:1 4:1 5:4 6:1 7:2 
1 1:1 2:32 3:1 4:2 5:6 6:1 7:1 
1 1:1 2:33 3:1 4:1 5:2 6:1 7:1 
1 1:1 2:32 3:1 4:1 5:2 6:2 7:1 
1 1:1 2:39 3:1 4:2 5:15 6:2 7:1 
0.04438850599111033 1:1 2:43 3:2 4:1 5:23 6:2 7:5 
1 1:1 2:27 3:2 4:2 5:5 6:1 7:1 
0.9499985332909769 1:1 2:30 3:3 4:1 5:4 6:2 7:1 
1 1:1 2:33 3:3 4:1 5:2 6:1 7:1 
1 1:1 2:32 3:1 4:1 5:2 6:2 7:1 
1 1:1 2:27 3:3 4:1 5:1 6:1 7:1 
1 1:1 2:27 3:1 4:2 5:1 6:1 7:1 
1 1:1 2:31 3:1 4:2 5:3 6:1 7:4 
1 1:1 2:29 3:4 4:1 5:2 6:1 7:1 
1 1:1 2:26 3:3 4:4 5:1 6:2 7:1 
1 1:1 2:32 3:1 4:2 5:1 6:1 7:1 
1 1:1 2:29 3:1 4:1 5:2 6:1 7:1 
0.8190553461882767 1:1 2:37 3:1 4:5 5:6 6:1 7:1 
1 1:2 2:27 3:1 4:1 5:1 6:1 7:1 
1 1:1 2:30 3:2 4:1 5:5 6:1 7:1 
1 1:1 2:34 3:1 4:2 5:1 6:2 7:1 
1 1:1 2:27 3:2 4:1 5:4 6:1 7:1 
0.3944686284904167 1:1 2:37 3:1 4:2 5:9 6:1 7:1 
1 1:1 2:30 3:3 4:1 5:4 6:2 7:1 
1 1:1 2:26 3:2 4:1 5:1 6:1 7:1 
1 1:1 2:27 3:3 4:1 5:2 6:1 7:4 
1 1:1 2:27 3:3 4:2 5:2 6:1 7:1 
0.477074451397207 1:2 2:30 3:1 4:1 5:5 6:2 7:5 
1 1:1 2:31 3:1 4:1 5:2 6:2 7:1 
1 1:1 2:32 3:1 4:1 5:2 6:2 7:1 
1 1:1 2:29 3:3 4:2 5:2 6:1 7:1 
1 1:1 2:31 3:2 4:2 5:7 6:2 7:1 
1 1:1 2:25 3:2 4:2 5:4 6:1 7:1 
1 1:1 2:32 3:2 4:2 5:8 6:1 7:1 
1 1:1 2:33 3:3 4:1 5:2 6:1 7:1 
1 1:1 2:29 3:3 4:2 5:1 6:1 7:1 
0.545671942005747 1:1 2:34 3:5 4:1 5:3 6:2 7:4 
1 1:1 2:37 3:1 4:1 5:6 6:2 7:1 
0.8330593897180549 1:1 2:35 3:1 4:1 5:10 6:1 7:1 
1 1:1 2:33 3:1 4:1 5:2 6:1 7:1 
1 1:1 2:31 3:1 4:1 5:1 6:1 7:1 
1 1:1 2:31 3:2 4:2 5:7 6:2 7:1 
0.5856650262845916 1:1 2:28 3:3 4:1 5:3 6:1 7:1 
1 1:1 2:32 3:1 4:1 5:4 6:1 7:2 
1 1:1 2:31 3:1 4:2 5:4 6:1 7:1 
1 1:1 2:35 3:1 4:1 5:4 6:1 7:1 
1 1:1 2:30 3:1 4:2 5:2 6:1 7:1 
1 1:2 2:36 3:1 4:1 5:8 6:2 7:1 
1 1:1 2:30 3:1 4:4 5:3 6:1 7:1 
1 1:1 2:25 3:1 4:2 5:4 6:1 7:1 
1 1:1 2:32 3:1 4:1 5:4 6:1 7:2 
1 1:1 2:26 3:2 4:1 5:1 6:1 7:1 
1 1:1 2:41 3:5 4:1 5:4 6:1 7:1 
1 1:1 2:25 3:2 4:1 5:1 6:1 7:1 
1 1:1 2:32 3:1 4:2 5:1 6:1 7:1 
1 1:2 2:24 3:2 4:1 5:1 6:1 7:1 
1 1:2 2:30 3:1 4:1 5:5 6:2 7:5 
1 1:1 2:30 3:1 4:2 5:2 6:1 7:1 
1 1:1 2:27 3:3 4:2 5:2 6:1 7:1 
1 1:1 2:26 3:2 4:1 5:2 6:1 7:1 
1 1:1 2:43 3:3 4:2 5:2 6:2 7:1 
1 1:1 2:33 3:1 4:1 5:2 6:1 7:1 
1 1:1 2:33 3:1 4:2 5:5 6:2 7:1 
1 1:2 2:30 3:1 4:1 5:5 6:2 7:5 
1 1:1 2:34 3:1 4:1 5:9 6:1 7:1 
1 1:1 2:26 3:2 4:1 5:2 6:1 7:1 
1 1:1 2:31 3:1 4:1 5:1 6:1 7:1 
0.5559256709834229 1:2 2:30 3:3 4:2 5:3 6:2 7:1 
1 1:1 2:37 3:1 4:2 5:12 6:1 7:1 
1 1:1 2:28 3:1 4:1 5:1 6:1 7:1 
1 1:1 2:25 3:1 4:2 5:4 6:1 7:1 
1 1:1 2:26 3:2 4:1 5:2 6:1 7:1 
1 1:2 2:30 3:1 4:2 5:4 6:1 7:1 
1 1:1 2:29 3:1 4:2 5:6 6:1 7:1 
1 1:1 2:29 3:1 4:1 5:4 6:1 7:1 
1 1:1 2:27 3:2 4:1 5:3 6:1 7:1 
1 1:1 2:30 3:1 4:2 5:2 6:1 7:1 
1 1:1 2:32 3:1 4:2 5:8 6:2 7:1 
1 1:1 2:43 3:2 4:1 5:19 6:2 7:4 
1 1:1 2:27 3:1 4:2 5:4 6:1 7:1 
1 1:2 2:27 3:1 4:1 5:2 6:1 7:1 
1 1:1 2:26 3:2 4:1 5:2 6:1 7:1 
1 1:2 2:28 3:3 4:2 5:2 6:2 7:1 
1 1:1 2:33 3:1 4:1 5:2 6:1 7:1 
1 1:1 2:30 3:1 4:2 5:2 6:1 7:1 
1 1:2 2:33 3:3 4:1 5:6 6:1 7:1 
1 1:1 2:25 3:1 4:2 5:4 6:1 7:1 
1 1:1 2:28 3:1 4:5 5:5 6:1 7:1 
1 1:1 2:27 3:1 4:2 5:2 6:1 7:1 
1 1:1 2:29 3:1 4:1 5:4 6:1 7:1 
1 1:1 2:27 3:1 4:1 5:1 6:1 7:1 
1 1:2 2:26 3:2 4:1 5:3 6:1 7:4 
1 1:1 2:30 3:3 4:1 5:4 6:2 7:1 
1 1:1 2:31 3:1 4:1 5:1 6:1 7:1 
1 1:2 2:24 3:1 4:2 5:2 6:1 7:1 
0.04030261366892947 1:1 2:26 3:2 4:1 5:4 6:1 7:1 
1 1:1 2:29 3:4 4:1 5:2 6:1 7:1 
1 1:1 2:35 3:2 4:1 5:8 6:1 7:1 
1 1:1 2:32 3:1 4:1 5:4 6:1 7:2 
1 1:1 2:32 3:1 4:2 5:1 6:1 7:1 
1 1:1 2:32 3:1 4:2 5:1 6:1 7:1 
1 1:1 2:26 3:1 4:1 5:1 6:1 7:1 
1 1:1 2:27 3:1 4:1 5:1 6:1 7:1 
1 1:1 2:27 3:3 4:2 5:2 6:1 7:1 
1 1:1 2:30 3:1 4:1 5:6 6:1 7:1 
1 1:2 2:26 3:1 4:5 5:2 6:1 7:1 
1 1:1 2:26 3:2 4:1 5:2 6:1 7:1 
1 1:1 2:35 3:3 4:2 5:4 6:2 7:1 
1 1:1 2:29 3:1 4:1 5:2 6:1 7:1 
1 1:1 2:32 3:1 4:1 5:7 6:1 7:1 
1 1:1 2:29 3:1 4:1 5:4 6:1 7:1 
1 1:2 2:30 3:1 4:1 5:2 6:2 7:1 
1 1:1 2:27 3:2 4:1 5:3 6:1 7:1 
1 1:1 2:29 3:4 4:1 5:2 6:1 7:1 
1 1:1 2:31 3:1 4:1 5:1 6:1 7:1 
1 1:1 2:28 3:1 4:1 5:2 6:1 7:1 
1 1:1 2:27 3:2 4:2 5:4 6:1 7:1 
1 1:1 2:32 3:1 4:2 5:6 6:1 7:1 
1 1:2 2:27 3:3 4:2 5:2 6:2 7:1 
1 1:1 2:31 3:1 4:2 5:7 6:1 7:1 
1 1:2 2:30 3:1 4:1 5:2 6:2 7:1 
1 1:1 2:35 3:1 4:1 5:4 6:2 7:1 
1 1:2 2:30 3:1 4:2 5:4 6:1 7:1 
1 1:1 2:31 3:1 4:2 5:7 6:2 7:1 
1 1:1 2:31 3:1 4:1 5:5 6:1 7:1 
1 1:2 2:30 3:3 4:2 5:3 6:2 7:1 
1 1:1 2:37 3:1 4:2 5:2 6:1 7:1 
1 1:1 2:33 3:3 4:1 5:2 6:1 7:1 
1 1:1 2:54 3:1 4:6 5:16 6:2 7:1 
1 1:1 2:30 3:1 4:1 5:5 6:1 7:1 
1 1:1 2:28 3:2 4:2 5:6 6:1 7:1 
1 1:1 2:32 3:1 4:1 5:4 6:1 7:2 
0.7882463481596711 1:2 2:46 3:1 4:1 5:9 6:2 7:4 
1 1:1 2:29 3:1 4:1 5:2 6:1 7:1 
1 1:1 2:32 3:1 4:1 5:4 6:1 7:2 
1 1:1 2:31 3:1 4:2 5:7 6:2 7:1 
1 1:1 2:27 3:2 4:1 5:3 6:1 7:1 
1 1:1 2:27 3:1 4:2 5:1 6:1 7:1 
1 1:1 2:32 3:1 4:2 5:1 6:1 7:1 
1 1:1 2:26 3:2 4:1 5:2 6:1 7:1 
1 1:1 2:32 3:1 4:2 5:1 6:1 7:1 
0.9615054631290714 1:1 2:34 3:5 4:1 5:3 6:2 7:4 
1 1:1 2:28 3:1 4:1 5:1 6:1 7:1 
1 1:1 2:27 3:2 4:1 5:4 6:1 7:1 
0.3488808117796821 1:1 2:31 3:1 4:2 5:4 6:1 7:2 
1 1:1 2:34 3:1 4:1 5:10 6:2 7:1 
1 1:1 2:30 3:1 4:2 5:6 6:1 7:1 
1 1:1 2:33 3:1 4:1 5:4 6:2 7:1 
1 1:2 2:27 3:1 4:1 5:1 6:1 7:1 
1 1:2 2:39 3:3 4:2 5:5 6:2 7:2 
1 1:1 2:32 3:1 4:2 5:1 6:1 7:1 
1 1:1 2:31 3:1 4:2 5:1 6:1 7:1 
1 1:1 2:32 3:1 4:2 5:1 6:1 7:1 
1 1:1 2:25 3:1 4:2 5:3 6:1 7:1 
1 1:1 2:26 3:1 4:4 5:4 6:1 7:1 
1 1:1 2:29 3:1 4:1 5:1 6:2 7:1 
1 1:1 2:34 3:1 4:2 5:1 6:2 7:1 
0.3735731290248264 1:1 2:54 3:1 4:6 5:15 6:2 7:1 
1 1:2 2:27 3:3 4:2 5:2 6:2 7:1 
1 1:1 2:40 3:1 4:3 5:6 6:2 7:5 
1 1:1 2:28 3:2 4:2 5:6 6:1 7:1 
1 1:1 2:33 3:1 4:1 5:7 6:1 7:1 
1 1:1 2:29 3:1 4:1 5:2 6:1 7:1 
1 1:1 2:29 3:2 4:1 5:6 6:2 7:1 
0.98754729970801 1:1 2:29 3:1 4:1 5:4 6:1 7:1 
1 1:1 2:28 3:1 4:4 5:1 6:2 7:1 
1 1:1 2:29 3:1 4:1 5:2 6:1 7:1 
0.3160572587552613 1:1 2:30 3:4 4:1 5:4 6:1 7:1 
1 1:1 2:30 3:1 4:1 5:2 6:1 7:4 
1 1:1 2:27 3:2 4:1 5:4 6:1 7:1 
1 1:1 2:34 3:3 4:2 5:1 6:2 7:1 
1 1:1 2:25 3:1 4:2 5:4 6:1 7:1 
1 1:1 2:22 3:1 4:2 5:1 6:1 7:1 
1 1:1 2:28 3:1 4:1 5:2 6:1 7:1 
1 1:1 2:26 3:2 4:1 5:2 6:1 7:1 
1 1:2 2:43 3:3 4:2 5:1 6:2 7:1 
1 1:1 2:31 3:1 4:2 5:4 6:1 7:1 
1 1:1 2:32 3:1 4:2 5:8 6:2 7:1 
1 1:1 2:26 3:2 4:1 5:2 6:1 7:1 
1 1:2 2:24 3:1 4:2 5:2 6:1 7:1 
0.9031360330633649 1:2 2:45 3:3 4:6 5:3 6:2 7:1 
0.9557751742573332 1:1 2:52 3:1 4:6 5:4 6:2 7:1 
1 1:1 2:27 3:3 4:2 5:2 6:1 7:1 
1 1:1 2:33 3:3 4:1 5:2 6:1 7:1 
1 1:2 2:27 3:1 4:1 5:1 6:1 7:1 
1 1:1 2:26 3:1 4:2 5:3 6:1 7:1 
1 1:2 2:29 3:2 4:1 5:5 6:2 7:1 
1 1:1 2:30 3:3 4:1 5:5 6:1 7:1 
0.2892930304382143 1:2 2:29 3:3 4:2 5:6 6:1 7:1 
0.8494154738259393 1:1 2:37 3:1 4:2 5:12 6:2 7:1 
0.4243495478247455 1:1 2:37 3:1 4:2 5:7 6:2 7:1 
1 1:1 2:30 3:2 4:1 5:5 6:1 7:1 
1 1:1 2:28 3:1 4:4 5:1 6:2 7:1 
1 1:1 2:33 3:3 4:1 5:2 6:1 7:1 
0.9959412028169475 1:1 2:29 3:1 4:2 5:8 6:1 7:1 
1 1:1 2:37 3:2 4:1 5:12 6:2 7:1 
1 1:1 2:28 3:1 4:1 5:2 6:1 7:1 
1 1:2 2:26 3:1 4:2 5:1 6:1 7:1 
1 1:1 2:29 3:1 4:1 5:2 6:1 7:1 
1 1:1 2:24 3:2 4:2 5:1 6:1 7:1 
1 1:2 2:30 3:3 4:2 5:3 6:2 7:1 
1 1:1 2:28 3:1 4:4 5:1 6:2 7:1 
1 1:1 2:30 3:1 4:2 5:4 6:2 7:5 
1 1:1 2:32 3:1 4:1 5:2 6:2 7:1 
0.2712159440107132 1:1 2:28 3:1 4:1 5:2 6:1 7:1 
0.7706618919378471 1:2 2:47 3:1 4:2 5:8 6:2 7:1 
0.01219073403118178 1:2 2:34 3:1 4:2 5:12 6:2 7:1 
1 1:1 2:29 3:1 4:1 5:1 6:2 7:1 
1 1:1 2:30 3:1 4:2 5:1 6:1 7:1 
1 1:1 2:31 3:1 4:2 5:7 6:2 7:1 
1 1:1 2:27 3:2 4:1 5:3 6:1 7:1 
1 1:2 2:27 3:1 4:1 5:2 6:1 7:1 
1 1:1 2:27 3:3 4:2 5:2 6:1 7:1 
1 1:1 2:37 3:2 4:1 5:12 6:2 7:1 
1 1:1 2:37 3:1 4:2 5:2 6:1 7:1 
1 1:1 2:32 3:1 4:1 5:2 6:2 7:1 
1 1:1 2:28 3:2 4:2 5:5 6:1 7:1 
1 1:1 2:26 3:2 4:1 5:2 6:1 7:1 
1 1:2 2:34 3:1 4:1 5:5 6:1 7:1 
1 1:1 2:37 3:1 4:2 5:2 6:1 7:1 
0.9545662536881323 1:1 2:37 3:1 4:2 5:6 6:1 7:1 
1 1:1 2:32 3:1 4:4 5:5 6:2 7:1 
1 1:2 2:35 3:1 4:3 5:4 6:1 7:1 
0.965574722483486 1:2 2:24 3:2 4:1 5:1 6:1 7:1 
1 1:2 2:30 3:1 4:2 5:4 6:1 7:1 
0.9718121119403988 1:1 2:27 3:3 4:1 5:2 6:1 7:4 
1 1:1 2:27 3:2 4:1 5:4 6:1 7:1 
0.9979752606317871 1:1 2:42 3:1 4:3 5:1 6:2 7:1 
0.4305244839687898 1:1 2:30 3:5 4:2 5:1 6:1 7:1 
1 1:1 2:29 3:4 4:1 5:2 6:1 7:1 
1 1:1 2:35 3:2 4:1 5:8 6:1 7:1 
1 1:1 2:30 3:1 4:1 5:2 6:1 7:4 
1 1:1 2:37 3:1 4:2 5:2 6:1 7:1 
1 1:1 2:37 3:1 4:2 5:3 6:2 7:1 
1 1:1 2:33 3:3 4:1 5:7 6:2 7:1 
1 1:1 2:30 3:1 4:1 5:2 6:1 7:4 
1 1:1 2:25 3:2 4:2 5:4 6:1 7:1 
1 1:2 2:27 3:1 4:1 5:2 6:1 7:1 
1 1:1 2:27 3:3 4:1 5:2 6:1 7:1 
1 1:1 2:26 3:2 4:1 5:1 6:1 7:1 
1 1:1 2:26 3:2 4:1 5:2 6:1 7:1 
0.9515233001428194 1:1 2:33 3:2 4:2 5:11 6:2 7:1 
1 1:1 2:27 3:2 4:1 5:4 6:1 7:1 
1 1:1 2:26 3:2 4:1 5:2 6:1 7:5 
1 1:1 2:23 3:1 4:2 5:1 6:1 7:1 
1 1:1 2:29 3:1 4:1 5:1 6:2 7:1 
1 1:2 2:30 3:1 4:1 5:5 6:2 7:5 
1 1:1 2:25 3:2 4:2 5:4 6:1 7:1 
1 1:1 2:31 3:4 4:1 5:2 6:1 7:4 
1 1:1 2:26 3:3 4:4 5:1 6:2 7:1 
1 1:1 2:28 3:1 4:1 5:1 6:1 7:1 
1 1:1 2:27 3:1 4:2 5:1 6:1 7:1 
1 1:1 2:27 3:3 4:2 5:2 6:1 7:1 
1 1:1 2:35 3:1 4:2 5:5 6:2 7:1 
1 1:1 2:29 3:1 4:1 5:2 6:1 7:1 
1 1:1 2:29 3:1 4:1 5:2 6:1 7:1 
0.9933282478596387 1:2 2:26 3:3 4:5 5:5 6:1 7:1 
0.951836089916285 1:1 2:27 3:3 4:1 5:2 6:1 7:1 
1 1:1 2:38 3:2 4:1 5:11 6:1 7:1 
1 1:1 2:26 3:2 4:1 5:2 6:1 7:1 
1 1:1 2:31 3:2 4:2 5:7 6:2 7:1 
0.8361206463509573 1:1 2:44 3:2 4:1 5:23 6:2 7:3 
1 1:1 2:29 3:1 4:1 5:2 6:1 7:1 
1 1:1 2:29 3:3 4:2 5:2 6:1 7:1 
1 1:2 2:39 3:1 4:1 5:2 6:1 7:1 
1 1:2 2:35 3:1 4:1 5:6 6:2 7:1 
1 1:1 2:30 3:1 4:1 5:6 6:1 7:1 
0.0100281760342288 1:2 2:24 3:1 4:1 5:2 6:1 7:1 
1 1:1 2:31 3:1 4:5 5:7 6:1 7:1 
1 1:1 2:34 3:1 4:2 5:2 6:1 7:1 
1 1:1 2:32 3:1 4:2 5:8 6:2 7:1 
0.3442299105114955 1:2 2:28 3:3 4:2 5:2 6:2 7:1 
1 1:1 2:29 3:4 4:1 5:2 6:1 7:1 
1 1:1 2:31 3:1 4:1 5:1 6:1 7:1 
1 1:1 2:29 3:1 4:1 5:2 6:1 7:1 
0.8558360440167238 1:1 2:27 3:2 4:1 5:4 6:1 7:4 
1 1:1 2:27 3:1 4:2 5:1 6:1 7:1 
1 1:2 2:30 3:1 4:1 5:7 6:1 7:1 
1 1:1 2:38 3:3 4:2 5:5 6:2 7:3 
1 1:1 2:31 3:1 4:5 5:7 6:1 7:1 
1 1:1 2:29 3:3 4:2 5:1 6:1 7:1 
1 1:1 2:23 3:2 4:1 5:1 6:1 7:1 
1 1:1 2:30 3:1 4:4 5:3 6:1 7:1 
1 1:1 2:29 3:2 4:2 5:6 6:1 7:1 
0.5958492921399088 1:1 2:22 3:2 4:2 5:1 6:1 7:1 
1 1:1 2:28 3:3 4:1 5:2 6:1 7:1 
1 1:1 2:26 3:2 4:1 5:2 6:1 7:1 
1 1:1 2:44 3:1 4:6 5:15 6:2 7:1 
0.4384373614281588 1:1 2:38 3:1 4:4 5:8 6:2 7:1 
1 1:1 2:34 3:1 4:2 5:1 6:2 7:1 
0.7907133394359257 1:2 2:30 3:3 4:2 5:3 6:2 7:1 
1 1:1 2:29 3:1 4:2 5:6 6:1 7:1 
0.9703649022687031 1:1 2:45 3:2 4:1 5:23 6:1 7:4 
-1 1:1 2:38 3:2 4:3 5:3 6:1 7:1 
-1 1:1 2:30 3:1 4:2 5:6 6:2 7:1 
-1 1:1 2:26 3:1 4:1 5:1 6:1 7:1 
-1 1:1 2:29 3:1 4:2 5:1 6:1 7:4 
-1 1:1 2:32 3:2 4:1 5:7 6:1 7:1 
-1 1:1 2:37 3:2 4:1 5:12 6:1 7:1 
-1 1:1 2:30 3:1 4:3 5:1 6:2 7:1 
-1 1:1 2:30 3:1 4:2 5:1 6:1 7:1 
-1 1:1 2:30 3:1 4:1 5:6 6:1 7:1 
-1 1:2 2:25 3:1 4:2 5:1 6:2 7:1 
-1 1:1 2:30 3:1 4:1 5:1 6:1 7:1 
-1 1:1 2:29 3:1 4:3 5:0 6:1 7:1 
-1 1:1 2:28 3:1 4:2 5:3 6:1 7:1 
-1 1:1 2:29 3:2 4:1 5:5 6:1 7:1 
-1 1:2 2:28 3:2 4:1 5:2 6:1 7:1 
-1 1:2 2:38 3:2 4:2 5:13 6:2 7:2 
-1 1:1 2:33 3:1 4:2 5:7 6:1 7:1 
-1 1:1 2:38 3:2 4:3 5:3 6:1 7:1 
-1 1:1 2:33 3:2 4:1 5:7 6:1 7:1 
-1 1:1 2:34 3:1 4:1 5:2 6:1 7:1 
-0.2734813150119598 1:1 2:42 3:1 4:1 5:3 6:2 7:1 
-1 1:1 2:30 3:1 4:1 5:6 6:1 7:1 
-1 1:1 2:33 3:2 4:1 5:3 6:1 7:1 
-1 1:1 2:32 3:1 4:2 5:2 6:1 7:1 
-1 1:1 2:30 3:1 4:1 5:1 6:1 7:1 
-1 1:1 2:28 3:1 4:1 5:1 6:2 7:1 
-1 1:2 2:27 3:2 4:1 5:1 6:1 7:1 
-1 1:2 2:29 3:1 4:2 5:4 6:1 7:1 
-1 1:2 2:27 3:3 4:2 5:0 6:2 7:1 
-1 1:1 2:31 3:3 4:1 5:3 6:2 7:2 
-1 1:1 2:27 3:2 4:1 5:3 6:1 7:4 
-1 1:1 2:34 3:3 4:1 5:2 6:2 7:1 
-0.7604681372884349 1:1 2:48 3:1 4:2 5:15 6:2 7:1 
-0.9654116580208248 1:1 2:50 3:3 4:5 5:12 6:1 7:1 
-1 1:1 2:26 3:2 4:2 5:3 6:1 7:1 
-1 1:1 2:27 3:2 4:1 5:2 6:1 7:1 
-1 1:1 2:29 3:4 4:1 5:3 6:1 7:1 
-0.5331405363681228 1:1 2:29 3:2 4:1 5:2 6:1 7:4 
-1 1:1 2:27 3:2 4:2 5:4 6:1 7:1 
-1 1:1 2:28 3:1 4:1 5:1 6:1 7:1 
-0.2114892687744252 1:1 2:37 3:1 4:1 5:3 6:1 7:1 
-1 1:1 2:27 3:1 4:1 5:1 6:1 7:1 
-1 1:1 2:26 3:1 4:1 5:1 6:1 7:1 
-0.5427293087697515 1:1 2:32 3:3 4:1 5:5 6:1 7:1 
-1 1:1 2:38 3:1 4:1 5:5 6:2 7:1 
-1 1:1 2:28 3:1 4:2 5:3 6:1 7:1 
-1 1:1 2:37 3:1 4:3 5:0 6:2 7:1 
-1 1:1 2:30 3:1 4:2 5:7 6:1 7:1 
-1 1:1 2:24 3:1 4:2 5:1 6:1 7:1 
-1 1:1 2:26 3:2 4:2 5:4 6:1 7:1 
-1 1:1 2:32 3:1 4:2 5:2 6:2 7:1 
-1 1:1 2:30 3:3 4:2 5:1 6:2 7:1 
-1 1:1 2:27 3:1 4:1 5:1 6:1 7:1 
-1 1:1 2:26 3:1 4:2 5:5 6:1 7:1 
-1 1:1 2:27 3:2 4:2 5:4 6:1 7:1 
-0.2485386467286471 1:2 2:32 3:1 4:1 5:5 6:2 7:1 
-1 1:1 2:31 3:1 4:1 5:1 6:1 7:1 
-1 1:1 2:28 3:3 4:4 5:1 6:2 7:1 
-1 1:1 2:31 3:3 4:1 5:3 6:2 7:2 
-1 1:1 2:37 3:1 4:1 5:2 6:1 7:1 
-1 1:1 2:27 3:2 4:1 5:3 6:1 7:4 
-1 1:1 2:26 3:2 4:2 5:3 6:1 7:1 
-1 1:2 2:30 3:2 4:1 5:6 6:1 7:1 
-0.883462563037032 1:1 2:37 3:1 4:1 5:2 6:1 7:1 
-0.3407136813565116 1:1 2:34 3:2 4:1 5:2 6:1 7:4 
-1 1:2 2:29 3:2 4:1 5:4 6:1 7:1 
-1 1:1 2:24 3:2 4:1 5:1 6:1 7:1 
-0.3671309130597694 1:1 2:30 3:1 4:2 5:5 6:2 7:1 
-1 1:1 2:26 3:1 4:2 5:5 6:1 7:1 
-1 1:2 2:30 3:1 4:2 5:3 6:1 7:1 
-1 1:2 2:28 3:1 4:2 5:1 6:1 7:1 
-1 1:1 2:28 3:4 4:1 5:3 6:1 7:1 
-1 1:2 2:30 3:1 4:2 5:3 6:1 7:1 
-1 1:1 2:27 3:2 4:2 5:1 6:1 7:1 
-1 1:1 2:28 3:4 4:1 5:3 6:1 7:1 
-1 1:2 2:32 3:1 4:1 5:5 6:2 7:1 
-1 1:1 2:31 3:1 4:1 5:1 6:1 7:1 
-1 1:1 2:25 3:4 4:1 5:1 6:1 7:1 
-1 1:1 2:35 3:1 4:2 5:1 6:2 7:1 
-1 1:1 2:27 3:2 4:2 5:4 6:1 7:1 
-1 1:1 2:33 3:1 4:1 5:6 6:1 7:1 
-1 1:1 2:27 3:2 4:2 5:2 6:1 7:1 
-1 1:1 2:36 3:2 4:2 5:6 6:2 7:1 
-0.361747862693913 1:1 2:28 3:3 4:2 5:0 6:1 7:1 
-1 1:1 2:26 3:2 4:2 5:3 6:1 7:1 
-1 1:1 2:26 3:2 4:1 5:2 6:1 7:1 
-1 1:1 2:30 3:1 4:2 5:7 6:1 7:1 
-1 1:1 2:30 3:2 4:1 5:2 6:1 7:1 
-1 1:1 2:27 3:2 4:2 5:4 6:1 7:1 
-1 1:1 2:33 3:1 4:2 5:5 6:1 7:1 
-1 1:1 2:30 3:1 4:2 5:6 6:2 7:1 
-1 1:1 2:33 3:2 4:1 5:3 6:1 7:1 
-1 1:1 2:31 3:1 4:4 5:1 6:2 7:1 
-1 1:1 2:30 3:1 4:2 5:6 6:2 7:1 
-1 1:1 2:36 3:2 4:2 5:6 6:2 7:1 
-1 1:1 2:25 3:3 4:1 5:1 6:1 7:4 
-1 1:1 2:33 3:2 4:1 5:3 6:1 7:1 
-0.4106213137985721 1:1 2:38 3:1 4:2 5:14 6:2 7:1 
-1 1:1 2:27 3:2 4:1 5:2 6:1 7:1 
-1 1:1 2:32 3:1 4:1 5:2 6:2 7:1 
-1 1:1 2:30 3:1 4:1 5:6 6:1 7:1 
-1 1:2 2:25 3:1 4:2 5:1 6:2 7:1 
-0.5923704569946124 1:1 2:31 3:2 4:1 5:2 6:1 7:1 
-1 1:1 2:26 3:4 4:1 5:2 6:1 7:1 
-1 1:1 2:30 3:1 4:1 5:1 6:1 7:1 
-1 1:1 2:26 3:2 4:2 5:3 6:1 7:1 
-1 1:1 2:32 3:1 4:2 5:8 6:2 7:1 
-1 1:1 2:26 3:2 4:2 5:4 6:1 7:1 
-1 1:1 2:22 3:1 4:1 5:1 6:1 7:1 
-1 1:1 2:32 3:1 4:2 5:8 6:2 7:1 
-1 1:1 2:28 3:2 4:2 5:4 6:2 7:1 
-0.1850460495095002 1:1 2:35 3:1 4:1 5:5 6:1 7:3 
-1 1:1 2:27 3:1 4:5 5:2 6:1 7:1 
-0.8619663655004703 1:1 2:28 3:2 4:1 5:1 6:1 7:1 
-1 1:2 2:28 3:5 4:2 5:3 6:2 7:1 
-1 1:1 2:26 3:2 4:2 5:3 6:1 7:1 
-0.9335198985869148 1:1 2:48 3:1 4:1 5:1 6:2 7:1 
-1 1:1 2:30 3:1 4:2 5:5 6:2 7:1 
-1 1:1 2:27 3:2 4:1 5:2 6:1 7:1 
-1 1:1 2:25 3:2 4:1 5:1 6:1 7:1 
-1 1:1 2:29 3:2 4:1 5:2 6:1 7:1 
-1 1:1 2:30 3:1 4:4 5:2 6:1 7:1 
-1 1:2 2:28 3:2 4:1 5:2 6:1 7:1 
-1 1:1 2:31 3:1 4:2 5:2 6:1 7:1 
-1 1:1 2:27 3:2 4:1 5:2 6:1 7:1 
-1 1:1 2:28 3:1 4:2 5:3 6:1 7:1 
-1 1:1 2:34 3:1 4:1 5:2 6:1 7:1 
-0.9939240906225646 1:1 2:35 3:1 4:1 5:5 6:1 7:3 
-1 1:1 2:28 3:1 4:1 5:1 6:1 7:1 
-1 1:1 2:26 3:2 4:1 5:3 6:1 7:1 
-1 1:1 2:27 3:2 4:1 5:1 6:1 7:1 
-1 1:1 2:33 3:3 4:1 5:1 6:1 7:1 
-1 1:1 2:29 3:2 4:1 5:2 6:1 7:1 
-1 1:1 2:26 3:2 4:2 5:3 6:1 7:1 
-1 1:1 2:24 3:1 4:2 5:1 6:1 7:1 
-0.03281497157448741 1:1 2:34 3:1 4:1 5:1 6:1 7:4 
-1 1:1 2:31 3:2 4:2 5:6 6:1 7:1 
-0.8069786563148135 1:1 2:26 3:1 4:1 5:0 6:1 7:1 
-1 1:2 2:30 3:2 4:1 5:6 6:1 7:1 
-1 1:1 2:33 3:2 4:1 5:7 6:1 7:1 
-1 1:2 2:45 3:1 4:1 5:13 6:1 7:5 
-1 1:1 2:28 3:4 4:1 5:1 6:1 7:1 
-1 1:1 2:32 3:1 4:1 5:2 6:1 7:3 
-1 1:1 2:25 3:2 4:1 5:1 6:1 7:1 
-1 1:1 2:28 3:2 4:1 5:2 6:1 7:1 
-1 1:1 2:26 3:2 4:1 5:1 6:1 7:1 
-1 1:1 2:30 3:1 4:5 5:7 6:1 7:1 
-1 1:1 2:29 3:2 4:1 5:2 6:1 7:1 
-1 1:1 2:30 3:1 4:2 5:7 6:1 7:1 
-1 1:1 2:30 3:1 4:1 5:1 6:1 7:1 
-1 1:1 2:27 3:2 4:1 5:1 6:1 7:1 
-0.1955931315326763 1:2 2:29 3:1 4:4 5:1 6:1 7:1 
-1 1:2 2:32 3:1 4:1 5:6 6:1 7:1 
-1 1:1 2:31 3:1 4:2 5:2 6:1 7:1 
-1 1:1 2:30 3:1 4:2 5:7 6:1 7:1 
-1 1:1 2:32 3:2 4:1 5:3 6:1 7:1 
-0.7213057862980733 1:1 2:36 3:3 4:1 5:3 6:2 7:4 
-0.176152449909976 1:1 2:31 3:1 4:1 5:3 6:1 7:5 
-1 1:1 2:29 3:4 4:1 5:2 6:1 7:1 
-1 1:1 2:30 3:1 4:2 5:5 6:2 7:1 
-1 1:1 2:37 3:2 4:1 5:12 6:1 7:1 
-0.6317714981263698 1:2 2:27 3:1 4:2 5:1 6:1 7:1 
-1 1:1 2:32 3:1 4:2 5:8 6:2 7:1 
-0.09904404672112334 1:1 2:35 3:5 4:1 5:3 6:2 7:1 
-1 1:1 2:33 3:2 4:1 5:3 6:1 7:1 
-1 1:1 2:31 3:2 4:2 5:6 6:1 7:1 
-1 1:1 2:38 3:1 4:2 5:14 6:2 7:1 
-1 1:1 2:27 3:1 4:5 5:2 6:1 7:1 
-1 1:1 2:37 3:2 4:1 5:12 6:1 7:1 
-1 1:1 2:28 3:3 4:4 5:1 6:2 7:1 
-1 1:1 2:27 3:1 4:2 5:2 6:1 7:1 
-0.539782081013189 1:2 2:31 3:3 4:2 5:1 6:1 7:1 
-1 1:1 2:29 3:2 4:1 5:3 6:1 7:1 
-1 1:1 2:32 3:2 4:2 5:8 6:1 7:1 
-0.3063537246703798 1:1 2:34 3:1 4:1 5:5 6:1 7:1 
-0.9936099156729599 1:1 2:43 3:1 4:1 5:0 6:1 7:1 
-1 1:1 2:32 3:1 4:1 5:2 6:2 7:1 
-1 1:1 2:32 3:1 4:1 5:1 6:1 7:1 
-0.07966150049769526 1:1 2:35 3:1 4:2 5:9 6:2 7:1 
-1 1:2 2:25 3:2 4:1 5:2 6:1 7:1 
-1 1:1 2:33 3:1 4:2 5:7 6:1 7:1 
-1 1:1 2:30 3:1 4:1 5:1 6:1 7:1 
-1 1:1 2:43 3:1 4:1 5:2 6:2 7:1 
-1 1:1 2:26 3:2 4:1 5:3 6:1 7:1 
-0.3564229288677911 1:1 2:35 3:4 4:1 5:1 6:1 7:1 
-1 1:2 2:48 3:1 4:6 5:0 6:2 7:1 
-1 1:1 2:29 3:2 4:1 5:5 6:1 7:1 
-0.005254457785036155 1:1 2:44 3:3 4:1 5:3 6:2 7:4 
-1 1:1 2:31 3:1 4:1 5:4 6:2 7:1 
-1 1:1 2:24 3:1 4:2 5:1 6:1 7:1 
-1 1:1 2:38 3:2 4:1 5:9 6:2 7:1 
-1 1:1 2:31 3:1 4:1 5:3 6:1 7:4 
-1 1:1 2:26 3:1 4:2 5:5 6:1 7:1 
-1 1:1 2:28 3:2 4:1 5:1 6:1 7:1 
-1 1:1 2:37 3:2 4:1 5:12 6:1 7:1 
-0.7421295971957247 1:1 2:27 3:2 4:2 5:3 6:1 7:1 
-1 1:1 2:28 3:2 4:1 5:3 6:1 7:1 
-1 1:1 2:31 3:2 4:1 5:2 6:1 7:1 
-1 1:2 2:23 3:1 4:1 5:1 6:1 7:1 
-1 1:2 2:33 3:1 4:5 5:4 6:2 7:1 
-1 1:1 2:31 3:1 4:1 5:1 6:1 7:1 
-1 1:1 2:29 3:2 4:2 5:6 6:1 7:2 
-1 1:1 2:30 3:3 4:2 5:1 6:2 7:1 
-1 1:1 2:37 3:2 4:1 5:12 6:1 7:1 
-1 1:1 2:41 3:1 4:2 5:7 6:2 7:1 
-1 1:1 2:32 3:1 4:1 5:1 6:1 7:1 
-1 1:1 2:30 3:1 4:2 5:6 6:2 7:1 
-1 1:1 2:28 3:1 4:1 5:1 6:1 7:1 
-1 1:1 2:29 3:1 4:1 5:2 6:1 7:1 
-1 1:1 2:32 3:1 4:2 5:8 6:2 7:1 
-1 1:1 2:27 3:2 4:1 5:1 6:1 7:1 
-1 1:1 2:30 3:1 4:2 5:5 6:2 7:1 
-1 1:1 2:33 3:2 4:1 5:8 6:2 7:1 
-0.9764825703179815 1:1 2:54 3:5 4:3 5:8 6:2 7:1 
-1 1:2 2:27 3:2 4:1 5:4 6:1 7:1 
-1 1:1 2:37 3:2 4:1 5:8 6:2 7:1 
-1 1:2 2:34 3:1 4:1 5:2 6:1 7:1 
-1 1:1 2:32 3:1 4:1 5:1 6:1 7:1 
-1 1:1 2:37 3:1 4:1 5:3 6:1 7:1 
-1 1:1 2:33 3:1 4:2 5:1 6:1 7:1 
-0.860112864036631 1:2 2:56 3:1 4:5 5:17 6:2 7:1 
-1 1:2 2:30 3:1 4:2 5:3 6:1 7:1 
-1 1:1 2:31 3:1 4:2 5:1 6:1 7:1 
-1 1:1 2:29 3:3 4:1 5:3 6:1 7:1 
-1 1:1 2:31 3:1 4:2 5:2 6:2 7:2 
-1 1:1 2:27 3:1 4:1 5:1 6:1 7:1 
-1 1:1 2:26 3:2 4:2 5:3 6:1 7:1 
-1 1:2 2:28 3:2 4:1 5:2 6:1 7:4 
-0.1152133801187356 1:1 2:28 3:1 4:2 5:0 6:1 7:1 
-1 1:1 2:29 3:2 4:1 5:5 6:1 7:1 
-1 1:1 2:26 3:2 4:2 5:3 6:1 7:1 
-1 1:1 2:26 3:2 4:2 5:3 6:1 7:1 
-0.8763512278563822 1:1 2:37 3:1 4:1 5:3 6:1 7:1 
-1 1:1 2:35 3:1 4:2 5:9 6:2 7:1 
-1 1:1 2:32 3:1 4:1 5:7 6:1 7:4 
-1 1:1 2:26 3:1 4:2 5:5 6:1 7:1 
-1 1:1 2:44 3:2 4:1 5:22 6:2 7:4 
-1 1:1 2:26 3:1 4:1 5:1 6:1 7:1 
-1 1:1 2:27 3:1 4:1 5:2 6:1 7:1 
-1 1:1 2:26 3:1 4:2 5:3 6:1 7:1 
-1 1:1 2:30 3:2 4:1 5:2 6:1 7:1 
-0.3709347957875607 1:1 2:43 3:2 4:1 5:19 6:2 7:3 
-1 1:1 2:28 3:1 4:2 5:6 6:2 7:1 
-0.8267210844313251 1:1 2:47 3:3 4:1 5:13 6:2 7:1 
-1 1:1 2:34 3:3 4:1 5:1 6:1 7:1 
-1 1:1 2:30 3:2 4:1 5:5 6:1 7:4 
-1 1:2 2:28 3:1 4:2 5:2 6:2 7:1 
-1 1:2 2:30 3:2 4:1 5:6 6:1 7:1 
-1 1:1 2:29 3:2 4:1 5:5 6:1 7:1 
-1 1:1 2:32 3:1 4:2 5:8 6:2 7:1 
-1 1:1 2:29 3:4 4:1 5:3 6:1 7:1 
-0.9762075775870304 1:2 2:51 3:3 4:2 5:22 6:2 7:1 
-0.3747811839770353 1:2 2:29 3:2 4:1 5:2 6:1 7:1 
-0.9809145711898448 1:2 2:60 3:2 4:1 5:33 6:2 7:3 
-0.2275441333731598 1:2 2:29 3:2 4:1 5:3 6:1 7:5 
-1 1:1 2:22 3:1 4:1 5:1 6:1 7:1 
-1 1:1 2:29 3:2 4:1 5:4 6:1 7:5 
-1 1:1 2:35 3:1 4:2 5:9 6:2 7:1 
-1 1:2 2:28 3:1 4:2 5:1 6:1 7:1 
-1 1:1 2:32 3:1 4:2 5:8 6:2 7:1 
-1 1:1 2:30 3:1 4:2 5:7 6:1 7:1 
-1 1:1 2:30 3:1 4:1 5:6 6:1 7:1 
-1 1:1 2:32 3:1 4:1 5:1 6:1 7:1 
-1 1:1 2:31 3:1 4:2 5:1 6:1 7:1 
-1 1:1 2:31 3:2 4:1 5:2 6:1 7:1 
-1 1:1 2:29 3:1 4:1 5:4 6:1 7:1 
-1 1:1 2:31 3:1 4:2 5:6 6:1 7:1 
-1 1:2 2:42 3:1 4:1 5:6 6:2 7:5 
-1 1:1 2:29 3:2 4:1 5:2 6:1 7:1 
-1 1:1 2:30 3:6 4:1 5:1 6:1 7:1 
-1 1:2 2:25 3:2 4:1 5:2 6:1 7:1 
-1 1:1 2:30 3:1 4:5 5:7 6:1 7:1 
-1 1:1 2:28 3:1 4:2 5:3 6:1 7:1 
-1 1:1 2:34 3:3 4:1 5:2 6:2 7:1 
-1 1:1 2:30 3:1 4:2 5:3 6:1 7:1 
-1 1:1 2:27 3:2 4:1 5:2 6:1 7:1 
-1 1:1 2:35 3:1 4:2 5:9 6:2 7:1 
-1 1:1 2:43 3:2 4:1 5:19 6:2 7:3 
-1 1:1 2:27 3:2 4:1 5:1 6:1 7:1 
-1 1:1 2:31 3:1 4:1 5:1 6:1 7:1 
-1 1:1 2:28 3:1 4:2 5:6 6:2 7:1 
-1 1:1 2:26 3:1 4:1 5:1 6:1 7:1 
-1 1:2 2:29 3:2 4:1 5:3 6:1 7:1 
-1 1:1 2:28 3:4 4:1 5:1 6:1 7:1 
-1 1:1 2:26 3:2 4:1 5:2 6:1 7:1 
-0.4164634992041162 1:1 2:37 3:3 4:3 5:1 6:1 7:1 
-0.1825424232197702 1:1 2:30 3:2 4:1 5:1 6:1 7:5 
-1 1:1 2:29 3:1 4:1 5:2 6:1 7:1 
-0.7049800578666513 1:2 2:32 3:2 4:1 5:3 6:1 7:1 
-1 1:1 2:26 3:1 4:2 5:5 6:1 7:1 
-0.9613466353309558 1:1 2:30 3:1 4:2 5:5 6:2 7:1 
-0.945103611359233 1:2 2:31 3:1 4:1 5:5 6:1 7:1 
-0.4729837282804929 1:2 2:24 3:1 4:4 5:0 6:1 7:1 
-0.6831879843579656 1:1 2:40 3:1 4:1 5:2 6:1 7:1 
-1 1:1 2:31 3:2 4:1 5:4 6:1 7:1 
-1 1:1 2:27 3:2 4:1 5:2 6:1 7:1 
-1 1:1 2:28 3:4 4:1 5:3 6:1 7:1 
-1 1:1 2:28 3:2 4:1 5:1 6:1 7:1 
-1 1:2 2:30 3:2 4:1 5:6 6:1 7:1 
-1 1:1 2:26 3:2 4:2 5:4 6:1 7:1 
-1 1:1 2:31 3:2 4:2 5:5 6:1 7:1 
-1 1:1 2:27 3:2 4:1 5:3 6:1 7:4 
-1 1:1 2:31 3:2 4:2 5:6 6:1 7:1 
-1 1:1 2:35 3:1 4:2 5:9 6:2 7:1 
-1 1:2 2:25 3:5 4:4 5:3 6:1 7:1 
-1 1:2 2:26 3:1 4:1 5:2 6:1 7:5 
-1 1:1 2:31 3:1 4:2 5:2 6:2 7:2 
-1 1:1 2:25 3:4 4:1 5:1 6:1 7:1 
-1 1:1 2:33 3:1 4:2 5:7 6:1 7:1 
-1 1:1 2:31 3:1 4:2 5:2 6:1 7:1 
-1 1:1 2:38 3:2 4:3 5:3 6:1 7:1 
-1 1:1 2:24 3:1 4:2 5:1 6:1 7:1 
-1 1:1 2:34 3:1 4:1 5:1 6:2 7:1 
-1 1:1 2:29 3:2 4:1 5:2 6:1 7:1 
-1 1:2 2:32 3:1 4:1 5:5 6:2 7:1 
-0.4024870452701031 1:1 2:32 3:2 4:1 5:2 6:1 7:4 
-1 1:1 2:33 3:2 4:1 5:7 6:1 7:1 
-1 1:1 2:27 3:1 4:2 5:2 6:1 7:1 
-1 1:1 2:29 3:1 4:2 5:3 6:1 7:1 
-1 1:1 2:26 3:2 4:2 5:4 6:1 7:1 
-1 1:1 2:35 3:1 4:1 5:3 6:1 7:1 
-0.5028822135706291 1:2 2:28 3:1 4:2 5:4 6:1 7:1 
-1 1:2 2:28 3:1 4:2 5:2 6:2 7:1 
-1 1:2 2:26 3:2 4:2 5:1 6:1 7:2 
-0.5986648256743141 1:2 2:37 3:3 4:1 5:4 6:2 7:1 
-1 1:1 2:26 3:1 4:2 5:5 6:1 7:1 
-1 1:1 2:31 3:1 4:4 5:1 6:2 7:1 
-1 1:1 2:31 3:1 4:1 5:1 6:1 7:1 
-1 1:1 2:26 3:1 4:2 5:5 6:1 7:1 
-0.9978654531266268 1:1 2:44 3:3 4:1 5:3 6:2 7:4 
-1 1:1 2:30 3:1 4:5 5:7 6:1 7:1 
-1 1:1 2:28 3:3 4:4 5:1 6:2 7:1 
-0.9171069252614965 1:1 2:28 3:1 4:2 5:6 6:2 7:1 
-1 1:1 2:35 3:1 4:2 5:9 6:2 7:1 
-1 1:1 2:34 3:1 4:1 5:5 6:1 7:1 
-0.5610075991887634 1:2 2:27 3:1 4:4 5:1 6:1 7:1 
-1 1:1 2:27 3:2 4:1 5:2 6:1 7:1 
-0.8100353222112154 1:2 2:30 3:1 4:1 5:2 6:1 7:4 
-1 1:1 2:28 3:2 4:1 5:1 6:1 7:1 
-1 1:1 2:27 3:2 4:1 5:2 6:1 7:1 
-0.9992421228213392 1:2 2:56 3:1 4:5 5:17 6:2 7:1 
-1 1:1 2:32 3:2 4:1 5:1 6:1 7:1 
-0.9191793233288996 1:1 2:38 3:1 4:2 5:14 6:2 7:1 
-1 1:2 2:32 3:5 4:4 5:2 6:2 7:1 
-0.8436021203139541 1:1 2:40 3:1 4:1 5:0 6:2 7:1 
-1 1:1 2:42 3:3 4:1 5:1 6:2 7:1 
-0.338276405941987 1:1 2:35 3:1 4:2 5:0 6:1 7:1 
-1 1:1 2:35 3:1 4:2 5:0 6:1 7:1 
-1 1:1 2:43 3:2 4:1 5:19 6:2 7:3 
-0.8037703813914622 1:1 2:30 3:1 4:1 5:0 6:2 7:1 
-1 1:2 2:23 3:1 4:1 5:1 6:1 7:1 
-1 1:2 2:29 3:6 4:1 5:5 6:1 7:1 
-1 1:1 2:31 3:1 4:1 5:1 6:1 7:1 
-1 1:2 2:23 3:1 4:1 5:1 6:1 7:1 
-0.994527097650589 1:1 2:35 3:5 4:1 5:3 6:2 7:1 
-1 1:1 2:26 3:2 4:2 5:3 6:1 7:1 
-1 1:1 2:26 3:2 4:1 5:1 6:1 7:1 
-0.8525213805093611 1:2 2:31 3:3 4:2 5:1 6:1 7:1 
-1 1:1 2:32 3:1 4:2 5:8 6:2 7:1 
-1 1:2 2:26 3:2 4:2 5:1 6:1 7:2 
-1 1:1 2:26 3:2 4:1 5:1 6:1 7:1 
-1 1:1 2:34 3:1 4:2 5:6 6:1 7:1 
-1 1:1 2:36 3:2 4:2 5:6 6:2 7:1 
-1 1:1 2:34 3:1 4:1 5:5 6:1 7:1 
-1 1:1 2:31 3:1 4:1 5:4 6:2 7:1 
-0.5286377064547638 1:2 2:35 3:1 4:1 5:3 6:1 7:1 
-0.95615691784558 1:1 2:43 3:2 4:1 5:19 6:2 7:3 
-0.03729781164420885 1:2 2:33 3:1 4:1 5:5 6:1 7:1 
-1 1:1 2:26 3:1 4:1 5:1 6:1 7:1 
-1 1:1 2:34 3:3 4:1 5:2 6:2 7:1 
-1 1:1 2:29 3:1 4:1 5:1 6:2 7:1 
-1 1:1 2:26 3:2 4:2 5:3 6:1 7:1 
-0.9972832509167713 1:2 2:29 3:1 4:4 5:1 6:1 7:1 
-0.9991808921816057 1:1 2:31 3:1 4:1 5:3 6:1 7:5 
-1 1:1 2:34 3:1 4:2 5:6 6:1 7:1 
-1 1:1 2:38 3:6 4:1 5:7 6:2 7:3 
-1 1:1 2:30 3:1 4:1 5:6 6:1 7:1 
-1 1:1 2:29 3:2 4:1 5:4 6:1 7:1 
-1 1:1 2:29 3:4 4:1 5:2 6:1 7:1 
-0.6691285460590162 1:1 2:32 3:1 4:1 5:0 6:1 7:1 
-1 1:1 2:31 3:1 4:1 5:5 6:1 7:5 
-0.3364880274860594 1:1 2:38 3:1 4:1 5:3 6:1 7:1 
-1 1:1 2:31 3:1 4:1 5:5 6:1 7:5 
-1 1:1 2:29 3:1 4:1 5:2 6:1 7:1 
-1 1:2 2:45 3:2 4:1 5:21 6:2 7:3 
-1 1:1 2:33 3:2 4:1 5:3 6:1 7:1 
-0.8197416342578018 1:1 2:38 3:1 4:1 5:3 6:1 7:5 
-1 1:1 2:29 3:2 4:1 5:4 6:1 7:5 
-0.2463931725799144 1:1 2:42 3:1 4:1 5:5 6:2 7:1 
-1 1:1 2:30 3:2 4:1 5:3 6:1 7:1 
-1 1:1 2:35 3:1 4:2 5:1 6:2 7:1 
-0.9771523018238054 1:2 2:61 3:2 4:1 5:40 6:2 7:4 
-1 1:1 2:26 3:2 4:1 5:2 6:1 7:1 
-1 1:1 2:26 3:2 4:2 5:3 6:1 7:1 
-1 1:2 2:30 3:1 4:2 5:3 6:1 7:1 
-1 1:2 2:24 3:1 4:4 5:1 6:1 7:1 
-1 1:1 2:28 3:1 4:2 5:3 6:1 7:1 
-1 1:1 2:29 3:1 4:1 5:1 6:2 7:1 
-1 1:1 2:31 3:3 4:2 5:1 6:1 7:1 
