svm_type c_svc
kernel_type rbf
gamma 0.142857
nr_class 2
total_sv 813
rho -0.234286
label 1 -1
nr_sv 408 405
SV
1 1:1 2:28 3:1 4:1 5:1 6:1 7:1 
1 1:1 2:30 3:4 4:1 5:1 6:1 7:1 
1 1:1 2:30 3:1 4:1 5:5 6:1 7:1 
1 1:1 2:44 3:2 4:1 5:23 6:2 7:3 
1 1:2 2:29 3:2 4:1 5:6 6:1 7:1 
1 1:1 2:27 3:3 4:1 5:3 6:1 7:1 
1 1:1 2:32 3:1 4:1 5:6 6:2 7:1 
1 1:1 2:29 3:2 4:1 5:6 6:2 7:1 
1 1:1 2:44 3:2 4:1 5:23 6:2 7:3 
1 1:1 2:28 3:1 4:1 5:1 6:1 7:1 
1 1:1 2:30 3:1 4:1 5:2 6:1 7:4 
1 1:1 2:33 3:1 4:1 5:2 6:1 7:1 
1 1:1 2:29 3:2 4:1 5:6 6:2 7:1 
1 1:1 2:27 3:1 4:1 5:1 6:1 7:1 
1 1:1 2:27 3:1 4:2 5:2 6:1 7:1 
1 1:2 2:26 3:2 4:1 5:3 6:1 7:4 
1 1:1 2:27 3:3 4:1 5:3 6:1 7:1 
1 1:1 2:24 3:2 4:1 5:1 6:1 7:1 
1 1:1 2:29 3:3 4:2 5:1 6:1 7:1 
1 1:1 2:32 3:2 4:1 5:8 6:1 7:1 
1 1:1 2:34 3:1 4:2 5:1 6:2 7:1 
0.1074318880148 1:1 2:34 3:1 4:5 5:7 6:1 7:1 
1 1:1 2:28 3:1 4:1 5:1 6:1 7:1 
1 1:1 2:27 3:3 4:1 5:2 6:1 7:1 
0.1651124013981537 1:2 2:27 3:1 4:1 5:2 6:1 7:1 
1 1:2 2:27 3:1 4:1 5:2 6:1 7:1 
1 1:1 2:31 3:1 4:2 5:4 6:1 7:1 
1 1:1 2:26 3:2 4:1 5:2 6:1 7:1 
1 1:1 2:28 3:3 4:1 5:3 6:1 7:1 
1 1:1 2:31 3:2 4:1 5:6 6:2 7:4 
1 1:1 2:35 3:1 4:1 5:4 6:2 7:1 
1 1:1 2:28 3:1 4:1 5:1 6:1 7:1 
1 1:1 2:30 3:1 4:2 5:6 6:1 7:1 
1 1:2 2:33 3:1 4:1 5:8 6:2 7:1 
1 1:1 2:27 3:1 4:2 5:5 6:1 7:1 
1 1:2 2:26 3:1 4:5 5:2 6:1 7:1 
1 1:1 2:28 3:1 4:1 5:2 6:1 7:1 
1 1:1 2:32 3:1 4:2 5:8 6:1 7:1 
1 1:2 2:36 3:1 4:1 5:8 6:2 7:1 
1 1:2 2:30 3:1 4:1 5:6 6:1 7:1 
0.9162908949529838 1:2 2:23 3:2 4:1 5:1 6:1 7:1 
1 1:2 2:26 3:1 4:2 5:5 6:2 7:1 
0.5385103885704098 1:1 2:35 3:1 4:2 5:5 6:2 7:1 
1 1:1 2:28 3:1 4:1 5:1 6:1 7:1 
1 1:1 2:43 3:2 4:1 5:19 6:2 7:4 
1 1:1 2:31 3:1 4:2 5:4 6:1 7:1 
0.2178435768961801 1:2 2:27 3:1 4:1 5:1 6:1 7:1 
1 1:2 2:26 3:1 4:2 5:2 6:1 7:1 
1 1:1 2:29 3:1 4:1 5:4 6:1 7:1 
1 1:2 2:26 3:3 4:2 5:1 6:2 7:1 
1 1:1 2:27 3:1 4:2 5:2 6:1 7:1 
0.3717510034161858 1:1 2:31 3:2 4:1 5:6 6:2 7:4 
1 1:1 2:27 3:2 4:2 5:5 6:1 7:1 
1 1:1 2:29 3:4 4:1 5:2 6:1 7:1 
1 1:1 2:33 3:3 4:1 5:2 6:1 7:1 
1 1:1 2:26 3:1 4:2 5:1 6:1 7:1 
1 1:1 2:35 3:1 4:1 5:4 6:2 7:1 
1 1:1 2:30 3:4 4:1 5:4 6:1 7:1 
1 1:1 2:27 3:3 4:1 5:2 6:1 7:1 
1 1:1 2:32 3:2 4:2 5:8 6:1 7:1 
1 1:1 2:28 3:1 4:1 5:1 6:1 7:1 
1 1:1 2:29 3:4 4:1 5:2 6:1 7:1 
1 1:1 2:28 3:2 4:2 5:5 6:1 7:1 
1 1:1 2:26 3:2 4:1 5:2 6:1 7:1 
1 1:1 2:28 3:1 4:1 5:1 6:1 7:1 
1 1:1 2:24 3:2 4:1 5:1 6:1 7:1 
1 1:1 2:28 3:2 4:1 5:5 6:1 7:1 
1 1:1 2:30 3:1 4:2 5:6 6:1 7:1 
1 1:2 2:26 3:3 4:2 5:1 6:2 7:1 
1 1:1 2:43 3:1 4:1 5:4 6:2 7:5 
1 1:1 2:26 3:2 4:1 5:2 6:1 7:5 
0.7099367599955311 1:1 2:43 3:2 4:3 5:20 6:2 7:3 
1 1:1 2:30 3:4 4:1 5:1 6:2 7:1 
1 1:2 2:27 3:1 4:1 5:2 6:1 7:1 
1 1:1 2:26 3:1 4:2 5:2 6:1 7:1 
1 1:2 2:27 3:1 4:1 5:2 6:1 7:1 
0.1283688842886381 1:1 2:37 3:1 4:2 5:2 6:1 7:1 
0.344477879826805 1:1 2:40 3:2 4:3 5:17 6:2 7:4 
0.7314013993481313 1:2 2:33 3:3 4:1 5:6 6:1 7:1 
1 1:1 2:28 3:3 4:1 5:2 6:1 7:1 
1 1:1 2:37 3:1 4:2 5:12 6:1 7:1 
1 1:1 2:42 3:2 4:1 5:19 6:2 7:3 
1 1:1 2:35 3:1 4:1 5:9 6:2 7:1 
1 1:1 2:28 3:3 4:1 5:2 6:1 7:1 
1 1:1 2:39 3:3 4:1 5:6 6:1 7:1 
0.3180532313720179 1:1 2:46 3:1 4:5 5:20 6:2 7:1 
0.5398381553723021 1:1 2:51 3:1 4:6 5:21 6:2 7:1 
0.3867092199197061 1:1 2:37 3:2 4:2 5:16 6:2 7:1 
0.09033546891596593 1:1 2:23 3:2 4:1 5:1 6:1 7:1 
1 1:1 2:33 3:3 4:1 5:2 6:1 7:1 
1 1:2 2:26 3:1 4:2 5:1 6:1 7:1 
1 1:1 2:29 3:1 4:1 5:2 6:1 7:1 
1 1:2 2:27 3:1 4:1 5:2 6:1 7:1 
1 1:1 2:27 3:1 4:2 5:2 6:1 7:1 
1 1:1 2:29 3:3 4:2 5:2 6:2 7:5 
1 1:1 2:24 3:2 4:2 5:1 6:1 7:1 
1 1:1 2:26 3:2 4:1 5:2 6:1 7:1 
1 1:1 2:32 3:1 4:2 5:1 6:2 7:1 
1 1:1 2:28 3:3 4:1 5:4 6:1 7:1 
1 1:1 2:34 3:3 4:2 5:1 6:2 7:1 
1 1:1 2:37 3:1 4:2 5:2 6:1 7:1 
1 1:2 2:26 3:1 4:5 5:2 6:1 7:1 
1 1:2 2:23 3:2 4:1 5:1 6:1 7:1 
1 1:1 2:28 3:2 4:2 5:5 6:1 7:1 
1 1:2 2:30 3:1 4:1 5:6 6:1 7:1 
1 1:1 2:29 3:1 4:1 5:5 6:1 7:1 
1 1:1 2:30 3:1 4:1 5:2 6:1 7:4 
1 1:1 2:28 3:1 4:1 5:1 6:1 7:1 
0.6941015553787789 1:1 2:30 3:2 4:2 5:8 6:1 7:1 
1 1:2 2:26 3:2 4:1 5:3 6:1 7:4 
1 1:2 2:29 3:3 4:2 5:6 6:1 7:1 
1 1:1 2:37 3:1 4:2 5:2 6:1 7:1 
0.2082221467529321 1:2 2:30 3:3 4:2 5:3 6:2 7:1 
1 1:2 2:26 3:1 4:2 5:5 6:2 7:1 
1 1:1 2:27 3:2 4:2 5:4 6:1 7:1 
1 1:1 2:41 3:1 4:2 5:2 6:2 7:1 
1 1:1 2:27 3:2 4:2 5:5 6:1 7:1 
1 1:1 2:32 3:1 4:2 5:6 6:1 7:1 
1 1:1 2:27 3:3 4:2 5:2 6:1 7:1 
1 1:2 2:29 3:3 4:2 5:6 6:1 7:1 
1 1:1 2:26 3:3 4:1 5:2 6:1 7:1 
1 1:1 2:29 3:3 4:2 5:1 6:1 7:1 
1 1:1 2:26 3:3 4:4 5:1 6:2 7:1 
1 1:1 2:30 3:3 4:2 5:1 6:1 7:1 
1 1:1 2:28 3:1 4:1 5:1 6:1 7:1 
1 1:1 2:32 3:3 4:1 5:1 6:2 7:1 
1 1:2 2:23 3:2 4:1 5:1 6:1 7:1 
1 1:2 2:30 3:1 4:2 5:7 6:2 7:1 
1 1:1 2:26 3:2 4:1 5:2 6:1 7:1 
0.6315474866301317 1:1 2:54 3:1 4:6 5:15 6:2 7:1 
1 1:1 2:30 3:1 4:1 5:2 6:1 7:4 
1 1:1 2:27 3:2 4:1 5:4 6:1 7:4 
1 1:1 2:32 3:1 4:2 5:2 6:2 7:1 
0.6883517030667373 1:1 2:33 3:1 4:2 5:7 6:2 7:4 
1 1:2 2:26 3:3 4:2 5:3 6:1 7:1 
1 1:1 2:32 3:1 4:2 5:1 6:1 7:1 
1 1:1 2:29 3:1 4:1 5:4 6:1 7:1 
1 1:1 2:27 3:3 4:2 5:2 6:1 7:1 
1 1:1 2:26 3:1 4:1 5:1 6:1 7:1 
0.9682807779274262 1:2 2:30 3:1 4:2 5:4 6:1 7:1 
1 1:1 2:43 3:2 4:1 5:21 6:2 7:4 
1 1:1 2:27 3:1 4:2 5:2 6:1 7:1 
1 1:1 2:29 3:1 4:1 5:4 6:1 7:1 
1 1:1 2:30 3:2 4:1 5:5 6:1 7:1 
0.2138446334122542 1:1 2:24 3:1 4:4 5:2 6:1 7:1 
1 1:2 2:38 3:1 4:2 5:7 6:2 7:1 
1 1:1 2:24 3:2 4:2 5:1 6:1 7:1 
1 1:2 2:33 3:3 4:1 5:6 6:1 7:1 
1 1:1 2:30 3:1 4:1 5:2 6:1 7:4 
1 1:1 2:27 3:1 4:1 5:1 6:1 7:1 
1 1:1 2:31 3:1 4:1 5:1 6:1 7:1 
0.9184566129332348 1:2 2:43 3:3 4:2 5:1 6:2 7:1 
1 1:1 2:28 3:1 4:1 5:1 6:1 7:1 
1 1:1 2:29 3:3 4:2 5:1 6:1 7:1 
1 1:1 2:32 3:1 4:2 5:6 6:1 7:1 
1 1:1 2:30 3:1 4:2 5:1 6:1 7:1 
1 1:1 2:28 3:3 4:1 5:2 6:1 7:1 
1 1:1 2:27 3:3 4:2 5:2 6:1 7:1 
1 1:1 2:25 3:1 4:1 5:1 6:1 7:1 
1 1:1 2:30 3:2 4:2 5:8 6:1 7:1 
0.6142325949264779 1:1 2:57 3:1 4:5 5:15 6:2 7:1 
1 1:1 2:28 3:3 4:1 5:2 6:1 7:1 
1 1:2 2:30 3:1 4:1 5:7 6:1 7:1 
0.5749747195501957 1:2 2:44 3:2 4:2 5:21 6:1 7:1 
1 1:1 2:28 3:3 4:1 5:2 6:1 7:1 
1 1:1 2:38 3:2 4:1 5:11 6:1 7:1 
1 1:2 2:23 3:2 4:1 5:1 6:1 7:1 
0.2742458923232828 1:1 2:37 3:1 4:5 5:6 6:1 7:1 
1 1:1 2:34 3:1 4:2 5:2 6:1 7:1 
1 1:2 2:24 3:1 4:2 5:2 6:1 7:1 
1 1:1 2:24 3:5 4:2 5:2 6:1 7:1 
1 1:2 2:34 3:1 4:2 5:3 6:2 7:5 
1 1:2 2:39 3:1 4:1 5:2 6:1 7:1 
0.9668145527966304 1:1 2:28 3:1 4:5 5:5 6:1 7:1 
1 1:1 2:27 3:1 4:2 5:4 6:1 7:1 
1 1:1 2:26 3:1 4:2 5:1 6:1 7:1 
1 1:1 2:27 3:1 4:2 5:5 6:1 7:1 
0.7904182077004007 1:2 2:39 3:1 4:1 5:2 6:1 7:1 
0.9609220273964086 1:1 2:45 3:1 4:2 5:20 6:2 7:1 
1 1:1 2:24 3:2 4:2 5:1 6:1 7:1 
1 1:1 2:26 3:2 4:1 5:3 6:1 7:1 
1 1:1 2:27 3:3 4:1 5:2 6:1 7:4 
1 1:1 2:38 3:3 4:1 5:2 6:2 7:1 
1 1:1 2:29 3:1 4:1 5:4 6:1 7:1 
1 1:1 2:29 3:2 4:1 5:5 6:1 7:1 
0.2527916436322739 1:2 2:33 3:1 4:1 5:9 6:1 7:1 
1 1:1 2:28 3:1 4:1 5:2 6:1 7:1 
1 1:1 2:32 3:3 4:1 5:1 6:2 7:1 
1 1:1 2:38 3:3 4:2 5:12 6:2 7:1 
1 1:2 2:27 3:1 4:1 5:2 6:1 7:1 
1 1:1 2:32 3:1 4:2 5:1 6:1 7:1 
1 1:1 2:33 3:3 4:1 5:7 6:2 7:1 
1 1:1 2:37 3:1 4:2 5:6 6:1 7:1 
1 1:2 2:26 3:1 4:1 5:4 6:1 7:1 
1 1:2 2:30 3:1 4:2 5:4 6:1 7:1 
1 1:1 2:41 3:1 4:2 5:2 6:2 7:1 
1 1:1 2:32 3:1 4:4 5:7 6:1 7:1 
1 1:1 2:29 3:1 4:1 5:1 6:2 7:1 
1 1:1 2:37 3:2 4:2 5:16 6:2 7:1 
0.7753050803689311 1:2 2:46 3:1 4:1 5:9 6:2 7:4 
1 1:1 2:28 3:1 4:1 5:2 6:1 7:1 
1 1:1 2:31 3:1 4:2 5:9 6:2 7:1 
1 1:1 2:24 3:2 4:2 5:1 6:1 7:1 
0.5292127510031884 1:1 2:23 3:1 4:5 5:5 6:1 7:1 
1 1:1 2:37 3:1 4:2 5:2 6:1 7:1 
1 1:1 2:35 3:1 4:1 5:5 6:1 7:1 
1 1:1 2:33 3:1 4:1 5:2 6:1 7:1 
1 1:1 2:33 3:1 4:1 5:2 6:1 7:1 
1 1:1 2:32 3:1 4:2 5:8 6:2 7:1 
1 1:1 2:24 3:2 4:2 5:1 6:1 7:1 
1 1:1 2:30 3:5 4:2 5:1 6:1 7:1 
0.1885688378598552 1:1 2:33 3:3 4:1 5:4 6:2 7:1 
1 1:1 2:27 3:3 4:2 5:2 6:1 7:1 
1 1:2 2:30 3:3 4:2 5:3 6:2 7:1 
1 1:1 2:30 3:1 4:1 5:3 6:1 7:1 
1 1:1 2:30 3:3 4:1 5:4 6:2 7:1 
1 1:1 2:31 3:1 4:2 5:7 6:2 7:1 
0.5011703275107338 1:1 2:33 3:1 4:2 5:5 6:2 7:1 
1 1:1 2:37 3:3 4:2 5:4 6:2 7:1 
1 1:2 2:30 3:3 4:2 5:3 6:2 7:1 
1 1:2 2:28 3:3 4:2 5:2 6:2 7:1 
1 1:1 2:27 3:3 4:1 5:2 6:1 7:1 
1 1:1 2:33 3:1 4:1 5:2 6:1 7:1 
1 1:1 2:33 3:1 4:1 5:2 6:1 7:1 
1 1:2 2:27 3:3 4:2 5:2 6:2 7:1 
1 1:1 2:40 3:1 4:3 5:6 6:2 7:5 
1 1:1 2:43 3:2 4:3 5:20 6:2 7:3 
1 1:2 2:34 3:1 4:1 5:5 6:1 7:1 
0.3846185209695296 1:1 2:33 3:1 4:2 5:2 6:2 7:1 
1 1:1 2:27 3:3 4:2 5:2 6:1 7:1 
1 1:1 2:28 3:3 4:1 5:2 6:1 7:1 
1 1:1 2:25 3:1 4:2 5:3 6:1 7:1 
1 1:1 2:25 3:1 4:1 5:2 6:1 7:1 
1 1:1 2:29 3:3 4:2 5:1 6:1 7:1 
0.545088954425037 1:2 2:26 3:1 4:5 5:2 6:1 7:1 
1 1:1 2:30 3:1 4:1 5:2 6:1 7:4 
1 1:1 2:32 3:1 4:1 5:2 6:2 7:1 
1 1:1 2:30 3:1 4:2 5:4 6:2 7:5 
1 1:1 2:35 3:2 4:1 5:8 6:1 7:1 
1 1:2 2:28 3:1 4:2 5:4 6:1 7:1 
1 1:1 2:27 3:3 4:1 5:3 6:1 7:1 
1 1:1 2:29 3:1 4:1 5:4 6:1 7:1 
1 1:2 2:34 3:1 4:1 5:5 6:1 7:1 
1 1:2 2:27 3:1 4:1 5:2 6:1 7:1 
1 1:1 2:34 3:1 4:2 5:1 6:2 7:1 
1 1:2 2:31 3:3 4:1 5:2 6:1 7:1 
1 1:1 2:30 3:1 4:1 5:4 6:2 7:1 
1 1:1 2:28 3:1 4:1 5:1 6:1 7:1 
1 1:1 2:32 3:1 4:2 5:1 6:1 7:1 
1 1:1 2:29 3:4 4:1 5:2 6:1 7:1 
1 1:1 2:28 3:1 4:1 5:2 6:1 7:1 
1 1:1 2:27 3:3 4:1 5:3 6:1 7:1 
1 1:1 2:26 3:2 4:1 5:4 6:1 7:1 
1 1:1 2:25 3:2 4:1 5:2 6:1 7:1 
1 1:1 2:27 3:3 4:2 5:2 6:1 7:1 
1 1:1 2:27 3:3 4:1 5:3 6:1 7:1 
1 1:1 2:29 3:1 4:1 5:4 6:1 7:1 
1 1:1 2:24 3:1 4:4 5:2 6:1 7:1 
1 1:1 2:27 3:1 4:2 5:2 6:1 7:1 
1 1:1 2:28 3:1 4:1 5:1 6:1 7:1 
1 1:2 2:26 3:1 4:2 5:1 6:1 7:1 
1 1:1 2:37 3:1 4:2 5:12 6:1 7:1 
1 1:1 2:32 3:1 4:2 5:1 6:2 7:1 
1 1:1 2:34 3:1 4:2 5:1 6:2 7:1 
0.2624347162971757 1:1 2:31 3:1 4:1 5:5 6:1 7:1 
0.5116833301539488 1:2 2:31 3:2 4:1 5:8 6:2 7:1 
1 1:1 2:30 3:3 4:1 5:4 6:2 7:1 
1 1:1 2:28 3:1 4:1 5:1 6:1 7:1 
1 1:1 2:30 3:2 4:2 5:8 6:1 7:1 
1 1:1 2:29 3:3 4:2 5:1 6:1 7:1 
1 1:1 2:32 3:1 4:1 5:6 6:2 7:1 
0.9895740355311711 1:2 2:33 3:3 4:1 5:6 6:1 7:1 
1 1:1 2:29 3:1 4:1 5:4 6:1 7:1 
1 1:1 2:30 3:3 4:1 5:4 6:2 7:1 
1 1:1 2:25 3:2 4:1 5:2 6:1 7:1 
1 1:1 2:27 3:1 4:2 5:4 6:1 7:1 
1 1:1 2:32 3:1 4:2 5:7 6:1 7:1 
1 1:2 2:30 3:3 4:2 5:3 6:2 7:1 
1 1:1 2:27 3:1 4:1 5:1 6:1 7:1 
1 1:2 2:27 3:1 4:1 5:2 6:1 7:1 
0.3249784968367865 1:2 2:26 3:3 4:5 5:5 6:1 7:1 
1 1:1 2:29 3:1 4:2 5:6 6:1 7:1 
1 1:1 2:31 3:3 4:1 5:2 6:2 7:1 
1 1:1 2:26 3:2 4:1 5:2 6:1 7:1 
1 1:1 2:38 3:1 4:1 5:3 6:1 7:1 
1 1:1 2:30 3:1 4:2 5:1 6:1 7:1 
1 1:1 2:28 3:3 4:1 5:2 6:1 7:1 
1 1:1 2:37 3:1 4:2 5:2 6:1 7:1 
1 1:1 2:28 3:1 4:1 5:2 6:1 7:1 
1 1:1 2:31 3:1 4:1 5:1 6:1 7:1 
1 1:1 2:37 3:1 4:2 5:8 6:2 7:1 
1 1:2 2:30 3:1 4:2 5:4 6:1 7:1 
1 1:1 2:29 3:2 4:1 5:5 6:1 7:1 
1 1:1 2:31 3:1 4:1 5:2 6:2 7:1 
0.990104810063705 1:1 2:34 3:1 4:5 5:7 6:1 7:1 
0.9985708538684904 1:2 2:43 3:3 4:2 5:1 6:2 7:1 
0.3350567845144092 1:1 2:34 3:2 4:1 5:11 6:1 7:5 
1 1:1 2:26 3:3 4:1 5:2 6:1 7:1 
1 1:1 2:30 3:1 4:1 5:2 6:1 7:4 
1 1:1 2:28 3:1 4:4 5:1 6:2 7:1 
1 1:2 2:30 3:1 4:2 5:4 6:1 7:1 
0.1987724462989659 1:1 2:32 3:1 4:4 5:5 6:2 7:1 
0.7719059897095426 1:1 2:31 3:1 4:5 5:7 6:1 7:1 
1 1:1 2:26 3:3 4:1 5:2 6:1 7:1 
1 1:1 2:29 3:1 4:2 5:6 6:1 7:1 
1 1:2 2:27 3:1 4:1 5:2 6:1 7:1 
0.7679532622071165 1:1 2:45 3:1 4:6 5:6 6:2 7:1 
0.7096936758480311 1:1 2:32 3:1 4:1 5:4 6:1 7:2 
1 1:1 2:43 3:2 4:1 5:23 6:2 7:5 
1 1:1 2:34 3:1 4:1 5:10 6:2 7:1 
1 1:1 2:26 3:2 4:1 5:2 6:1 7:1 
1 1:1 2:27 3:1 4:2 5:4 6:1 7:1 
1 1:1 2:31 3:1 4:1 5:1 6:1 7:1 
1 1:2 2:26 3:1 4:2 5:1 6:1 7:1 
1 1:1 2:43 3:2 4:1 5:19 6:2 7:4 
1 1:1 2:28 3:3 4:1 5:3 6:1 7:1 
1 1:1 2:31 3:1 4:1 5:5 6:1 7:1 
1 1:1 2:27 3:2 4:1 5:4 6:1 7:1 
0.4867178352886087 1:1 2:24 3:4 4:1 5:2 6:1 7:1 
0.6107711351431928 1:1 2:48 3:1 4:5 5:23 6:2 7:1 
1 1:1 2:26 3:2 4:1 5:2 6:1 7:1 
1 1:1 2:24 3:2 4:2 5:1 6:1 7:1 
0.9712603548193537 1:2 2:30 3:3 4:2 5:3 6:2 7:1 
1 1:1 2:30 3:1 4:2 5:4 6:2 7:5 
1 1:1 2:26 3:1 4:1 5:1 6:1 7:1 
0.8631716578300477 1:2 2:45 3:3 4:6 5:3 6:2 7:1 
1 1:1 2:37 3:1 4:2 5:12 6:1 7:1 
1 1:1 2:35 3:1 4:2 5:9 6:2 7:1 
0.8264329517999641 1:1 2:36 3:1 4:1 5:6 6:2 7:1 
1 1:1 2:29 3:2 4:2 5:6 6:2 7:1 
1 1:1 2:30 3:1 4:2 5:2 6:1 7:1 
1 1:1 2:29 3:1 4:1 5:4 6:1 7:1 
0.9739864841212161 1:1 2:30 3:1 4:1 5:4 6:2 7:1 
1 1:1 2:32 3:1 4:2 5:1 6:2 7:1 
1 1:1 2:26 3:1 4:1 5:1 6:1 7:1 
0.3010495729845719 1:2 2:39 3:2 4:3 5:17 6:2 7:4 
1 1:1 2:26 3:2 4:1 5:2 6:1 7:1 
1 1:1 2:25 3:2 4:1 5:1 6:1 7:1 
1 1:1 2:24 3:2 4:1 5:1 6:1 7:1 
1 1:1 2:31 3:1 4:1 5:1 6:1 7:1 
0.04899794345687655 1:1 2:27 3:1 4:2 5:1 6:1 7:1 
0.5459016490768861 1:2 2:44 3:2 4:1 5:24 6:2 7:3 
1 1:1 2:26 3:2 4:1 5:2 6:1 7:1 
1 1:1 2:43 3:3 4:2 5:9 6:2 7:1 
1 1:1 2:27 3:2 4:1 5:3 6:1 7:1 
1 1:1 2:32 3:1 4:4 5:5 6:2 7:1 
1 1:1 2:28 3:1 4:4 5:1 6:2 7:1 
1 1:1 2:30 3:1 4:2 5:6 6:1 7:1 
1 1:1 2:28 3:1 4:1 5:1 6:1 7:1 
1 1:1 2:30 3:1 4:2 5:2 6:1 7:1 
0.9613370995360505 1:2 2:37 3:1 4:4 5:15 6:2 7:1 
0.8439174294391969 1:1 2:30 3:2 4:2 5:8 6:1 7:1 
1 1:1 2:30 3:1 4:1 5:3 6:1 7:4 
1 1:1 2:31 3:1 4:1 5:1 6:1 7:1 
0.8770772839253826 1:1 2:27 3:1 4:1 5:1 6:1 7:1 
1 1:2 2:23 3:2 4:1 5:1 6:1 7:1 
1 1:1 2:28 3:1 4:1 5:1 6:1 7:1 
1 1:1 2:28 3:1 4:1 5:1 6:1 7:1 
1 1:1 2:31 3:1 4:2 5:7 6:2 7:1 
1 1:1 2:32 3:1 4:1 5:2 6:2 7:1 
1 1:1 2:32 3:1 4:2 5:6 6:1 7:1 
1 1:1 2:30 3:1 4:1 5:3 6:1 7:1 
1 1:1 2:32 3:1 4:2 5:1 6:1 7:1 
1 1:1 2:29 3:3 4:2 5:1 6:1 7:1 
1 1:1 2:29 3:2 4:2 5:6 6:1 7:1 
1 1:1 2:32 3:1 4:4 5:5 6:2 7:1 
1 1:1 2:34 3:1 4:4 5:6 6:2 7:1 
0.377197304523956 1:2 2:30 3:1 4:1 5:5 6:2 7:5 
1 1:1 2:32 3:1 4:1 5:4 6:1 7:2 
1 1:1 2:33 3:3 4:1 5:4 6:2 7:1 
1 1:1 2:28 3:1 4:1 5:1 6:1 7:1 
1 1:1 2:37 3:1 4:2 5:2 6:1 7:1 
0.5613531751219283 1:2 2:39 3:3 4:2 5:5 6:2 7:2 
1 1:1 2:29 3:1 4:1 5:4 6:1 7:1 
1 1:1 2:28 3:1 4:1 5:1 6:1 7:1 
1 1:1 2:27 3:2 4:1 5:4 6:1 7:4 
1 1:1 2:31 3:1 4:1 5:1 6:1 7:1 
0.7325370167206661 1:2 2:26 3:1 4:2 5:2 6:1 7:1 
1 1:1 2:29 3:1 4:1 5:4 6:1 7:1 
1 1:1 2:35 3:1 4:1 5:4 6:1 7:1 
1 1:2 2:26 3:1 4:2 5:1 6:1 7:1 
1 1:1 2:32 3:1 4:1 5:7 6:1 7:1 
1 1:1 2:37 3:1 4:2 5:2 6:1 7:1 
0.5501858762362042 1:1 2:35 3:2 4:1 5:12 6:2 7:4 
1 1:1 2:32 3:2 4:1 5:8 6:1 7:1 
1 1:1 2:31 3:1 4:1 5:1 6:1 7:1 
0.6367854232461827 1:1 2:32 3:3 4:1 5:1 6:2 7:1 
1 1:1 2:36 3:1 4:2 5:11 6:2 7:1 
1 1:1 2:26 3:3 4:1 5:2 6:1 7:1 
0.9652495360684253 1:1 2:31 3:3 4:5 5:4 6:1 7:1 
1 1:1 2:29 3:1 4:1 5:1 6:2 7:1 
1 1:1 2:24 3:1 4:2 5:1 6:1 7:1 
1 1:1 2:39 3:1 4:2 5:15 6:2 7:1 
1 1:1 2:30 3:1 4:2 5:1 6:2 7:1 
0.6612321804834259 1:1 2:35 3:2 4:2 5:12 6:1 7:1 
0.3156929737196886 1:1 2:38 3:3 4:2 5:5 6:2 7:3 
0.650025674555015 1:1 2:54 3:1 4:5 5:22 6:2 7:1 
0.5353401643444822 1:2 2:26 3:5 4:2 5:6 6:1 7:1 
1 1:1 2:28 3:1 4:1 5:1 6:1 7:1 
1 1:1 2:28 3:1 4:1 5:2 6:1 7:1 
1 1:1 2:34 3:1 4:2 5:1 6:2 7:1 
0.9242630000890664 1:2 2:23 3:2 4:1 5:1 6:1 7:1 
0.9994407810985887 1:1 2:31 3:1 4:1 5:5 6:1 7:1 
1 1:1 2:35 3:3 4:2 5:4 6:2 7:1 
1 1:1 2:29 3:1 4:1 5:1 6:2 7:1 
1 1:1 2:28 3:1 4:4 5:1 6:2 7:1 
1 1:2 2:30 3:1 4:1 5:6 6:1 7:1 
1 1:1 2:31 3:4 4:1 5:2 6:1 7:4 
-1 1:1 2:27 3:2 4:1 5:2 6:1 7:1 
-1 1:2 2:29 3:1 4:1 5:1 6:1 7:1 
-1 1:1 2:31 3:1 4:1 5:1 6:1 7:1 
-1 1:1 2:28 3:1 4:1 5:3 6:1 7:1 
-1 1:1 2:28 3:4 4:1 5:3 6:1 7:1 
-1 1:1 2:27 3:2 4:1 5:2 6:1 7:1 
-1 1:1 2:32 3:1 4:1 5:2 6:2 7:1 
-1 1:1 2:31 3:1 4:2 5:1 6:1 7:1 
-1 1:1 2:28 3:1 4:2 5:6 6:2 7:1 
-1 1:1 2:37 3:1 4:1 5:3 6:1 7:1 
-1 1:1 2:37 3:1 4:1 5:3 6:1 7:1 
-1 1:2 2:28 3:1 4:2 5:2 6:1 7:1 
-1 1:1 2:27 3:1 4:2 5:3 6:1 7:1 
-1 1:1 2:26 3:1 4:1 5:1 6:1 7:1 
-0.8457109760600846 1:1 2:26 3:2 4:2 5:3 6:1 7:1 
-1 1:1 2:30 3:3 4:2 5:1 6:1 7:1 
-1 1:1 2:29 3:1 4:1 5:2 6:1 7:1 
-0.2974902691796278 1:1 2:30 3:2 4:2 5:3 6:1 7:1 
-1 1:1 2:30 3:1 4:2 5:6 6:2 7:1 
-1 1:1 2:28 3:1 4:1 5:3 6:1 7:1 
-0.01997158530387298 1:2 2:47 3:1 4:6 5:1 6:2 7:1 
-1 1:1 2:37 3:2 4:1 5:10 6:2 7:1 
-1 1:1 2:33 3:1 4:1 5:6 6:1 7:1 
-1 1:1 2:32 3:3 4:1 5:5 6:1 7:1 
-0.1069051151275958 1:1 2:32 3:1 4:2 5:8 6:2 7:1 
-0.9690935952016499 1:2 2:29 3:6 4:1 5:5 6:1 7:1 
-1 1:1 2:27 3:2 4:1 5:4 6:1 7:1 
-1 1:1 2:35 3:1 4:2 5:1 6:2 7:1 
-1 1:1 2:30 3:1 4:2 5:5 6:2 7:1 
-0.6076357408009723 1:1 2:38 3:1 4:2 5:14 6:2 7:1 
-1 1:2 2:30 3:2 4:1 5:6 6:1 7:1 
-0.2510382653778538 1:1 2:50 3:3 4:5 5:12 6:1 7:1 
-1 1:1 2:27 3:2 4:1 5:2 6:1 7:1 
-1 1:1 2:27 3:2 4:2 5:2 6:1 7:1 
-1 1:1 2:41 3:1 4:2 5:2 6:1 7:1 
-1 1:1 2:33 3:2 4:1 5:7 6:1 7:1 
-1 1:1 2:31 3:1 4:4 5:1 6:2 7:1 
-0.7945542649912383 1:1 2:28 3:1 4:2 5:3 6:1 7:1 
-1 1:1 2:37 3:1 4:1 5:3 6:1 7:1 
-1 1:1 2:26 3:1 4:1 5:0 6:1 7:1 
-1 1:1 2:31 3:1 4:1 5:1 6:1 7:1 
-1 1:1 2:29 3:2 4:1 5:5 6:1 7:1 
-1 1:1 2:30 3:1 4:2 5:6 6:2 7:1 
-0.2028887922394436 1:1 2:24 3:1 4:4 5:0 6:1 7:1 
-0.708875113973734 1:1 2:30 3:2 4:2 5:3 6:1 7:4 
-1 1:1 2:26 3:2 4:1 5:2 6:1 7:1 
-1 1:1 2:37 3:2 4:1 5:8 6:2 7:1 
-1 1:1 2:29 3:4 4:1 5:2 6:1 7:1 
-1 1:2 2:23 3:1 4:1 5:1 6:1 7:1 
-1 1:2 2:30 3:1 4:1 5:3 6:1 7:1 
-1 1:1 2:28 3:1 4:1 5:1 6:1 7:1 
-1 1:1 2:30 3:1 4:1 5:6 6:1 7:1 
-1 1:1 2:29 3:4 4:1 5:2 6:1 7:1 
-1 1:1 2:37 3:2 4:1 5:8 6:2 7:1 
-1 1:2 2:29 3:3 4:2 5:2 6:2 7:1 
-1 1:1 2:31 3:3 4:2 5:1 6:1 7:1 
-1 1:1 2:30 3:1 4:2 5:5 6:2 7:1 
-0.9414575823314013 1:1 2:28 3:2 4:2 5:4 6:2 7:1 
-1 1:1 2:29 3:2 4:1 5:5 6:1 7:1 
-1 1:1 2:29 3:4 4:1 5:2 6:1 7:1 
-1 1:1 2:26 3:2 4:1 5:2 6:1 7:1 
-1 1:1 2:38 3:1 4:2 5:14 6:2 7:1 
-0.7935759142867569 1:2 2:27 3:3 4:2 5:0 6:2 7:1 
-0.241220696710179 1:1 2:44 3:2 4:1 5:22 6:2 7:4 
-1 1:2 2:27 3:2 4:1 5:4 6:1 7:1 
-1 1:2 2:27 3:2 4:1 5:4 6:1 7:1 
-1 1:1 2:26 3:2 4:1 5:3 6:1 7:1 
-1 1:2 2:25 3:5 4:4 5:3 6:1 7:1 
-1 1:1 2:34 3:2 4:1 5:4 6:1 7:1 
-1 1:1 2:29 3:4 4:1 5:2 6:1 7:1 
-1 1:2 2:23 3:1 4:1 5:1 6:1 7:1 
-1 1:1 2:31 3:3 4:3 5:1 6:1 7:1 
-0.8006142752860643 1:1 2:25 3:4 4:1 5:1 6:1 7:1 
-1 1:1 2:26 3:5 4:2 5:2 6:1 7:1 
-1 1:1 2:39 3:1 4:1 5:1 6:2 7:4 
-0.6778404449877229 1:2 2:36 3:3 4:2 5:2 6:2 7:1 
-1 1:1 2:30 3:1 4:1 5:1 6:1 7:1 
-1 1:1 2:29 3:2 4:1 5:5 6:1 7:1 
-1 1:1 2:29 3:1 4:1 5:4 6:1 7:1 
-1 1:2 2:28 3:5 4:2 5:3 6:2 7:1 
-1 1:1 2:29 3:2 4:1 5:5 6:1 7:1 
-1 1:1 2:27 3:2 4:1 5:1 6:1 7:1 
-1 1:1 2:26 3:2 4:2 5:3 6:1 7:1 
-0.9790279958863334 1:1 2:29 3:3 4:1 5:2 6:1 7:1 
-1 1:1 2:30 3:1 4:2 5:7 6:1 7:1 
-1 1:2 2:30 3:2 4:1 5:6 6:1 7:1 
-1 1:1 2:31 3:1 4:1 5:5 6:1 7:5 
-1 1:1 2:32 3:1 4:2 5:8 6:2 7:1 
-0.8713254083346945 1:1 2:28 3:2 4:1 5:2 6:1 7:5 
-1 1:1 2:34 3:1 4:1 5:2 6:1 7:1 
-1 1:1 2:38 3:1 4:1 5:3 6:1 7:1 
-1 1:1 2:26 3:2 4:1 5:2 6:1 7:1 
-1 1:1 2:32 3:1 4:1 5:2 6:2 7:1 
-1 1:1 2:29 3:2 4:1 5:5 6:1 7:1 
-1 1:1 2:26 3:1 4:2 5:5 6:1 7:1 
-1 1:1 2:29 3:2 4:2 5:6 6:1 7:2 
-1 1:1 2:26 3:1 4:2 5:5 6:1 7:1 
-1 1:1 2:28 3:1 4:1 5:0 6:1 7:1 
-0.8436472869192152 1:1 2:29 3:4 4:1 5:3 6:1 7:1 
-1 1:1 2:28 3:1 4:1 5:1 6:1 7:1 
-1 1:1 2:37 3:1 4:1 5:3 6:1 7:1 
-1 1:1 2:32 3:1 4:2 5:8 6:2 7:1 
-1 1:1 2:28 3:1 4:1 5:3 6:1 7:1 
-1 1:1 2:32 3:1 4:2 5:8 6:2 7:1 
-1 1:1 2:27 3:2 4:2 5:2 6:1 7:1 
-0.6266807170379624 1:1 2:35 3:1 4:2 5:0 6:1 7:1 
-1 1:1 2:29 3:4 4:1 5:1 6:1 7:1 
-1 1:1 2:32 3:1 4:2 5:8 6:2 7:1 
-1 1:2 2:30 3:2 4:1 5:6 6:1 7:1 
-1 1:2 2:29 3:1 4:1 5:1 6:2 7:1 
-0.2288280356990071 1:1 2:43 3:1 4:1 5:0 6:1 7:1 
-1 1:1 2:31 3:2 4:1 5:6 6:2 7:1 
-1 1:1 2:33 3:1 4:2 5:5 6:1 7:1 
-1 1:1 2:28 3:2 4:2 5:4 6:2 7:1 
-0.9428122210845727 1:1 2:28 3:2 4:2 5:4 6:2 7:1 
-1 1:1 2:28 3:4 4:1 5:3 6:1 7:1 
-1 1:1 2:41 3:1 4:2 5:7 6:2 7:1 
-1 1:1 2:41 3:1 4:2 5:2 6:1 7:1 
-1 1:1 2:42 3:3 4:1 5:1 6:2 7:1 
-1 1:2 2:26 3:1 4:1 5:1 6:1 7:1 
-1 1:1 2:25 3:4 4:1 5:1 6:1 7:1 
-0.1962915507490706 1:1 2:48 3:1 4:1 5:1 6:2 7:1 
-1 1:1 2:27 3:2 4:2 5:1 6:1 7:1 
-1 1:1 2:32 3:1 4:1 5:1 6:1 7:1 
-0.4724489410856567 1:2 2:31 3:1 4:3 5:1 6:1 7:1 
-1 1:1 2:32 3:2 4:1 5:3 6:1 7:1 
-0.7372220235334005 1:1 2:30 3:6 4:1 5:1 6:1 7:1 
-1 1:1 2:30 3:4 4:1 5:0 6:1 7:1 
-1 1:1 2:30 3:1 4:5 5:7 6:1 7:1 
-1 1:1 2:34 3:1 4:1 5:3 6:1 7:1 
-0.4739771575840672 1:1 2:31 3:2 4:1 5:2 6:1 7:1 
-1 1:1 2:29 3:2 4:1 5:4 6:1 7:1 
-1 1:1 2:27 3:2 4:1 5:2 6:1 7:1 
-1 1:1 2:27 3:1 4:1 5:1 6:1 7:1 
-1 1:1 2:31 3:1 4:1 5:3 6:1 7:1 
-1 1:1 2:25 3:3 4:1 5:1 6:1 7:4 
-1 1:1 2:29 3:1 4:1 5:0 6:1 7:4 
-1 1:1 2:28 3:1 4:1 5:0 6:1 7:1 
-0.2700324192035483 1:1 2:47 3:3 4:1 5:13 6:2 7:1 
-1 1:1 2:24 3:1 4:2 5:1 6:1 7:1 
-0.7315360034262594 1:1 2:39 3:1 4:1 5:5 6:1 7:1 
-1 1:1 2:29 3:4 4:1 5:2 6:1 7:1 
-1 1:1 2:30 3:2 4:2 5:3 6:1 7:4 
-1 1:2 2:28 3:1 4:2 5:2 6:2 7:1 
-0.3674215644900662 1:1 2:42 3:1 4:1 5:3 6:2 7:1 
-1 1:1 2:28 3:1 4:1 5:1 6:1 7:1 
-1 1:2 2:27 3:2 4:2 5:2 6:1 7:1 
-0.179025652048368 1:2 2:33 3:1 4:5 5:4 6:2 7:1 
-1 1:1 2:33 3:1 4:1 5:0 6:1 7:1 
-1 1:1 2:29 3:2 4:1 5:2 6:1 7:4 
-1 1:1 2:27 3:2 4:1 5:2 6:1 7:1 
-1 1:1 2:34 3:3 4:1 5:1 6:1 7:1 
-1 1:1 2:38 3:1 4:2 5:14 6:2 7:1 
-1 1:1 2:31 3:2 4:2 5:6 6:1 7:1 
-1 1:2 2:29 3:1 4:1 5:1 6:2 7:1 
-1 1:1 2:34 3:1 4:2 5:6 6:1 7:1 
-1 1:2 2:30 3:2 4:1 5:6 6:1 7:1 
-1 1:1 2:37 3:2 4:1 5:12 6:1 7:1 
-1 1:2 2:26 3:1 4:2 5:0 6:1 7:1 
-1 1:1 2:32 3:1 4:1 5:1 6:1 7:1 
-1 1:1 2:28 3:1 4:1 5:1 6:1 7:1 
-1 1:1 2:24 3:1 4:2 5:1 6:1 7:1 
-1 1:2 2:37 3:1 4:2 5:5 6:2 7:1 
-1 1:1 2:27 3:2 4:1 5:2 6:1 7:1 
-1 1:1 2:26 3:2 4:1 5:3 6:1 7:1 
-1 1:2 2:27 3:2 4:1 5:4 6:1 7:1 
-1 1:1 2:31 3:2 4:1 5:2 6:1 7:1 
-1 1:1 2:27 3:2 4:1 5:2 6:1 7:1 
-1 1:1 2:31 3:1 4:2 5:2 6:2 7:2 
-1 1:1 2:37 3:2 4:1 5:12 6:1 7:1 
-1 1:1 2:31 3:1 4:2 5:2 6:2 7:2 
-1 1:1 2:26 3:2 4:1 5:3 6:1 7:1 
-1 1:2 2:25 3:2 4:1 5:2 6:1 7:1 
-1 1:1 2:27 3:2 4:1 5:2 6:1 7:1 
-0.5577489422287553 1:1 2:39 3:1 4:1 5:5 6:2 7:1 
-1 1:2 2:28 3:1 4:2 5:4 6:1 7:1 
-1 1:2 2:33 3:1 4:5 5:4 6:2 7:1 
-1 1:1 2:28 3:2 4:1 5:2 6:1 7:1 
-1 1:1 2:44 3:2 4:1 5:22 6:2 7:4 
-0.9652663616587679 1:1 2:50 3:3 4:5 5:12 6:1 7:1 
-1 1:2 2:33 3:1 4:5 5:4 6:2 7:1 
-1 1:1 2:28 3:1 4:1 5:3 6:1 7:1 
-0.6609945733105224 1:2 2:45 3:2 4:1 5:21 6:2 7:3 
-1 1:1 2:34 3:2 4:1 5:6 6:1 7:1 
-0.955754215637691 1:1 2:43 3:1 4:1 5:0 6:1 7:1 
-1 1:2 2:30 3:2 4:1 5:6 6:1 7:1 
-1 1:1 2:27 3:1 4:2 5:3 6:1 7:1 
-1 1:1 2:29 3:2 4:1 5:5 6:1 7:1 
-1 1:2 2:27 3:2 4:1 5:2 6:1 7:1 
-1 1:2 2:25 3:2 4:1 5:2 6:1 7:1 
-0.7069662505237827 1:1 2:29 3:2 4:1 5:2 6:1 7:4 
-1 1:2 2:37 3:1 4:2 5:5 6:2 7:1 
-0.8424897300314381 1:2 2:25 3:1 4:2 5:0 6:1 7:1 
-1 1:1 2:35 3:2 4:1 5:5 6:1 7:1 
-1 1:1 2:24 3:1 4:4 5:0 6:1 7:1 
-1 1:1 2:27 3:2 4:1 5:2 6:1 7:1 
-1 1:1 2:30 3:1 4:2 5:7 6:1 7:1 
-1 1:1 2:33 3:1 4:2 5:5 6:1 7:1 
-1 1:1 2:34 3:1 4:1 5:2 6:1 7:1 
-0.9585391136950985 1:1 2:42 3:1 4:1 5:3 6:2 7:1 
-1 1:1 2:30 3:1 4:1 5:6 6:1 7:1 
-1 1:1 2:37 3:2 4:1 5:12 6:1 7:1 
-1 1:1 2:33 3:1 4:4 5:7 6:1 7:1 
-0.4336429620163865 1:1 2:35 3:5 4:1 5:3 6:2 7:1 
-0.172951079672901 1:2 2:34 3:3 4:2 5:1 6:2 7:4 
-0.2131752043280233 1:1 2:42 3:1 4:4 5:8 6:2 7:1 
-1 1:1 2:31 3:2 4:2 5:6 6:1 7:1 
-1 1:1 2:32 3:2 4:1 5:7 6:1 7:1 
-1 1:1 2:34 3:1 4:1 5:2 6:1 7:1 
-1 1:1 2:26 3:1 4:2 5:3 6:1 7:1 
-1 1:1 2:29 3:1 4:1 5:0 6:1 7:1 
-1 1:1 2:32 3:1 4:1 5:1 6:1 7:1 
-1 1:1 2:28 3:1 4:1 5:0 6:1 7:1 
-1 1:1 2:28 3:1 4:2 5:3 6:1 7:1 
-1 1:1 2:29 3:2 4:2 5:6 6:1 7:2 
-1 1:2 2:26 3:2 4:2 5:2 6:1 7:1 
-1 1:1 2:29 3:1 4:1 5:1 6:1 7:1 
-1 1:2 2:27 3:1 4:4 5:1 6:1 7:1 
-1 1:2 2:32 3:2 4:1 5:3 6:1 7:1 
-1 1:1 2:30 3:2 4:2 5:3 6:1 7:4 
-0.6892540251827891 1:1 2:43 3:2 4:1 5:19 6:2 7:3 
-1 1:1 2:26 3:2 4:1 5:2 6:1 7:1 
-1 1:1 2:28 3:1 4:2 5:2 6:1 7:2 
-1 1:1 2:43 3:2 4:1 5:19 6:2 7:3 
-1 1:1 2:30 3:1 4:2 5:5 6:2 7:1 
-1 1:1 2:32 3:2 4:1 5:1 6:1 7:1 
-1 1:1 2:26 3:2 4:1 5:2 6:1 7:1 
-1 1:2 2:28 3:1 4:2 5:2 6:2 7:1 
-1 1:1 2:29 3:1 4:1 5:0 6:1 7:1 
-1 1:1 2:43 3:2 4:1 5:19 6:2 7:3 
-1 1:1 2:26 3:2 4:2 5:3 6:1 7:1 
-1 1:1 2:28 3:1 4:1 5:3 6:1 7:1 
-1 1:1 2:28 3:2 4:1 5:1 6:1 7:1 
-1 1:1 2:30 3:3 4:2 5:1 6:2 7:1 
-1 1:1 2:44 3:2 4:1 5:22 6:2 7:4 
-1 1:1 2:26 3:1 4:2 5:5 6:1 7:1 
-1 1:1 2:27 3:2 4:1 5:2 6:1 7:1 
-1 1:1 2:29 3:2 4:1 5:5 6:1 7:1 
-1 1:2 2:30 3:1 4:2 5:3 6:1 7:1 
-1 1:1 2:26 3:2 4:1 5:2 6:1 7:1 
-1 1:2 2:28 3:2 4:1 5:2 6:1 7:1 
-1 1:1 2:33 3:2 4:1 5:3 6:1 7:1 
-1 1:2 2:42 3:1 4:1 5:6 6:2 7:5 
-1 1:1 2:33 3:1 4:1 5:0 6:1 7:1 
-0.1289297904634076 1:1 2:29 3:1 4:5 5:2 6:2 7:1 
-1 1:1 2:29 3:2 4:1 5:5 6:1 7:1 
-1 1:1 2:26 3:5 4:2 5:2 6:1 7:1 
-0.101219366158119 1:1 2:34 3:3 4:1 5:1 6:1 7:1 
-0.999074598994923 1:2 2:33 3:1 4:5 5:4 6:2 7:1 
-1 1:1 2:38 3:1 4:1 5:3 6:1 7:1 
-1 1:1 2:30 3:1 4:2 5:7 6:1 7:1 
-1 1:1 2:33 3:1 4:2 5:5 6:1 7:1 
-1 1:1 2:24 3:1 4:2 5:1 6:1 7:1 
-1 1:1 2:26 3:2 4:1 5:2 6:1 7:1 
-1 1:1 2:31 3:1 4:2 5:2 6:2 7:2 
-1 1:2 2:28 3:1 4:2 5:2 6:1 7:1 
-1 1:2 2:23 3:1 4:1 5:1 6:1 7:1 
-1 1:1 2:35 3:1 4:2 5:1 6:2 7:1 
-1 1:1 2:30 3:1 4:2 5:7 6:1 7:1 
-1 1:1 2:35 3:1 4:2 5:1 6:2 7:1 
-1 1:1 2:27 3:2 4:1 5:1 6:1 7:1 
-0.9018960465799233 1:1 2:30 3:2 4:2 5:3 6:1 7:1 
-1 1:1 2:32 3:1 4:2 5:8 6:2 7:1 
-1 1:1 2:31 3:1 4:1 5:3 6:1 7:5 
-1 1:1 2:31 3:1 4:2 5:2 6:2 7:2 
-1 1:1 2:29 3:1 4:1 5:2 6:1 7:1 
-1 1:2 2:27 3:1 4:4 5:1 6:1 7:1 
-1 1:1 2:33 3:2 4:1 5:8 6:2 7:1 
-1 1:1 2:25 3:2 4:1 5:1 6:1 7:1 
-1 1:1 2:38 3:1 4:2 5:14 6:2 7:1 
-1 1:1 2:31 3:1 4:1 5:3 6:1 7:1 
-1 1:1 2:26 3:2 4:2 5:3 6:1 7:1 
-1 1:1 2:28 3:2 4:1 5:1 6:1 7:1 
-0.282861524489486 1:1 2:29 3:2 4:1 5:4 6:1 7:5 
-1 1:1 2:28 3:4 4:1 5:1 6:1 7:1 
-0.4054967170664956 1:1 2:30 3:1 4:3 5:1 6:2 7:1 
-1 1:1 2:32 3:1 4:2 5:2 6:2 7:1 
-1 1:1 2:27 3:1 4:1 5:1 6:1 7:1 
-1 1:1 2:27 3:2 4:1 5:3 6:1 7:4 
-1 1:1 2:27 3:2 4:1 5:2 6:1 7:1 
-1 1:1 2:28 3:3 4:4 5:1 6:2 7:1 
-1 1:1 2:24 3:1 4:2 5:1 6:1 7:1 
-1 1:1 2:30 3:2 4:1 5:5 6:1 7:1 
-1 1:2 2:30 3:1 4:1 5:3 6:1 7:1 
-0.9994387412730446 1:1 2:48 3:1 4:1 5:1 6:2 7:1 
-1 1:1 2:43 3:2 4:1 5:19 6:2 7:3 
-0.8447219653194862 1:1 2:38 3:1 4:1 5:3 6:1 7:5 
-0.1074318880148 1:1 2:33 3:1 4:2 5:7 6:1 7:1 
-1 1:1 2:44 3:2 4:1 5:22 6:2 7:4 
-0.9131869500828956 1:1 2:31 3:1 4:1 5:1 6:1 7:1 
-1 1:1 2:30 3:1 4:1 5:2 6:1 7:1 
-1 1:1 2:29 3:1 4:2 5:3 6:1 7:1 
-0.6384346411530735 1:1 2:28 3:4 4:1 5:1 6:1 7:1 
-0.08846441277906184 1:1 2:26 3:2 4:1 5:3 6:1 7:1 
-1 1:1 2:37 3:1 4:1 5:3 6:2 7:1 
-1 1:1 2:28 3:1 4:2 5:3 6:1 7:1 
-1 1:1 2:28 3:4 4:1 5:3 6:1 7:1 
-0.8578357114145949 1:2 2:48 3:3 4:6 5:0 6:2 7:1 
-1 1:1 2:27 3:1 4:5 5:2 6:1 7:1 
-1 1:2 2:29 3:2 4:1 5:3 6:1 7:5 
-1 1:1 2:30 3:1 4:1 5:6 6:1 7:1 
-1 1:1 2:35 3:1 4:2 5:9 6:2 7:1 
-1 1:1 2:28 3:1 4:1 5:1 6:1 7:1 
-1 1:1 2:31 3:1 4:2 5:2 6:1 7:1 
-1 1:1 2:26 3:1 4:1 5:1 6:1 7:1 
-1 1:1 2:27 3:2 4:1 5:2 6:1 7:1 
-1 1:1 2:30 3:4 4:1 5:2 6:1 7:1 
-1 1:1 2:30 3:1 4:2 5:7 6:1 7:1 
-1 1:1 2:35 3:2 4:1 5:5 6:1 7:1 
-0.9890273543085877 1:1 2:29 3:2 4:1 5:4 6:1 7:5 
-1 1:1 2:27 3:1 4:5 5:2 6:1 7:1 
-1 1:1 2:26 3:2 4:1 5:2 6:1 7:1 
-1 1:1 2:30 3:1 4:2 5:6 6:2 7:1 
-1 1:1 2:35 3:1 4:2 5:1 6:2 7:1 
-0.7036384274000174 1:1 2:29 3:2 4:3 5:1 6:1 7:1 
-1 1:1 2:30 3:1 4:2 5:7 6:1 7:1 
-1 1:1 2:27 3:2 4:1 5:1 6:1 7:1 
-0.9993253797864544 1:2 2:47 3:1 4:6 5:1 6:2 7:1 
-1 1:1 2:30 3:2 4:1 5:5 6:1 7:1 
-1 1:1 2:28 3:2 4:1 5:2 6:1 7:1 
-1 1:1 2:33 3:1 4:2 5:7 6:1 7:1 
-1 1:2 2:23 3:1 4:1 5:1 6:1 7:1 
-1 1:2 2:61 3:2 4:1 5:40 6:2 7:4 
-1 1:1 2:28 3:3 4:4 5:1 6:2 7:1 
-1 1:1 2:30 3:1 4:1 5:2 6:1 7:1 
-1 1:1 2:26 3:1 4:2 5:3 6:1 7:1 
-1 1:1 2:31 3:1 4:2 5:2 6:1 7:1 
-1 1:1 2:33 3:2 4:1 5:3 6:1 7:1 
-1 1:1 2:32 3:4 4:1 5:0 6:2 7:1 
-1 1:1 2:28 3:3 4:4 5:1 6:2 7:1 
-1 1:1 2:33 3:1 4:1 5:2 6:2 7:1 
-1 1:1 2:26 3:2 4:2 5:3 6:1 7:1 
-1 1:2 2:23 3:1 4:1 5:1 6:1 7:1 
-1 1:1 2:25 3:2 4:1 5:1 6:1 7:1 
-1 1:1 2:29 3:1 4:1 5:4 6:1 7:1 
-1 1:1 2:28 3:1 4:1 5:0 6:1 7:1 
-1 1:1 2:34 3:1 4:2 5:2 6:1 7:1 
-1 1:1 2:28 3:2 4:1 5:2 6:1 7:1 
-1 1:1 2:33 3:5 4:2 5:2 6:2 7:1 
-1 1:1 2:27 3:1 4:1 5:0 6:1 7:1 
-1 1:1 2:44 3:2 4:1 5:22 6:2 7:4 
-1 1:2 2:25 3:3 4:1 5:1 6:1 7:1 
-1 1:1 2:25 3:2 4:1 5:1 6:1 7:1 
-1 1:2 2:28 3:1 4:2 5:2 6:2 7:1 
-0.9992552569434711 1:2 2:34 3:3 4:2 5:1 6:2 7:4 
-1 1:1 2:26 3:2 4:2 5:3 6:1 7:1 
-1 1:1 2:29 3:2 4:1 5:4 6:1 7:1 
-0.6888956295246913 1:1 2:30 3:1 4:1 5:1 6:1 7:1 
-1 1:1 2:31 3:1 4:2 5:2 6:2 7:2 
-0.8817626105001679 1:1 2:37 3:2 4:1 5:12 6:1 7:1 
-1 1:1 2:29 3:2 4:2 5:6 6:1 7:2 
-1 1:1 2:29 3:4 4:1 5:3 6:1 7:1 
-1 1:1 2:31 3:1 4:1 5:1 6:2 7:1 
-1 1:1 2:25 3:2 4:1 5:1 6:1 7:1 
-0.5338090386905059 1:1 2:30 3:1 4:2 5:0 6:1 7:1 
-1 1:1 2:33 3:1 4:2 5:7 6:1 7:1 
-1 1:1 2:31 3:2 4:1 5:2 6:1 7:1 
-1 1:1 2:25 3:4 4:1 5:1 6:1 7:1 
-1 1:1 2:30 3:1 4:1 5:2 6:1 7:2 
-1 1:1 2:35 3:1 4:2 5:9 6:2 7:1 
-1 1:1 2:32 3:1 4:2 5:8 6:2 7:1 
-1 1:1 2:30 3:1 4:1 5:2 6:1 7:1 
-1 1:1 2:24 3:1 4:2 5:1 6:1 7:1 
-1 1:2 2:32 3:1 4:1 5:6 6:1 7:1 
-1 1:2 2:23 3:1 4:1 5:1 6:1 7:1 
-1 1:1 2:24 3:1 4:4 5:0 6:1 7:1 
-1 1:1 2:24 3:2 4:1 5:1 6:1 7:1 
-0.9798945235865102 1:1 2:42 3:1 4:4 5:8 6:2 7:1 
-0.9559623632599057 1:1 2:47 3:3 4:1 5:13 6:2 7:1 
-0.756681954272477 1:1 2:26 3:2 4:2 5:4 6:1 7:1 
-1 1:1 2:27 3:2 4:1 5:3 6:1 7:4 
-1 1:1 2:30 3:1 4:2 5:5 6:2 7:1 
-1 1:1 2:24 3:1 4:2 5:1 6:1 7:1 
-1 1:1 2:28 3:1 4:2 5:3 6:1 7:1 
-1 1:1 2:28 3:2 4:1 5:2 6:1 7:1 
-1 1:1 2:37 3:3 4:5 5:2 6:2 7:1 
-1 1:1 2:24 3:1 4:2 5:1 6:1 7:1 
-1 1:1 2:27 3:2 4:1 5:3 6:1 7:4 
-1 1:1 2:25 3:2 4:1 5:1 6:1 7:1 
-1 1:1 2:35 3:1 4:2 5:9 6:2 7:1 
-1 1:1 2:29 3:4 4:1 5:3 6:1 7:1 
-1 1:1 2:26 3:2 4:1 5:2 6:1 7:1 
-1 1:1 2:31 3:2 4:1 5:6 6:2 7:1 
-1 1:1 2:27 3:1 4:2 5:3 6:1 7:1 
-1 1:1 2:27 3:2 4:1 5:2 6:1 7:1 
-0.9983501611453082 1:1 2:43 3:2 4:1 5:19 6:2 7:3 
-0.6640898656240485 1:1 2:25 3:2 4:1 5:1 6:1 7:1 
-1 1:2 2:36 3:3 4:2 5:2 6:2 7:1 
-0.7963320853758407 1:1 2:34 3:1 4:1 5:0 6:2 7:1 
-1 1:1 2:27 3:2 4:1 5:1 6:1 7:1 
-0.5384149581947197 1:1 2:27 3:1 4:2 5:3 6:1 7:1 
-0.8996439599455032 1:1 2:35 3:5 4:1 5:3 6:2 7:1 
-1 1:1 2:25 3:4 4:1 5:1 6:1 7:1 
-1 1:1 2:29 3:2 4:1 5:5 6:1 7:1 
-1 1:2 2:26 3:2 4:2 5:1 6:1 7:2 
-1 1:1 2:37 3:2 4:1 5:10 6:2 7:1 
-0.8499160969259448 1:1 2:35 3:1 4:1 5:2 6:2 7:4 
-0.9728084813915439 1:1 2:33 3:1 4:2 5:7 6:1 7:1 
-1 1:1 2:29 3:1 4:1 5:0 6:1 7:1 
-1 1:1 2:27 3:2 4:1 5:1 6:1 7:1 
-1 1:1 2:26 3:1 4:2 5:5 6:1 7:1 
-0.5151505159189861 1:1 2:27 3:2 4:1 5:3 6:1 7:4 
-1 1:2 2:26 3:1 4:1 5:1 6:1 7:1 
-1 1:2 2:27 3:2 4:1 5:4 6:1 7:1 
-1 1:1 2:32 3:1 4:2 5:8 6:2 7:1 
