svm_type c_svc
kernel_type rbf
gamma 0.142857
nr_class 2
total_sv 791
rho -0.122934
label 1 -1
nr_sv 393 398
SV
0.7873512551546514 1:2 2:34 3:3 4:2 5:4 6:2 7:1 
0.7157044834599485 1:1 2:35 3:2 4:1 5:12 6:2 7:4 
1 1:1 2:26 3:1 4:2 5:3 6:1 7:1 
1 1:1 2:30 3:1 4:1 5:2 6:1 7:4 
0.1535505784687695 1:2 2:27 3:1 4:1 5:1 6:1 7:1 
0.4078699383011058 1:1 2:38 3:3 4:2 5:5 6:2 7:3 
1 1:1 2:31 3:1 4:1 5:5 6:1 7:1 
1 1:1 2:25 3:2 4:1 5:1 6:1 7:1 
1 1:1 2:27 3:1 4:2 5:1 6:1 7:1 
1 1:1 2:28 3:2 4:4 5:8 6:1 7:1 
1 1:1 2:29 3:1 4:1 5:2 6:1 7:1 
0.7639072953627283 1:1 2:27 3:3 4:1 5:2 6:1 7:4 
1 1:1 2:24 3:2 4:1 5:1 6:1 7:1 
1 1:1 2:31 3:1 4:1 5:1 6:1 7:1 
1 1:1 2:35 3:1 4:1 5:4 6:2 7:1 
1 1:1 2:36 3:3 4:1 5:2 6:2 7:1 
1 1:1 2:23 3:2 4:1 5:1 6:1 7:1 
1 1:1 2:38 3:3 4:2 5:12 6:2 7:1 
1 1:1 2:28 3:1 4:4 5:1 6:2 7:1 
1 1:1 2:29 3:2 4:2 5:6 6:2 7:1 
0.8737306060295729 1:1 2:25 3:5 4:2 5:2 6:1 7:1 
1 1:1 2:27 3:3 4:1 5:3 6:1 7:1 
1 1:1 2:29 3:3 4:2 5:2 6:1 7:1 
0.974961416502937 1:1 2:33 3:1 4:2 5:5 6:2 7:1 
1 1:1 2:32 3:1 4:2 5:1 6:2 7:1 
0.4151344352364141 1:2 2:26 3:2 4:2 5:4 6:2 7:1 
1 1:1 2:31 3:3 4:1 5:1 6:2 7:1 
1 1:1 2:31 3:1 4:2 5:7 6:1 7:1 
1 1:1 2:24 3:2 4:1 5:1 6:1 7:1 
1 1:1 2:34 3:2 4:2 5:12 6:2 7:1 
1 1:1 2:32 3:1 4:2 5:1 6:1 7:1 
1 1:1 2:25 3:2 4:1 5:1 6:1 7:1 
1 1:1 2:29 3:3 4:2 5:1 6:1 7:1 
1 1:1 2:38 3:3 4:2 5:12 6:2 7:1 
1 1:1 2:38 3:1 4:1 5:3 6:1 7:1 
1 1:1 2:31 3:1 4:2 5:7 6:2 7:1 
1 1:1 2:29 3:1 4:1 5:4 6:1 7:1 
1 1:1 2:30 3:1 4:2 5:2 6:1 7:1 
1 1:1 2:26 3:1 4:4 5:4 6:1 7:1 
1 1:1 2:25 3:1 4:2 5:4 6:1 7:1 
1 1:1 2:37 3:2 4:2 5:16 6:2 7:1 
0.5385300844724568 1:1 2:34 3:3 4:2 5:1 6:2 7:1 
1 1:2 2:31 3:3 4:1 5:2 6:1 7:1 
1 1:1 2:36 3:3 4:1 5:2 6:2 7:1 
1 1:1 2:29 3:4 4:1 5:2 6:1 7:1 
1 1:1 2:26 3:3 4:1 5:2 6:1 7:1 
1 1:1 2:30 3:1 4:2 5:6 6:1 7:1 
1 1:1 2:28 3:2 4:1 5:5 6:1 7:1 
1 1:1 2:32 3:1 4:2 5:1 6:1 7:1 
0.204718455605161 1:1 2:33 3:1 4:2 5:7 6:2 7:4 
1 1:1 2:26 3:3 4:1 5:2 6:1 7:1 
1 1:1 2:42 3:1 4:3 5:1 6:2 7:1 
1 1:1 2:37 3:1 4:2 5:6 6:1 7:1 
0.4146979426776799 1:2 2:37 3:1 4:1 5:2 6:2 7:1 
1 1:1 2:27 3:2 4:2 5:4 6:1 7:1 
1 1:1 2:31 3:1 4:5 5:4 6:2 7:1 
0.6694031930141978 1:1 2:31 3:1 4:4 5:2 6:1 7:1 
0.8182277465424979 1:1 2:43 3:1 4:5 5:19 6:1 7:4 
1 1:1 2:29 3:1 4:1 5:4 6:1 7:1 
1 1:2 2:27 3:1 4:1 5:1 6:1 7:1 
1 1:1 2:23 3:2 4:1 5:1 6:1 7:1 
1 1:1 2:29 3:2 4:1 5:6 6:1 7:1 
0.6058370273976679 1:2 2:44 3:3 4:4 5:4 6:2 7:1 
1 1:2 2:29 3:2 4:1 5:5 6:2 7:1 
1 1:1 2:30 3:1 4:4 5:3 6:1 7:1 
0.1061175316310708 1:1 2:26 3:1 4:1 5:1 6:1 7:1 
0.3523599572518518 1:1 2:30 3:1 4:2 5:4 6:2 7:5 
1 1:2 2:37 3:1 4:1 5:2 6:2 7:1 
0.366350850681416 1:2 2:33 3:3 4:1 5:6 6:1 7:1 
1 1:1 2:33 3:1 4:1 5:7 6:1 7:1 
0.2478774070551843 1:1 2:54 3:1 4:6 5:15 6:2 7:1 
1 1:1 2:29 3:4 4:1 5:2 6:1 7:1 
1 1:1 2:26 3:1 4:2 5:1 6:1 7:1 
1 1:1 2:27 3:3 4:1 5:2 6:1 7:1 
0.2794927398096608 1:1 2:30 3:1 4:1 5:4 6:2 7:1 
1 1:1 2:25 3:1 4:1 5:1 6:1 7:1 
1 1:1 2:31 3:1 4:5 5:7 6:1 7:1 
1 1:1 2:33 3:3 4:1 5:2 6:2 7:1 
1 1:1 2:35 3:1 4:4 5:10 6:2 7:1 
0.8718103240423678 1:1 2:42 3:1 4:2 5:7 6:2 7:1 
0.7583470725311759 1:1 2:26 3:1 4:2 5:3 6:1 7:1 
1 1:1 2:27 3:3 4:1 5:3 6:1 7:1 
1 1:1 2:26 3:2 4:1 5:2 6:1 7:1 
1 1:1 2:30 3:1 4:2 5:6 6:1 7:1 
1 1:1 2:31 3:1 4:1 5:5 6:1 7:1 
1 1:1 2:28 3:2 4:2 5:5 6:1 7:1 
1 1:1 2:37 3:1 4:2 5:2 6:1 7:1 
0.117448127462436 1:1 2:35 3:1 4:2 5:5 6:2 7:1 
1 1:1 2:29 3:4 4:1 5:2 6:1 7:1 
1 1:1 2:27 3:2 4:1 5:3 6:1 7:1 
1 1:1 2:31 3:2 4:1 5:6 6:2 7:4 
0.8547727727348989 1:1 2:28 3:1 4:1 5:2 6:1 7:1 
1 1:1 2:28 3:1 4:1 5:1 6:1 7:1 
1 1:1 2:30 3:1 4:1 5:2 6:1 7:4 
0.1035944126971391 1:2 2:45 3:3 4:6 5:3 6:2 7:1 
1 1:1 2:32 3:1 4:1 5:7 6:1 7:1 
0.4008477673109 1:1 2:27 3:1 4:1 5:1 6:1 7:1 
1 1:1 2:28 3:1 4:4 5:1 6:2 7:1 
1 1:1 2:38 3:2 4:1 5:11 6:1 7:1 
1 1:1 2:31 3:1 4:2 5:3 6:1 7:4 
1 1:1 2:27 3:3 4:2 5:2 6:1 7:1 
1 1:1 2:25 3:3 4:1 5:1 6:1 7:1 
1 1:1 2:28 3:1 4:1 5:1 6:1 7:1 
1 1:2 2:34 3:1 4:2 5:7 6:1 7:1 
0.6970279265666108 1:1 2:54 3:1 4:6 5:22 6:2 7:1 
0.3406529079324954 1:1 2:33 3:3 4:1 5:7 6:2 7:1 
1 1:1 2:30 3:1 4:1 5:4 6:2 7:1 
1 1:1 2:27 3:3 4:1 5:2 6:1 7:4 
1 1:1 2:45 3:1 4:2 5:20 6:2 7:1 
1 1:1 2:41 3:1 4:2 5:2 6:2 7:1 
0.8036523077858069 1:1 2:29 3:1 4:2 5:6 6:1 7:1 
1 1:1 2:34 3:3 4:2 5:1 6:2 7:1 
1 1:1 2:27 3:2 4:1 5:3 6:1 7:1 
0.5740457960925096 1:1 2:32 3:1 4:2 5:8 6:2 7:1 
1 1:1 2:30 3:1 4:1 5:3 6:1 7:1 
1 1:1 2:27 3:3 4:2 5:2 6:1 7:1 
1 1:1 2:32 3:1 4:2 5:1 6:1 7:1 
1 1:2 2:26 3:2 4:1 5:3 6:1 7:1 
1 1:1 2:26 3:1 4:1 5:1 6:1 7:1 
0.2069460783521181 1:1 2:32 3:1 4:1 5:4 6:1 7:2 
1 1:2 2:30 3:1 4:1 5:5 6:2 7:5 
1 1:1 2:28 3:1 4:1 5:2 6:1 7:1 
1 1:1 2:30 3:1 4:1 5:3 6:1 7:1 
0.2524917550125343 1:2 2:30 3:1 4:1 5:2 6:2 7:1 
1 1:1 2:37 3:1 4:2 5:2 6:1 7:1 
1 1:2 2:33 3:3 4:1 5:6 6:1 7:1 
1 1:1 2:25 3:2 4:1 5:1 6:1 7:1 
1 1:1 2:26 3:2 4:1 5:2 6:1 7:1 
0.5573491967840244 1:2 2:27 3:3 4:4 5:2 6:1 7:1 
1 1:1 2:30 3:1 4:1 5:2 6:1 7:4 
1 1:1 2:32 3:1 4:1 5:4 6:1 7:2 
1 1:1 2:30 3:4 4:1 5:1 6:1 7:1 
1 1:1 2:29 3:4 4:1 5:2 6:1 7:1 
1 1:1 2:39 3:1 4:2 5:15 6:2 7:1 
1 1:1 2:30 3:1 4:2 5:2 6:1 7:1 
1 1:1 2:31 3:1 4:5 5:7 6:1 7:1 
0.929072362291857 1:2 2:30 3:1 4:1 5:7 6:1 7:1 
1 1:1 2:37 3:1 4:2 5:2 6:1 7:1 
1 1:1 2:23 3:2 4:1 5:1 6:1 7:1 
1 1:1 2:28 3:1 4:1 5:2 6:1 7:1 
1 1:1 2:27 3:2 4:1 5:3 6:1 7:1 
1 1:2 2:28 3:1 4:2 5:4 6:1 7:1 
0.7728227080942083 1:2 2:26 3:5 4:2 5:6 6:1 7:1 
1 1:1 2:28 3:1 4:1 5:2 6:1 7:1 
0.1884385291322601 1:2 2:30 3:1 4:2 5:4 6:1 7:1 
1 1:1 2:35 3:1 4:1 5:10 6:1 7:1 
0.7414712564351875 1:1 2:44 3:1 4:6 5:15 6:2 7:1 
1 1:2 2:30 3:2 4:2 5:8 6:1 7:1 
1 1:2 2:37 3:1 4:4 5:15 6:2 7:1 
1 1:1 2:26 3:3 4:1 5:2 6:1 7:1 
1 1:2 2:30 3:1 4:1 5:2 6:2 7:1 
1 1:1 2:29 3:1 4:1 5:2 6:1 7:1 
1 1:1 2:26 3:1 4:1 5:1 6:1 7:1 
0.6894139426139835 1:2 2:50 3:3 4:1 5:14 6:2 7:4 
1 1:1 2:32 3:1 4:1 5:6 6:2 7:1 
1 1:1 2:26 3:2 4:1 5:1 6:1 7:1 
1 1:1 2:27 3:1 4:1 5:1 6:1 7:1 
0.6057720490440633 1:1 2:36 3:1 4:1 5:6 6:2 7:1 
1 1:2 2:30 3:1 4:2 5:4 6:1 7:1 
0.1472774074377668 1:2 2:26 3:3 4:5 5:5 6:1 7:1 
1 1:1 2:37 3:1 4:2 5:2 6:1 7:1 
1 1:1 2:28 3:1 4:1 5:1 6:1 7:1 
1 1:1 2:25 3:3 4:1 5:1 6:1 7:1 
0.7710845529091417 1:2 2:27 3:3 4:4 5:2 6:1 7:1 
1 1:1 2:31 3:1 4:4 5:2 6:1 7:1 
0.6646886330320609 1:1 2:34 3:1 4:1 5:6 6:2 7:5 
1 1:1 2:26 3:2 4:1 5:2 6:1 7:1 
1 1:1 2:26 3:2 4:1 5:2 6:1 7:1 
0.8936818104021109 1:1 2:54 3:1 4:5 5:5 6:2 7:1 
1 1:1 2:26 3:2 4:1 5:2 6:1 7:1 
1 1:1 2:31 3:1 4:2 5:7 6:1 7:1 
1 1:1 2:33 3:3 4:1 5:2 6:1 7:1 
0.7938272211967347 1:1 2:46 3:2 4:3 5:24 6:2 7:4 
1 1:1 2:39 3:3 4:1 5:6 6:1 7:1 
1 1:1 2:28 3:1 4:4 5:1 6:2 7:1 
1 1:1 2:28 3:1 4:1 5:2 6:1 7:1 
0.8461300159186809 1:1 2:38 3:1 4:2 5:15 6:2 7:4 
1 1:1 2:43 3:2 4:1 5:19 6:2 7:4 
1 1:1 2:26 3:2 4:1 5:1 6:1 7:1 
1 1:1 2:28 3:1 4:1 5:2 6:1 7:1 
1 1:1 2:45 3:3 4:1 5:2 6:2 7:1 
1 1:2 2:33 3:3 4:1 5:6 6:1 7:1 
1 1:2 2:27 3:3 4:2 5:4 6:1 7:1 
1 1:1 2:28 3:1 4:1 5:1 6:1 7:1 
1 1:1 2:26 3:2 4:1 5:2 6:1 7:1 
1 1:1 2:34 3:1 4:2 5:2 6:1 7:1 
1 1:2 2:44 3:2 4:1 5:24 6:2 7:3 
1 1:1 2:29 3:2 4:1 5:6 6:1 7:1 
0.3578735100144052 1:1 2:26 3:3 4:2 5:2 6:1 7:1 
0.6438529504932845 1:1 2:27 3:1 4:4 5:4 6:2 7:1 
0.413992057950723 1:1 2:34 3:2 4:1 5:11 6:1 7:5 
1 1:1 2:32 3:1 4:1 5:4 6:1 7:2 
1 1:1 2:30 3:4 4:1 5:1 6:1 7:1 
1 1:1 2:45 3:1 4:2 5:20 6:2 7:1 
1 1:1 2:29 3:2 4:1 5:6 6:1 7:1 
0.1461753034073335 1:2 2:39 3:2 4:3 5:17 6:2 7:4 
1 1:1 2:33 3:1 4:1 5:4 6:2 7:1 
0.9411326888601896 1:2 2:27 3:3 4:2 5:2 6:2 7:1 
1 1:2 2:27 3:1 4:1 5:1 6:1 7:1 
0.7778124687538465 1:1 2:56 3:3 4:6 5:21 6:2 7:1 
1 1:2 2:29 3:2 4:1 5:6 6:1 7:1 
0.736359568881095 1:1 2:47 3:2 4:1 5:23 6:2 7:1 
1 1:1 2:28 3:1 4:1 5:1 6:1 7:1 
1 1:1 2:28 3:1 4:1 5:2 6:1 7:1 
1 1:1 2:33 3:1 4:2 5:2 6:2 7:1 
1 1:1 2:29 3:3 4:2 5:1 6:1 7:1 
1 1:1 2:23 3:2 4:1 5:1 6:1 7:1 
1 1:1 2:35 3:1 4:1 5:5 6:1 7:1 
1 1:1 2:26 3:2 4:1 5:2 6:1 7:1 
0.9062649227848936 1:1 2:26 3:2 4:1 5:2 6:1 7:5 
1 1:1 2:29 3:3 4:2 5:2 6:1 7:1 
0.3651190062992882 1:1 2:40 3:2 4:3 5:17 6:2 7:4 
1 1:1 2:25 3:1 4:1 5:1 6:1 7:1 
1 1:1 2:31 3:1 4:4 5:2 6:1 7:1 
1 1:1 2:34 3:3 4:2 5:1 6:2 7:1 
1 1:2 2:26 3:2 4:1 5:3 6:1 7:1 
1 1:1 2:32 3:1 4:1 5:2 6:2 7:1 
1 1:1 2:25 3:3 4:1 5:1 6:1 7:1 
1 1:2 2:49 3:1 4:5 5:3 6:2 7:1 
1 1:1 2:29 3:3 4:2 5:2 6:1 7:1 
1 1:1 2:29 3:1 4:1 5:2 6:1 7:1 
0.7953553088424442 1:2 2:45 3:1 4:6 5:8 6:2 7:1 
1 1:1 2:34 3:5 4:1 5:3 6:2 7:4 
1 1:1 2:30 3:1 4:2 5:1 6:1 7:1 
1 1:1 2:33 3:3 4:1 5:7 6:2 7:1 
1 1:1 2:29 3:4 4:1 5:2 6:1 7:1 
1 1:1 2:23 3:2 4:1 5:1 6:1 7:1 
1 1:1 2:30 3:2 4:1 5:5 6:1 7:1 
1 1:2 2:30 3:1 4:2 5:4 6:1 7:1 
1 1:1 2:32 3:1 4:2 5:8 6:1 7:1 
0.7000681149434613 1:2 2:47 3:1 4:5 5:23 6:2 7:1 
1 1:1 2:30 3:1 4:4 5:3 6:1 7:1 
0.5043081600536585 1:1 2:43 3:3 4:2 5:9 6:2 7:1 
1 1:2 2:27 3:1 4:1 5:1 6:1 7:1 
0.877082980729337 1:1 2:54 3:2 4:1 5:34 6:2 7:4 
0.9947365446872309 1:1 2:34 3:3 4:2 5:1 6:2 7:1 
1 1:1 2:29 3:3 4:2 5:2 6:2 7:5 
1 1:1 2:32 3:1 4:1 5:4 6:1 7:2 
1 1:1 2:41 3:2 4:1 5:15 6:2 7:1 
1 1:1 2:27 3:2 4:1 5:3 6:1 7:1 
1 1:1 2:32 3:1 4:2 5:1 6:1 7:1 
0.08996588540140391 1:2 2:31 3:2 4:1 5:9 6:2 7:3 
1 1:1 2:26 3:2 4:1 5:2 6:1 7:1 
1 1:1 2:29 3:3 4:2 5:2 6:2 7:5 
1 1:1 2:28 3:1 4:5 5:5 6:1 7:1 
1 1:1 2:29 3:1 4:1 5:4 6:1 7:1 
0.3665775370038249 1:2 2:26 3:3 4:2 5:3 6:1 7:1 
1 1:1 2:33 3:1 4:2 5:2 6:2 7:1 
1 1:1 2:29 3:1 4:1 5:4 6:1 7:1 
1 1:2 2:27 3:1 4:1 5:1 6:1 7:1 
1 1:1 2:30 3:1 4:1 5:3 6:1 7:1 
1 1:1 2:29 3:3 4:2 5:1 6:1 7:1 
1 1:1 2:28 3:2 4:1 5:5 6:1 7:1 
1 1:1 2:38 3:3 4:2 5:4 6:2 7:1 
1 1:1 2:30 3:3 4:2 5:1 6:1 7:1 
1 1:1 2:26 3:2 4:1 5:2 6:1 7:1 
1 1:1 2:33 3:1 4:2 5:5 6:2 7:1 
0.8824834504443824 1:2 2:47 3:3 4:1 5:14 6:2 7:4 
1 1:1 2:26 3:1 4:1 5:1 6:1 7:1 
0.2461636547884574 1:2 2:26 3:1 4:1 5:4 6:1 7:1 
1 1:1 2:27 3:3 4:2 5:2 6:1 7:1 
0.3884412635777658 1:1 2:30 3:4 4:1 5:1 6:2 7:1 
1 1:1 2:27 3:1 4:2 5:1 6:1 7:1 
1 1:1 2:28 3:1 4:1 5:2 6:1 7:1 
0.9836631076789345 1:1 2:32 3:1 4:1 5:4 6:1 7:2 
1 1:2 2:35 3:1 4:2 5:12 6:2 7:1 
1 1:1 2:43 3:1 4:1 5:4 6:2 7:5 
0.8637148005514028 1:1 2:34 3:1 4:2 5:7 6:2 7:3 
0.8248789795083056 1:1 2:31 3:1 4:2 5:4 6:1 7:1 
1 1:1 2:25 3:2 4:2 5:4 6:1 7:1 
1 1:1 2:29 3:1 4:1 5:2 6:1 7:1 
1 1:2 2:30 3:1 4:1 5:2 6:2 7:1 
1 1:1 2:37 3:1 4:1 5:6 6:1 7:1 
1 1:1 2:27 3:2 4:1 5:4 6:1 7:1 
0.9953405730938125 1:2 2:27 3:1 4:1 5:1 6:1 7:1 
1 1:1 2:26 3:1 4:1 5:1 6:1 7:1 
1 1:1 2:33 3:1 4:1 5:4 6:2 7:1 
1 1:1 2:29 3:1 4:1 5:2 6:1 7:1 
1 1:2 2:26 3:1 4:2 5:1 6:1 7:1 
1 1:1 2:28 3:1 4:1 5:4 6:1 7:1 
1 1:2 2:23 3:1 4:2 5:2 6:1 7:1 
1 1:2 2:26 3:1 4:1 5:4 6:1 7:1 
1 1:1 2:27 3:2 4:1 5:4 6:1 7:1 
1 1:2 2:27 3:3 4:2 5:2 6:2 7:1 
1 1:1 2:32 3:1 4:2 5:8 6:1 7:1 
1 1:1 2:30 3:3 4:2 5:1 6:1 7:1 
0.6960344728884228 1:1 2:30 3:1 4:4 5:3 6:1 7:1 
0.6522997243319949 1:1 2:37 3:1 4:5 5:6 6:1 7:1 
1 1:1 2:38 3:2 4:1 5:11 6:1 7:1 
1 1:1 2:26 3:3 4:1 5:2 6:1 7:1 
1 1:1 2:28 3:1 4:1 5:1 6:1 7:1 
1 1:1 2:26 3:1 4:1 5:1 6:1 7:1 
1 1:1 2:32 3:1 4:2 5:1 6:2 7:1 
1 1:1 2:26 3:1 4:2 5:1 6:1 7:1 
1 1:1 2:30 3:4 4:1 5:1 6:1 7:1 
1 1:1 2:37 3:3 4:2 5:4 6:2 7:1 
0.1635549864281244 1:1 2:29 3:1 4:1 5:8 6:1 7:1 
1 1:1 2:27 3:3 4:1 5:2 6:1 7:1 
0.9994486937256687 1:2 2:37 3:1 4:1 5:2 6:2 7:1 
1 1:1 2:28 3:1 4:1 5:2 6:1 7:1 
1 1:2 2:31 3:3 4:1 5:4 6:2 7:1 
1 1:1 2:31 3:1 4:1 5:2 6:2 7:1 
1 1:1 2:31 3:2 4:1 5:6 6:2 7:4 
0.351597491248727 1:1 2:29 3:1 4:1 5:5 6:1 7:1 
1 1:2 2:27 3:1 4:1 5:1 6:1 7:1 
1 1:1 2:32 3:1 4:2 5:1 6:1 7:1 
1 1:1 2:32 3:1 4:2 5:8 6:1 7:1 
1 1:1 2:25 3:2 4:1 5:1 6:1 7:1 
1 1:1 2:28 3:1 4:1 5:2 6:1 7:1 
1 1:1 2:29 3:3 4:2 5:2 6:1 7:1 
1 1:1 2:29 3:1 4:1 5:1 6:2 7:1 
0.5217978588451293 1:1 2:27 3:1 4:2 5:5 6:1 7:1 
1 1:1 2:29 3:4 4:1 5:2 6:1 7:1 
0.9637283456771281 1:2 2:45 3:3 4:6 5:3 6:2 7:1 
0.979385735408036 1:2 2:27 3:1 4:1 5:1 6:1 7:1 
1 1:1 2:36 3:3 4:1 5:2 6:2 7:1 
1 1:1 2:25 3:1 4:2 5:4 6:1 7:1 
1 1:1 2:30 3:1 4:1 5:3 6:1 7:1 
1 1:1 2:35 3:1 4:2 5:5 6:2 7:1 
1 1:1 2:26 3:2 4:1 5:1 6:1 7:1 
1 1:1 2:33 3:1 4:2 5:2 6:2 7:1 
1 1:1 2:38 3:1 4:1 5:3 6:1 7:1 
1 1:1 2:32 3:1 4:1 5:2 6:2 7:1 
1 1:1 2:26 3:2 4:1 5:1 6:1 7:1 
1 1:1 2:33 3:1 4:1 5:2 6:1 7:1 
1 1:2 2:38 3:1 4:2 5:7 6:2 7:1 
0.9982566242359441 1:1 2:30 3:1 4:2 5:4 6:2 7:5 
0.7247615369428663 1:1 2:47 3:1 4:6 5:17 6:2 7:1 
1 1:1 2:30 3:1 4:1 5:3 6:1 7:1 
1 1:1 2:31 3:1 4:1 5:1 6:1 7:1 
0.6464793361832888 1:1 2:35 3:1 4:4 5:4 6:2 7:1 
1 1:1 2:27 3:1 4:2 5:4 6:1 7:1 
0.7438751302585653 1:2 2:47 3:1 4:2 5:8 6:2 7:1 
0.8017260139006371 1:1 2:27 3:4 4:2 5:2 6:1 7:1 
1 1:1 2:23 3:2 4:1 5:1 6:1 7:1 
1 1:1 2:26 3:1 4:2 5:1 6:1 7:1 
1 1:1 2:26 3:1 4:2 5:1 6:1 7:1 
1 1:1 2:31 3:1 4:1 5:1 6:1 7:1 
1 1:2 2:29 3:2 4:1 5:6 6:2 7:1 
1 1:1 2:33 3:3 4:1 5:7 6:2 7:1 
1 1:1 2:27 3:3 4:1 5:2 6:1 7:1 
1 1:1 2:25 3:3 4:1 5:1 6:1 7:1 
1 1:1 2:27 3:2 4:1 5:3 6:1 7:1 
1 1:1 2:41 3:1 4:2 5:2 6:2 7:1 
1 1:1 2:37 3:1 4:1 5:6 6:2 7:1 
1 1:2 2:33 3:3 4:1 5:6 6:1 7:1 
1 1:1 2:41 3:1 4:2 5:2 6:2 7:1 
1 1:2 2:30 3:1 4:1 5:2 6:2 7:1 
0.1384684055636675 1:1 2:32 3:3 4:2 5:1 6:2 7:1 
1 1:1 2:31 3:1 4:1 5:5 6:1 7:1 
1 1:1 2:34 3:1 4:2 5:8 6:2 7:1 
1 1:1 2:34 3:1 4:1 5:6 6:2 7:1 
1 1:1 2:37 3:1 4:1 5:6 6:1 7:1 
1 1:1 2:29 3:4 4:1 5:2 6:1 7:1 
0.7083720915732447 1:2 2:46 3:1 4:1 5:9 6:2 7:4 
1 1:1 2:32 3:2 4:1 5:8 6:1 7:1 
0.6813956267099787 1:1 2:34 3:1 4:1 5:9 6:1 7:1 
0.9988754048321182 1:1 2:29 3:1 4:2 5:6 6:1 7:1 
0.9909934756072903 1:1 2:38 3:3 4:2 5:5 6:2 7:3 
1 1:1 2:32 3:1 4:2 5:1 6:1 7:1 
1 1:1 2:39 3:3 4:1 5:6 6:1 7:1 
1 1:1 2:32 3:1 4:2 5:1 6:2 7:1 
1 1:1 2:24 3:3 4:2 5:1 6:1 7:1 
1 1:1 2:27 3:3 4:1 5:2 6:1 7:1 
1 1:1 2:27 3:2 4:2 5:4 6:1 7:1 
0.8150455871297508 1:1 2:27 3:1 4:1 5:1 6:1 7:1 
0.4712946996446844 1:2 2:25 3:1 4:4 5:2 6:1 7:1 
1 1:1 2:29 3:3 4:2 5:2 6:1 7:1 
1 1:1 2:32 3:1 4:2 5:1 6:2 7:1 
1 1:1 2:35 3:2 4:1 5:8 6:1 7:1 
1 1:1 2:37 3:1 4:2 5:8 6:2 7:1 
0.9665542437027799 1:2 2:37 3:1 4:1 5:2 6:2 7:1 
1 1:1 2:29 3:3 4:2 5:2 6:1 7:1 
1 1:1 2:35 3:1 4:2 5:5 6:2 7:1 
1 1:1 2:29 3:3 4:2 5:1 6:1 7:1 
1 1:1 2:27 3:2 4:1 5:4 6:1 7:1 
1 1:1 2:54 3:1 4:6 5:16 6:2 7:1 
1 1:1 2:40 3:1 4:2 5:9 6:2 7:4 
1 1:1 2:32 3:1 4:2 5:8 6:1 7:1 
1 1:1 2:27 3:3 4:1 5:2 6:1 7:4 
1 1:1 2:26 3:2 4:1 5:2 6:1 7:1 
0.7957860635235794 1:1 2:28 3:1 4:1 5:2 6:1 7:1 
0.8771906664524212 1:1 2:27 3:1 4:2 5:1 6:1 7:1 
1 1:2 2:33 3:3 4:1 5:6 6:1 7:1 
0.9984926441833618 1:1 2:29 3:1 4:2 5:6 6:1 7:1 
1 1:1 2:24 3:2 4:1 5:1 6:1 7:1 
1 1:1 2:40 3:1 4:1 5:10 6:2 7:1 
1 1:1 2:27 3:3 4:1 5:2 6:1 7:1 
1 1:1 2:29 3:1 4:1 5:2 6:1 7:1 
1 1:1 2:29 3:2 4:1 5:5 6:1 7:1 
1 1:2 2:30 3:3 4:2 5:3 6:2 7:1 
1 1:2 2:25 3:1 4:4 5:2 6:1 7:1 
1 1:1 2:32 3:1 4:1 5:7 6:1 7:1 
-1 1:1 2:26 3:2 4:2 5:3 6:1 7:1 
-1 1:2 2:31 3:3 4:2 5:5 6:2 7:1 
-1 1:1 2:30 3:2 4:1 5:6 6:1 7:1 
-1 1:1 2:28 3:4 4:1 5:2 6:1 7:1 
-0.7698713786447574 1:1 2:32 3:2 4:1 5:2 6:1 7:4 
-1 1:2 2:31 3:1 4:5 5:3 6:1 7:1 
-1 1:1 2:31 3:1 4:1 5:3 6:1 7:1 
-0.009405077619708855 1:1 2:30 3:2 4:1 5:2 6:1 7:1 
-1 1:1 2:30 3:2 4:1 5:6 6:1 7:1 
-0.9154765184555023 1:1 2:27 3:1 4:1 5:0 6:1 7:1 
-1 1:1 2:32 3:1 4:2 5:2 6:2 7:1 
-1 1:1 2:27 3:1 4:1 5:0 6:1 7:1 
-1 1:1 2:30 3:1 4:1 5:1 6:1 7:1 
-0.0006655318433730134 1:1 2:32 3:1 4:1 5:2 6:1 7:1 
-1 1:1 2:28 3:4 4:1 5:1 6:1 7:1 
-1 1:1 2:26 3:2 4:1 5:2 6:1 7:1 
-1 1:1 2:35 3:5 4:1 5:3 6:2 7:1 
-0.2710948804937733 1:1 2:39 3:1 4:1 5:1 6:2 7:4 
-1 1:1 2:35 3:1 4:2 5:9 6:2 7:1 
-0.0007576110609396289 1:2 2:37 3:1 4:2 5:10 6:2 7:1 
-1 1:1 2:29 3:4 4:1 5:2 6:1 7:1 
-1 1:1 2:33 3:2 4:1 5:7 6:1 7:1 
-1 1:2 2:25 3:2 4:1 5:2 6:1 7:1 
-1 1:1 2:25 3:2 4:1 5:1 6:1 7:1 
-1 1:2 2:25 3:3 4:2 5:1 6:1 7:1 
-0.1713024731706289 1:2 2:45 3:2 4:1 5:21 6:2 7:3 
-0.9789615478563365 1:1 2:31 3:2 4:1 5:6 6:2 7:1 
-1 1:2 2:27 3:1 4:2 5:1 6:1 7:1 
-0.3681190098564147 1:1 2:39 3:1 4:1 5:5 6:1 7:1 
-0.2311800342928012 1:1 2:29 3:2 4:1 5:4 6:1 7:1 
-0.6841087220980614 1:1 2:30 3:2 4:1 5:5 6:1 7:4 
-1 1:1 2:26 3:2 4:1 5:2 6:1 7:1 
-1 1:1 2:37 3:1 4:1 5:3 6:1 7:1 
-0.1783518711830159 1:1 2:29 3:2 4:1 5:2 6:1 7:1 
-1 1:1 2:28 3:4 4:1 5:1 6:1 7:1 
-1 1:2 2:26 3:1 4:1 5:1 6:1 7:1 
-1 1:1 2:35 3:1 4:1 5:2 6:2 7:1 
-0.2978614486409452 1:1 2:41 3:1 4:1 5:1 6:2 7:1 
-1 1:1 2:25 3:2 4:1 5:1 6:1 7:1 
-0.4403619121806958 1:2 2:37 3:3 4:1 5:4 6:2 7:1 
-1 1:1 2:29 3:4 4:1 5:1 6:1 7:1 
-1 1:1 2:28 3:2 4:1 5:2 6:1 7:1 
-1 1:1 2:52 3:1 4:6 5:0 6:2 7:1 
-1 1:1 2:34 3:1 4:4 5:1 6:2 7:1 
-1 1:1 2:37 3:1 4:1 5:3 6:2 7:1 
-0.9490738373456054 1:1 2:32 3:1 4:1 5:2 6:1 7:1 
-1 1:2 2:27 3:2 4:1 5:4 6:1 7:1 
-0.3911042717910906 1:1 2:44 3:2 4:1 5:22 6:2 7:4 
-1 1:1 2:31 3:1 4:4 5:1 6:2 7:1 
-1 1:1 2:30 3:1 4:3 5:3 6:1 7:1 
-1 1:1 2:29 3:4 4:1 5:1 6:1 7:1 
-1 1:1 2:26 3:2 4:1 5:3 6:1 7:1 
-1 1:2 2:25 3:5 4:4 5:3 6:1 7:1 
-1 1:1 2:29 3:2 4:1 5:4 6:1 7:1 
-1 1:1 2:31 3:1 4:1 5:3 6:1 7:1 
-1 1:1 2:35 3:2 4:1 5:5 6:1 7:1 
-1 1:1 2:26 3:4 4:1 5:2 6:1 7:1 
-1 1:1 2:32 3:1 4:2 5:8 6:2 7:1 
-1 1:1 2:28 3:1 4:2 5:3 6:1 7:1 
-0.3937982197894346 1:1 2:31 3:2 4:2 5:5 6:1 7:1 
-1 1:1 2:26 3:2 4:1 5:1 6:1 7:1 
-0.03450599381925513 1:2 2:32 3:5 4:4 5:2 6:2 7:1 
-1 1:1 2:29 3:2 4:1 5:5 6:1 7:1 
-0.7580408763640383 1:1 2:38 3:2 4:1 5:9 6:2 7:1 
-0.8019779998960537 1:1 2:37 3:3 4:3 5:1 6:1 7:1 
-1 1:1 2:26 3:2 4:1 5:1 6:1 7:1 
-1 1:2 2:34 3:3 4:2 5:1 6:2 7:4 
-1 1:1 2:25 3:2 4:1 5:1 6:1 7:1 
-1 1:1 2:33 3:2 4:1 5:4 6:1 7:1 
-1 1:1 2:34 3:2 4:1 5:6 6:1 7:1 
-1 1:1 2:27 3:1 4:2 5:3 6:1 7:1 
-1 1:1 2:29 3:1 4:2 5:3 6:1 7:1 
-1 1:1 2:33 3:1 4:1 5:2 6:2 7:1 
-0.0005943324408924833 1:1 2:29 3:2 4:1 5:1 6:1 7:4 
-1 1:1 2:28 3:4 4:1 5:3 6:1 7:1 
-1 1:1 2:31 3:3 4:3 5:1 6:1 7:1 
-1 1:1 2:27 3:1 4:1 5:1 6:1 7:1 
-1 1:1 2:32 3:1 4:2 5:2 6:1 7:1 
-0.9963023315156037 1:1 2:39 3:1 4:1 5:1 6:2 7:4 
-1 1:1 2:30 3:1 4:1 5:1 6:1 7:1 
-0.1088898874366882 1:1 2:31 3:1 4:1 5:1 6:1 7:1 
-1 1:1 2:30 3:2 4:2 5:3 6:1 7:1 
-1 1:1 2:59 3:1 4:5 5:3 6:2 7:1 
-1 1:1 2:32 3:1 4:1 5:7 6:1 7:4 
-1 1:1 2:35 3:1 4:1 5:12 6:1 7:1 
-1 1:2 2:27 3:2 4:1 5:4 6:1 7:1 
-1 1:1 2:31 3:1 4:1 5:5 6:1 7:5 
-0.04528821244432575 1:1 2:33 3:1 4:1 5:1 6:1 7:5 
-1 1:1 2:26 3:2 4:1 5:1 6:1 7:1 
-0.9354653567484867 1:1 2:30 3:2 4:1 5:5 6:1 7:4 
-0.6615750094103104 1:1 2:38 3:1 4:2 5:14 6:2 7:1 
-1 1:1 2:30 3:1 4:2 5:7 6:1 7:1 
-1 1:1 2:27 3:1 4:5 5:2 6:1 7:1 
-1 1:1 2:28 3:2 4:1 5:2 6:1 7:5 
-1 1:2 2:28 3:2 4:1 5:2 6:1 7:1 
-1 1:1 2:28 3:1 4:2 5:6 6:2 7:1 
-1 1:1 2:33 3:1 4:2 5:7 6:1 7:1 
-0.5224065245608697 1:2 2:30 3:1 4:5 5:4 6:1 7:1 
-1 1:1 2:34 3:1 4:2 5:1 6:2 7:1 
-1 1:1 2:33 3:2 4:2 5:6 6:1 7:2 
-0.000842157068175629 1:1 2:31 3:2 4:1 5:6 6:1 7:1 
-0.8748572502072985 1:1 2:30 3:1 4:2 5:0 6:1 7:1 
-1 1:1 2:28 3:1 4:1 5:1 6:1 7:1 
-1 1:1 2:28 3:2 4:1 5:2 6:1 7:5 
-1 1:1 2:33 3:1 4:1 5:2 6:2 7:1 
-0.05812358789107301 1:1 2:35 3:1 4:1 5:1 6:2 7:1 
-1 1:1 2:37 3:1 4:1 5:3 6:2 7:1 
-0.4637300262184832 1:1 2:32 3:2 4:1 5:3 6:1 7:1 
-1 1:1 2:25 3:2 4:1 5:1 6:1 7:1 
-1 1:1 2:47 3:1 4:3 5:4 6:2 7:1 
-1 1:1 2:27 3:1 4:2 5:3 6:1 7:1 
-1 1:1 2:28 3:4 4:1 5:2 6:1 7:1 
-1 1:1 2:26 3:2 4:1 5:1 6:1 7:1 
-1 1:1 2:32 3:1 4:1 5:2 6:1 7:1 
-1 1:1 2:31 3:2 4:1 5:6 6:2 7:1 
-1 1:1 2:30 3:1 4:1 5:3 6:1 7:1 
-1 1:2 2:25 3:2 4:1 5:2 6:1 7:1 
-1 1:1 2:36 3:1 4:1 5:3 6:1 7:1 
-1 1:1 2:26 3:2 4:1 5:2 6:1 7:1 
-1 1:2 2:30 3:1 4:5 5:4 6:1 7:1 
-1 1:1 2:29 3:4 4:1 5:2 6:1 7:1 
-1 1:2 2:28 3:5 4:2 5:3 6:2 7:1 
-1 1:1 2:31 3:3 4:2 5:1 6:1 7:1 
-1 1:2 2:30 3:1 4:1 5:3 6:1 7:1 
-0.5328363449384922 1:2 2:37 3:1 4:2 5:10 6:2 7:1 
-1 1:1 2:30 3:1 4:1 5:1 6:1 7:1 
-1 1:1 2:27 3:2 4:2 5:2 6:1 7:1 
-1 1:1 2:28 3:4 4:1 5:3 6:1 7:1 
-1 1:1 2:34 3:1 4:1 5:4 6:1 7:1 
-1 1:1 2:26 3:1 4:2 5:3 6:1 7:1 
-1 1:1 2:28 3:1 4:1 5:3 6:1 7:1 
-1 1:1 2:33 3:1 4:2 5:7 6:1 7:1 
-1 1:1 2:27 3:2 4:2 5:4 6:1 7:1 
-0.001629119028336558 1:1 2:30 3:1 4:1 5:0 6:2 7:1 
-1 1:1 2:29 3:3 4:1 5:2 6:1 7:1 
-0.2688128368745855 1:2 2:33 3:2 4:3 5:1 6:1 7:1 
-1 1:1 2:25 3:2 4:1 5:1 6:1 7:1 
-1 1:1 2:30 3:1 4:5 5:7 6:1 7:1 
-1 1:1 2:30 3:2 4:2 5:3 6:1 7:1 
-1 1:1 2:30 3:1 4:1 5:1 6:1 7:1 
-1 1:1 2:48 3:1 4:1 5:1 6:2 7:1 
-1 1:1 2:27 3:2 4:2 5:3 6:1 7:1 
-1 1:1 2:30 3:1 4:2 5:7 6:1 7:1 
-1 1:1 2:33 3:1 4:1 5:3 6:2 7:2 
-0.602289630854846 1:1 2:44 3:3 4:1 5:3 6:2 7:4 
-1 1:1 2:24 3:4 4:1 5:1 6:1 7:1 
-1 1:1 2:26 3:2 4:1 5:2 6:1 7:1 
-0.9795634409239296 1:2 2:37 3:3 4:1 5:10 6:2 7:1 
-1 1:1 2:33 3:2 4:1 5:7 6:1 7:1 
-1 1:1 2:34 3:3 4:1 5:1 6:1 7:1 
-1 1:1 2:26 3:2 4:1 5:3 6:1 7:1 
-1 1:1 2:30 3:1 4:1 5:3 6:1 7:1 
-0.3120759696387084 1:2 2:30 3:3 4:2 5:6 6:2 7:1 
-1 1:1 2:33 3:1 4:2 5:1 6:1 7:1 
-1 1:1 2:28 3:4 4:1 5:3 6:1 7:1 
-1 1:1 2:29 3:2 4:1 5:4 6:1 7:1 
-1 1:2 2:32 3:5 4:4 5:2 6:2 7:1 
-1 1:1 2:33 3:1 4:2 5:7 6:1 7:1 
-1 1:1 2:30 3:1 4:1 5:2 6:1 7:1 
-1 1:1 2:32 3:1 4:1 5:2 6:2 7:1 
-1 1:1 2:27 3:1 4:1 5:0 6:1 7:1 
-1 1:2 2:37 3:3 4:1 5:4 6:2 7:1 
-0.778689122364328 1:1 2:26 3:1 4:1 5:0 6:1 7:1 
-0.2068151881738904 1:1 2:30 3:2 4:1 5:2 6:1 7:1 
-1 1:1 2:34 3:1 4:2 5:1 6:2 7:1 
-1 1:2 2:30 3:2 4:1 5:6 6:1 7:1 
-1 1:1 2:27 3:2 4:1 5:2 6:1 7:1 
-1 1:1 2:33 3:2 4:1 5:7 6:1 7:1 
-1 1:2 2:37 3:1 4:2 5:5 6:2 7:1 
-1 1:1 2:30 3:2 4:1 5:2 6:1 7:1 
-1 1:1 2:36 3:1 4:1 5:1 6:2 7:1 
-0.9623255895486427 1:1 2:43 3:1 4:1 5:2 6:2 7:1 
-1 1:1 2:38 3:1 4:1 5:6 6:2 7:1 
-1 1:1 2:27 3:4 4:1 5:1 6:1 7:1 
-1 1:2 2:31 3:1 4:5 5:3 6:1 7:1 
-1 1:2 2:30 3:2 4:1 5:6 6:1 7:1 
-1 1:1 2:35 3:1 4:1 5:12 6:1 7:1 
-0.1863880430281342 1:1 2:32 3:1 4:1 5:0 6:1 7:1 
-1 1:1 2:25 3:2 4:1 5:1 6:1 7:1 
-1 1:1 2:28 3:2 4:1 5:2 6:1 7:1 
-1 1:1 2:32 3:2 4:2 5:8 6:1 7:1 
-1 1:1 2:27 3:2 4:1 5:2 6:1 7:1 
-1 1:1 2:25 3:2 4:1 5:1 6:1 7:1 
-0.8125607566502516 1:1 2:27 3:1 4:1 5:0 6:1 7:1 
-1 1:1 2:30 3:1 4:1 5:1 6:1 7:1 
-1 1:1 2:24 3:1 4:2 5:1 6:1 7:1 
-1 1:1 2:27 3:1 4:2 5:3 6:1 7:1 
-1 1:1 2:28 3:2 4:1 5:3 6:1 7:1 
-1 1:1 2:25 3:2 4:1 5:1 6:1 7:1 
-1 1:1 2:26 3:1 4:2 5:3 6:1 7:1 
-1 1:1 2:24 3:1 4:2 5:1 6:1 7:1 
-0.287487711967001 1:1 2:29 3:1 4:1 5:0 6:1 7:4 
-1 1:1 2:29 3:1 4:1 5:2 6:1 7:1 
-1 1:1 2:31 3:3 4:2 5:1 6:1 7:1 
-1 1:1 2:27 3:2 4:1 5:2 6:1 7:1 
-1 1:2 2:29 3:1 4:1 5:1 6:2 7:1 
-1 1:1 2:35 3:4 4:1 5:1 6:1 7:1 
-0.003374238956835343 1:2 2:23 3:1 4:1 5:1 6:1 7:1 
-1 1:1 2:41 3:1 4:4 5:1 6:2 7:1 
-1 1:1 2:27 3:2 4:1 5:2 6:1 7:1 
-1 1:1 2:30 3:1 4:2 5:7 6:1 7:1 
-1 1:1 2:62 3:3 4:2 5:7 6:2 7:1 
-1 1:1 2:36 3:1 4:1 5:3 6:1 7:1 
-1 1:1 2:26 3:2 4:2 5:3 6:1 7:1 
-1 1:2 2:24 3:1 4:4 5:0 6:1 7:1 
-0.7152082660563059 1:1 2:22 3:1 4:1 5:1 6:1 7:1 
-1 1:1 2:28 3:2 4:1 5:2 6:1 7:1 
-1 1:1 2:30 3:1 4:2 5:5 6:2 7:1 
-1 1:1 2:25 3:2 4:1 5:1 6:1 7:1 
-1 1:2 2:27 3:2 4:1 5:4 6:1 7:1 
-0.945611496233854 1:1 2:37 3:3 4:3 5:1 6:1 7:1 
-0.8071089368565613 1:1 2:38 3:2 4:3 5:3 6:1 7:1 
-0.1011479386372979 1:1 2:34 3:1 4:2 5:6 6:1 7:1 
-1 1:1 2:25 3:2 4:1 5:1 6:1 7:1 
-1 1:1 2:30 3:2 4:1 5:6 6:1 7:1 
-1 1:1 2:31 3:1 4:2 5:2 6:1 7:1 
-1 1:1 2:32 3:1 4:1 5:2 6:2 7:1 
-1 1:2 2:51 3:3 4:2 5:22 6:2 7:1 
-1 1:2 2:43 3:3 4:2 5:0 6:2 7:1 
-1 1:1 2:29 3:1 4:2 5:3 6:1 7:4 
-0.828697526829371 1:1 2:44 3:2 4:1 5:22 6:2 7:4 
-1 1:1 2:32 3:1 4:1 5:2 6:1 7:1 
-1 1:1 2:28 3:3 4:4 5:1 6:2 7:1 
-1 1:2 2:33 3:2 4:3 5:1 6:1 7:1 
-1 1:1 2:27 3:2 4:1 5:4 6:1 7:1 
-1 1:1 2:30 3:1 4:2 5:6 6:2 7:1 
-1 1:1 2:38 3:1 4:2 5:14 6:2 7:1 
-1 1:1 2:31 3:4 4:1 5:0 6:1 7:1 
-1 1:1 2:26 3:2 4:1 5:2 6:1 7:1 
-1 1:2 2:40 3:3 4:2 5:13 6:2 7:1 
-1 1:1 2:22 3:1 4:1 5:1 6:1 7:1 
-0.920286406114921 1:1 2:34 3:1 4:1 5:3 6:1 7:5 
-1 1:1 2:30 3:1 4:2 5:7 6:1 7:1 
-0.2203627220044399 1:1 2:25 3:1 4:2 5:0 6:1 7:1 
-0.5798939698341178 1:2 2:29 3:6 4:1 5:5 6:1 7:1 
-1 1:1 2:28 3:1 4:2 5:6 6:2 7:1 
-1 1:1 2:34 3:2 4:1 5:5 6:1 7:1 
-1 1:1 2:25 3:2 4:1 5:1 6:1 7:1 
-0.9008963352194802 1:2 2:37 3:1 4:2 5:10 6:2 7:1 
-0.9991720152461773 1:1 2:38 3:1 4:2 5:14 6:2 7:1 
-1 1:1 2:29 3:1 4:2 5:3 6:1 7:1 
-1 1:1 2:26 3:2 4:2 5:3 6:1 7:1 
-1 1:1 2:26 3:2 4:2 5:4 6:1 7:1 
-1 1:1 2:31 3:2 4:1 5:6 6:2 7:1 
-1 1:1 2:32 3:1 4:1 5:0 6:1 7:1 
-1 1:1 2:30 3:1 4:5 5:7 6:1 7:1 
-1 1:1 2:26 3:1 4:2 5:5 6:1 7:1 
-1 1:1 2:28 3:1 4:1 5:3 6:1 7:1 
-1 1:1 2:24 3:2 4:1 5:1 6:1 7:1 
-1 1:1 2:32 3:1 4:1 5:2 6:2 7:1 
-1 1:1 2:27 3:2 4:2 5:2 6:1 7:1 
-1 1:1 2:28 3:2 4:1 5:2 6:1 7:1 
-1 1:1 2:28 3:1 4:2 5:1 6:1 7:1 
-1 1:2 2:28 3:1 4:1 5:2 6:1 7:1 
-1 1:2 2:30 3:1 4:1 5:3 6:1 7:1 
-0.3652886875825517 1:2 2:26 3:1 4:1 5:0 6:1 7:1 
-0.335031652058897 1:2 2:28 3:4 4:1 5:3 6:1 7:1 
-1 1:1 2:29 3:2 4:1 5:5 6:1 7:1 
-1 1:1 2:31 3:1 4:4 5:1 6:2 7:1 
-1 1:1 2:30 3:2 4:1 5:6 6:1 7:4 
-1 1:1 2:33 3:1 4:2 5:5 6:1 7:1 
-1 1:1 2:25 3:4 4:1 5:1 6:1 7:1 
-1 1:1 2:28 3:1 4:1 5:1 6:1 7:1 
-1 1:1 2:29 3:1 4:1 5:2 6:1 7:1 
-1 1:1 2:31 3:1 4:1 5:3 6:1 7:5 
-1 1:2 2:37 3:3 4:1 5:4 6:2 7:1 
-0.9746483045478864 1:2 2:26 3:1 4:1 5:0 6:1 7:1 
-1 1:2 2:25 3:3 4:2 5:1 6:1 7:1 
-1 1:1 2:28 3:2 4:1 5:2 6:1 7:1 
-1 1:1 2:29 3:1 4:1 5:4 6:1 7:1 
-1 1:1 2:27 3:2 4:2 5:1 6:1 7:1 
-1 1:1 2:27 3:2 4:1 5:1 6:1 7:1 
-1 1:2 2:27 3:2 4:1 5:1 6:1 7:1 
-1 1:1 2:33 3:1 4:2 5:1 6:1 7:1 
-1 1:1 2:26 3:2 4:2 5:3 6:1 7:1 
-1 1:2 2:23 3:1 4:1 5:1 6:1 7:1 
-1 1:1 2:41 3:1 4:1 5:1 6:2 7:1 
-1 1:1 2:36 3:2 4:2 5:6 6:2 7:1 
-1 1:1 2:28 3:2 4:1 5:2 6:1 7:1 
-1 1:1 2:40 3:2 4:3 5:8 6:2 7:4 
-1 1:1 2:34 3:1 4:2 5:6 6:1 7:1 
-1 1:1 2:28 3:1 4:2 5:3 6:1 7:1 
-1 1:1 2:28 3:2 4:1 5:2 6:1 7:1 
-1 1:1 2:38 3:2 4:3 5:3 6:1 7:1 
-1 1:1 2:30 3:1 4:5 5:7 6:1 7:1 
-1 1:1 2:27 3:2 4:1 5:2 6:1 7:1 
-1 1:2 2:32 3:2 4:1 5:3 6:1 7:1 
-0.3898775934008538 1:1 2:30 3:1 4:1 5:0 6:2 7:1 
-1 1:1 2:28 3:3 4:4 5:1 6:2 7:1 
-1 1:1 2:28 3:1 4:1 5:1 6:1 7:1 
-1 1:1 2:29 3:2 4:1 5:5 6:1 7:1 
-1 1:1 2:28 3:1 4:1 5:1 6:1 7:1 
-1 1:1 2:43 3:2 4:1 5:19 6:2 7:3 
-0.5347628857750967 1:2 2:29 3:2 4:1 5:2 6:1 7:1 
-1 1:1 2:26 3:1 4:1 5:0 6:1 7:1 
-1 1:2 2:28 3:4 4:1 5:3 6:1 7:1 
-0.6939634572238167 1:1 2:30 3:1 4:2 5:0 6:1 7:1 
-1 1:1 2:30 3:1 4:2 5:5 6:2 7:1 
-1 1:1 2:26 3:2 4:2 5:4 6:1 7:1 
-1 1:2 2:29 3:2 4:1 5:2 6:1 7:1 
-1 1:2 2:53 3:3 4:6 5:17 6:2 7:1 
-1 1:1 2:27 3:2 4:1 5:2 6:1 7:1 
-1 1:1 2:26 3:2 4:1 5:1 6:1 7:1 
-1 1:1 2:30 3:1 4:2 5:6 6:2 7:1 
-1 1:1 2:33 3:1 4:2 5:7 6:1 7:1 
-1 1:1 2:25 3:2 4:1 5:1 6:1 7:1 
-1 1:1 2:38 3:1 4:1 5:8 6:2 7:1 
-1 1:1 2:38 3:1 4:1 5:8 6:2 7:1 
-1 1:1 2:33 3:1 4:2 5:7 6:1 7:1 
-1 1:1 2:30 3:2 4:1 5:2 6:1 7:4 
-1 1:1 2:34 3:1 4:2 5:9 6:1 7:1 
-1 1:1 2:37 3:2 4:1 5:12 6:1 7:1 
-1 1:1 2:29 3:1 4:1 5:4 6:1 7:1 
-1 1:1 2:31 3:4 4:1 5:2 6:1 7:1 
-1 1:1 2:40 3:2 4:3 5:8 6:2 7:4 
-0.9913330593736923 1:2 2:23 3:1 4:1 5:1 6:1 7:1 
-1 1:1 2:29 3:1 4:3 5:0 6:1 7:1 
-0.9236695197877904 1:2 2:30 3:1 4:5 5:4 6:1 7:1 
-1 1:1 2:31 3:1 4:2 5:2 6:1 7:1 
-0.8265726850423104 1:2 2:20 3:1 4:4 5:1 6:1 7:1 
-1 1:1 2:31 3:3 4:3 5:1 6:1 7:1 
-1 1:1 2:30 3:1 4:2 5:7 6:1 7:1 
-0.9593106072111178 1:1 2:32 3:2 4:1 5:3 6:1 7:1 
-0.9970275740093212 1:2 2:33 3:2 4:3 5:1 6:1 7:1 
-1 1:2 2:61 3:2 4:1 5:40 6:2 7:4 
-1 1:1 2:22 3:1 4:1 5:1 6:1 7:1 
-0.9617283645212584 1:1 2:38 3:2 4:3 5:3 6:1 7:1 
-1 1:1 2:33 3:2 4:1 5:6 6:2 7:1 
-1 1:1 2:27 3:4 4:1 5:1 6:1 7:1 
-1 1:2 2:27 3:1 4:2 5:1 6:1 7:1 
-1 1:1 2:29 3:1 4:1 5:4 6:1 7:1 
-1 1:1 2:34 3:1 4:2 5:6 6:1 7:1 
-1 1:1 2:30 3:4 4:1 5:2 6:2 7:1 
-1 1:1 2:30 3:1 4:1 5:1 6:1 7:1 
-1 1:1 2:26 3:2 4:2 5:3 6:1 7:1 
-0.9424979841624281 1:1 2:46 3:1 4:5 5:0 6:2 7:1 
-1 1:1 2:38 3:3 4:1 5:13 6:2 7:1 
-1 1:1 2:26 3:2 4:1 5:3 6:1 7:1 
-1 1:1 2:28 3:2 4:1 5:2 6:1 7:1 
-1 1:1 2:47 3:3 4:1 5:13 6:2 7:1 
-1 1:1 2:28 3:2 4:1 5:2 6:1 7:1 
-1 1:1 2:31 3:2 4:1 5:6 6:2 7:1 
-0.6358366572647481 1:1 2:38 3:3 4:1 5:13 6:2 7:1 
-1 1:1 2:26 3:2 4:1 5:1 6:1 7:1 
-1 1:1 2:28 3:2 4:1 5:3 6:1 7:1 
-1 1:1 2:36 3:1 4:3 5:1 6:2 7:1 
-1 1:2 2:56 3:3 4:2 5:20 6:2 7:1 
-1 1:1 2:34 3:1 4:2 5:6 6:1 7:1 
-1 1:2 2:27 3:2 4:1 5:4 6:1 7:1 
-1 1:1 2:26 3:2 4:1 5:2 6:1 7:1 
-1 1:1 2:30 3:1 4:1 5:3 6:1 7:1 
-1 1:1 2:30 3:3 4:5 5:2 6:1 7:1 
-0.05076064157780801 1:2 2:35 3:1 4:1 5:3 6:1 7:1 
-0.7962287855153063 1:1 2:29 3:2 4:1 5:1 6:1 7:4 
-0.4191706598345997 1:1 2:47 3:1 4:6 5:3 6:2 7:2 
-1 1:1 2:27 3:1 4:5 5:2 6:1 7:1 
-1 1:1 2:33 3:1 4:2 5:7 6:1 7:1 
-1 1:1 2:29 3:1 4:1 5:1 6:1 7:1 
-1 1:1 2:44 3:2 4:1 5:19 6:2 7:1 
-1 1:1 2:38 3:1 4:1 5:5 6:2 7:1 
-0.4432081202859924 1:1 2:29 3:2 4:1 5:2 6:1 7:4 
-1 1:1 2:28 3:2 4:1 5:2 6:1 7:1 
-0.1930608010238838 1:2 2:38 3:3 4:4 5:0 6:2 7:1 
-1 1:1 2:29 3:3 4:1 5:2 6:1 7:1 
-0.4962109879753678 1:1 2:31 3:2 4:1 5:6 6:1 7:1 
-1 1:1 2:31 3:1 4:1 5:1 6:2 7:1 
-1 1:1 2:40 3:1 4:1 5:2 6:1 7:1 
-1 1:1 2:34 3:1 4:1 5:3 6:2 7:1 
-1 1:1 2:29 3:1 4:1 5:4 6:1 7:1 
-1 1:1 2:30 3:2 4:1 5:2 6:1 7:4 
-1 1:2 2:27 3:1 4:2 5:1 6:1 7:1 
-1 1:1 2:26 3:1 4:1 5:0 6:1 7:1 
-1 1:2 2:30 3:2 4:1 5:6 6:1 7:1 
-0.974023307051502 1:1 2:22 3:1 4:1 5:1 6:1 7:1 
-0.3525171033090773 1:1 2:41 3:1 4:1 5:2 6:2 7:1 
-1 1:1 2:41 3:1 4:4 5:1 6:2 7:1 
-0.9793901916982224 1:1 2:47 3:1 4:6 5:3 6:2 7:2 
-1 1:1 2:28 3:1 4:2 5:1 6:1 7:1 
-0.9812959723098842 1:1 2:38 3:1 4:1 5:4 6:1 7:1 
-0.3459048170194302 1:1 2:30 3:2 4:1 5:5 6:1 7:1 
-1 1:1 2:27 3:2 4:1 5:3 6:1 7:4 
-0.6078923438752399 1:1 2:42 3:1 4:1 5:3 6:2 7:1 
-1 1:1 2:37 3:2 4:1 5:8 6:2 7:1 
-0.5062163921748533 1:1 2:41 3:1 4:1 5:4 6:2 7:1 
-0.1235631887765555 1:1 2:37 3:2 4:1 5:12 6:1 7:1 
-1 1:1 2:26 3:1 4:2 5:5 6:1 7:1 
-1 1:1 2:27 3:1 4:2 5:0 6:1 7:1 
-0.9206911334097007 1:1 2:44 3:3 4:1 5:3 6:2 7:4 
-0.9920383154222431 1:1 2:39 3:1 4:1 5:5 6:1 7:1 
-0.9984120591330878 1:2 2:45 3:2 4:1 5:21 6:2 7:3 
-1 1:1 2:33 3:1 4:1 5:2 6:2 7:1 
-1 1:1 2:25 3:2 4:1 5:1 6:1 7:1 
-1 1:2 2:30 3:3 4:1 5:0 6:2 7:1 
-1 1:1 2:26 3:2 4:1 5:3 6:1 7:1 
-1 1:1 2:28 3:3 4:4 5:1 6:2 7:1 
-0.5555308039337475 1:1 2:43 3:2 4:1 5:19 6:2 7:1 
-0.991961528792653 1:2 2:37 3:3 4:1 5:4 6:2 7:1 
-0.238313892808865 1:1 2:28 3:2 4:1 5:4 6:1 7:4 
