svm_type c_svc
kernel_type rbf
gamma 0.142857
nr_class 2
total_sv 629
rho -0.074951
label 1 -1
nr_sv 311 318
SV
1 1:1 2:27 3:2 4:1 5:3 6:1 7:1 
1 1:1 2:45 3:2 4:1 5:23 6:1 7:4 
1 1:1 2:25 3:2 4:1 5:2 6:1 7:1 
0.962585843117458 1:1 2:31 3:3 4:1 5:2 6:2 7:1 
1 1:1 2:32 3:1 4:1 5:4 6:2 7:1 
1 1:1 2:32 3:1 4:1 5:4 6:1 7:2 
0.9214487675737518 1:2 2:46 3:3 4:3 5:10 6:2 7:3 
1 1:1 2:29 3:1 4:2 5:1 6:2 7:1 
1 1:1 2:28 3:1 4:1 5:2 6:1 7:1 
1 1:1 2:27 3:4 4:2 5:2 6:1 7:1 
1 1:1 2:27 3:2 4:1 5:3 6:1 7:1 
1 1:2 2:37 3:1 4:1 5:2 6:2 7:1 
1 1:1 2:32 3:1 4:1 5:4 6:1 7:2 
0.3509769565777124 1:1 2:57 3:1 4:5 5:15 6:2 7:1 
1 1:1 2:26 3:1 4:1 5:1 6:1 7:1 
1 1:1 2:37 3:1 4:2 5:2 6:1 7:1 
1 1:1 2:30 3:3 4:1 5:5 6:1 7:1 
1 1:1 2:25 3:5 4:2 5:2 6:1 7:1 
0.9150907358306876 1:1 2:25 3:2 4:1 5:2 6:1 7:1 
0.5926498328700142 1:1 2:41 3:5 4:1 5:4 6:1 7:1 
0.807054285999647 1:1 2:31 3:1 4:1 5:7 6:1 7:1 
1 1:2 2:24 3:2 4:1 5:1 6:1 7:1 
1 1:1 2:29 3:1 4:2 5:1 6:2 7:1 
0.8851800120640047 1:1 2:27 3:2 4:1 5:4 6:1 7:4 
1 1:1 2:36 3:3 4:1 5:2 6:2 7:1 
0.9332245005743663 1:1 2:21 3:2 4:2 5:1 6:1 7:1 
0.7286287342301622 1:1 2:44 3:2 4:1 5:23 6:2 7:3 
1 1:1 2:28 3:1 4:4 5:1 6:2 7:1 
1 1:1 2:35 3:1 4:1 5:5 6:1 7:1 
1 1:1 2:32 3:1 4:2 5:7 6:1 7:1 
0.05388795579015292 1:1 2:39 3:1 4:2 5:15 6:2 7:1 
0.5737629338727965 1:1 2:30 3:3 4:1 5:4 6:2 7:1 
1 1:1 2:27 3:1 4:2 5:4 6:1 7:1 
1 1:2 2:27 3:1 4:1 5:1 6:1 7:1 
1 1:1 2:27 3:3 4:1 5:3 6:1 7:1 
1 1:2 2:24 3:2 4:1 5:1 6:1 7:1 
1 1:1 2:31 3:2 4:2 5:7 6:2 7:1 
0.4093216619262758 1:1 2:40 3:1 4:3 5:6 6:2 7:5 
0.3342455450949359 1:1 2:29 3:1 4:1 5:5 6:1 7:1 
1 1:1 2:30 3:1 4:1 5:3 6:1 7:1 
1 1:2 2:38 3:1 4:2 5:7 6:2 7:1 
1 1:2 2:49 3:1 4:5 5:3 6:2 7:1 
1 1:1 2:27 3:1 4:1 5:1 6:1 7:1 
0.9966324660677239 1:1 2:40 3:1 4:3 5:6 6:2 7:5 
0.9015832860184244 1:1 2:35 3:2 4:1 5:12 6:2 7:4 
1 1:1 2:27 3:1 4:2 5:1 6:1 7:1 
0.0310667044564847 1:1 2:31 3:3 4:5 5:4 6:1 7:1 
1 1:1 2:32 3:1 4:2 5:1 6:1 7:1 
1 1:1 2:29 3:1 4:1 5:2 6:1 7:1 
1 1:1 2:22 3:1 4:2 5:1 6:1 7:1 
1 1:2 2:30 3:1 4:2 5:4 6:1 7:1 
0.2368561627887343 1:1 2:30 3:4 4:1 5:4 6:1 7:1 
0.904477918960213 1:1 2:43 3:2 4:1 5:23 6:2 7:5 
1 1:2 2:35 3:3 4:1 5:7 6:2 7:1 
1 1:2 2:27 3:3 4:2 5:2 6:2 7:1 
1 1:1 2:30 3:1 4:4 5:3 6:1 7:1 
0.002904227660391299 1:1 2:54 3:1 4:6 5:22 6:2 7:1 
1 1:1 2:33 3:1 4:2 5:2 6:2 7:1 
1 1:1 2:35 3:1 4:1 5:4 6:1 7:1 
1 1:1 2:32 3:2 4:1 5:8 6:1 7:1 
1 1:1 2:31 3:1 4:2 5:4 6:1 7:1 
1 1:2 2:27 3:3 4:2 5:2 6:2 7:1 
1 1:2 2:24 3:2 4:1 5:1 6:1 7:1 
1 1:1 2:29 3:3 4:2 5:1 6:1 7:1 
1 1:2 2:34 3:1 4:2 5:7 6:1 7:1 
1 1:2 2:30 3:1 4:1 5:2 6:2 7:1 
1 1:1 2:28 3:1 4:1 5:1 6:1 7:1 
1 1:1 2:30 3:1 4:1 5:2 6:1 7:4 
1 1:1 2:29 3:1 4:1 5:1 6:2 7:1 
1 1:1 2:30 3:1 4:2 5:6 6:1 7:1 
1 1:1 2:27 3:3 4:1 5:3 6:1 7:1 
1 1:1 2:30 3:1 4:2 5:1 6:1 7:1 
1 1:1 2:25 3:2 4:1 5:2 6:1 7:5 
1 1:2 2:27 3:1 4:1 5:1 6:1 7:1 
0.283548364699061 1:2 2:33 3:1 4:5 5:2 6:2 7:1 
1 1:1 2:29 3:1 4:1 5:4 6:1 7:1 
1 1:1 2:35 3:1 4:1 5:5 6:1 7:1 
0.4259944838342761 1:2 2:26 3:1 4:2 5:5 6:1 7:1 
1 1:1 2:29 3:1 4:2 5:1 6:2 7:1 
0.09481863531077946 1:1 2:30 3:1 4:2 5:6 6:1 7:1 
1 1:1 2:25 3:2 4:1 5:1 6:1 7:1 
1 1:1 2:38 3:2 4:1 5:11 6:1 7:1 
0.382074348055667 1:2 2:34 3:1 4:2 5:12 6:2 7:1 
1 1:1 2:31 3:2 4:2 5:7 6:2 7:1 
1 1:1 2:27 3:1 4:2 5:2 6:1 7:1 
1 1:1 2:25 3:1 4:1 5:1 6:1 7:1 
1 1:1 2:30 3:4 4:1 5:4 6:1 7:1 
1 1:1 2:27 3:3 4:1 5:2 6:1 7:1 
1 1:1 2:25 3:1 4:1 5:1 6:1 7:1 
1 1:1 2:28 3:1 4:4 5:1 6:2 7:1 
1 1:1 2:30 3:1 4:2 5:2 6:1 7:1 
1 1:1 2:30 3:3 4:1 5:5 6:1 7:1 
1 1:1 2:25 3:1 4:1 5:1 6:1 7:1 
1 1:1 2:25 3:1 4:1 5:1 6:1 7:1 
1 1:1 2:27 3:3 4:1 5:2 6:1 7:1 
1 1:1 2:29 3:3 4:2 5:2 6:1 7:1 
1 1:1 2:37 3:1 4:2 5:6 6:1 7:1 
1 1:1 2:37 3:1 4:2 5:7 6:2 7:1 
1 1:1 2:30 3:4 4:1 5:4 6:1 7:1 
1 1:1 2:26 3:1 4:2 5:2 6:1 7:1 
1 1:1 2:26 3:1 4:4 5:4 6:1 7:1 
1 1:2 2:38 3:1 4:1 5:5 6:2 7:3 
1 1:1 2:31 3:1 4:2 5:3 6:1 7:4 
0.8329087660482878 1:2 2:31 3:2 4:1 5:8 6:1 7:3 
0.9696125202792579 1:1 2:35 3:1 4:1 5:10 6:1 7:1 
1 1:2 2:34 3:1 4:2 5:3 6:2 7:5 
1 1:1 2:30 3:4 4:1 5:1 6:1 7:1 
1 1:2 2:27 3:3 4:2 5:2 6:2 7:1 
1 1:1 2:34 3:1 4:1 5:6 6:2 7:5 
1 1:1 2:29 3:1 4:1 5:2 6:1 7:1 
0.300769834149998 1:2 2:47 3:3 4:1 5:14 6:2 7:4 
1 1:1 2:26 3:2 4:1 5:2 6:1 7:1 
1 1:1 2:31 3:3 4:1 5:1 6:2 7:1 
1 1:1 2:33 3:3 4:1 5:2 6:1 7:1 
1 1:1 2:29 3:1 4:1 5:5 6:1 7:1 
0.5643380277543153 1:1 2:35 3:1 4:2 5:5 6:2 7:1 
1 1:2 2:30 3:3 4:2 5:3 6:2 7:1 
0.02013825284494477 1:1 2:29 3:2 4:2 5:9 6:1 7:1 
1 1:1 2:42 3:1 4:1 5:6 6:1 7:1 
1 1:1 2:37 3:2 4:1 5:12 6:2 7:1 
0.629041706996903 1:1 2:43 3:2 4:3 5:20 6:2 7:3 
1 1:1 2:28 3:2 4:1 5:4 6:1 7:1 
0.375463745529652 1:1 2:34 3:1 4:1 5:8 6:1 7:1 
1 1:1 2:32 3:1 4:2 5:6 6:1 7:1 
1 1:1 2:29 3:1 4:1 5:4 6:1 7:1 
1 1:1 2:30 3:1 4:4 5:3 6:1 7:1 
1 1:1 2:32 3:1 4:2 5:1 6:2 7:1 
1 1:1 2:35 3:1 4:1 5:4 6:1 7:1 
1 1:1 2:32 3:1 4:2 5:6 6:1 7:1 
1 1:1 2:31 3:1 4:1 5:5 6:1 7:1 
1 1:1 2:30 3:5 4:2 5:1 6:1 7:1 
0.9766097268872161 1:2 2:35 3:1 4:2 5:12 6:2 7:1 
1 1:2 2:47 3:3 4:1 5:14 6:2 7:4 
1 1:1 2:33 3:1 4:2 5:5 6:2 7:1 
0.9800486635075356 1:2 2:44 3:2 4:2 5:21 6:1 7:1 
0.4161881822471615 1:1 2:22 3:1 4:2 5:1 6:1 7:1 
0.9108194309374741 1:1 2:30 3:1 4:4 5:6 6:1 7:1 
1 1:2 2:30 3:1 4:1 5:6 6:1 7:1 
1 1:1 2:35 3:1 4:1 5:5 6:1 7:1 
0.3752271839288459 1:1 2:34 3:1 4:2 5:7 6:2 7:3 
0.5958008405022093 1:1 2:37 3:1 4:6 5:9 6:2 7:1 
1 1:2 2:33 3:1 4:5 5:2 6:2 7:1 
0.8125221510504002 1:1 2:44 3:1 4:6 5:15 6:2 7:1 
0.3698175257147372 1:2 2:44 3:3 4:4 5:4 6:2 7:1 
1 1:1 2:30 3:1 4:4 5:6 6:1 7:1 
1 1:1 2:27 3:1 4:1 5:4 6:1 7:1 
1 1:1 2:31 3:3 4:1 5:1 6:2 7:1 
1 1:1 2:37 3:1 4:2 5:2 6:1 7:1 
1 1:1 2:32 3:1 4:1 5:6 6:2 7:1 
0.4892927647877836 1:1 2:46 3:1 4:5 5:20 6:2 7:1 
1 1:1 2:27 3:1 4:1 5:4 6:1 7:1 
1 1:1 2:33 3:1 4:2 5:2 6:2 7:1 
1 1:1 2:26 3:2 4:1 5:3 6:1 7:1 
1 1:2 2:33 3:3 4:1 5:6 6:1 7:1 
1 1:1 2:34 3:1 4:2 5:7 6:1 7:1 
0.1496791069582452 1:1 2:44 3:5 4:1 5:3 6:2 7:1 
1 1:1 2:28 3:1 4:4 5:1 6:2 7:1 
1 1:1 2:27 3:2 4:2 5:4 6:1 7:1 
1 1:1 2:37 3:2 4:1 5:12 6:2 7:1 
1 1:1 2:26 3:2 4:1 5:2 6:1 7:1 
1 1:2 2:30 3:1 4:2 5:4 6:1 7:1 
1 1:1 2:37 3:1 4:2 5:12 6:1 7:1 
1 1:1 2:37 3:1 4:2 5:12 6:1 7:1 
1 1:1 2:39 3:1 4:2 5:3 6:2 7:1 
0.9878290199928775 1:2 2:29 3:1 4:2 5:6 6:1 7:1 
1 1:1 2:33 3:3 4:1 5:2 6:1 7:1 
0.3247051568466583 1:2 2:44 3:2 4:1 5:24 6:2 7:3 
1 1:1 2:30 3:1 4:1 5:4 6:2 7:1 
0.764805632814087 1:1 2:43 3:3 4:2 5:2 6:2 7:1 
1 1:1 2:25 3:1 4:1 5:1 6:1 7:1 
0.7216700326034416 1:2 2:45 3:1 4:6 5:8 6:2 7:1 
1 1:1 2:30 3:2 4:1 5:5 6:1 7:1 
0.8929667297878131 1:2 2:39 3:3 4:2 5:5 6:2 7:2 
1 1:1 2:24 3:2 4:2 5:1 6:1 7:1 
1 1:1 2:29 3:1 4:1 5:2 6:1 7:1 
1 1:1 2:27 3:2 4:2 5:4 6:1 7:1 
1 1:2 2:29 3:2 4:1 5:6 6:2 7:1 
1 1:2 2:49 3:1 4:2 5:22 6:2 7:5 
0.7739858986190296 1:1 2:38 3:1 4:5 5:5 6:2 7:1 
0.2356014154138385 1:1 2:37 3:1 4:4 5:11 6:2 7:1 
1 1:1 2:25 3:2 4:1 5:1 6:1 7:1 
1 1:1 2:37 3:1 4:2 5:3 6:2 7:1 
1 1:1 2:31 3:3 4:1 5:2 6:2 7:1 
1 1:1 2:30 3:1 4:2 5:1 6:1 7:1 
1 1:2 2:34 3:1 4:1 5:5 6:1 7:1 
1 1:1 2:26 3:1 4:2 5:1 6:1 7:1 
1 1:1 2:30 3:1 4:2 5:1 6:1 7:1 
0.1980457620447558 1:1 2:34 3:2 4:1 5:10 6:1 7:1 
0.2036740055946412 1:1 2:24 3:1 4:4 5:2 6:1 7:1 
1 1:1 2:27 3:2 4:1 5:4 6:1 7:4 
0.9982303089112227 1:1 2:39 3:1 4:2 5:15 6:2 7:1 
1 1:2 2:26 3:1 4:2 5:2 6:1 7:1 
1 1:1 2:37 3:1 4:2 5:3 6:2 7:1 
0.4783143285905535 1:1 2:48 3:1 4:5 5:23 6:2 7:1 
1 1:1 2:25 3:5 4:2 5:2 6:1 7:1 
0.9971418902263377 1:1 2:31 3:3 4:5 5:4 6:1 7:1 
1 1:1 2:30 3:4 4:1 5:4 6:1 7:1 
1 1:1 2:30 3:4 4:1 5:4 6:1 7:1 
1 1:2 2:31 3:3 4:1 5:4 6:2 7:1 
1 1:2 2:31 3:3 4:1 5:4 6:2 7:1 
1 1:1 2:30 3:3 4:2 5:2 6:2 7:1 
1 1:1 2:30 3:1 4:1 5:5 6:1 7:1 
1 1:1 2:43 3:2 4:1 5:19 6:2 7:4 
1 1:1 2:33 3:3 4:1 5:7 6:2 7:1 
1 1:1 2:28 3:1 4:1 5:1 6:1 7:1 
1 1:1 2:27 3:1 4:2 5:4 6:1 7:1 
1 1:1 2:28 3:3 4:1 5:4 6:1 7:1 
1 1:1 2:32 3:1 4:1 5:7 6:1 7:1 
1 1:1 2:29 3:4 4:1 5:2 6:1 7:1 
1 1:1 2:27 3:4 4:2 5:2 6:1 7:1 
1 1:1 2:34 3:1 4:1 5:6 6:2 7:1 
1 1:1 2:29 3:2 4:2 5:6 6:2 7:1 
0.7207470349146714 1:1 2:54 3:1 4:5 5:5 6:2 7:1 
0.4567881141054029 1:1 2:28 3:2 4:2 5:5 6:1 7:1 
1 1:1 2:28 3:1 4:1 5:2 6:2 7:1 
1 1:1 2:33 3:3 4:1 5:4 6:2 7:1 
1 1:1 2:25 3:2 4:1 5:1 6:1 7:1 
0.8800260022442741 1:1 2:56 3:3 4:6 5:21 6:2 7:1 
1 1:1 2:33 3:3 4:1 5:2 6:2 7:1 
1 1:1 2:61 3:3 4:2 5:32 6:2 7:1 
1 1:1 2:27 3:1 4:1 5:1 6:1 7:1 
0.6745904059274621 1:1 2:32 3:2 4:2 5:8 6:1 7:1 
1 1:1 2:35 3:3 4:2 5:4 6:2 7:1 
1 1:1 2:32 3:1 4:1 5:2 6:2 7:1 
0.01063273495673754 1:1 2:38 3:1 4:2 5:15 6:2 7:4 
0.7372850659084117 1:1 2:37 3:1 4:2 5:8 6:2 7:1 
0.8607448648465266 1:2 2:26 3:5 4:2 5:6 6:1 7:1 
0.563567375276959 1:1 2:52 3:1 4:6 5:4 6:2 7:1 
1 1:1 2:26 3:2 4:1 5:3 6:1 7:1 
0.5993490928534106 1:2 2:26 3:2 4:1 5:3 6:1 7:4 
0.9300396765657204 1:1 2:54 3:2 4:1 5:34 6:2 7:4 
0.1447947726808288 1:1 2:31 3:1 4:5 5:4 6:2 7:1 
0.9074015827169745 1:1 2:43 3:2 4:1 5:19 6:2 7:4 
1 1:1 2:31 3:3 4:1 5:1 6:2 7:1 
0.5330718478952843 1:2 2:47 3:1 4:5 5:23 6:2 7:1 
1 1:1 2:26 3:1 4:2 5:4 6:1 7:1 
1 1:1 2:24 3:4 4:1 5:2 6:1 7:1 
1 1:1 2:30 3:1 4:1 5:2 6:1 7:4 
0.9863267929991154 1:1 2:32 3:2 4:2 5:8 6:1 7:1 
1 1:2 2:25 3:1 4:4 5:2 6:1 7:1 
1 1:1 2:38 3:3 4:2 5:4 6:2 7:1 
0.9980815995683439 1:1 2:29 3:1 4:1 5:5 6:1 7:1 
0.3797932526112157 1:1 2:26 3:2 4:1 5:4 6:1 7:1 
0.09524353902706954 1:1 2:32 3:3 4:1 5:4 6:2 7:1 
1 1:1 2:30 3:4 4:1 5:1 6:1 7:1 
0.5617430003617844 1:1 2:23 3:1 4:5 5:5 6:1 7:1 
1 1:1 2:27 3:3 4:1 5:2 6:1 7:4 
1 1:2 2:26 3:3 4:2 5:3 6:1 7:1 
1 1:1 2:31 3:1 4:4 5:2 6:1 7:1 
0.9993315234520308 1:1 2:57 3:1 4:5 5:15 6:2 7:1 
1 1:2 2:33 3:3 4:1 5:6 6:1 7:1 
1 1:1 2:30 3:1 4:1 5:3 6:1 7:1 
0.6642500936366571 1:1 2:43 3:2 4:1 5:21 6:2 7:4 
1 1:1 2:29 3:2 4:2 5:6 6:2 7:1 
0.9877158506315784 1:1 2:35 3:1 4:2 5:5 6:2 7:1 
0.7428636781271426 1:1 2:36 3:2 4:2 5:15 6:2 7:1 
1 1:1 2:29 3:1 4:1 5:1 6:2 7:1 
1 1:1 2:24 3:3 4:2 5:1 6:1 7:1 
1 1:1 2:26 3:3 4:1 5:2 6:1 7:1 
1 1:1 2:28 3:1 4:1 5:2 6:1 7:1 
1 1:2 2:33 3:3 4:1 5:6 6:1 7:1 
1 1:1 2:38 3:1 4:2 5:15 6:2 7:4 
0.8729335459910218 1:1 2:49 3:1 4:1 5:9 6:2 7:4 
1 1:1 2:26 3:2 4:1 5:1 6:1 7:1 
0.9738830547271676 1:1 2:32 3:3 4:1 5:4 6:2 7:1 
0.5667296886559829 1:1 2:34 3:2 4:2 5:12 6:2 7:1 
0.8507185505072264 1:1 2:41 3:2 4:1 5:15 6:2 7:1 
1 1:1 2:28 3:1 4:1 5:2 6:1 7:1 
1 1:1 2:27 3:3 4:2 5:2 6:1 7:1 
0.7873540324472386 1:1 2:33 3:1 4:2 5:7 6:2 7:4 
1 1:1 2:30 3:2 4:1 5:5 6:1 7:1 
1 1:1 2:26 3:1 4:2 5:2 6:1 7:1 
1 1:1 2:32 3:1 4:2 5:6 6:1 7:1 
1 1:1 2:34 3:3 4:2 5:1 6:2 7:1 
1 1:1 2:33 3:1 4:2 5:5 6:2 7:1 
1 1:1 2:27 3:2 4:2 5:4 6:1 7:1 
0.2305253410930443 1:1 2:37 3:2 4:2 5:16 6:2 7:1 
0.6771596757249374 1:1 2:51 3:1 4:6 5:21 6:2 7:1 
0.1966671824525988 1:2 2:33 3:1 4:5 5:6 6:2 7:1 
0.6661101074452679 1:1 2:41 3:1 4:1 5:7 6:2 7:1 
1 1:1 2:28 3:2 4:1 5:4 6:1 7:1 
1 1:2 2:29 3:2 4:1 5:6 6:1 7:1 
1 1:1 2:26 3:1 4:1 5:1 6:1 7:1 
1 1:2 2:38 3:1 4:1 5:5 6:2 7:3 
1 1:2 2:27 3:1 4:1 5:2 6:1 7:1 
1 1:1 2:43 3:3 4:2 5:2 6:2 7:1 
1 1:1 2:26 3:1 4:2 5:2 6:1 7:1 
0.3552370465109733 1:2 2:35 3:1 4:1 5:6 6:2 7:1 
0.6240280591423989 1:1 2:54 3:1 4:5 5:22 6:2 7:1 
1 1:1 2:30 3:3 4:1 5:5 6:1 7:1 
0.9463136939244735 1:1 2:34 3:1 4:1 5:8 6:1 7:1 
0.7340333428262307 1:1 2:47 3:1 4:6 5:17 6:2 7:1 
0.8181915309350251 1:2 2:24 3:1 4:4 5:2 6:1 7:1 
1 1:2 2:27 3:3 4:2 5:4 6:1 7:1 
1 1:1 2:30 3:1 4:1 5:3 6:1 7:1 
1 1:1 2:30 3:1 4:2 5:2 6:1 7:1 
1 1:1 2:43 3:3 4:2 5:2 6:2 7:1 
0.6876010619343899 1:2 2:50 3:3 4:1 5:14 6:2 7:4 
1 1:1 2:26 3:2 4:1 5:2 6:1 7:1 
1 1:2 2:39 3:1 4:1 5:2 6:1 7:1 
0.5748620673408178 1:1 2:45 3:1 4:6 5:6 6:2 7:1 
1 1:1 2:30 3:1 4:1 5:4 6:2 7:1 
1 1:1 2:28 3:1 4:1 5:4 6:1 7:1 
1 1:1 2:37 3:1 4:2 5:8 6:2 7:1 
1 1:1 2:30 3:4 4:1 5:4 6:1 7:1 
1 1:2 2:27 3:1 4:1 5:2 6:1 7:1 
1 1:1 2:30 3:1 4:2 5:1 6:2 7:1 
1 1:1 2:31 3:1 4:1 5:1 6:1 7:1 
0.9925519017632513 1:1 2:41 3:1 4:1 5:7 6:2 7:1 
1 1:1 2:32 3:3 4:1 5:1 6:2 7:1 
0.6407934443950615 1:1 2:34 3:1 4:5 5:7 6:1 7:1 
-1 1:1 2:30 3:1 4:1 5:4 6:2 7:1 
-1 1:2 2:38 3:2 4:2 5:13 6:2 7:2 
-1 1:2 2:20 3:1 4:4 5:1 6:1 7:1 
-1 1:2 2:26 3:1 4:1 5:1 6:1 7:1 
-1 1:1 2:29 3:3 4:1 5:3 6:1 7:1 
-0.9156414314928303 1:1 2:31 3:1 4:2 5:1 6:1 7:1 
-1 1:1 2:30 3:1 4:2 5:3 6:1 7:1 
-1 1:2 2:23 3:1 4:2 5:0 6:1 7:1 
-0.1815885242258822 1:1 2:43 3:1 4:1 5:0 6:1 7:1 
-1 1:1 2:27 3:2 4:2 5:4 6:1 7:1 
-1 1:1 2:34 3:2 4:1 5:5 6:1 7:1 
-1 1:1 2:24 3:1 4:2 5:1 6:1 7:1 
-0.8177888018304879 1:1 2:31 3:1 4:1 5:3 6:1 7:4 
-1 1:1 2:33 3:1 4:2 5:7 6:1 7:1 
-1 1:1 2:33 3:1 4:1 5:6 6:1 7:1 
-0.3892313135682458 1:1 2:38 3:1 4:1 5:4 6:1 7:1 
-0.9209627530544349 1:1 2:31 3:1 4:1 5:3 6:1 7:1 
-0.1965385303498684 1:1 2:34 3:1 4:1 5:3 6:1 7:1 
-1 1:1 2:30 3:4 4:1 5:2 6:1 7:1 
-0.8903508462342187 1:1 2:43 3:1 4:1 5:2 6:2 7:1 
-1 1:1 2:29 3:1 4:1 5:1 6:2 7:1 
-1 1:2 2:25 3:3 4:2 5:1 6:1 7:1 
-1 1:1 2:37 3:1 4:1 5:3 6:1 7:1 
-1 1:2 2:25 3:1 4:2 5:1 6:2 7:1 
-1 1:2 2:37 3:1 4:2 5:10 6:2 7:1 
-1 1:1 2:31 3:4 4:1 5:2 6:1 7:1 
-0.7833448198302739 1:2 2:48 3:1 4:6 5:0 6:2 7:1 
-1 1:1 2:35 3:1 4:1 5:12 6:1 7:1 
-1 1:1 2:22 3:1 4:1 5:1 6:1 7:1 
-1 1:2 2:38 3:1 4:2 5:0 6:2 7:1 
-1 1:1 2:25 3:2 4:1 5:0 6:1 7:1 
-1 1:1 2:26 3:2 4:2 5:3 6:1 7:1 
-1 1:1 2:30 3:1 4:2 5:7 6:1 7:1 
-1 1:1 2:37 3:1 4:1 5:3 6:2 7:1 
-1 1:2 2:31 3:3 4:2 5:5 6:2 7:1 
-1 1:1 2:44 3:2 4:1 5:22 6:2 7:4 
-1 1:1 2:26 3:1 4:2 5:3 6:1 7:1 
-1 1:1 2:30 3:1 4:3 5:3 6:1 7:1 
-1 1:2 2:25 3:2 4:1 5:2 6:1 7:1 
-1 1:1 2:30 3:1 4:3 5:1 6:2 7:1 
-1 1:1 2:33 3:2 4:1 5:7 6:1 7:1 
-1 1:1 2:27 3:1 4:2 5:2 6:1 7:1 
-1 1:1 2:33 3:2 4:1 5:7 6:1 7:1 
-1 1:2 2:25 3:2 4:1 5:2 6:1 7:1 
-1 1:2 2:43 3:3 4:2 5:0 6:2 7:1 
-0.9616771362378557 1:1 2:33 3:1 4:1 5:2 6:2 7:1 
-1 1:2 2:30 3:3 4:2 5:6 6:2 7:1 
-1 1:1 2:34 3:2 4:1 5:4 6:1 7:1 
-1 1:1 2:27 3:1 4:1 5:1 6:1 7:1 
-0.9287985523671837 1:1 2:27 3:1 4:5 5:2 6:1 7:1 
-0.03753873578795342 1:1 2:31 3:4 4:1 5:0 6:1 7:1 
-1 1:1 2:30 3:2 4:1 5:5 6:1 7:1 
-1 1:1 2:35 3:1 4:1 5:12 6:1 7:1 
-1 1:1 2:26 3:2 4:2 5:3 6:1 7:1 
-0.6942181675544846 1:2 2:27 3:2 4:2 5:2 6:1 7:1 
-1 1:2 2:30 3:2 4:1 5:6 6:1 7:1 
-0.8373944473720899 1:1 2:30 3:1 4:1 5:1 6:1 7:1 
-1 1:1 2:48 3:1 4:1 5:1 6:2 7:1 
-1 1:1 2:33 3:2 4:1 5:7 6:1 7:1 
-0.1332820328771322 1:1 2:28 3:2 4:1 5:3 6:1 7:1 
-1 1:1 2:38 3:1 4:1 5:3 6:1 7:1 
-1 1:2 2:36 3:3 4:2 5:2 6:2 7:1 
-1 1:1 2:30 3:3 4:2 5:1 6:2 7:1 
-1 1:2 2:32 3:3 4:1 5:5 6:1 7:1 
-1 1:1 2:33 3:1 4:1 5:6 6:1 7:1 
-1 1:2 2:37 3:1 4:2 5:5 6:2 7:1 
-1 1:2 2:56 3:3 4:2 5:20 6:2 7:1 
-1 1:2 2:33 3:1 4:1 5:5 6:1 7:1 
-1 1:1 2:36 3:1 4:2 5:2 6:2 7:1 
-1 1:1 2:29 3:1 4:1 5:1 6:2 7:1 
-1 1:1 2:26 3:2 4:1 5:2 6:1 7:1 
-1 1:2 2:34 3:2 4:3 5:6 6:1 7:3 
-1 1:1 2:30 3:1 4:5 5:7 6:1 7:1 
-1 1:1 2:27 3:1 4:2 5:2 6:1 7:1 
-1 1:1 2:34 3:3 4:1 5:2 6:2 7:1 
-1 1:1 2:31 3:1 4:1 5:3 6:1 7:4 
-0.426410081788849 1:1 2:28 3:4 4:1 5:3 6:1 7:1 
-1 1:1 2:29 3:1 4:1 5:4 6:1 7:1 
-0.6029051310240776 1:2 2:34 3:3 4:2 5:1 6:2 7:4 
-0.5591025516013627 1:1 2:29 3:1 4:2 5:3 6:1 7:4 
-1 1:1 2:25 3:2 4:1 5:1 6:1 7:1 
-1 1:1 2:28 3:4 4:1 5:3 6:1 7:1 
-1 1:1 2:34 3:3 4:1 5:2 6:2 7:1 
-0.09906574419702477 1:1 2:52 3:1 4:6 5:0 6:2 7:1 
-1 1:1 2:24 3:4 4:1 5:1 6:1 7:1 
-1 1:2 2:32 3:1 4:1 5:5 6:2 7:1 
-0.5401319809596845 1:1 2:37 3:4 4:3 5:0 6:2 7:1 
-1 1:1 2:62 3:3 4:2 5:7 6:2 7:1 
-1 1:1 2:35 3:1 4:1 5:12 6:1 7:1 
-0.7173441467314123 1:1 2:47 3:2 4:3 5:24 6:2 7:4 
-1 1:1 2:27 3:1 4:1 5:2 6:1 7:1 
-0.4434118527339616 1:2 2:38 3:3 4:4 5:0 6:2 7:1 
-1 1:1 2:30 3:1 4:2 5:3 6:1 7:1 
-1 1:1 2:26 3:2 4:1 5:2 6:1 7:1 
-1 1:1 2:26 3:1 4:2 5:5 6:1 7:1 
-1 1:1 2:29 3:1 4:5 5:2 6:2 7:1 
-1 1:2 2:30 3:1 4:5 5:4 6:1 7:1 
-0.5804650451490906 1:1 2:30 3:4 4:1 5:0 6:1 7:1 
-1 1:1 2:33 3:3 4:1 5:1 6:1 7:1 
-1 1:1 2:29 3:2 4:1 5:5 6:1 7:1 
-0.4039764879429914 1:2 2:31 3:1 4:3 5:1 6:1 7:1 
-0.758539414621717 1:1 2:36 3:3 4:1 5:3 6:2 7:4 
-1 1:2 2:29 3:3 4:2 5:2 6:2 7:1 
-1 1:2 2:42 3:1 4:1 5:6 6:2 7:5 
-1 1:1 2:59 3:1 4:5 5:3 6:2 7:1 
-0.07417232194124915 1:2 2:61 3:2 4:1 5:40 6:2 7:4 
-1 1:1 2:31 3:1 4:1 5:1 6:2 7:1 
-0.3629518674651839 1:1 2:39 3:1 4:1 5:5 6:1 7:1 
-1 1:1 2:28 3:1 4:1 5:1 6:2 7:1 
-0.3899472025696079 1:1 2:31 3:4 4:1 5:6 6:2 7:4 
-1 1:1 2:30 3:1 4:2 5:6 6:2 7:1 
-0.9012907006366914 1:1 2:28 3:2 4:1 5:3 6:1 7:1 
-0.3794032673205314 1:2 2:60 3:2 4:1 5:33 6:2 7:3 
-1 1:2 2:29 3:6 4:1 5:5 6:1 7:1 
-1 1:1 2:26 3:2 4:1 5:1 6:1 7:1 
-1 1:1 2:25 3:3 4:1 5:1 6:1 7:4 
-1 1:1 2:27 3:1 4:1 5:1 6:1 7:1 
-0.3663012569518313 1:2 2:29 3:1 4:2 5:4 6:1 7:1 
-0.296064719799475 1:2 2:35 3:1 4:1 5:3 6:1 7:1 
-1 1:2 2:37 3:1 4:2 5:5 6:2 7:1 
-0.0591666202075683 1:1 2:28 3:3 4:2 5:0 6:1 7:1 
-1 1:1 2:28 3:1 4:1 5:3 6:1 7:1 
-0.3412640225678004 1:2 2:27 3:3 4:2 5:0 6:2 7:1 
-0.8645281346380717 1:1 2:38 3:1 4:1 5:6 6:2 7:1 
-1 1:1 2:31 3:2 4:2 5:6 6:1 7:1 
-0.2865433593463139 1:2 2:30 3:1 4:1 5:2 6:1 7:4 
-1 1:1 2:29 3:1 4:1 5:1 6:2 7:1 
-1 1:1 2:29 3:2 4:1 5:4 6:1 7:1 
-1 1:1 2:26 3:1 4:1 5:1 6:1 7:1 
-1 1:1 2:30 3:1 4:1 5:2 6:1 7:1 
-1 1:1 2:33 3:1 4:2 5:7 6:1 7:1 
-1 1:1 2:38 3:1 4:1 5:6 6:2 7:1 
-1 1:1 2:40 3:2 4:3 5:8 6:2 7:4 
-0.4644097355737137 1:2 2:25 3:1 4:5 5:0 6:1 7:1 
-1 1:1 2:38 3:6 4:1 5:7 6:2 7:3 
-1 1:2 2:37 3:3 4:1 5:10 6:2 7:1 
-1 1:2 2:27 3:2 4:1 5:4 6:1 7:1 
-1 1:1 2:35 3:1 4:1 5:5 6:1 7:3 
-0.9259681426829245 1:1 2:43 3:1 4:1 5:14 6:2 7:4 
-1 1:1 2:30 3:1 4:1 5:2 6:1 7:1 
-0.6896675303440304 1:2 2:48 3:3 4:6 5:0 6:2 7:1 
-0.0877477292713509 1:1 2:54 3:5 4:3 5:8 6:2 7:1 
-0.7622875092693446 1:1 2:27 3:2 4:1 5:2 6:1 7:1 
-1 1:1 2:26 3:5 4:2 5:2 6:1 7:1 
-0.4479564518218677 1:1 2:29 3:1 4:2 5:1 6:1 7:4 
-1 1:2 2:29 3:1 4:4 5:1 6:1 7:1 
-0.05032174930872017 1:1 2:31 3:2 4:1 5:2 6:1 7:1 
-0.0009084321653045082 1:1 2:41 3:1 4:1 5:4 6:2 7:1 
-0.5381163822698449 1:1 2:32 3:2 4:1 5:1 6:1 7:1 
-0.001466426848679041 1:2 2:31 3:3 4:1 5:0 6:1 7:1 
-1 1:1 2:26 3:2 4:2 5:3 6:1 7:1 
-1 1:2 2:29 3:2 4:1 5:4 6:1 7:1 
-1 1:1 2:26 3:2 4:1 5:3 6:1 7:1 
-1 1:1 2:31 3:4 4:1 5:2 6:1 7:1 
-1 1:2 2:35 3:1 4:1 5:3 6:1 7:1 
-1 1:1 2:26 3:1 4:1 5:1 6:1 7:1 
-1 1:1 2:38 3:1 4:2 5:14 6:2 7:1 
-1 1:2 2:34 3:2 4:3 5:6 6:1 7:3 
-1 1:1 2:29 3:3 4:1 5:3 6:1 7:1 
-1 1:1 2:24 3:1 4:4 5:0 6:1 7:1 
-1 1:1 2:26 3:5 4:2 5:2 6:1 7:1 
-0.6405402141810238 1:1 2:26 3:1 4:1 5:0 6:1 7:1 
-0.8385049064422727 1:1 2:30 3:3 4:2 5:1 6:1 7:1 
-1 1:2 2:25 3:3 4:2 5:1 6:1 7:1 
-1 1:2 2:31 3:1 4:1 5:5 6:1 7:1 
-1 1:1 2:31 3:2 4:1 5:2 6:1 7:1 
-1 1:1 2:33 3:5 4:2 5:2 6:2 7:1 
-1 1:1 2:28 3:4 4:1 5:3 6:1 7:1 
-1 1:1 2:34 3:2 4:1 5:4 6:1 7:1 
-0.9787208404959794 1:1 2:30 3:4 4:1 5:0 6:1 7:1 
-1 1:1 2:26 3:2 4:2 5:4 6:1 7:1 
-1 1:1 2:42 3:1 4:1 5:5 6:2 7:1 
-0.232084667006772 1:1 2:47 3:3 4:1 5:13 6:2 7:1 
-1 1:1 2:27 3:1 4:1 5:1 6:1 7:1 
-1 1:1 2:26 3:2 4:2 5:3 6:1 7:1 
-1 1:2 2:31 3:1 4:2 5:2 6:2 7:1 
-1 1:1 2:31 3:2 4:1 5:6 6:2 7:1 
-1 1:1 2:37 3:2 4:1 5:10 6:2 7:1 
-1 1:2 2:29 3:1 4:2 5:4 6:1 7:1 
-1 1:1 2:33 3:2 4:1 5:6 6:2 7:1 
-0.9873103476829364 1:1 2:31 3:4 4:1 5:6 6:2 7:4 
-0.9957602412634339 1:1 2:31 3:1 4:1 5:5 6:1 7:5 
-0.9750011842392533 1:2 2:60 3:2 4:1 5:33 6:2 7:3 
-1 1:1 2:27 3:1 4:2 5:4 6:2 7:1 
-1 1:1 2:26 3:2 4:1 5:1 6:1 7:1 
-1 1:1 2:27 3:2 4:1 5:4 6:1 7:1 
-0.659578079449895 1:1 2:28 3:2 4:1 5:2 6:1 7:5 
-1 1:1 2:31 3:2 4:1 5:4 6:1 7:1 
-1 1:1 2:29 3:4 4:1 5:3 6:1 7:1 
-1 1:1 2:32 3:4 4:1 5:0 6:2 7:1 
-1 1:1 2:36 3:2 4:2 5:6 6:2 7:1 
-1 1:1 2:27 3:2 4:1 5:2 6:1 7:1 
-1 1:1 2:37 3:1 4:1 5:2 6:1 7:1 
-1 1:1 2:38 3:1 4:1 5:6 6:2 7:1 
-1 1:1 2:30 3:1 4:2 5:5 6:2 7:1 
-1 1:1 2:30 3:2 4:1 5:5 6:1 7:1 
-0.8012743532229391 1:1 2:26 3:5 4:2 5:2 6:1 7:1 
-1 1:1 2:32 3:1 4:2 5:2 6:2 7:1 
-1 1:1 2:33 3:2 4:1 5:7 6:1 7:1 
-1 1:1 2:31 3:4 4:1 5:2 6:1 7:1 
-1 1:1 2:29 3:2 4:1 5:4 6:1 7:1 
-1 1:1 2:29 3:2 4:1 5:5 6:1 7:1 
-0.1772189574411102 1:2 2:26 3:1 4:1 5:0 6:1 7:1 
-1 1:1 2:30 3:1 4:2 5:3 6:1 7:1 
-1 1:1 2:26 3:2 4:1 5:2 6:1 7:1 
-1 1:1 2:27 3:1 4:2 5:4 6:2 7:1 
-1 1:2 2:27 3:2 4:1 5:2 6:1 7:1 
-1 1:1 2:29 3:1 4:1 5:2 6:1 7:1 
-1 1:1 2:25 3:1 4:2 5:0 6:1 7:1 
-0.8705508944995323 1:1 2:30 3:6 4:1 5:2 6:1 7:1 
-0.6272145911728302 1:1 2:28 3:1 4:2 5:1 6:1 7:1 
-0.3924822542239315 1:2 2:28 3:5 4:2 5:3 6:2 7:1 
-1 1:1 2:29 3:2 4:1 5:4 6:1 7:1 
-1 1:1 2:43 3:2 4:1 5:19 6:2 7:3 
-1 1:1 2:26 3:1 4:1 5:1 6:1 7:1 
-1 1:1 2:28 3:2 4:1 5:4 6:1 7:4 
-1 1:1 2:31 3:2 4:2 5:6 6:1 7:1 
-1 1:1 2:32 3:1 4:2 5:2 6:2 7:1 
-1 1:2 2:38 3:2 4:2 5:13 6:2 7:2 
-0.05913273837321525 1:1 2:34 3:3 4:1 5:1 6:1 7:1 
-1 1:1 2:36 3:2 4:2 5:6 6:2 7:1 
-0.4523461424518594 1:2 2:28 3:2 4:1 5:2 6:1 7:4 
-1 1:2 2:30 3:3 4:2 5:6 6:2 7:1 
-1 1:1 2:30 3:1 4:2 5:6 6:2 7:1 
-1 1:1 2:24 3:4 4:1 5:1 6:1 7:1 
-1 1:2 2:29 3:1 4:2 5:4 6:1 7:1 
-1 1:1 2:34 3:1 4:1 5:3 6:2 7:1 
-1 1:1 2:27 3:1 4:2 5:3 6:1 7:1 
-1 1:2 2:30 3:2 4:1 5:6 6:1 7:1 
-1 1:2 2:27 3:2 4:1 5:4 6:1 7:1 
-0.7106626096061983 1:1 2:31 3:3 4:3 5:1 6:1 7:1 
-1 1:1 2:28 3:4 4:1 5:3 6:1 7:1 
-1 1:1 2:54 3:5 4:3 5:8 6:2 7:1 
-0.06207483406103173 1:1 2:33 3:2 4:2 5:6 6:1 7:2 
-1 1:1 2:31 3:2 4:1 5:4 6:1 7:1 
-0.9940383017263628 1:1 2:52 3:1 4:6 5:0 6:2 7:1 
-1 1:1 2:29 3:2 4:1 5:4 6:1 7:1 
-1 1:1 2:32 3:1 4:2 5:8 6:2 7:1 
-1 1:1 2:28 3:1 4:2 5:6 6:2 7:1 
-1 1:1 2:30 3:1 4:1 5:1 6:1 7:1 
-1 1:1 2:31 3:2 4:2 5:5 6:1 7:1 
-1 1:1 2:43 3:2 4:1 5:19 6:2 7:1 
-1 1:1 2:31 3:1 4:4 5:1 6:2 7:1 
-1 1:1 2:30 3:1 4:2 5:0 6:1 7:1 
-0.6438191513108367 1:2 2:25 3:1 4:2 5:0 6:1 7:1 
-1 1:1 2:29 3:1 4:1 5:2 6:1 7:1 
-1 1:1 2:26 3:2 4:2 5:3 6:1 7:1 
-1 1:1 2:38 3:2 4:1 5:9 6:2 7:1 
-1 1:1 2:26 3:4 4:1 5:2 6:1 7:1 
-1 1:1 2:26 3:4 4:1 5:2 6:1 7:1 
-1 1:1 2:32 3:1 4:2 5:2 6:2 7:1 
-1 1:1 2:46 3:2 4:1 5:19 6:2 7:4 
-1 1:1 2:29 3:2 4:1 5:4 6:1 7:1 
-1 1:2 2:31 3:1 4:1 5:5 6:1 7:1 
-0.162827527791781 1:2 2:29 3:1 4:4 5:1 6:1 7:1 
-1 1:1 2:27 3:1 4:5 5:2 6:1 7:1 
-0.8747814560282152 1:1 2:28 3:2 4:1 5:2 6:1 7:5 
-0.9672669439302887 1:1 2:48 3:1 4:2 5:15 6:2 7:1 
-1 1:1 2:25 3:3 4:1 5:1 6:1 7:4 
-1 1:2 2:61 3:2 4:1 5:40 6:2 7:4 
-1 1:1 2:37 3:2 4:1 5:12 6:1 7:1 
-1 1:2 2:37 3:1 4:2 5:5 6:2 7:1 
-1 1:1 2:27 3:2 4:1 5:2 6:1 7:1 
-1 1:1 2:33 3:2 4:1 5:7 6:1 7:1 
-0.2765570771515777 1:2 2:28 3:1 4:2 5:2 6:2 7:1 
-0.3904371472843768 1:1 2:29 3:1 4:1 5:0 6:1 7:4 
-1 1:2 2:56 3:1 4:5 5:17 6:2 7:1 
-0.369202395572815 1:1 2:38 3:1 4:1 5:3 6:1 7:5 
-1 1:1 2:26 3:2 4:1 5:2 6:1 7:1 
-1 1:1 2:44 3:2 4:1 5:22 6:2 7:4 
-1 1:1 2:27 3:1 4:2 5:2 6:1 7:1 
-1 1:1 2:33 3:2 4:1 5:7 6:1 7:1 
-0.9870497730203039 1:2 2:28 3:1 4:2 5:2 6:2 7:1 
-0.8526966525140144 1:1 2:36 3:1 4:3 5:1 6:2 7:1 
-0.9939633454550325 1:2 2:32 3:5 4:4 5:2 6:2 7:1 
-1 1:1 2:31 3:2 4:2 5:6 6:1 7:1 
-1 1:1 2:34 3:1 4:2 5:6 6:1 7:1 
-1 1:1 2:27 3:1 4:1 5:1 6:1 7:1 
-0.5681631340326491 1:1 2:32 3:2 4:1 5:3 6:1 7:1 
-0.1616189367325663 1:1 2:26 3:4 4:1 5:2 6:1 7:1 
-1 1:1 2:42 3:3 4:1 5:1 6:2 7:1 
-0.08536059969045796 1:1 2:28 3:1 4:2 5:0 6:1 7:1 
-1 1:1 2:30 3:1 4:2 5:5 6:2 7:1 
-0.856132230479415 1:1 2:34 3:1 4:3 5:0 6:2 7:1 
-1 1:1 2:42 3:1 4:4 5:8 6:2 7:1 
-1 1:1 2:28 3:1 4:1 5:1 6:2 7:1 
-1 1:1 2:32 3:3 4:1 5:5 6:1 7:1 
-0.06262715472859148 1:2 2:45 3:1 4:1 5:13 6:1 7:5 
-0.8909741012868496 1:1 2:47 3:2 4:3 5:24 6:2 7:4 
-0.982588178868578 1:1 2:38 3:1 4:1 5:3 6:1 7:5 
-1 1:1 2:28 3:1 4:2 5:1 6:1 7:1 
-0.1188570637943531 1:2 2:29 3:1 4:2 5:0 6:1 7:1 
-1 1:1 2:25 3:2 4:1 5:1 6:1 7:1 
-0.5329491640973923 1:1 2:28 3:1 4:2 5:3 6:1 7:1 
-0.09710200924660789 1:2 2:24 3:1 4:4 5:0 6:1 7:1 
-1 1:1 2:33 3:1 4:1 5:3 6:2 7:2 
-0.2466137514914886 1:1 2:32 3:1 4:2 5:2 6:1 7:1 
-1 1:2 2:29 3:3 4:2 5:2 6:2 7:1 
-1 1:1 2:25 3:2 4:1 5:1 6:1 7:1 
-0.4564786207834268 1:2 2:27 3:1 4:4 5:1 6:1 7:1 
-1 1:1 2:41 3:1 4:1 5:4 6:2 7:1 
-1 1:1 2:34 3:1 4:2 5:6 6:1 7:1 
-1 1:2 2:23 3:1 4:1 5:1 6:1 7:1 
-1 1:1 2:28 3:1 4:1 5:3 6:1 7:1 
-1 1:1 2:30 3:1 4:1 5:0 6:2 7:1 
-0.3679498066465399 1:1 2:30 3:1 4:1 5:2 6:1 7:1 
-1 1:1 2:41 3:1 4:2 5:2 6:1 7:1 
-0.3193294308263888 1:1 2:40 3:1 4:1 5:0 6:2 7:1 
-1 1:1 2:30 3:3 4:2 5:1 6:1 7:1 
-0.955131087914209 1:1 2:47 3:3 4:1 5:13 6:2 7:1 
-0.9223176847811884 1:1 2:33 3:1 4:1 5:1 6:1 7:5 
-0.1500258011163421 1:1 2:27 3:2 4:2 5:2 6:1 7:1 
-0.998961701085227 1:2 2:45 3:1 4:1 5:13 6:1 7:5 
-1 1:1 2:27 3:2 4:1 5:2 6:1 7:1 
-1 1:1 2:36 3:2 4:2 5:6 6:2 7:1 
-0.9220872816868871 1:2 2:28 3:5 4:2 5:3 6:2 7:1 
-0.9247867446464586 1:1 2:32 3:2 4:1 5:3 6:1 7:1 
-1 1:1 2:27 3:1 4:2 5:2 6:1 7:1 
