svm_type c_svc
kernel_type rbf
gamma 0.142857
nr_class 2
total_sv 845
rho -0.125078
label 1 -1
nr_sv 419 426
SV
1 1:1 2:32 3:1 4:2 5:8 6:2 7:1 
1 1:1 2:31 3:1 4:2 5:3 6:1 7:4 
1 1:1 2:32 3:1 4:2 5:1 6:1 7:1 
1 1:1 2:30 3:1 4:1 5:3 6:1 7:1 
1 1:2 2:31 3:3 4:1 5:2 6:1 7:1 
0.8748512603101571 1:1 2:61 3:3 4:2 5:32 6:2 7:1 
1 1:1 2:29 3:1 4:1 5:2 6:1 7:1 
1 1:2 2:31 3:3 4:1 5:2 6:1 7:1 
1 1:1 2:27 3:3 4:1 5:3 6:1 7:1 
1 1:1 2:26 3:2 4:1 5:2 6:1 7:1 
1 1:1 2:30 3:1 4:2 5:1 6:1 7:1 
1 1:1 2:31 3:2 4:1 5:6 6:2 7:4 
1 1:1 2:27 3:1 4:2 5:1 6:1 7:1 
1 1:1 2:37 3:1 4:2 5:8 6:2 7:1 
1 1:2 2:30 3:1 4:1 5:6 6:1 7:1 
1 1:1 2:32 3:1 4:2 5:7 6:1 7:1 
1 1:1 2:24 3:1 4:2 5:1 6:1 7:1 
1 1:1 2:29 3:4 4:1 5:2 6:1 7:1 
1 1:1 2:30 3:1 4:2 5:2 6:1 7:1 
0.7518393387711774 1:1 2:29 3:1 4:1 5:1 6:2 7:1 
0.9604904462598538 1:1 2:32 3:1 4:2 5:1 6:2 7:1 
1 1:1 2:42 3:1 4:2 5:7 6:2 7:1 
0.674248083136906 1:1 2:57 3:1 4:5 5:15 6:2 7:1 
1 1:1 2:32 3:3 4:1 5:1 6:2 7:1 
1 1:1 2:24 3:2 4:2 5:1 6:1 7:1 
1 1:1 2:32 3:1 4:2 5:7 6:1 7:1 
1 1:1 2:37 3:1 4:2 5:12 6:1 7:1 
1 1:1 2:32 3:1 4:2 5:1 6:1 7:1 
1 1:2 2:23 3:2 4:1 5:1 6:1 7:1 
1 1:1 2:27 3:2 4:1 5:4 6:1 7:1 
1 1:1 2:37 3:1 4:1 5:6 6:1 7:1 
1 1:1 2:29 3:1 4:1 5:2 6:1 7:1 
1 1:1 2:30 3:1 4:2 5:6 6:1 7:1 
1 1:1 2:29 3:1 4:1 5:2 6:1 7:1 
1 1:1 2:34 3:1 4:1 5:8 6:1 7:1 
1 1:1 2:29 3:4 4:1 5:2 6:1 7:1 
1 1:1 2:38 3:2 4:1 5:11 6:1 7:1 
1 1:2 2:29 3:3 4:2 5:6 6:1 7:1 
0.001325322772758403 1:1 2:46 3:2 4:3 5:24 6:2 7:4 
1 1:1 2:30 3:3 4:1 5:4 6:2 7:1 
1 1:2 2:30 3:1 4:2 5:4 6:1 7:1 
0.9096229678368164 1:1 2:47 3:2 4:1 5:23 6:2 7:1 
0.3949389712643706 1:1 2:24 3:1 4:4 5:2 6:1 7:1 
1 1:1 2:26 3:2 4:1 5:3 6:1 7:1 
0.2463772056715057 1:1 2:34 3:5 4:1 5:3 6:2 7:4 
1 1:1 2:27 3:3 4:1 5:2 6:1 7:4 
1 1:1 2:32 3:1 4:2 5:7 6:1 7:1 
1 1:1 2:31 3:2 4:2 5:7 6:2 7:1 
1 1:1 2:29 3:2 4:1 5:5 6:1 7:1 
1 1:1 2:25 3:1 4:1 5:1 6:1 7:1 
1 1:1 2:31 3:1 4:2 5:4 6:1 7:1 
1 1:1 2:26 3:2 4:1 5:2 6:1 7:1 
1 1:1 2:25 3:2 4:1 5:1 6:1 7:1 
1 1:1 2:27 3:1 4:1 5:1 6:1 7:1 
1 1:1 2:29 3:3 4:2 5:1 6:1 7:1 
1 1:1 2:29 3:4 4:1 5:2 6:1 7:1 
1 1:1 2:26 3:2 4:1 5:3 6:1 7:1 
0.4005603473035094 1:1 2:45 3:3 4:1 5:2 6:2 7:1 
1 1:1 2:29 3:3 4:2 5:1 6:1 7:1 
0.4095503470963039 1:1 2:28 3:2 4:1 5:5 6:1 7:1 
1 1:1 2:27 3:2 4:2 5:5 6:1 7:1 
1 1:2 2:26 3:1 4:2 5:2 6:1 7:1 
1 1:1 2:33 3:1 4:1 5:2 6:1 7:1 
1 1:2 2:30 3:3 4:2 5:3 6:2 7:1 
1 1:1 2:33 3:1 4:1 5:2 6:1 7:1 
1 1:1 2:32 3:1 4:2 5:1 6:2 7:1 
1 1:1 2:46 3:2 4:3 5:24 6:2 7:4 
0.03289143388502096 1:1 2:27 3:3 4:2 5:2 6:1 7:1 
1 1:1 2:29 3:3 4:2 5:1 6:1 7:1 
1 1:1 2:26 3:1 4:2 5:4 6:1 7:1 
1 1:2 2:27 3:1 4:1 5:2 6:1 7:1 
1 1:1 2:32 3:1 4:2 5:6 6:1 7:1 
1 1:1 2:30 3:1 4:1 5:6 6:1 7:1 
0.705255246686932 1:2 2:47 3:1 4:2 5:8 6:2 7:1 
1 1:1 2:25 3:1 4:2 5:4 6:1 7:1 
1 1:1 2:28 3:1 4:1 5:1 6:1 7:1 
1 1:1 2:27 3:3 4:2 5:2 6:1 7:1 
1 1:1 2:29 3:1 4:1 5:1 6:2 7:1 
1 1:1 2:24 3:2 4:2 5:1 6:1 7:1 
1 1:1 2:32 3:1 4:2 5:7 6:1 7:1 
0.9627196274503166 1:1 2:29 3:1 4:2 5:1 6:2 7:1 
1 1:1 2:30 3:4 4:1 5:1 6:2 7:1 
1 1:1 2:27 3:2 4:1 5:4 6:1 7:1 
1 1:1 2:27 3:1 4:2 5:1 6:1 7:1 
1 1:1 2:29 3:1 4:1 5:2 6:1 7:1 
1 1:1 2:24 3:1 4:2 5:1 6:1 7:1 
1 1:1 2:31 3:1 4:5 5:7 6:1 7:1 
1 1:1 2:26 3:2 4:1 5:2 6:1 7:1 
1 1:1 2:28 3:1 4:1 5:1 6:1 7:1 
1 1:1 2:32 3:1 4:2 5:1 6:1 7:1 
1 1:1 2:27 3:2 4:1 5:4 6:1 7:4 
1 1:1 2:31 3:2 4:2 5:8 6:2 7:1 
1 1:1 2:29 3:1 4:1 5:4 6:1 7:1 
1 1:1 2:29 3:1 4:1 5:2 6:1 7:1 
1 1:1 2:35 3:1 4:1 5:4 6:1 7:1 
1 1:1 2:29 3:2 4:1 5:6 6:2 7:1 
1 1:1 2:33 3:1 4:1 5:2 6:1 7:1 
1 1:1 2:29 3:1 4:1 5:4 6:1 7:1 
1 1:1 2:26 3:2 4:1 5:2 6:1 7:1 
1 1:2 2:27 3:1 4:4 5:2 6:2 7:1 
1 1:2 2:29 3:2 4:1 5:6 6:1 7:1 
0.706458675301905 1:1 2:52 3:1 4:6 5:4 6:2 7:1 
1 1:1 2:26 3:3 4:1 5:2 6:1 7:1 
1 1:2 2:33 3:1 4:5 5:2 6:2 7:1 
1 1:1 2:32 3:1 4:2 5:7 6:1 7:1 
1 1:1 2:28 3:1 4:5 5:5 6:1 7:1 
0.8540247098423841 1:1 2:28 3:1 4:4 5:1 6:2 7:1 
1 1:1 2:27 3:3 4:2 5:2 6:1 7:1 
1 1:1 2:32 3:1 4:2 5:6 6:1 7:1 
1 1:1 2:38 3:3 4:2 5:12 6:2 7:1 
1 1:1 2:28 3:1 4:1 5:2 6:2 7:1 
1 1:1 2:32 3:1 4:4 5:7 6:1 7:1 
1 1:1 2:29 3:1 4:1 5:1 6:2 7:1 
1 1:1 2:27 3:1 4:2 5:4 6:1 7:1 
0.9181737972711975 1:1 2:32 3:1 4:4 5:5 6:2 7:1 
1 1:2 2:39 3:3 4:2 5:5 6:2 7:2 
1 1:1 2:32 3:1 4:2 5:6 6:1 7:1 
1 1:1 2:28 3:1 4:4 5:1 6:2 7:1 
1 1:1 2:29 3:3 4:2 5:1 6:1 7:1 
1 1:1 2:28 3:1 4:4 5:1 6:2 7:1 
0.1947846092152163 1:1 2:41 3:2 4:1 5:19 6:2 7:4 
1 1:1 2:31 3:3 4:1 5:2 6:2 7:1 
1 1:1 2:32 3:1 4:2 5:8 6:1 7:1 
1 1:1 2:31 3:1 4:5 5:4 6:2 7:1 
0.4119983152932238 1:1 2:22 3:2 4:2 5:1 6:1 7:1 
1 1:1 2:27 3:2 4:2 5:4 6:1 7:1 
1 1:1 2:29 3:3 4:2 5:1 6:1 7:1 
1 1:1 2:27 3:1 4:2 5:4 6:1 7:1 
1 1:1 2:29 3:1 4:1 5:2 6:1 7:1 
1 1:1 2:32 3:1 4:2 5:8 6:2 7:1 
1 1:1 2:28 3:3 4:1 5:2 6:1 7:1 
0.387221866478397 1:1 2:32 3:2 4:1 5:9 6:1 7:1 
1 1:2 2:30 3:1 4:1 5:6 6:1 7:1 
1 1:1 2:26 3:3 4:2 5:2 6:1 7:1 
0.7739936954717589 1:1 2:54 3:1 4:5 5:22 6:2 7:1 
1 1:1 2:37 3:1 4:2 5:2 6:1 7:1 
1 1:1 2:27 3:3 4:1 5:3 6:1 7:1 
1 1:1 2:43 3:2 4:1 5:19 6:2 7:4 
1 1:1 2:34 3:1 4:4 5:6 6:2 7:1 
1 1:1 2:27 3:2 4:1 5:3 6:1 7:1 
1 1:1 2:30 3:1 4:1 5:3 6:1 7:1 
1 1:2 2:26 3:2 4:2 5:4 6:2 7:1 
1 1:1 2:39 3:1 4:2 5:15 6:2 7:1 
1 1:1 2:33 3:3 4:1 5:2 6:1 7:1 
1 1:1 2:28 3:1 4:1 5:2 6:1 7:1 
1 1:1 2:34 3:1 4:2 5:7 6:1 7:1 
1 1:1 2:27 3:2 4:2 5:5 6:1 7:1 
1 1:1 2:27 3:2 4:1 5:4 6:1 7:1 
1 1:1 2:27 3:2 4:1 5:3 6:1 7:1 
0.3190075684227364 1:1 2:37 3:1 4:2 5:6 6:1 7:1 
1 1:2 2:27 3:1 4:1 5:2 6:1 7:1 
1 1:1 2:27 3:2 4:2 5:4 6:1 7:1 
1 1:1 2:30 3:1 4:1 5:3 6:1 7:1 
1 1:1 2:29 3:1 4:1 5:2 6:1 7:1 
1 1:1 2:26 3:2 4:1 5:2 6:1 7:1 
1 1:1 2:34 3:3 4:2 5:1 6:2 7:1 
1 1:1 2:28 3:1 4:1 5:2 6:1 7:1 
1 1:1 2:31 3:1 4:4 5:2 6:1 7:1 
1 1:1 2:34 3:1 4:2 5:2 6:1 7:1 
1 1:1 2:29 3:4 4:1 5:2 6:1 7:1 
1 1:1 2:28 3:1 4:4 5:1 6:2 7:1 
1 1:1 2:25 3:1 4:1 5:2 6:1 7:1 
0.9971483512009863 1:1 2:45 3:3 4:1 5:2 6:2 7:1 
1 1:1 2:29 3:1 4:2 5:6 6:1 7:1 
1 1:1 2:29 3:1 4:1 5:1 6:2 7:1 
1 1:1 2:29 3:1 4:2 5:8 6:1 7:1 
1 1:1 2:31 3:2 4:1 5:6 6:2 7:4 
1 1:1 2:27 3:1 4:1 5:1 6:1 7:1 
0.9992749010107942 1:1 2:32 3:1 4:4 5:5 6:2 7:1 
1 1:1 2:30 3:4 4:1 5:1 6:1 7:1 
0.4672211878714295 1:1 2:31 3:1 4:1 5:1 6:1 7:1 
1 1:2 2:38 3:1 4:2 5:7 6:2 7:1 
1 1:1 2:31 3:1 4:1 5:1 6:1 7:1 
0.9524031427631213 1:1 2:54 3:1 4:6 5:15 6:2 7:1 
0.9643171632719493 1:1 2:32 3:1 4:1 5:4 6:1 7:2 
1 1:1 2:28 3:3 4:2 5:2 6:2 7:1 
1 1:1 2:26 3:3 4:1 5:2 6:1 7:1 
1 1:2 2:30 3:1 4:1 5:5 6:2 7:5 
1 1:1 2:43 3:2 4:1 5:23 6:2 7:5 
1 1:1 2:26 3:1 4:1 5:1 6:1 7:1 
1 1:1 2:28 3:1 4:1 5:2 6:1 7:1 
1 1:1 2:31 3:1 4:1 5:1 6:1 7:1 
0.2621601934388435 1:1 2:31 3:1 4:2 5:7 6:2 7:1 
0.9191888831632573 1:2 2:30 3:2 4:2 5:8 6:1 7:1 
1 1:1 2:28 3:1 4:4 5:1 6:2 7:1 
1 1:1 2:37 3:1 4:2 5:2 6:1 7:1 
1 1:1 2:31 3:1 4:1 5:1 6:1 7:1 
1 1:1 2:27 3:3 4:2 5:2 6:1 7:1 
1 1:1 2:30 3:2 4:1 5:5 6:1 7:1 
1 1:1 2:32 3:1 4:2 5:7 6:1 7:1 
1 1:1 2:32 3:1 4:2 5:1 6:2 7:1 
1 1:1 2:31 3:1 4:1 5:1 6:1 7:1 
0.7558647207849002 1:1 2:34 3:3 4:2 5:1 6:2 7:1 
1 1:1 2:27 3:2 4:2 5:5 6:1 7:1 
1 1:1 2:28 3:1 4:4 5:1 6:2 7:1 
1 1:1 2:27 3:3 4:1 5:2 6:1 7:4 
1 1:1 2:31 3:1 4:1 5:1 6:1 7:1 
1 1:1 2:30 3:3 4:2 5:1 6:1 7:1 
1 1:1 2:29 3:1 4:1 5:4 6:1 7:1 
1 1:1 2:27 3:2 4:1 5:3 6:1 7:1 
1 1:1 2:37 3:1 4:2 5:2 6:1 7:1 
1 1:1 2:25 3:1 4:1 5:2 6:1 7:1 
1 1:1 2:31 3:1 4:1 5:1 6:1 7:1 
1 1:1 2:30 3:3 4:1 5:4 6:2 7:1 
1 1:1 2:29 3:1 4:2 5:6 6:1 7:1 
0.7971470689770794 1:2 2:28 3:3 4:2 5:2 6:2 7:1 
1 1:1 2:28 3:1 4:1 5:1 6:1 7:1 
1 1:1 2:30 3:1 4:2 5:6 6:1 7:1 
1 1:1 2:31 3:1 4:1 5:1 6:1 7:1 
1 1:1 2:30 3:1 4:2 5:1 6:1 7:1 
1 1:1 2:25 3:1 4:1 5:2 6:1 7:1 
1 1:1 2:30 3:3 4:1 5:4 6:2 7:1 
1 1:1 2:31 3:1 4:1 5:1 6:1 7:1 
1 1:1 2:31 3:1 4:2 5:3 6:1 7:4 
1 1:1 2:35 3:1 4:2 5:5 6:2 7:1 
1 1:1 2:25 3:2 4:2 5:4 6:1 7:1 
1 1:1 2:33 3:1 4:1 5:4 6:2 7:1 
1 1:1 2:23 3:1 4:2 5:1 6:1 7:1 
0.7400256038745905 1:1 2:51 3:1 4:6 5:21 6:2 7:1 
1 1:1 2:37 3:1 4:1 5:6 6:1 7:1 
1 1:1 2:27 3:1 4:1 5:1 6:1 7:1 
1 1:1 2:28 3:2 4:1 5:5 6:1 7:1 
1 1:1 2:37 3:1 4:2 5:2 6:1 7:1 
1 1:1 2:32 3:1 4:2 5:2 6:2 7:1 
0.03966584037212629 1:2 2:31 3:2 4:1 5:8 6:1 7:3 
1 1:1 2:24 3:2 4:2 5:1 6:1 7:1 
1 1:1 2:32 3:1 4:1 5:4 6:1 7:2 
1 1:1 2:29 3:4 4:1 5:2 6:1 7:1 
1 1:2 2:26 3:3 4:2 5:3 6:1 7:1 
1 1:1 2:30 3:4 4:1 5:4 6:1 7:1 
1 1:1 2:26 3:2 4:1 5:2 6:1 7:1 
1 1:2 2:26 3:1 4:2 5:1 6:1 7:1 
1 1:1 2:31 3:1 4:5 5:4 6:2 7:1 
1 1:2 2:27 3:1 4:1 5:2 6:1 7:1 
1 1:1 2:31 3:1 4:2 5:7 6:2 7:1 
1 1:1 2:32 3:2 4:1 5:9 6:1 7:1 
1 1:1 2:34 3:1 4:1 5:8 6:1 7:1 
1 1:1 2:24 3:2 4:2 5:1 6:1 7:1 
1 1:1 2:31 3:1 4:2 5:7 6:2 7:1 
0.7730522145740666 1:2 2:24 3:1 4:4 5:2 6:1 7:1 
1 1:1 2:31 3:1 4:1 5:1 6:1 7:1 
1 1:2 2:29 3:2 4:1 5:6 6:2 7:1 
1 1:1 2:27 3:1 4:2 5:2 6:1 7:1 
1 1:1 2:37 3:1 4:2 5:12 6:2 7:1 
1 1:1 2:29 3:3 4:2 5:2 6:2 7:5 
1 1:1 2:31 3:1 4:1 5:1 6:1 7:1 
1 1:1 2:34 3:5 4:1 5:3 6:2 7:4 
1 1:2 2:30 3:1 4:1 5:6 6:1 7:1 
1 1:1 2:31 3:1 4:1 5:1 6:1 7:1 
1 1:1 2:27 3:2 4:1 5:4 6:1 7:1 
1 1:1 2:27 3:2 4:1 5:3 6:1 7:1 
0.1650703365455654 1:1 2:33 3:1 4:2 5:2 6:2 7:1 
1 1:1 2:25 3:1 4:1 5:1 6:1 7:1 
1 1:2 2:26 3:1 4:5 5:2 6:1 7:1 
1 1:1 2:33 3:3 4:1 5:2 6:1 7:1 
1 1:2 2:29 3:2 4:1 5:6 6:1 7:1 
1 1:1 2:27 3:3 4:2 5:2 6:1 7:1 
1 1:1 2:32 3:1 4:1 5:4 6:1 7:2 
1 1:1 2:32 3:1 4:1 5:4 6:1 7:2 
1 1:1 2:29 3:1 4:1 5:4 6:1 7:1 
1 1:1 2:29 3:1 4:1 5:2 6:1 7:1 
0.08641457151953807 1:1 2:38 3:1 4:2 5:15 6:2 7:4 
1 1:1 2:30 3:3 4:1 5:4 6:2 7:1 
1 1:2 2:26 3:1 4:2 5:2 6:1 7:1 
0.7103580892616311 1:2 2:24 3:1 4:4 5:2 6:1 7:1 
1 1:1 2:24 3:1 4:4 5:2 6:1 7:1 
1 1:1 2:31 3:1 4:1 5:1 6:1 7:1 
1 1:2 2:30 3:1 4:2 5:4 6:1 7:1 
1 1:2 2:49 3:1 4:5 5:3 6:2 7:1 
1 1:1 2:27 3:2 4:2 5:4 6:1 7:1 
1 1:1 2:31 3:1 4:1 5:1 6:1 7:1 
1 1:1 2:29 3:3 4:2 5:1 6:1 7:1 
1 1:1 2:31 3:1 4:2 5:1 6:1 7:1 
1 1:1 2:27 3:3 4:1 5:2 6:1 7:1 
1 1:1 2:25 3:1 4:2 5:4 6:1 7:1 
1 1:2 2:30 3:3 4:2 5:3 6:2 7:1 
1 1:1 2:28 3:2 4:1 5:5 6:1 7:1 
1 1:2 2:30 3:3 4:2 5:3 6:2 7:1 
1 1:1 2:31 3:1 4:2 5:7 6:2 7:1 
1 1:1 2:30 3:1 4:1 5:3 6:1 7:1 
0.1174500371971055 1:1 2:34 3:1 4:5 5:7 6:1 7:1 
1 1:1 2:31 3:1 4:2 5:4 6:1 7:1 
1 1:1 2:33 3:1 4:2 5:7 6:2 7:4 
0.9353778189494252 1:1 2:29 3:1 4:1 5:1 6:2 7:1 
1 1:1 2:30 3:1 4:1 5:2 6:1 7:4 
0.9910711474628598 1:1 2:37 3:1 4:2 5:6 6:1 7:1 
1 1:1 2:27 3:3 4:1 5:2 6:1 7:1 
1 1:2 2:28 3:1 4:2 5:4 6:1 7:1 
1 1:1 2:26 3:3 4:1 5:2 6:1 7:1 
1 1:1 2:29 3:1 4:1 5:2 6:1 7:1 
1 1:1 2:35 3:2 4:1 5:8 6:1 7:1 
1 1:1 2:25 3:2 4:2 5:4 6:1 7:1 
1 1:1 2:28 3:1 4:1 5:1 6:1 7:1 
1 1:1 2:27 3:1 4:2 5:2 6:1 7:1 
1 1:1 2:39 3:1 4:2 5:15 6:2 7:1 
1 1:1 2:32 3:1 4:2 5:1 6:2 7:1 
0.8560639394347979 1:1 2:34 3:2 4:2 5:12 6:2 7:1 
1 1:1 2:35 3:1 4:2 5:5 6:2 7:1 
1 1:1 2:33 3:1 4:2 5:2 6:2 7:1 
1 1:2 2:23 3:2 4:1 5:1 6:1 7:1 
0.09663031247303136 1:1 2:30 3:5 4:2 5:1 6:1 7:1 
1 1:1 2:27 3:3 4:1 5:2 6:1 7:4 
1 1:1 2:28 3:2 4:2 5:5 6:1 7:1 
1 1:1 2:27 3:3 4:2 5:2 6:1 7:1 
1 1:1 2:30 3:1 4:1 5:2 6:1 7:4 
1 1:1 2:30 3:1 4:1 5:3 6:1 7:1 
0.8112161001020399 1:2 2:34 3:1 4:2 5:12 6:2 7:1 
1 1:1 2:33 3:3 4:1 5:2 6:1 7:1 
1 1:1 2:30 3:1 4:1 5:3 6:1 7:1 
1 1:2 2:29 3:3 4:2 5:1 6:1 7:1 
1 1:1 2:28 3:1 4:1 5:1 6:1 7:1 
0.7966931067922913 1:1 2:40 3:1 4:2 5:9 6:2 7:4 
1 1:1 2:25 3:2 4:1 5:3 6:1 7:1 
1 1:1 2:27 3:1 4:2 5:4 6:1 7:1 
1 1:1 2:33 3:3 4:1 5:2 6:1 7:1 
1 1:1 2:41 3:1 4:2 5:2 6:2 7:1 
0.9898037636491239 1:1 2:32 3:1 4:2 5:1 6:2 7:1 
1 1:2 2:33 3:1 4:5 5:2 6:2 7:1 
1 1:1 2:42 3:2 4:1 5:19 6:2 7:3 
1 1:1 2:30 3:1 4:2 5:2 6:1 7:1 
1 1:1 2:31 3:1 4:2 5:7 6:2 7:1 
1 1:1 2:38 3:3 4:2 5:5 6:2 7:3 
1 1:1 2:30 3:5 4:2 5:1 6:1 7:1 
1 1:1 2:30 3:1 4:2 5:1 6:1 7:1 
1 1:1 2:27 3:2 4:1 5:3 6:1 7:1 
1 1:1 2:33 3:1 4:1 5:2 6:1 7:1 
1 1:1 2:33 3:1 4:2 5:2 6:2 7:1 
1 1:1 2:32 3:1 4:2 5:7 6:1 7:1 
1 1:1 2:27 3:2 4:1 5:3 6:1 7:1 
1 1:1 2:33 3:3 4:1 5:2 6:1 7:1 
1 1:1 2:33 3:3 4:1 5:2 6:1 7:1 
1 1:2 2:27 3:1 4:1 5:1 6:1 7:1 
1 1:2 2:27 3:1 4:1 5:2 6:1 7:1 
1 1:1 2:28 3:1 4:1 5:2 6:1 7:1 
1 1:1 2:27 3:3 4:2 5:2 6:1 7:1 
1 1:1 2:35 3:2 4:1 5:8 6:1 7:1 
1 1:1 2:28 3:3 4:2 5:2 6:2 7:1 
1 1:1 2:30 3:1 4:2 5:6 6:1 7:1 
1 1:1 2:32 3:1 4:2 5:7 6:1 7:1 
1 1:1 2:33 3:1 4:1 5:2 6:1 7:1 
1 1:1 2:27 3:1 4:2 5:4 6:1 7:1 
1 1:1 2:28 3:1 4:5 5:5 6:1 7:1 
1 1:2 2:26 3:1 4:2 5:1 6:1 7:1 
1 1:1 2:31 3:1 4:1 5:1 6:1 7:1 
0.9447130136421463 1:1 2:27 3:3 4:1 5:2 6:1 7:4 
1 1:2 2:33 3:3 4:1 5:6 6:1 7:1 
1 1:1 2:31 3:1 4:1 5:1 6:1 7:1 
1 1:1 2:31 3:1 4:1 5:1 6:1 7:1 
1 1:1 2:28 3:2 4:1 5:5 6:1 7:1 
1 1:1 2:35 3:1 4:1 5:10 6:1 7:1 
1 1:2 2:35 3:3 4:1 5:7 6:2 7:1 
1 1:1 2:37 3:1 4:1 5:6 6:1 7:1 
1 1:1 2:28 3:1 4:4 5:1 6:2 7:1 
1 1:1 2:38 3:2 4:1 5:11 6:1 7:1 
1 1:1 2:26 3:2 4:1 5:2 6:1 7:1 
1 1:1 2:31 3:1 4:2 5:3 6:1 7:4 
1 1:1 2:31 3:1 4:1 5:1 6:1 7:1 
1 1:1 2:38 3:1 4:2 5:15 6:2 7:4 
1 1:1 2:27 3:3 4:1 5:3 6:1 7:1 
1 1:1 2:32 3:1 4:2 5:7 6:1 7:1 
1 1:1 2:32 3:1 4:1 5:4 6:1 7:2 
0.6750503387171573 1:2 2:26 3:3 4:5 5:5 6:1 7:1 
0.8004264204569626 1:2 2:46 3:1 4:1 5:9 6:2 7:4 
1 1:1 2:27 3:1 4:1 5:1 6:1 7:1 
1 1:1 2:29 3:1 4:1 5:4 6:1 7:1 
1 1:1 2:29 3:1 4:1 5:4 6:1 7:1 
0.4323206098428001 1:1 2:29 3:1 4:1 5:4 6:1 7:1 
1 1:1 2:24 3:2 4:2 5:1 6:1 7:1 
1 1:1 2:28 3:3 4:1 5:2 6:1 7:1 
1 1:1 2:27 3:3 4:1 5:2 6:1 7:1 
1 1:1 2:37 3:1 4:2 5:12 6:1 7:1 
0.9322157109350946 1:1 2:35 3:2 4:1 5:12 6:2 7:4 
1 1:1 2:24 3:2 4:2 5:1 6:1 7:1 
1 1:1 2:33 3:1 4:1 5:2 6:1 7:1 
0.7986376160197194 1:2 2:24 3:3 4:2 5:2 6:2 7:1 
1 1:2 2:31 3:2 4:1 5:8 6:1 7:3 
1 1:1 2:29 3:1 4:1 5:2 6:1 7:1 
1 1:1 2:32 3:1 4:2 5:2 6:2 7:1 
0.8346230167022934 1:1 2:42 3:3 4:3 5:18 6:2 7:1 
0.2028556682990597 1:1 2:32 3:1 4:1 5:2 6:2 7:1 
1 1:2 2:30 3:1 4:1 5:5 6:2 7:5 
1 1:1 2:30 3:1 4:2 5:6 6:1 7:1 
1 1:2 2:30 3:3 4:2 5:3 6:2 7:1 
0.8281874244463303 1:1 2:38 3:1 4:5 5:5 6:2 7:1 
1 1:1 2:27 3:1 4:1 5:1 6:1 7:1 
1 1:1 2:25 3:1 4:1 5:2 6:1 7:1 
0.05287018549802132 1:1 2:38 3:1 4:4 5:8 6:2 7:1 
1 1:1 2:33 3:3 4:1 5:2 6:1 7:1 
1 1:1 2:26 3:3 4:1 5:2 6:1 7:1 
1 1:2 2:23 3:2 4:1 5:1 6:1 7:1 
0.9482020153546021 1:1 2:34 3:1 4:5 5:7 6:1 7:1 
1 1:1 2:32 3:1 4:2 5:1 6:1 7:1 
0.6695326641791922 1:1 2:37 3:1 4:6 5:9 6:2 7:1 
1 1:1 2:33 3:1 4:1 5:2 6:1 7:1 
1 1:1 2:24 3:2 4:2 5:1 6:1 7:1 
1 1:1 2:30 3:1 4:2 5:6 6:1 7:1 
1 1:2 2:30 3:3 4:2 5:3 6:2 7:1 
1 1:1 2:27 3:3 4:1 5:2 6:1 7:1 
1 1:1 2:27 3:3 4:2 5:2 6:1 7:1 
1 1:1 2:32 3:2 4:1 5:9 6:1 7:1 
0.3315323913831743 1:2 2:39 3:2 4:3 5:17 6:2 7:4 
1 1:1 2:29 3:2 4:1 5:5 6:1 7:1 
1 1:2 2:30 3:1 4:1 5:6 6:1 7:1 
1 1:1 2:27 3:3 4:2 5:2 6:1 7:1 
1 1:2 2:34 3:1 4:2 5:7 6:1 7:1 
1 1:1 2:33 3:3 4:1 5:2 6:1 7:1 
1 1:1 2:42 3:2 4:1 5:19 6:2 7:3 
0.4389302764292419 1:1 2:30 3:2 4:2 5:8 6:1 7:1 
1 1:2 2:26 3:3 4:2 5:1 6:2 7:1 
0.9976696792715615 1:1 2:30 3:5 4:2 5:1 6:1 7:1 
1 1:1 2:29 3:1 4:1 5:2 6:1 7:1 
1 1:1 2:28 3:2 4:4 5:8 6:1 7:1 
0.9790624398878137 1:1 2:27 3:3 4:2 5:2 6:1 7:1 
0.4143702396166745 1:2 2:26 3:5 4:2 5:6 6:1 7:1 
1 1:1 2:26 3:2 4:1 5:2 6:1 7:1 
1 1:1 2:29 3:1 4:1 5:2 6:1 7:1 
1 1:1 2:30 3:1 4:2 5:1 6:1 7:1 
1 1:1 2:30 3:1 4:1 5:3 6:1 7:1 
1 1:1 2:31 3:3 4:1 5:1 6:2 7:1 
-0.01124615822521129 1:1 2:28 3:1 4:2 5:6 6:2 7:1 
-1 1:1 2:28 3:1 4:1 5:3 6:1 7:1 
-1 1:1 2:38 3:1 4:1 5:2 6:1 7:3 
-1 1:1 2:27 3:2 4:2 5:4 6:1 7:1 
-0.9511109987457979 1:1 2:24 3:1 4:2 5:1 6:1 7:1 
-1 1:1 2:30 3:2 4:1 5:6 6:1 7:1 
-1 1:1 2:27 3:1 4:1 5:1 6:1 7:1 
-1 1:1 2:30 3:1 4:2 5:5 6:2 7:1 
-0.9528955034717722 1:1 2:31 3:1 4:1 5:5 6:1 7:5 
-0.5817726525690279 1:1 2:33 3:1 4:2 5:7 6:1 7:1 
-1 1:1 2:27 3:2 4:1 5:3 6:1 7:4 
-1 1:1 2:27 3:2 4:2 5:4 6:1 7:1 
-1 1:1 2:30 3:4 4:1 5:2 6:2 7:1 
-1 1:1 2:28 3:1 4:2 5:6 6:2 7:1 
-0.5970199176027764 1:1 2:24 3:1 4:4 5:0 6:1 7:1 
-1 1:1 2:31 3:1 4:1 5:1 6:2 7:1 
-0.1393514207877709 1:1 2:30 3:2 4:2 5:3 6:1 7:4 
-1 1:1 2:32 3:2 4:1 5:1 6:1 7:1 
-1 1:1 2:29 3:4 4:1 5:2 6:1 7:1 
-1 1:2 2:25 3:2 4:1 5:2 6:1 7:1 
-1 1:1 2:30 3:1 4:1 5:2 6:1 7:1 
-1 1:1 2:34 3:3 4:1 5:1 6:1 7:1 
-1 1:1 2:30 3:1 4:1 5:1 6:1 7:1 
-1 1:1 2:34 3:3 4:1 5:2 6:2 7:1 
-1 1:1 2:26 3:2 4:2 5:3 6:1 7:1 
-1 1:1 2:30 3:1 4:2 5:6 6:2 7:1 
-1 1:2 2:29 3:1 4:1 5:1 6:2 7:1 
-0.1700865703920464 1:2 2:30 3:1 4:2 5:3 6:1 7:1 
-1 1:1 2:33 3:1 4:2 5:7 6:1 7:1 
-1 1:1 2:32 3:1 4:2 5:2 6:1 7:1 
-0.5987266545665171 1:1 2:46 3:1 4:5 5:0 6:2 7:1 
-1 1:2 2:56 3:3 4:2 5:20 6:2 7:1 
-1 1:1 2:28 3:2 4:1 5:1 6:1 7:1 
-1 1:1 2:29 3:2 4:1 5:4 6:1 7:1 
-1 1:1 2:33 3:1 4:2 5:7 6:1 7:1 
-1 1:1 2:29 3:2 4:1 5:5 6:1 7:1 
-1 1:1 2:31 3:1 4:1 5:5 6:1 7:5 
-1 1:1 2:32 3:2 4:2 5:8 6:1 7:1 
-1 1:1 2:26 3:2 4:2 5:3 6:1 7:1 
-1 1:1 2:27 3:2 4:1 5:2 6:1 7:1 
-1 1:1 2:27 3:2 4:2 5:4 6:1 7:1 
-1 1:1 2:39 3:1 4:1 5:5 6:1 7:1 
-0.5696418830773173 1:1 2:34 3:2 4:1 5:3 6:1 7:4 
-1 1:1 2:26 3:5 4:2 5:2 6:1 7:1 
-1 1:2 2:29 3:1 4:1 5:1 6:2 7:1 
-1 1:1 2:32 3:1 4:1 5:1 6:1 7:1 
-1 1:1 2:26 3:2 4:2 5:4 6:1 7:1 
-1 1:1 2:31 3:1 4:4 5:1 6:2 7:1 
-1 1:2 2:45 3:1 4:1 5:13 6:1 7:5 
-1 1:1 2:32 3:1 4:2 5:2 6:1 7:1 
-1 1:1 2:28 3:1 4:2 5:0 6:1 7:1 
-1 1:2 2:31 3:3 4:1 5:0 6:1 7:1 
-1 1:1 2:30 3:1 4:2 5:3 6:1 7:1 
-1 1:1 2:33 3:2 4:1 5:4 6:1 7:1 
-1 1:2 2:28 3:1 4:1 5:2 6:1 7:1 
-1 1:1 2:30 3:1 4:2 5:6 6:2 7:1 
-1 1:1 2:33 3:1 4:1 5:0 6:1 7:1 
-1 1:2 2:37 3:1 4:2 5:10 6:2 7:1 
-0.2345536803125692 1:2 2:48 3:1 4:6 5:0 6:2 7:1 
-0.1559974028585135 1:1 2:29 3:1 4:1 5:0 6:1 7:4 
-1 1:1 2:27 3:2 4:1 5:2 6:1 7:1 
-1 1:2 2:25 3:2 4:1 5:2 6:1 7:1 
-1 1:1 2:44 3:2 4:1 5:22 6:2 7:4 
-1 1:1 2:27 3:2 4:1 5:2 6:1 7:1 
-1 1:1 2:26 3:5 4:2 5:2 6:1 7:1 
-1 1:1 2:32 3:1 4:1 5:1 6:1 7:1 
-1 1:1 2:31 3:4 4:1 5:2 6:1 7:1 
-1 1:1 2:33 3:1 4:2 5:7 6:1 7:1 
-1 1:1 2:24 3:1 4:2 5:1 6:1 7:1 
-1 1:1 2:29 3:1 4:1 5:0 6:1 7:1 
-0.01047046693416662 1:2 2:32 3:1 4:1 5:5 6:2 7:1 
-1 1:1 2:30 3:1 4:1 5:3 6:1 7:1 
-1 1:1 2:26 3:2 4:1 5:2 6:1 7:1 
-1 1:1 2:31 3:2 4:1 5:2 6:1 7:1 
-0.8072453779278865 1:2 2:30 3:2 4:1 5:6 6:1 7:1 
-1 1:1 2:38 3:1 4:1 5:6 6:2 7:1 
-1 1:1 2:35 3:1 4:1 5:5 6:1 7:3 
-1 1:2 2:38 3:2 4:2 5:13 6:2 7:2 
-1 1:2 2:26 3:2 4:2 5:1 6:1 7:2 
-1 1:1 2:26 3:2 4:1 5:2 6:1 7:1 
-1 1:1 2:34 3:2 4:1 5:2 6:1 7:1 
-1 1:1 2:31 3:1 4:2 5:6 6:1 7:1 
-1 1:1 2:30 3:2 4:1 5:5 6:1 7:1 
-0.7243384334999496 1:2 2:48 3:3 4:6 5:0 6:2 7:1 
-1 1:1 2:43 3:2 4:1 5:19 6:2 7:3 
-1 1:1 2:26 3:2 4:1 5:3 6:1 7:1 
-1 1:1 2:28 3:2 4:1 5:2 6:1 7:5 
-1 1:1 2:29 3:4 4:1 5:1 6:1 7:1 
-1 1:1 2:26 3:2 4:2 5:4 6:1 7:1 
-1 1:1 2:29 3:4 4:1 5:2 6:1 7:1 
-1 1:1 2:27 3:1 4:1 5:1 6:1 7:1 
-1 1:1 2:26 3:4 4:1 5:2 6:1 7:1 
-1 1:2 2:32 3:1 4:1 5:5 6:2 7:1 
-0.8351186888766536 1:1 2:29 3:2 4:1 5:3 6:1 7:1 
-1 1:1 2:28 3:1 4:1 5:1 6:1 7:1 
-1 1:1 2:38 3:2 4:1 5:9 6:2 7:1 
-1 1:1 2:27 3:2 4:1 5:2 6:1 7:1 
-1 1:2 2:26 3:1 4:1 5:1 6:1 7:1 
-0.2815673576406962 1:1 2:30 3:2 4:1 5:2 6:1 7:1 
-1 1:1 2:33 3:1 4:2 5:7 6:1 7:1 
-1 1:1 2:31 3:1 4:2 5:1 6:1 7:1 
-1 1:1 2:31 3:2 4:1 5:2 6:1 7:1 
-1 1:1 2:26 3:1 4:1 5:1 6:1 7:1 
-1 1:1 2:32 3:2 4:1 5:2 6:1 7:4 
-1 1:1 2:33 3:1 4:2 5:1 6:1 7:1 
-1 1:1 2:31 3:1 4:2 5:1 6:1 7:1 
-1 1:2 2:25 3:2 4:1 5:2 6:1 7:1 
-1 1:1 2:30 3:1 4:2 5:7 6:1 7:1 
-1 1:1 2:31 3:1 4:1 5:5 6:1 7:5 
-1 1:1 2:30 3:1 4:1 5:6 6:1 7:1 
-1 1:1 2:26 3:4 4:1 5:2 6:1 7:1 
-1 1:2 2:28 3:1 4:1 5:2 6:1 7:1 
-1 1:1 2:29 3:2 4:1 5:2 6:1 7:1 
-1 1:1 2:27 3:2 4:2 5:4 6:1 7:1 
-1 1:1 2:36 3:1 4:1 5:3 6:1 7:1 
-1 1:1 2:26 3:2 4:1 5:2 6:1 7:1 
-1 1:1 2:28 3:2 4:1 5:2 6:1 7:5 
-1 1:1 2:32 3:1 4:2 5:8 6:2 7:1 
-1 1:1 2:28 3:2 4:1 5:3 6:1 7:1 
-1 1:1 2:33 3:1 4:1 5:2 6:2 7:1 
-1 1:2 2:28 3:1 4:2 5:2 6:2 7:1 
-1 1:1 2:32 3:1 4:2 5:2 6:2 7:1 
-1 1:1 2:29 3:1 4:2 5:1 6:1 7:4 
-1 1:1 2:31 3:1 4:1 5:0 6:1 7:1 
-1 1:1 2:28 3:1 4:2 5:6 6:2 7:1 
-1 1:1 2:27 3:1 4:2 5:2 6:1 7:1 
-1 1:1 2:33 3:1 4:2 5:7 6:1 7:1 
-1 1:1 2:30 3:1 4:1 5:1 6:1 7:1 
-1 1:1 2:29 3:2 4:1 5:4 6:1 7:1 
-1 1:1 2:24 3:1 4:2 5:1 6:1 7:1 
-1 1:2 2:23 3:1 4:1 5:1 6:1 7:1 
-1 1:2 2:26 3:2 4:2 5:2 6:1 7:1 
-1 1:1 2:32 3:2 4:1 5:1 6:1 7:1 
-1 1:1 2:30 3:1 4:2 5:7 6:1 7:1 
-1 1:1 2:43 3:2 4:1 5:19 6:2 7:3 
-1 1:1 2:29 3:2 4:2 5:6 6:1 7:2 
-1 1:1 2:29 3:1 4:1 5:0 6:1 7:1 
-1 1:2 2:32 3:1 4:1 5:5 6:2 7:1 
-1 1:1 2:30 3:2 4:1 5:6 6:1 7:1 
-0.5199942791434087 1:1 2:27 3:1 4:1 5:0 6:1 7:1 
-1 1:1 2:30 3:2 4:1 5:2 6:1 7:1 
-0.2443682360767651 1:2 2:33 3:1 4:5 5:4 6:2 7:1 
-1 1:1 2:27 3:2 4:1 5:2 6:1 7:1 
-1 1:1 2:24 3:1 4:2 5:1 6:1 7:1 
-0.7512159200986197 1:1 2:25 3:2 4:1 5:1 6:1 7:1 
-1 1:1 2:33 3:1 4:2 5:7 6:1 7:1 
-1 1:1 2:30 3:1 4:2 5:7 6:1 7:1 
-1 1:1 2:26 3:2 4:2 5:4 6:1 7:1 
-0.2051261907115988 1:1 2:30 3:1 4:5 5:7 6:1 7:1 
-0.8707952771406875 1:1 2:33 3:2 4:1 5:8 6:2 7:1 
-1 1:1 2:29 3:2 4:1 5:4 6:1 7:1 
-1 1:1 2:30 3:1 4:2 5:6 6:2 7:1 
-1 1:1 2:31 3:1 4:1 5:1 6:1 7:1 
-1 1:1 2:27 3:2 4:2 5:4 6:1 7:1 
-1 1:1 2:26 3:2 4:1 5:3 6:1 7:1 
-1 1:1 2:38 3:1 4:1 5:5 6:2 7:1 
-1 1:1 2:36 3:2 4:2 5:6 6:2 7:1 
-1 1:1 2:33 3:1 4:1 5:2 6:2 7:1 
-1 1:1 2:29 3:4 4:1 5:2 6:1 7:1 
-1 1:1 2:30 3:1 4:2 5:1 6:1 7:1 
-1 1:1 2:38 3:1 4:2 5:14 6:2 7:1 
-1 1:1 2:25 3:4 4:1 5:1 6:1 7:1 
-0.1183758821322222 1:2 2:32 3:2 4:1 5:3 6:1 7:1 
-0.9953864737068248 1:1 2:28 3:3 4:4 5:1 6:2 7:1 
-1 1:1 2:26 3:2 4:2 5:3 6:1 7:1 
-1 1:1 2:29 3:1 4:2 5:3 6:1 7:1 
-1 1:1 2:43 3:2 4:1 5:19 6:2 7:3 
-1 1:1 2:54 3:5 4:3 5:8 6:2 7:1 
-1 1:2 2:28 3:1 4:2 5:2 6:2 7:1 
-1 1:1 2:27 3:2 4:2 5:4 6:1 7:1 
-1 1:1 2:32 3:1 4:1 5:2 6:1 7:1 
-1 1:1 2:29 3:2 4:1 5:5 6:1 7:1 
-1 1:1 2:28 3:3 4:4 5:1 6:2 7:1 
-1 1:1 2:38 3:1 4:2 5:14 6:2 7:1 
-1 1:1 2:33 3:1 4:2 5:7 6:1 7:1 
-1 1:1 2:27 3:1 4:2 5:3 6:1 7:1 
-1 1:1 2:29 3:2 4:1 5:4 6:1 7:1 
-1 1:2 2:33 3:1 4:5 5:4 6:2 7:1 
-1 1:1 2:38 3:1 4:2 5:14 6:2 7:1 
-1 1:1 2:30 3:1 4:5 5:7 6:1 7:1 
-0.2070496882395251 1:1 2:29 3:3 4:1 5:0 6:1 7:1 
-1 1:1 2:28 3:1 4:1 5:1 6:1 7:1 
-1 1:1 2:28 3:1 4:1 5:1 6:1 7:1 
-1 1:1 2:31 3:1 4:1 5:1 6:1 7:1 
-1 1:2 2:26 3:2 4:2 5:1 6:1 7:2 
-1 1:1 2:27 3:2 4:1 5:2 6:1 7:1 
-1 1:1 2:33 3:1 4:2 5:7 6:1 7:1 
-1 1:1 2:24 3:1 4:2 5:1 6:1 7:1 
-0.7446218661575973 1:1 2:27 3:1 4:2 5:4 6:2 7:1 
-1 1:1 2:32 3:2 4:1 5:3 6:1 7:1 
-1 1:1 2:35 3:1 4:1 5:12 6:1 7:1 
-1 1:1 2:28 3:1 4:1 5:1 6:1 7:1 
-0.1831918589135398 1:1 2:37 3:4 4:3 5:0 6:2 7:1 
-0.3250518386086957 1:1 2:30 3:2 4:1 5:5 6:1 7:1 
-1 1:1 2:29 3:1 4:2 5:3 6:1 7:1 
-1 1:1 2:28 3:1 4:2 5:6 6:2 7:1 
-1 1:1 2:37 3:2 4:1 5:12 6:1 7:1 
-1 1:1 2:33 3:2 4:1 5:3 6:1 7:1 
-1 1:2 2:33 3:1 4:5 5:4 6:2 7:1 
-1 1:2 2:30 3:2 4:1 5:6 6:1 7:1 
-1 1:1 2:32 3:1 4:2 5:8 6:2 7:1 
-1 1:1 2:27 3:2 4:1 5:2 6:1 7:1 
-0.7137696561095561 1:1 2:35 3:1 4:2 5:9 6:2 7:1 
-1 1:1 2:27 3:2 4:1 5:2 6:1 7:1 
-1 1:1 2:30 3:1 4:3 5:1 6:2 7:1 
-1 1:1 2:26 3:2 4:2 5:4 6:1 7:1 
-1 1:1 2:30 3:1 4:1 5:3 6:1 7:1 
-1 1:1 2:31 3:1 4:1 5:0 6:1 7:1 
-1 1:1 2:29 3:1 4:1 5:1 6:2 7:1 
-1 1:1 2:30 3:2 4:1 5:2 6:1 7:1 
-1 1:1 2:24 3:1 4:2 5:1 6:1 7:1 
-0.1616552064375051 1:1 2:35 3:1 4:2 5:0 6:1 7:1 
-1 1:1 2:29 3:1 4:1 5:2 6:1 7:1 
-1 1:1 2:24 3:2 4:1 5:1 6:1 7:1 
-1 1:1 2:36 3:2 4:2 5:6 6:2 7:1 
-0.6952259150524658 1:1 2:29 3:4 4:1 5:3 6:1 7:1 
-0.3276631342550007 1:1 2:38 3:6 4:1 5:7 6:2 7:3 
-1 1:2 2:30 3:2 4:1 5:6 6:1 7:1 
-1 1:2 2:27 3:1 4:4 5:1 6:1 7:1 
-1 1:1 2:31 3:4 4:1 5:2 6:1 7:1 
-1 1:1 2:26 3:2 4:1 5:3 6:1 7:1 
-1 1:1 2:31 3:4 4:1 5:2 6:1 7:1 
-1 1:1 2:31 3:1 4:2 5:2 6:1 7:1 
-1 1:1 2:31 3:1 4:4 5:1 6:2 7:1 
-1 1:1 2:28 3:3 4:4 5:1 6:2 7:1 
-1 1:1 2:24 3:1 4:2 5:1 6:1 7:1 
-1 1:1 2:34 3:1 4:4 5:1 6:2 7:1 
-1 1:1 2:27 3:2 4:1 5:2 6:1 7:1 
-1 1:1 2:37 3:3 4:3 5:1 6:1 7:1 
-1 1:1 2:24 3:1 4:2 5:1 6:1 7:1 
-1 1:1 2:25 3:2 4:1 5:1 6:1 7:1 
-0.1668388718218521 1:2 2:61 3:2 4:1 5:40 6:2 7:4 
-1 1:1 2:28 3:1 4:2 5:3 6:1 7:1 
-1 1:2 2:25 3:1 4:5 5:0 6:1 7:1 
-1 1:1 2:30 3:1 4:2 5:7 6:1 7:1 
-1 1:1 2:37 3:2 4:1 5:12 6:1 7:1 
-0.5902444013286628 1:2 2:47 3:1 4:6 5:1 6:2 7:1 
-0.9619907576836186 1:1 2:38 3:6 4:1 5:7 6:2 7:3 
-1 1:1 2:31 3:1 4:2 5:2 6:1 7:1 
-0.3178151239514708 1:1 2:28 3:2 4:2 5:4 6:2 7:1 
-0.5323351443635894 1:1 2:27 3:2 4:1 5:0 6:1 7:4 
-1 1:1 2:31 3:1 4:1 5:5 6:1 7:5 
-1 1:1 2:29 3:1 4:1 5:4 6:1 7:1 
-1 1:1 2:32 3:1 4:2 5:2 6:1 7:1 
-0.6152084792599318 1:1 2:37 3:1 4:1 5:3 6:2 7:1 
-1 1:1 2:31 3:1 4:2 5:2 6:2 7:2 
-1 1:1 2:30 3:1 4:5 5:7 6:1 7:1 
-1 1:1 2:33 3:2 4:1 5:4 6:1 7:1 
-1 1:1 2:35 3:1 4:1 5:2 6:1 7:1 
-1 1:1 2:28 3:2 4:2 5:4 6:2 7:1 
-1 1:1 2:28 3:1 4:1 5:3 6:1 7:1 
-1 1:2 2:30 3:2 4:1 5:6 6:1 7:1 
-1 1:1 2:28 3:1 4:2 5:3 6:1 7:1 
-1 1:1 2:32 3:1 4:2 5:2 6:1 7:1 
-1 1:1 2:32 3:2 4:1 5:1 6:1 7:1 
-1 1:1 2:32 3:1 4:1 5:0 6:1 7:1 
-1 1:1 2:30 3:2 4:2 5:3 6:1 7:4 
-1 1:2 2:27 3:1 4:4 5:1 6:1 7:1 
-0.9897500513732905 1:1 2:37 3:3 4:5 5:2 6:2 7:1 
-1 1:1 2:30 3:1 4:2 5:1 6:1 7:1 
-1 1:1 2:30 3:3 4:2 5:1 6:2 7:1 
-1 1:1 2:33 3:1 4:2 5:5 6:1 7:1 
-1 1:1 2:32 3:1 4:2 5:8 6:2 7:1 
-1 1:1 2:26 3:1 4:2 5:5 6:1 7:1 
-1 1:2 2:30 3:1 4:2 5:3 6:1 7:1 
-1 1:1 2:28 3:2 4:1 5:2 6:1 7:1 
-1 1:1 2:30 3:2 4:1 5:2 6:1 7:1 
-1 1:1 2:37 3:2 4:1 5:12 6:1 7:1 
-1 1:1 2:32 3:1 4:1 5:2 6:2 7:1 
-1 1:1 2:28 3:1 4:2 5:6 6:2 7:1 
-1 1:1 2:26 3:2 4:2 5:4 6:1 7:1 
-1 1:1 2:35 3:1 4:2 5:9 6:2 7:1 
-1 1:2 2:30 3:2 4:1 5:6 6:1 7:1 
-1 1:1 2:26 3:2 4:1 5:2 6:1 7:1 
-1 1:1 2:33 3:1 4:2 5:7 6:1 7:1 
-0.361772885937047 1:1 2:40 3:1 4:1 5:2 6:1 7:1 
-0.9667487255066365 1:1 2:33 3:2 4:1 5:8 6:2 7:1 
-1 1:1 2:32 3:1 4:2 5:2 6:1 7:1 
-1 1:1 2:28 3:1 4:1 5:1 6:1 7:1 
-1 1:1 2:32 3:2 4:1 5:3 6:1 7:1 
-1 1:1 2:28 3:2 4:1 5:1 6:1 7:1 
-1 1:1 2:36 3:2 4:2 5:6 6:2 7:1 
-1 1:1 2:26 3:2 4:2 5:4 6:1 7:1 
-1 1:1 2:29 3:4 4:1 5:1 6:1 7:1 
-1 1:1 2:28 3:1 4:1 5:1 6:1 7:1 
-1 1:1 2:41 3:1 4:4 5:1 6:2 7:1 
-1 1:1 2:27 3:1 4:5 5:2 6:1 7:1 
-1 1:1 2:31 3:2 4:2 5:5 6:1 7:1 
-1 1:1 2:30 3:1 4:2 5:5 6:2 7:1 
-1 1:1 2:37 3:1 4:1 5:3 6:1 7:1 
-1 1:1 2:24 3:1 4:2 5:1 6:1 7:1 
-1 1:1 2:31 3:1 4:1 5:0 6:1 7:1 
-1 1:2 2:32 3:1 4:1 5:5 6:2 7:1 
-1 1:2 2:30 3:2 4:1 5:6 6:1 7:1 
-1 1:1 2:29 3:4 4:1 5:2 6:1 7:1 
-1 1:1 2:26 3:1 4:1 5:1 6:1 7:1 
-1 1:1 2:33 3:1 4:2 5:7 6:1 7:1 
-1 1:2 2:30 3:1 4:2 5:3 6:1 7:1 
-1 1:1 2:33 3:1 4:1 5:3 6:2 7:2 
-1 1:2 2:28 3:1 4:2 5:2 6:2 7:1 
-1 1:1 2:28 3:3 4:4 5:1 6:2 7:1 
-1 1:2 2:37 3:1 4:2 5:5 6:2 7:1 
-1 1:2 2:33 3:1 4:5 5:4 6:2 7:1 
-0.4633457332578538 1:2 2:25 3:3 4:1 5:1 6:1 7:1 
-1 1:2 2:30 3:2 4:1 5:6 6:1 7:1 
-1 1:2 2:24 3:1 4:4 5:1 6:1 7:1 
-1 1:2 2:23 3:1 4:1 5:1 6:1 7:1 
-0.824464169747214 1:2 2:31 3:2 4:1 5:1 6:1 7:1 
-0.8981665063352753 1:1 2:30 3:2 4:1 5:2 6:1 7:1 
-0.9095208673697874 1:1 2:25 3:2 4:1 5:1 6:1 7:1 
-1 1:1 2:30 3:1 4:1 5:1 6:1 7:1 
-1 1:1 2:28 3:1 4:1 5:3 6:1 7:1 
-1 1:2 2:25 3:2 4:1 5:2 6:1 7:1 
-1 1:1 2:30 3:1 4:2 5:3 6:1 7:1 
-0.2524637044825645 1:1 2:42 3:3 4:1 5:1 6:2 7:1 
-1 1:1 2:30 3:4 4:1 5:2 6:2 7:1 
-1 1:2 2:30 3:2 4:1 5:6 6:1 7:1 
-1 1:2 2:29 3:2 4:1 5:4 6:1 7:1 
-0.8077336934444826 1:1 2:44 3:2 4:1 5:22 6:2 7:4 
-1 1:1 2:29 3:1 4:1 5:2 6:1 7:1 
-1 1:2 2:32 3:2 4:1 5:3 6:1 7:1 
-0.6341229524852687 1:1 2:27 3:2 4:1 5:1 6:1 7:1 
-0.9972494217960461 1:2 2:31 3:2 4:1 5:1 6:1 7:1 
-1 1:2 2:25 3:3 4:2 5:1 6:1 7:1 
-1 1:1 2:27 3:2 4:1 5:2 6:1 7:1 
-1 1:1 2:28 3:2 4:1 5:2 6:1 7:1 
-1 1:1 2:27 3:1 4:2 5:2 6:1 7:1 
-1 1:1 2:26 3:1 4:2 5:5 6:1 7:1 
-0.6379431626884124 1:1 2:35 3:1 4:2 5:9 6:2 7:1 
-0.9140395748509644 1:1 2:41 3:1 4:1 5:4 6:2 7:1 
-0.95840779249033 1:2 2:61 3:2 4:1 5:40 6:2 7:4 
-1 1:1 2:26 3:2 4:1 5:2 6:1 7:1 
-1 1:1 2:27 3:2 4:1 5:2 6:1 7:1 
-1 1:1 2:29 3:4 4:1 5:2 6:1 7:1 
-1 1:1 2:26 3:2 4:2 5:3 6:1 7:1 
-0.183479911708553 1:2 2:26 3:1 4:1 5:1 6:1 7:1 
-1 1:1 2:27 3:2 4:2 5:4 6:1 7:1 
-1 1:1 2:30 3:1 4:2 5:5 6:2 7:1 
-1 1:1 2:32 3:1 4:2 5:8 6:2 7:1 
-1 1:1 2:30 3:1 4:5 5:7 6:1 7:1 
-1 1:1 2:31 3:1 4:2 5:2 6:1 7:1 
-1 1:1 2:32 3:1 4:2 5:2 6:2 7:1 
-1 1:1 2:27 3:2 4:2 5:4 6:1 7:1 
-1 1:1 2:30 3:1 4:1 5:4 6:2 7:1 
-1 1:1 2:28 3:2 4:1 5:2 6:1 7:1 
-1 1:2 2:30 3:2 4:1 5:6 6:1 7:1 
-1 1:1 2:28 3:2 4:1 5:3 6:1 7:1 
-1 1:1 2:34 3:3 4:1 5:1 6:1 7:1 
-0.4051521043066629 1:1 2:29 3:2 4:1 5:4 6:1 7:5 
-1 1:1 2:27 3:2 4:1 5:2 6:1 7:1 
-1 1:1 2:32 3:2 4:2 5:8 6:1 7:1 
-1 1:1 2:32 3:1 4:1 5:1 6:1 7:1 
-1 1:1 2:29 3:2 4:1 5:3 6:1 7:1 
-1 1:2 2:28 3:1 4:2 5:2 6:2 7:1 
-1 1:1 2:31 3:2 4:1 5:2 6:1 7:1 
-1 1:1 2:27 3:2 4:2 5:4 6:1 7:1 
-0.9467382789266988 1:2 2:30 3:1 4:2 5:3 6:1 7:1 
-1 1:1 2:32 3:1 4:2 5:2 6:2 7:1 
-0.6772934295851524 1:2 2:23 3:1 4:1 5:1 6:1 7:1 
-1 1:1 2:26 3:2 4:1 5:2 6:1 7:1 
-0.9973601409295425 1:2 2:38 3:1 4:2 5:0 6:2 7:1 
-1 1:1 2:29 3:2 4:2 5:6 6:1 7:2 
-1 1:1 2:32 3:1 4:1 5:7 6:1 7:4 
-1 1:1 2:30 3:3 4:2 5:1 6:2 7:1 
-0.9919156776837939 1:1 2:42 3:3 4:1 5:1 6:2 7:1 
-1 1:1 2:31 3:4 4:1 5:6 6:2 7:4 
-0.9247763860667649 1:2 2:28 3:2 4:1 5:2 6:1 7:4 
-1 1:1 2:29 3:2 4:2 5:6 6:1 7:2 
-1 1:1 2:44 3:3 4:1 5:3 6:2 7:4 
-1 1:1 2:32 3:2 4:2 5:8 6:1 7:1 
-1 1:1 2:30 3:1 4:3 5:1 6:2 7:1 
-1 1:1 2:33 3:1 4:2 5:7 6:1 7:1 
-1 1:1 2:31 3:2 4:2 5:5 6:1 7:1 
-1 1:2 2:33 3:1 4:5 5:4 6:2 7:1 
-0.5988501176670038 1:1 2:30 3:1 4:4 5:2 6:1 7:1 
-0.8658849583915154 1:1 2:35 3:2 4:1 5:5 6:1 7:1 
-0.8219618296829927 1:1 2:30 3:4 4:1 5:0 6:1 7:4 
-1 1:1 2:26 3:2 4:1 5:3 6:1 7:1 
-1 1:1 2:32 3:1 4:1 5:1 6:1 7:1 
-1 1:1 2:31 3:2 4:1 5:2 6:1 7:1 
-1 1:1 2:27 3:2 4:1 5:2 6:1 7:1 
-0.768806203276208 1:1 2:29 3:2 4:1 5:3 6:1 7:1 
-1 1:1 2:30 3:2 4:2 5:3 6:1 7:4 
-1 1:1 2:26 3:2 4:1 5:2 6:1 7:1 
-0.2416161792378805 1:2 2:29 3:2 4:1 5:3 6:1 7:5 
-1 1:1 2:32 3:1 4:2 5:8 6:2 7:1 
-0.7150200964856418 1:1 2:37 3:2 4:1 5:12 6:1 7:1 
-0.2102554776005494 1:2 2:28 3:2 4:1 5:2 6:1 7:1 
-1 1:1 2:33 3:1 4:2 5:7 6:1 7:1 
-1 1:1 2:28 3:2 4:1 5:1 6:1 7:1 
-1 1:1 2:28 3:3 4:4 5:1 6:2 7:1 
-0.2090476929999922 1:2 2:45 3:2 4:1 5:21 6:2 7:3 
-1 1:1 2:28 3:4 4:1 5:3 6:1 7:1 
-1 1:2 2:53 3:3 4:6 5:17 6:2 7:1 
-1 1:1 2:28 3:3 4:4 5:1 6:2 7:1 
-1 1:1 2:28 3:1 4:1 5:1 6:1 7:1 
-1 1:1 2:29 3:4 4:1 5:2 6:1 7:1 
-1 1:1 2:30 3:1 4:2 5:7 6:1 7:1 
-1 1:1 2:30 3:1 4:5 5:7 6:1 7:1 
-1 1:1 2:38 3:2 4:1 5:9 6:2 7:1 
-1 1:2 2:30 3:1 4:5 5:4 6:1 7:1 
-1 1:1 2:24 3:1 4:2 5:1 6:1 7:1 
-0.949621580167809 1:1 2:29 3:4 4:1 5:3 6:1 7:1 
-1 1:2 2:34 3:3 4:2 5:1 6:2 7:4 
-1 1:1 2:32 3:1 4:2 5:2 6:1 7:1 
-1 1:1 2:27 3:2 4:1 5:2 6:1 7:1 
-1 1:1 2:26 3:2 4:2 5:3 6:1 7:1 
-1 1:2 2:29 3:1 4:4 5:1 6:1 7:1 
-0.3508328850227935 1:1 2:40 3:1 4:1 5:0 6:2 7:1 
-1 1:1 2:26 3:2 4:2 5:3 6:1 7:1 
-1 1:1 2:34 3:3 4:1 5:1 6:1 7:1 
-1 1:1 2:28 3:3 4:4 5:1 6:2 7:1 
-1 1:1 2:28 3:1 4:2 5:3 6:1 7:1 
-1 1:1 2:28 3:4 4:1 5:3 6:1 7:1 
-1 1:1 2:26 3:2 4:1 5:2 6:1 7:1 
-1 1:1 2:24 3:1 4:2 5:1 6:1 7:1 
-1 1:1 2:35 3:1 4:2 5:0 6:1 7:1 
-0.359931946974061 1:1 2:33 3:1 4:1 5:1 6:1 7:5 
-1 1:1 2:28 3:1 4:1 5:1 6:2 7:1 
-1 1:1 2:32 3:1 4:1 5:1 6:1 7:1 
-1 1:1 2:29 3:2 4:1 5:2 6:1 7:1 
-1 1:1 2:28 3:4 4:1 5:1 6:1 7:1 
-0.7007393864913863 1:1 2:32 3:2 4:1 5:2 6:1 7:4 
-1 1:1 2:25 3:4 4:1 5:1 6:1 7:1 
-0.9910711474628598 1:1 2:36 3:2 4:2 5:6 6:2 7:1 
-1 1:1 2:29 3:4 4:1 5:2 6:1 7:1 
