svm_type c_svc
kernel_type rbf
gamma 0.142857
nr_class 2
total_sv 760
rho -0.110387
label 1 -1
nr_sv 377 383
SV
0.02773962586013877 1:1 2:30 3:2 4:2 5:8 6:1 7:1 
1 1:1 2:32 3:2 4:1 5:8 6:1 7:1 
0.5314736468965565 1:1 2:47 3:1 4:6 5:17 6:2 7:1 
0.7894756088374972 1:2 2:26 3:1 4:2 5:5 6:2 7:1 
0.2668326321722812 1:1 2:33 3:1 4:2 5:2 6:2 7:1 
0.7082310103232181 1:1 2:37 3:1 4:4 5:11 6:2 7:1 
0.5720760437497283 1:2 2:24 3:1 4:2 5:2 6:1 7:1 
1 1:2 2:29 3:1 4:2 5:6 6:1 7:1 
1 1:1 2:28 3:1 4:4 5:1 6:2 7:1 
0.6189298251301873 1:2 2:24 3:5 4:1 5:1 6:1 7:1 
1 1:1 2:26 3:2 4:1 5:2 6:1 7:1 
0.6339018058201394 1:1 2:25 3:2 4:1 5:3 6:1 7:1 
1 1:1 2:33 3:3 4:1 5:7 6:2 7:1 
0.8303876369516124 1:1 2:32 3:2 4:1 5:9 6:1 7:1 
1 1:1 2:33 3:1 4:2 5:7 6:2 7:4 
1 1:1 2:37 3:2 4:2 5:16 6:2 7:1 
0.7557630481476182 1:1 2:42 3:3 4:3 5:18 6:2 7:1 
1 1:1 2:28 3:3 4:1 5:3 6:1 7:1 
1 1:1 2:32 3:2 4:1 5:9 6:1 7:1 
1 1:1 2:29 3:2 4:1 5:5 6:1 7:1 
1 1:2 2:26 3:1 4:5 5:2 6:1 7:1 
1 1:1 2:29 3:3 4:2 5:2 6:1 7:1 
1 1:1 2:27 3:1 4:2 5:1 6:1 7:1 
1 1:1 2:26 3:2 4:1 5:2 6:1 7:1 
1 1:1 2:27 3:3 4:1 5:3 6:1 7:1 
0.7453874522217944 1:1 2:41 3:5 4:1 5:4 6:1 7:1 
1 1:1 2:36 3:3 4:1 5:2 6:2 7:1 
1 1:1 2:29 3:1 4:1 5:1 6:2 7:1 
1 1:1 2:23 3:2 4:1 5:1 6:1 7:1 
1 1:1 2:32 3:1 4:2 5:1 6:1 7:1 
1 1:1 2:36 3:1 4:2 5:10 6:2 7:1 
1 1:1 2:33 3:1 4:2 5:2 6:2 7:1 
1 1:1 2:38 3:2 4:1 5:11 6:1 7:1 
1 1:2 2:23 3:2 4:1 5:1 6:1 7:1 
0.5092258984745348 1:1 2:28 3:1 4:1 5:2 6:2 7:1 
0.6866253720293127 1:1 2:43 3:2 4:1 5:19 6:2 7:4 
0.1575484669185314 1:1 2:37 3:1 4:2 5:2 6:1 7:1 
1 1:1 2:30 3:1 4:1 5:5 6:1 7:1 
1 1:1 2:33 3:3 4:1 5:7 6:2 7:1 
0.5120629238898731 1:1 2:37 3:1 4:6 5:9 6:2 7:1 
1 1:1 2:31 3:3 4:1 5:2 6:2 7:1 
1 1:1 2:37 3:3 4:2 5:4 6:2 7:1 
0.0100799498305121 1:1 2:41 3:2 4:1 5:19 6:2 7:4 
1 1:1 2:30 3:1 4:4 5:3 6:1 7:1 
1 1:1 2:38 3:2 4:1 5:11 6:1 7:1 
0.8819256609228151 1:1 2:27 3:3 4:1 5:2 6:1 7:4 
1 1:1 2:31 3:1 4:2 5:7 6:2 7:1 
1 1:2 2:30 3:1 4:2 5:7 6:2 7:1 
0.02299944932642481 1:1 2:31 3:2 4:1 5:6 6:2 7:4 
1 1:1 2:28 3:2 4:1 5:5 6:1 7:1 
1 1:1 2:28 3:2 4:1 5:5 6:1 7:1 
0.7498251368280326 1:2 2:45 3:1 4:6 5:8 6:2 7:1 
1 1:1 2:27 3:3 4:2 5:2 6:1 7:1 
0.9231217581332251 1:2 2:35 3:1 4:3 5:4 6:1 7:1 
1 1:1 2:30 3:2 4:1 5:5 6:1 7:1 
0.1651266215609477 1:1 2:42 3:1 4:1 5:6 6:1 7:1 
1 1:1 2:33 3:3 4:1 5:2 6:1 7:1 
1 1:1 2:28 3:1 4:4 5:1 6:2 7:1 
1 1:1 2:27 3:2 4:1 5:4 6:1 7:1 
1 1:1 2:32 3:1 4:1 5:2 6:2 7:1 
1 1:1 2:34 3:1 4:1 5:8 6:1 7:1 
1 1:1 2:27 3:1 4:1 5:1 6:1 7:1 
1 1:1 2:24 3:2 4:2 5:1 6:1 7:1 
0.3239485910556513 1:1 2:29 3:2 4:2 5:6 6:2 7:1 
0.850301514233149 1:1 2:29 3:2 4:2 5:6 6:2 7:1 
1 1:1 2:29 3:1 4:1 5:4 6:1 7:1 
1 1:1 2:34 3:1 4:2 5:7 6:1 7:1 
1 1:1 2:27 3:4 4:2 5:2 6:1 7:1 
0.3559545764458201 1:2 2:44 3:3 4:4 5:4 6:2 7:1 
1 1:1 2:30 3:1 4:1 5:6 6:1 7:1 
1 1:1 2:33 3:1 4:2 5:2 6:2 7:1 
1 1:1 2:29 3:1 4:1 5:1 6:2 7:1 
1 1:2 2:26 3:1 4:2 5:1 6:1 7:1 
1 1:1 2:26 3:2 4:1 5:2 6:1 7:1 
1 1:1 2:29 3:1 4:1 5:2 6:1 7:1 
1 1:1 2:31 3:2 4:1 5:6 6:2 7:4 
1 1:1 2:27 3:3 4:1 5:2 6:1 7:4 
1 1:1 2:27 3:1 4:2 5:5 6:1 7:1 
0.9416143595755034 1:1 2:30 3:1 4:1 5:2 6:1 7:4 
1 1:1 2:26 3:1 4:1 5:1 6:1 7:1 
1 1:1 2:25 3:5 4:2 5:2 6:1 7:1 
1 1:1 2:27 3:2 4:2 5:5 6:1 7:1 
1 1:2 2:26 3:1 4:1 5:4 6:1 7:1 
1 1:1 2:27 3:1 4:2 5:1 6:1 7:1 
1 1:1 2:36 3:1 4:2 5:10 6:2 7:1 
0.3532180228841557 1:1 2:23 3:1 4:5 5:5 6:1 7:1 
1 1:1 2:27 3:3 4:1 5:2 6:1 7:4 
1 1:1 2:30 3:1 4:1 5:6 6:1 7:1 
0.7990912626871255 1:1 2:29 3:1 4:2 5:8 6:1 7:1 
1 1:1 2:39 3:1 4:2 5:3 6:2 7:1 
1 1:1 2:26 3:3 4:1 5:2 6:1 7:1 
1 1:1 2:33 3:1 4:1 5:2 6:1 7:1 
1 1:1 2:28 3:3 4:1 5:3 6:1 7:1 
1 1:1 2:34 3:1 4:2 5:1 6:2 7:1 
1 1:1 2:30 3:1 4:2 5:1 6:1 7:1 
1 1:2 2:30 3:1 4:2 5:7 6:2 7:1 
1 1:2 2:30 3:1 4:2 5:4 6:1 7:1 
1 1:1 2:26 3:3 4:1 5:2 6:1 7:1 
1 1:1 2:31 3:1 4:1 5:1 6:1 7:1 
0.9649063299987426 1:1 2:26 3:3 4:4 5:1 6:2 7:1 
1 1:1 2:24 3:1 4:2 5:1 6:1 7:1 
0.2951526811412208 1:2 2:28 3:3 4:2 5:2 6:2 7:1 
0.9935071926017013 1:1 2:35 3:2 4:1 5:12 6:2 7:4 
1 1:1 2:29 3:3 4:2 5:1 6:1 7:1 
0.007360366025327664 1:1 2:44 3:2 4:1 5:23 6:2 7:3 
0.9059179827053702 1:2 2:30 3:3 4:2 5:3 6:2 7:1 
1 1:1 2:33 3:3 4:1 5:2 6:1 7:1 
1 1:1 2:27 3:2 4:2 5:5 6:1 7:1 
0.3287192793696664 1:2 2:26 3:1 4:2 5:5 6:1 7:1 
1 1:1 2:35 3:1 4:1 5:4 6:1 7:1 
1 1:2 2:30 3:1 4:2 5:7 6:2 7:1 
1 1:1 2:32 3:1 4:2 5:1 6:2 7:1 
1 1:1 2:32 3:1 4:1 5:6 6:2 7:1 
1 1:1 2:33 3:1 4:2 5:2 6:2 7:1 
1 1:1 2:25 3:2 4:2 5:4 6:1 7:1 
1 1:1 2:28 3:1 4:1 5:1 6:1 7:1 
0.2908381576032007 1:2 2:24 3:1 4:4 5:2 6:1 7:1 
0.7385988688632326 1:1 2:43 3:2 4:1 5:23 6:2 7:5 
1 1:1 2:26 3:2 4:1 5:2 6:1 7:1 
1 1:1 2:31 3:1 4:2 5:7 6:2 7:1 
0.9582327697113342 1:1 2:38 3:3 4:2 5:4 6:2 7:1 
1 1:1 2:37 3:1 4:2 5:12 6:1 7:1 
1 1:1 2:30 3:3 4:1 5:4 6:2 7:1 
1 1:1 2:27 3:2 4:1 5:4 6:1 7:1 
1 1:1 2:26 3:2 4:1 5:2 6:1 7:1 
1 1:1 2:54 3:1 4:6 5:15 6:2 7:1 
1 1:1 2:32 3:1 4:2 5:1 6:1 7:1 
1 1:1 2:26 3:3 4:1 5:2 6:1 7:1 
0.2299331851021665 1:2 2:36 3:1 4:1 5:8 6:2 7:1 
1 1:1 2:30 3:1 4:1 5:2 6:1 7:4 
1 1:2 2:24 3:1 4:2 5:2 6:1 7:1 
1 1:1 2:34 3:3 4:2 5:1 6:2 7:1 
1 1:1 2:27 3:2 4:1 5:3 6:1 7:1 
1 1:1 2:30 3:1 4:2 5:6 6:1 7:1 
1 1:1 2:27 3:2 4:1 5:3 6:1 7:1 
1 1:1 2:29 3:3 4:2 5:1 6:1 7:1 
1 1:1 2:29 3:1 4:1 5:1 6:2 7:1 
1 1:1 2:26 3:1 4:1 5:1 6:1 7:1 
1 1:1 2:28 3:3 4:1 5:3 6:1 7:1 
1 1:1 2:34 3:3 4:2 5:1 6:2 7:1 
1 1:1 2:31 3:1 4:2 5:1 6:1 7:1 
0.04625918242384443 1:1 2:24 3:1 4:4 5:2 6:1 7:1 
1 1:1 2:29 3:3 4:2 5:1 6:1 7:1 
1 1:1 2:27 3:1 4:2 5:2 6:1 7:1 
1 1:1 2:27 3:3 4:1 5:2 6:1 7:1 
1 1:2 2:26 3:1 4:5 5:2 6:1 7:1 
1 1:1 2:39 3:3 4:1 5:6 6:1 7:1 
1 1:1 2:29 3:2 4:1 5:5 6:1 7:1 
1 1:1 2:33 3:1 4:1 5:2 6:1 7:1 
1 1:1 2:33 3:1 4:2 5:2 6:2 7:1 
0.1558746207841719 1:1 2:35 3:1 4:4 5:10 6:2 7:1 
1 1:1 2:27 3:1 4:2 5:4 6:1 7:1 
1 1:1 2:30 3:2 4:2 5:8 6:1 7:1 
0.7466188908233301 1:1 2:31 3:1 4:2 5:3 6:1 7:4 
0.9983747053980122 1:1 2:27 3:3 4:1 5:2 6:1 7:4 
1 1:2 2:27 3:1 4:1 5:1 6:1 7:1 
1 1:1 2:29 3:1 4:1 5:2 6:1 7:1 
1 1:1 2:32 3:1 4:2 5:8 6:2 7:1 
1 1:1 2:42 3:1 4:3 5:1 6:2 7:1 
1 1:1 2:35 3:1 4:1 5:5 6:1 7:1 
1 1:1 2:29 3:1 4:2 5:1 6:2 7:1 
1 1:1 2:28 3:3 4:1 5:2 6:1 7:1 
1 1:1 2:28 3:1 4:1 5:2 6:1 7:1 
1 1:1 2:37 3:1 4:2 5:7 6:2 7:1 
0.6203738787109002 1:1 2:34 3:1 4:4 5:6 6:2 7:1 
0.851680728445992 1:1 2:49 3:1 4:1 5:9 6:2 7:4 
1 1:2 2:29 3:3 4:2 5:1 6:1 7:1 
1 1:1 2:27 3:1 4:1 5:1 6:1 7:1 
1 1:1 2:31 3:1 4:1 5:1 6:1 7:1 
1 1:2 2:26 3:1 4:2 5:1 6:1 7:1 
0.6922333788233954 1:1 2:30 3:1 4:2 5:4 6:2 7:5 
1 1:1 2:30 3:1 4:1 5:3 6:1 7:1 
1 1:1 2:25 3:2 4:2 5:4 6:1 7:1 
1 1:1 2:34 3:3 4:2 5:1 6:2 7:1 
0.8364814596062189 1:1 2:34 3:1 4:4 5:6 6:2 7:1 
1 1:1 2:34 3:1 4:1 5:10 6:2 7:1 
1 1:1 2:27 3:2 4:1 5:4 6:1 7:4 
0.7656607100463876 1:1 2:37 3:1 4:2 5:6 6:1 7:1 
1 1:1 2:30 3:5 4:2 5:1 6:1 7:1 
1 1:1 2:28 3:1 4:1 5:2 6:1 7:1 
1 1:2 2:24 3:5 4:1 5:1 6:1 7:1 
1 1:1 2:37 3:1 4:2 5:6 6:1 7:1 
1 1:2 2:30 3:1 4:2 5:7 6:2 7:1 
1 1:1 2:28 3:3 4:1 5:2 6:1 7:1 
1 1:1 2:54 3:1 4:5 5:5 6:2 7:1 
1 1:1 2:29 3:4 4:1 5:2 6:1 7:1 
1 1:1 2:30 3:1 4:1 5:6 6:1 7:1 
1 1:1 2:29 3:2 4:1 5:5 6:1 7:1 
1 1:1 2:25 3:5 4:2 5:2 6:1 7:1 
1 1:1 2:32 3:1 4:1 5:2 6:2 7:1 
1 1:1 2:26 3:1 4:1 5:1 6:1 7:1 
1 1:1 2:36 3:1 4:1 5:6 6:2 7:1 
1 1:2 2:27 3:1 4:1 5:2 6:1 7:1 
0.1055023657522556 1:1 2:45 3:3 4:1 5:2 6:2 7:1 
1 1:1 2:24 3:3 4:2 5:1 6:1 7:1 
1 1:1 2:28 3:1 4:1 5:1 6:1 7:1 
1 1:2 2:27 3:1 4:1 5:1 6:1 7:1 
0.2371402359969635 1:1 2:45 3:1 4:6 5:6 6:2 7:1 
1 1:2 2:27 3:1 4:1 5:1 6:1 7:1 
1 1:2 2:27 3:1 4:1 5:2 6:1 7:1 
1 1:1 2:33 3:3 4:1 5:7 6:2 7:1 
1 1:1 2:30 3:1 4:2 5:2 6:1 7:1 
1 1:1 2:25 3:2 4:1 5:1 6:1 7:1 
1 1:1 2:32 3:1 4:2 5:1 6:1 7:1 
1 1:2 2:27 3:1 4:1 5:1 6:1 7:1 
0.3202978225191577 1:2 2:39 3:1 4:1 5:2 6:1 7:1 
1 1:1 2:32 3:1 4:2 5:7 6:1 7:1 
1 1:2 2:24 3:1 4:2 5:2 6:1 7:1 
1 1:1 2:31 3:1 4:2 5:7 6:2 7:1 
1 1:1 2:28 3:1 4:1 5:2 6:2 7:1 
1 1:1 2:29 3:2 4:1 5:5 6:1 7:1 
1 1:1 2:26 3:2 4:1 5:3 6:1 7:1 
1 1:1 2:32 3:1 4:1 5:4 6:1 7:2 
1 1:1 2:31 3:1 4:4 5:2 6:1 7:1 
1 1:1 2:33 3:1 4:2 5:2 6:2 7:1 
1 1:1 2:27 3:1 4:1 5:1 6:1 7:1 
1 1:1 2:30 3:5 4:2 5:1 6:1 7:1 
1 1:1 2:30 3:3 4:2 5:1 6:1 7:1 
1 1:1 2:26 3:2 4:1 5:2 6:1 7:5 
1 1:1 2:24 3:2 4:1 5:2 6:1 7:1 
1 1:1 2:27 3:3 4:2 5:2 6:1 7:1 
1 1:1 2:27 3:1 4:1 5:1 6:1 7:1 
1 1:1 2:31 3:2 4:2 5:8 6:2 7:1 
1 1:1 2:31 3:2 4:1 5:6 6:2 7:4 
1 1:1 2:34 3:3 4:2 5:1 6:2 7:1 
1 1:1 2:28 3:1 4:1 5:2 6:1 7:1 
1 1:1 2:37 3:1 4:2 5:2 6:1 7:1 
1 1:1 2:29 3:1 4:2 5:6 6:1 7:1 
1 1:1 2:33 3:1 4:1 5:2 6:1 7:1 
1 1:1 2:47 3:2 4:1 5:23 6:2 7:1 
1 1:1 2:22 3:1 4:2 5:1 6:1 7:1 
1 1:2 2:27 3:1 4:1 5:2 6:1 7:1 
0.9208130708382161 1:1 2:51 3:1 4:6 5:21 6:2 7:1 
1 1:2 2:27 3:1 4:1 5:2 6:1 7:1 
1 1:1 2:26 3:2 4:1 5:2 6:1 7:1 
1 1:1 2:28 3:1 4:1 5:1 6:1 7:1 
1 1:1 2:28 3:1 4:1 5:2 6:1 7:1 
1 1:1 2:30 3:1 4:4 5:3 6:1 7:1 
1 1:1 2:28 3:1 4:4 5:1 6:2 7:1 
0.5282161061138329 1:1 2:31 3:2 4:2 5:9 6:1 7:1 
1 1:1 2:30 3:1 4:2 5:2 6:1 7:1 
1 1:2 2:44 3:2 4:2 5:21 6:1 7:1 
1 1:1 2:23 3:1 4:2 5:1 6:1 7:1 
1 1:2 2:30 3:3 4:2 5:3 6:2 7:1 
0.4435008986280891 1:1 2:43 3:2 4:1 5:21 6:2 7:4 
1 1:1 2:29 3:3 4:2 5:1 6:1 7:1 
0.9966412786702366 1:1 2:34 3:1 4:5 5:7 6:1 7:1 
1 1:2 2:30 3:3 4:2 5:3 6:2 7:1 
0.6237044344304 1:1 2:46 3:1 4:5 5:20 6:2 7:1 
1 1:1 2:29 3:4 4:1 5:2 6:1 7:1 
1 1:1 2:26 3:3 4:1 5:2 6:1 7:1 
1 1:2 2:27 3:1 4:1 5:2 6:1 7:1 
1 1:1 2:30 3:1 4:2 5:4 6:2 7:5 
1 1:2 2:29 3:3 4:2 5:1 6:1 7:1 
0.9089493661308713 1:2 2:46 3:3 4:3 5:10 6:2 7:3 
1 1:1 2:30 3:1 4:1 5:2 6:1 7:4 
1 1:1 2:29 3:2 4:2 5:6 6:1 7:1 
1 1:2 2:26 3:1 4:1 5:4 6:1 7:1 
1 1:1 2:26 3:3 4:1 5:2 6:1 7:1 
0.7967046319944929 1:2 2:30 3:1 4:1 5:7 6:1 7:1 
1 1:1 2:30 3:3 4:1 5:5 6:1 7:1 
0.9942164228167014 1:2 2:45 3:3 4:6 5:3 6:2 7:1 
1 1:1 2:30 3:2 4:2 5:8 6:1 7:1 
0.7836757068603591 1:1 2:43 3:1 4:1 5:4 6:2 7:5 
1 1:2 2:36 3:1 4:1 5:8 6:2 7:1 
1 1:1 2:28 3:1 4:1 5:2 6:1 7:1 
1 1:2 2:34 3:1 4:2 5:7 6:1 7:1 
1 1:1 2:37 3:1 4:2 5:3 6:2 7:1 
1 1:1 2:28 3:2 4:1 5:5 6:1 7:1 
1 1:1 2:27 3:1 4:4 5:4 6:2 7:1 
1 1:1 2:33 3:3 4:1 5:7 6:2 7:1 
1 1:2 2:30 3:3 4:2 5:3 6:2 7:1 
1 1:1 2:29 3:1 4:2 5:6 6:1 7:1 
1 1:1 2:29 3:1 4:2 5:1 6:2 7:1 
0.8147932765974679 1:2 2:26 3:3 4:5 5:5 6:1 7:1 
1 1:1 2:28 3:1 4:1 5:2 6:1 7:1 
1 1:1 2:23 3:1 4:2 5:1 6:1 7:1 
1 1:2 2:27 3:3 4:2 5:2 6:2 7:1 
1 1:1 2:31 3:1 4:2 5:4 6:1 7:2 
1 1:1 2:26 3:3 4:1 5:2 6:1 7:1 
1 1:2 2:34 3:1 4:2 5:7 6:1 7:1 
1 1:1 2:39 3:1 4:2 5:15 6:2 7:1 
1 1:1 2:30 3:1 4:4 5:3 6:1 7:1 
1 1:2 2:37 3:1 4:1 5:2 6:2 7:1 
1 1:1 2:28 3:2 4:2 5:5 6:1 7:1 
1 1:1 2:37 3:1 4:2 5:2 6:1 7:1 
1 1:1 2:25 3:2 4:2 5:4 6:1 7:1 
1 1:1 2:42 3:1 4:2 5:7 6:2 7:1 
0.9624712775631673 1:2 2:39 3:1 4:1 5:2 6:1 7:1 
1 1:1 2:30 3:1 4:2 5:2 6:1 7:1 
1 1:1 2:32 3:1 4:1 5:4 6:1 7:2 
1 1:1 2:29 3:1 4:1 5:2 6:1 7:1 
1 1:1 2:30 3:1 4:1 5:2 6:1 7:4 
1 1:1 2:44 3:2 4:1 5:23 6:2 7:3 
1 1:2 2:49 3:1 4:2 5:22 6:2 7:5 
1 1:1 2:30 3:1 4:2 5:2 6:1 7:1 
1 1:1 2:27 3:1 4:1 5:1 6:1 7:1 
1 1:1 2:31 3:1 4:2 5:4 6:1 7:1 
1 1:1 2:43 3:1 4:1 5:4 6:2 7:5 
1 1:1 2:29 3:1 4:1 5:4 6:1 7:1 
1 1:1 2:31 3:1 4:4 5:2 6:1 7:1 
1 1:2 2:34 3:3 4:2 5:4 6:2 7:1 
1 1:1 2:30 3:1 4:2 5:2 6:1 7:1 
1 1:1 2:34 3:1 4:2 5:7 6:1 7:1 
0.5055604236090131 1:1 2:25 3:1 4:2 5:4 6:1 7:1 
1 1:1 2:25 3:1 4:2 5:3 6:1 7:1 
0.2673403131987821 1:1 2:34 3:2 4:1 5:10 6:1 7:1 
1 1:1 2:31 3:1 4:1 5:7 6:1 7:1 
1 1:1 2:36 3:3 4:1 5:2 6:2 7:1 
0.9978720684425341 1:2 2:35 3:1 4:3 5:4 6:1 7:1 
1 1:1 2:30 3:2 4:2 5:8 6:1 7:1 
1 1:2 2:24 3:1 4:2 5:2 6:1 7:1 
1 1:1 2:29 3:1 4:1 5:1 6:2 7:1 
1 1:1 2:25 3:1 4:1 5:1 6:1 7:1 
1 1:2 2:27 3:1 4:1 5:2 6:1 7:1 
0.8896672665877735 1:1 2:61 3:3 4:2 5:32 6:2 7:1 
0.8973668557058061 1:1 2:28 3:1 4:4 5:1 6:2 7:1 
1 1:1 2:27 3:3 4:1 5:2 6:1 7:1 
1 1:1 2:38 3:1 4:1 5:3 6:1 7:1 
1 1:1 2:30 3:1 4:1 5:2 6:1 7:4 
1 1:1 2:37 3:1 4:2 5:2 6:1 7:1 
1 1:1 2:42 3:1 4:1 5:6 6:1 7:1 
1 1:1 2:43 3:2 4:1 5:21 6:2 7:4 
1 1:1 2:25 3:2 4:1 5:2 6:1 7:1 
1 1:1 2:37 3:1 4:2 5:2 6:1 7:1 
1 1:1 2:37 3:2 4:1 5:12 6:2 7:1 
1 1:1 2:24 3:2 4:2 5:1 6:1 7:1 
0.9871118588014913 1:2 2:36 3:1 4:1 5:8 6:2 7:1 
1 1:1 2:32 3:1 4:2 5:1 6:1 7:1 
1 1:1 2:31 3:1 4:1 5:1 6:1 7:1 
0.9788656379770292 1:1 2:25 3:2 4:1 5:3 6:1 7:1 
0.2746255662868379 1:1 2:48 3:1 4:6 5:5 6:2 7:1 
1 1:1 2:36 3:1 4:2 5:11 6:2 7:1 
1 1:1 2:27 3:2 4:1 5:3 6:1 7:1 
1 1:1 2:26 3:2 4:1 5:2 6:1 7:1 
1 1:1 2:35 3:3 4:2 5:4 6:2 7:1 
0.984012101363317 1:1 2:43 3:2 4:1 5:19 6:2 7:4 
1 1:1 2:30 3:5 4:2 5:1 6:1 7:1 
1 1:1 2:30 3:1 4:2 5:2 6:1 7:1 
1 1:1 2:30 3:4 4:1 5:1 6:2 7:1 
1 1:1 2:27 3:1 4:1 5:1 6:1 7:1 
1 1:1 2:26 3:2 4:1 5:2 6:1 7:1 
1 1:1 2:45 3:3 4:1 5:2 6:2 7:1 
1 1:1 2:21 3:2 4:2 5:1 6:1 7:1 
0.9993592575434754 1:1 2:37 3:1 4:2 5:6 6:1 7:1 
1 1:1 2:30 3:1 4:1 5:2 6:1 7:4 
1 1:1 2:27 3:3 4:2 5:2 6:1 7:1 
0.9854645127427614 1:1 2:48 3:1 4:6 5:5 6:2 7:1 
1 1:1 2:27 3:2 4:1 5:4 6:1 7:1 
1 1:1 2:26 3:2 4:1 5:2 6:1 7:1 
1 1:1 2:26 3:1 4:1 5:1 6:1 7:1 
1 1:1 2:30 3:1 4:4 5:6 6:1 7:1 
1 1:1 2:27 3:2 4:1 5:3 6:1 7:1 
0.218756958189133 1:1 2:35 3:2 4:1 5:8 6:1 7:1 
1 1:1 2:32 3:1 4:2 5:6 6:1 7:1 
1 1:1 2:37 3:1 4:2 5:12 6:1 7:1 
0.6409079447628199 1:2 2:30 3:1 4:1 5:7 6:1 7:1 
1 1:1 2:30 3:1 4:1 5:6 6:1 7:1 
1 1:1 2:32 3:1 4:2 5:1 6:1 7:1 
1 1:1 2:31 3:2 4:2 5:7 6:2 7:1 
1 1:1 2:32 3:1 4:1 5:4 6:1 7:2 
1 1:1 2:32 3:1 4:2 5:2 6:2 7:1 
1 1:1 2:27 3:3 4:2 5:2 6:1 7:1 
1 1:1 2:28 3:2 4:1 5:5 6:1 7:1 
1 1:1 2:32 3:1 4:2 5:2 6:2 7:1 
1 1:1 2:30 3:1 4:4 5:3 6:1 7:1 
1 1:1 2:29 3:1 4:1 5:4 6:1 7:1 
1 1:2 2:27 3:1 4:1 5:2 6:1 7:1 
1 1:1 2:30 3:5 4:2 5:1 6:1 7:1 
1 1:1 2:28 3:1 4:1 5:2 6:1 7:1 
1 1:1 2:40 3:1 4:2 5:9 6:2 7:4 
1 1:1 2:44 3:2 4:1 5:23 6:2 7:3 
1 1:2 2:27 3:3 4:2 5:2 6:2 7:1 
0.2476620289437835 1:1 2:46 3:1 4:6 5:17 6:2 7:1 
1 1:1 2:31 3:1 4:1 5:1 6:1 7:1 
0.7180933676551616 1:1 2:43 3:1 4:5 5:19 6:1 7:4 
1 1:1 2:31 3:1 4:1 5:7 6:1 7:1 
-1 1:1 2:27 3:2 4:1 5:2 6:1 7:1 
-1 1:1 2:32 3:1 4:1 5:7 6:1 7:4 
-1 1:1 2:47 3:1 4:6 5:3 6:2 7:2 
-1 1:1 2:34 3:1 4:2 5:1 6:2 7:1 
-1 1:1 2:26 3:2 4:2 5:3 6:1 7:1 
-0.9030264090228274 1:2 2:45 3:2 4:1 5:21 6:2 7:3 
-1 1:2 2:37 3:1 4:2 5:5 6:2 7:1 
-1 1:2 2:27 3:1 4:4 5:1 6:1 7:1 
-1 1:1 2:25 3:2 4:1 5:1 6:1 7:1 
-1 1:1 2:28 3:4 4:1 5:2 6:1 7:1 
-0.8269864534462825 1:1 2:31 3:1 4:1 5:2 6:1 7:1 
-1 1:1 2:22 3:1 4:1 5:1 6:1 7:1 
-1 1:1 2:26 3:1 4:2 5:5 6:1 7:1 
-0.2278210829736757 1:1 2:30 3:2 4:2 5:4 6:1 7:1 
-1 1:1 2:43 3:2 4:1 5:19 6:2 7:3 
-1 1:1 2:30 3:1 4:2 5:3 6:1 7:1 
-1 1:1 2:28 3:2 4:1 5:2 6:1 7:1 
-1 1:1 2:33 3:1 4:1 5:3 6:2 7:2 
-1 1:2 2:27 3:1 4:2 5:1 6:1 7:1 
-1 1:1 2:30 3:6 4:1 5:2 6:1 7:1 
-1 1:2 2:61 3:2 4:1 5:40 6:2 7:4 
-0.6238878619733423 1:1 2:39 3:1 4:1 5:5 6:2 7:1 
-0.5967325798848701 1:2 2:31 3:1 4:1 5:5 6:1 7:1 
-1 1:1 2:35 3:4 4:1 5:1 6:1 7:1 
-1 1:1 2:32 3:1 4:2 5:8 6:2 7:1 
-1 1:1 2:22 3:1 4:1 5:1 6:1 7:1 
-1 1:1 2:35 3:1 4:1 5:12 6:1 7:1 
-1 1:1 2:34 3:1 4:2 5:6 6:1 7:1 
-1 1:1 2:39 3:1 4:1 5:5 6:2 7:1 
-1 1:1 2:25 3:2 4:1 5:1 6:1 7:1 
-1 1:1 2:31 3:1 4:2 5:2 6:1 7:1 
-1 1:1 2:34 3:1 4:2 5:6 6:1 7:1 
-1 1:1 2:30 3:1 4:2 5:7 6:1 7:1 
-1 1:1 2:31 3:1 4:2 5:2 6:1 7:1 
-0.6179044836145388 1:1 2:32 3:2 4:1 5:7 6:1 7:1 
-1 1:1 2:27 3:2 4:1 5:3 6:1 7:4 
-1 1:1 2:28 3:1 4:1 5:3 6:1 7:1 
-1 1:1 2:30 3:1 4:2 5:1 6:1 7:1 
-1 1:1 2:28 3:1 4:2 5:1 6:1 7:1 
-1 1:1 2:32 3:1 4:1 5:2 6:1 7:3 
-1 1:1 2:28 3:1 4:1 5:1 6:1 7:1 
-1 1:1 2:33 3:2 4:1 5:8 6:2 7:1 
-1 1:1 2:35 3:1 4:2 5:9 6:2 7:1 
-1 1:1 2:29 3:1 4:1 5:1 6:1 7:1 
-1 1:1 2:27 3:2 4:1 5:4 6:1 7:1 
-1 1:1 2:26 3:4 4:1 5:1 6:1 7:1 
-1 1:1 2:32 3:1 4:1 5:2 6:2 7:1 
-1 1:1 2:29 3:1 4:5 5:2 6:2 7:1 
-0.3439283915567627 1:1 2:29 3:2 4:1 5:4 6:1 7:1 
-1 1:1 2:29 3:1 4:1 5:1 6:1 7:1 
-0.1395855631729475 1:2 2:31 3:3 4:2 5:1 6:1 7:1 
-1 1:2 2:33 3:2 4:3 5:1 6:1 7:1 
-1 1:2 2:30 3:2 4:1 5:6 6:1 7:1 
-0.3482938164648414 1:2 2:28 3:2 4:1 5:2 6:1 7:1 
-1 1:1 2:29 3:2 4:1 5:5 6:1 7:1 
-1 1:1 2:34 3:1 4:1 5:2 6:1 7:1 
-1 1:1 2:28 3:1 4:2 5:1 6:1 7:1 
-1 1:1 2:34 3:1 4:2 5:6 6:1 7:1 
-1 1:1 2:36 3:1 4:2 5:2 6:2 7:1 
-1 1:1 2:26 3:1 4:2 5:3 6:1 7:1 
-1 1:1 2:34 3:1 4:2 5:6 6:1 7:1 
-0.2981514645315412 1:1 2:37 3:1 4:3 5:0 6:2 7:1 
-1 1:2 2:31 3:1 4:5 5:3 6:1 7:1 
-1 1:1 2:29 3:2 4:1 5:4 6:1 7:1 
-1 1:2 2:37 3:1 4:2 5:5 6:2 7:1 
-0.993924479304768 1:1 2:31 3:1 4:1 5:2 6:1 7:1 
-0.7381421062926952 1:1 2:31 3:1 4:1 5:4 6:2 7:1 
-1 1:1 2:26 3:2 4:2 5:3 6:1 7:1 
-1 1:1 2:35 3:2 4:1 5:5 6:1 7:1 
-1 1:2 2:26 3:1 4:1 5:2 6:1 7:5 
-1 1:1 2:28 3:2 4:1 5:2 6:1 7:1 
-0.533438466562038 1:1 2:32 3:3 4:2 5:1 6:1 7:1 
-1 1:1 2:30 3:1 4:1 5:6 6:1 7:1 
-1 1:1 2:32 3:1 4:1 5:2 6:2 7:1 
-1 1:2 2:27 3:2 4:1 5:4 6:1 7:1 
-1 1:1 2:26 3:4 4:1 5:2 6:1 7:1 
-1 1:1 2:26 3:4 4:1 5:2 6:1 7:1 
-1 1:1 2:32 3:1 4:1 5:1 6:1 7:1 
-1 1:1 2:28 3:4 4:1 5:3 6:1 7:1 
-1 1:1 2:30 3:1 4:2 5:3 6:1 7:1 
-1 1:1 2:28 3:1 4:1 5:1 6:1 7:1 
-1 1:1 2:30 3:1 4:2 5:7 6:1 7:1 
-1 1:1 2:26 3:1 4:2 5:3 6:1 7:1 
-1 1:1 2:30 3:2 4:2 5:4 6:1 7:1 
-1 1:2 2:33 3:1 4:5 5:4 6:2 7:1 
-0.2203265331516521 1:2 2:23 3:1 4:1 5:1 6:1 7:1 
-1 1:1 2:32 3:2 4:1 5:2 6:1 7:4 
-1 1:1 2:33 3:2 4:1 5:7 6:1 7:1 
-0.2271477791864144 1:2 2:51 3:3 4:2 5:22 6:2 7:1 
-1 1:1 2:26 3:2 4:2 5:4 6:1 7:1 
-1 1:1 2:29 3:1 4:3 5:0 6:1 7:1 
-1 1:2 2:28 3:1 4:2 5:2 6:2 7:1 
-0.8736619842339687 1:1 2:28 3:1 4:1 5:0 6:1 7:1 
-1 1:2 2:28 3:1 4:2 5:2 6:2 7:1 
-1 1:1 2:30 3:2 4:1 5:5 6:1 7:1 
-1 1:2 2:43 3:3 4:2 5:0 6:2 7:1 
-1 1:2 2:26 3:1 4:1 5:0 6:1 7:1 
-1 1:2 2:30 3:1 4:5 5:4 6:1 7:1 
-1 1:1 2:30 3:1 4:2 5:7 6:1 7:1 
-1 1:1 2:26 3:2 4:2 5:4 6:1 7:1 
-1 1:1 2:33 3:1 4:2 5:1 6:1 7:1 
-1 1:1 2:26 3:2 4:1 5:2 6:1 7:1 
-1 1:1 2:32 3:1 4:2 5:8 6:2 7:1 
-1 1:1 2:31 3:1 4:2 5:2 6:2 7:2 
-0.6000743379818029 1:1 2:28 3:1 4:2 5:0 6:1 7:1 
-1 1:2 2:25 3:2 4:1 5:2 6:1 7:1 
-1 1:1 2:28 3:1 4:1 5:3 6:1 7:1 
-0.8982030923156579 1:1 2:30 3:1 4:2 5:6 6:2 7:1 
-0.6599531936274498 1:2 2:26 3:1 4:1 5:0 6:1 7:1 
-1 1:1 2:26 3:5 4:2 5:2 6:1 7:1 
-0.9921707945139222 1:1 2:34 3:1 4:1 5:4 6:1 7:1 
-1 1:1 2:29 3:2 4:1 5:1 6:1 7:4 
-1 1:1 2:30 3:1 4:2 5:7 6:1 7:1 
-1 1:1 2:25 3:2 4:1 5:1 6:1 7:1 
-1 1:1 2:31 3:1 4:1 5:1 6:2 7:1 
-1 1:1 2:30 3:1 4:2 5:7 6:1 7:1 
-1 1:1 2:37 3:1 4:1 5:3 6:1 7:1 
-1 1:1 2:37 3:1 4:1 5:3 6:1 7:1 
-1 1:1 2:27 3:2 4:1 5:2 6:1 7:1 
-1 1:1 2:31 3:1 4:1 5:3 6:1 7:4 
-1 1:1 2:27 3:2 4:1 5:2 6:1 7:1 
-1 1:1 2:41 3:1 4:1 5:4 6:2 7:1 
-1 1:1 2:30 3:4 4:1 5:2 6:2 7:1 
-1 1:1 2:32 3:1 4:2 5:8 6:2 7:1 
-1 1:1 2:26 3:2 4:2 5:3 6:1 7:1 
-1 1:1 2:26 3:2 4:2 5:4 6:1 7:1 
-1 1:1 2:26 3:5 4:2 5:2 6:1 7:1 
-1 1:2 2:25 3:2 4:1 5:2 6:1 7:1 
-1 1:1 2:26 3:2 4:2 5:3 6:1 7:1 
-1 1:1 2:33 3:2 4:1 5:7 6:1 7:1 
-1 1:1 2:27 3:2 4:1 5:1 6:1 7:1 
-1 1:2 2:20 3:1 4:4 5:1 6:1 7:1 
-0.6975408166793424 1:1 2:33 3:5 4:2 5:2 6:2 7:1 
-1 1:2 2:37 3:3 4:1 5:4 6:2 7:1 
-0.7317783826814643 1:1 2:29 3:4 4:1 5:1 6:1 7:1 
-0.9626243221360585 1:1 2:30 3:2 4:2 5:5 6:1 7:1 
-1 1:1 2:27 3:2 4:1 5:4 6:1 7:1 
-1 1:1 2:27 3:2 4:1 5:2 6:1 7:1 
-1 1:1 2:29 3:4 4:1 5:1 6:1 7:1 
-0.8335457568053081 1:1 2:35 3:1 4:2 5:1 6:2 7:1 
-1 1:1 2:24 3:1 4:2 5:1 6:1 7:1 
-1 1:1 2:30 3:1 4:2 5:7 6:1 7:1 
-1 1:1 2:29 3:4 4:1 5:1 6:1 7:1 
-0.540372147540599 1:1 2:30 3:2 4:2 5:4 6:1 7:1 
-1 1:1 2:28 3:4 4:1 5:3 6:1 7:1 
-1 1:1 2:32 3:1 4:2 5:8 6:2 7:1 
-1 1:1 2:27 3:2 4:2 5:1 6:1 7:1 
-1 1:2 2:23 3:1 4:1 5:1 6:1 7:1 
-1 1:1 2:24 3:1 4:2 5:1 6:1 7:1 
-1 1:1 2:28 3:2 4:1 5:2 6:1 7:1 
-1 1:2 2:29 3:1 4:1 5:1 6:2 7:1 
-1 1:1 2:26 3:2 4:2 5:3 6:1 7:1 
-1 1:1 2:31 3:1 4:1 5:3 6:1 7:4 
-1 1:1 2:24 3:1 4:2 5:1 6:1 7:1 
-0.7662686212207753 1:1 2:37 3:2 4:1 5:10 6:2 7:1 
-1 1:1 2:28 3:1 4:1 5:1 6:1 7:1 
-1 1:1 2:29 3:4 4:1 5:1 6:1 7:1 
-0.4432164599912894 1:2 2:52 3:1 4:6 5:7 6:2 7:1 
-1 1:1 2:32 3:2 4:1 5:7 6:1 7:1 
-1 1:1 2:27 3:1 4:5 5:2 6:1 7:1 
-1 1:1 2:44 3:2 4:1 5:22 6:2 7:4 
-1 1:1 2:30 3:1 4:2 5:1 6:1 7:1 
-1 1:1 2:28 3:2 4:1 5:2 6:1 7:1 
-1 1:1 2:29 3:2 4:1 5:5 6:1 7:1 
-0.7101015545307473 1:1 2:29 3:2 4:1 5:4 6:1 7:4 
-1 1:1 2:27 3:2 4:1 5:2 6:1 7:1 
-1 1:1 2:28 3:1 4:1 5:1 6:1 7:1 
-0.8852783867293658 1:1 2:33 3:2 4:1 5:6 6:2 7:1 
-1 1:1 2:37 3:2 4:1 5:12 6:1 7:1 
-1 1:2 2:25 3:2 4:1 5:2 6:1 7:1 
-1 1:1 2:37 3:1 4:1 5:2 6:1 7:1 
-0.09256477290577966 1:2 2:26 3:2 4:2 5:1 6:1 7:2 
-1 1:1 2:26 3:2 4:1 5:2 6:1 7:1 
-0.1051858389650921 1:1 2:50 3:3 4:5 5:12 6:1 7:1 
-1 1:2 2:27 3:2 4:2 5:2 6:1 7:1 
-1 1:1 2:27 3:1 4:2 5:3 6:1 7:1 
-1 1:2 2:28 3:1 4:2 5:1 6:1 7:1 
-1 1:2 2:38 3:1 4:2 5:0 6:2 7:1 
-0.157457554377566 1:1 2:28 3:2 4:1 5:4 6:1 7:4 
-1 1:1 2:38 3:1 4:1 5:3 6:1 7:5 
-0.03805720631667374 1:2 2:28 3:1 4:2 5:4 6:1 7:1 
-1 1:1 2:27 3:1 4:1 5:1 6:1 7:1 
-0.6318904632338869 1:1 2:30 3:4 4:1 5:0 6:1 7:4 
-1 1:2 2:26 3:2 4:2 5:1 6:1 7:2 
-1 1:2 2:42 3:1 4:1 5:6 6:2 7:5 
-0.99421518808997 1:2 2:28 3:1 4:2 5:4 6:1 7:1 
-1 1:1 2:28 3:3 4:4 5:1 6:2 7:1 
-0.2555815031962035 1:1 2:38 3:6 4:1 5:7 6:2 7:3 
-1 1:1 2:28 3:1 4:1 5:1 6:1 7:1 
-1 1:1 2:25 3:4 4:1 5:1 6:1 7:1 
-1 1:1 2:32 3:1 4:2 5:2 6:1 7:1 
-0.1795555507966712 1:1 2:47 3:3 4:1 5:13 6:2 7:1 
-1 1:1 2:29 3:2 4:2 5:6 6:1 7:2 
-0.7054275043364869 1:2 2:29 3:2 4:1 5:3 6:1 7:5 
-1 1:1 2:31 3:3 4:3 5:1 6:1 7:1 
-0.4335105796765006 1:1 2:47 3:2 4:3 5:24 6:2 7:4 
-0.06079762741991131 1:1 2:34 3:2 4:1 5:3 6:1 7:4 
-1 1:1 2:30 3:1 4:4 5:2 6:1 7:1 
-1 1:1 2:28 3:1 4:1 5:3 6:1 7:1 
-1 1:2 2:25 3:2 4:1 5:2 6:1 7:1 
-1 1:1 2:26 3:2 4:2 5:3 6:1 7:1 
-1 1:1 2:32 3:2 4:1 5:7 6:1 7:1 
-1 1:1 2:27 3:2 4:1 5:2 6:1 7:1 
-1 1:1 2:32 3:1 4:1 5:2 6:2 7:1 
-1 1:1 2:30 3:1 4:1 5:6 6:1 7:1 
-1 1:1 2:27 3:2 4:1 5:2 6:1 7:1 
-1 1:1 2:30 3:1 4:2 5:7 6:1 7:1 
-1 1:1 2:32 3:2 4:2 5:8 6:1 7:1 
-1 1:1 2:31 3:1 4:1 5:5 6:1 7:5 
-1 1:1 2:27 3:2 4:1 5:2 6:1 7:1 
-1 1:2 2:25 3:2 4:1 5:2 6:1 7:1 
-1 1:1 2:29 3:1 4:1 5:4 6:1 7:1 
-0.7100435181272816 1:1 2:38 3:1 4:2 5:14 6:2 7:1 
-1 1:1 2:30 3:1 4:2 5:7 6:1 7:1 
-1 1:1 2:29 3:1 4:1 5:4 6:1 7:1 
-1 1:1 2:34 3:1 4:2 5:1 6:2 7:1 
-1 1:1 2:30 3:1 4:2 5:6 6:2 7:1 
-1 1:1 2:31 3:1 4:2 5:1 6:1 7:1 
-0.5389597553081054 1:1 2:33 3:2 4:1 5:6 6:2 7:1 
-1 1:1 2:30 3:1 4:2 5:6 6:2 7:1 
-1 1:1 2:28 3:1 4:1 5:3 6:1 7:1 
-1 1:1 2:37 3:1 4:1 5:3 6:2 7:1 
-1 1:1 2:43 3:1 4:1 5:14 6:2 7:4 
-1 1:1 2:30 3:1 4:1 5:2 6:1 7:1 
-0.2855276453655194 1:2 2:30 3:3 4:1 5:0 6:2 7:1 
-1 1:1 2:29 3:4 4:1 5:3 6:1 7:1 
-1 1:1 2:33 3:5 4:2 5:2 6:2 7:1 
-1 1:2 2:23 3:1 4:1 5:1 6:1 7:1 
-1 1:1 2:26 3:2 4:2 5:4 6:1 7:1 
-1 1:1 2:27 3:1 4:1 5:1 6:1 7:1 
-1 1:1 2:32 3:2 4:2 5:8 6:1 7:1 
-0.01984896810411286 1:2 2:23 3:1 4:2 5:0 6:1 7:1 
-1 1:1 2:29 3:1 4:5 5:2 6:2 7:1 
-0.2363960764353732 1:1 2:35 3:1 4:1 5:2 6:2 7:4 
-1 1:1 2:32 3:1 4:1 5:2 6:2 7:1 
-1 1:1 2:24 3:2 4:1 5:1 6:1 7:1 
-1 1:2 2:30 3:2 4:1 5:6 6:1 7:1 
-1 1:1 2:26 3:1 4:1 5:0 6:1 7:1 
-1 1:2 2:37 3:1 4:2 5:5 6:2 7:1 
-0.0774372231141664 1:1 2:27 3:2 4:1 5:0 6:1 7:4 
-1 1:1 2:28 3:2 4:2 5:4 6:2 7:1 
-1 1:1 2:30 3:1 4:2 5:6 6:2 7:1 
-0.6315368967789512 1:2 2:31 3:1 4:1 5:5 6:1 7:1 
-1 1:1 2:31 3:1 4:2 5:1 6:1 7:1 
-1 1:2 2:56 3:1 4:5 5:17 6:2 7:1 
-1 1:1 2:29 3:2 4:1 5:4 6:1 7:4 
-1 1:1 2:36 3:1 4:2 5:2 6:2 7:1 
-1 1:1 2:27 3:2 4:1 5:4 6:1 7:1 
-1 1:2 2:31 3:1 4:3 5:1 6:1 7:1 
-1 1:1 2:37 3:2 4:1 5:12 6:1 7:1 
-1 1:1 2:30 3:2 4:2 5:5 6:1 7:1 
-1 1:1 2:30 3:1 4:2 5:3 6:1 7:1 
-0.397316410004862 1:1 2:38 3:1 4:1 5:8 6:2 7:1 
-1 1:1 2:30 3:1 4:2 5:6 6:2 7:1 
-1 1:1 2:38 3:1 4:2 5:14 6:2 7:1 
-1 1:1 2:41 3:1 4:2 5:2 6:1 7:1 
-0.003563481615748511 1:1 2:33 3:2 4:1 5:3 6:1 7:1 
-1 1:1 2:29 3:2 4:1 5:5 6:1 7:1 
-1 1:1 2:27 3:1 4:2 5:4 6:2 7:1 
-1 1:2 2:24 3:1 4:4 5:1 6:1 7:1 
-1 1:1 2:27 3:2 4:1 5:2 6:1 7:1 
-1 1:2 2:29 3:2 4:1 5:3 6:1 7:5 
-1 1:1 2:42 3:1 4:4 5:8 6:2 7:1 
-1 1:1 2:32 3:3 4:2 5:1 6:1 7:1 
-1 1:1 2:30 3:4 4:1 5:2 6:2 7:1 
-1 1:1 2:38 3:1 4:1 5:8 6:2 7:1 
-1 1:2 2:27 3:2 4:1 5:4 6:1 7:1 
-1 1:1 2:34 3:1 4:2 5:1 6:2 7:1 
-0.8557581986098629 1:1 2:35 3:5 4:1 5:3 6:2 7:1 
-1 1:1 2:27 3:2 4:1 5:2 6:1 7:1 
-1 1:1 2:27 3:2 4:1 5:4 6:1 7:1 
-1 1:1 2:29 3:2 4:1 5:4 6:1 7:1 
-1 1:1 2:29 3:1 4:1 5:4 6:1 7:1 
-1 1:1 2:25 3:2 4:1 5:1 6:1 7:1 
-1 1:1 2:27 3:2 4:1 5:0 6:1 7:4 
-1 1:1 2:29 3:1 4:1 5:0 6:1 7:4 
-1 1:1 2:37 3:2 4:1 5:12 6:1 7:1 
-0.7370733595830435 1:1 2:32 3:4 4:1 5:0 6:2 7:1 
-0.8813126882099798 1:2 2:30 3:1 4:2 5:3 6:1 7:1 
-1 1:1 2:32 3:3 4:5 5:2 6:2 7:1 
-1 1:1 2:33 3:2 4:1 5:3 6:1 7:1 
-1 1:2 2:27 3:2 4:1 5:4 6:1 7:1 
-0.9507572336163744 1:2 2:52 3:1 4:6 5:7 6:2 7:1 
-1 1:1 2:35 3:2 4:1 5:5 6:1 7:1 
-1 1:1 2:27 3:2 4:1 5:2 6:1 7:1 
-1 1:1 2:27 3:2 4:1 5:4 6:1 7:1 
-1 1:1 2:29 3:4 4:1 5:2 6:1 7:1 
-1 1:1 2:37 3:3 4:3 5:1 6:1 7:1 
-1 1:1 2:32 3:1 4:2 5:8 6:2 7:1 
-1 1:1 2:30 3:2 4:2 5:3 6:1 7:1 
-0.5994576975402727 1:2 2:29 3:1 4:1 5:1 6:1 7:1 
-1 1:1 2:31 3:1 4:2 5:1 6:1 7:1 
-1 1:1 2:31 3:1 4:2 5:1 6:1 7:1 
-0.4383980795230918 1:1 2:30 3:1 4:1 5:1 6:1 7:1 
-1 1:1 2:26 3:2 4:2 5:3 6:1 7:1 
-1 1:1 2:26 3:2 4:1 5:1 6:1 7:1 
-1 1:1 2:27 3:2 4:1 5:2 6:1 7:1 
-1 1:1 2:30 3:1 4:2 5:3 6:1 7:1 
-1 1:1 2:28 3:2 4:1 5:2 6:1 7:1 
-1 1:1 2:34 3:3 4:1 5:1 6:1 7:1 
-1 1:1 2:31 3:1 4:2 5:2 6:2 7:2 
-0.6312373366221017 1:2 2:34 3:1 4:1 5:2 6:1 7:1 
-0.9815912906622637 1:1 2:47 3:2 4:3 5:24 6:2 7:4 
-1 1:1 2:30 3:1 4:1 5:1 6:1 7:1 
-0.7999181428381632 1:1 2:46 3:2 4:1 5:19 6:2 7:4 
-1 1:2 2:37 3:1 4:2 5:10 6:2 7:1 
-1 1:2 2:31 3:3 4:2 5:1 6:1 7:1 
-1 1:2 2:28 3:2 4:1 5:2 6:1 7:1 
-1 1:2 2:23 3:1 4:1 5:1 6:1 7:1 
-0.2855307240363412 1:1 2:27 3:1 4:2 5:3 6:1 7:1 
-1 1:2 2:28 3:1 4:1 5:2 6:1 7:1 
-1 1:1 2:62 3:3 4:2 5:7 6:2 7:1 
-0.9816514476918036 1:2 2:47 3:1 4:6 5:1 6:2 7:1 
-1 1:2 2:36 3:3 4:2 5:2 6:2 7:1 
-1 1:2 2:37 3:1 4:2 5:5 6:2 7:1 
-1 1:2 2:37 3:1 4:2 5:10 6:2 7:1 
-1 1:1 2:32 3:1 4:1 5:2 6:2 7:1 
-1 1:2 2:42 3:1 4:1 5:6 6:2 7:5 
-0.651424028299448 1:1 2:35 3:5 4:1 5:3 6:2 7:1 
-1 1:1 2:41 3:1 4:2 5:2 6:1 7:1 
-0.9949757503246415 1:2 2:51 3:3 4:2 5:22 6:2 7:1 
-1 1:2 2:27 3:1 4:2 5:1 6:1 7:1 
-1 1:2 2:28 3:1 4:2 5:2 6:2 7:1 
-1 1:1 2:27 3:2 4:1 5:2 6:1 7:1 
-1 1:1 2:28 3:2 4:1 5:2 6:1 7:5 
-1 1:1 2:30 3:1 4:2 5:7 6:1 7:1 
-0.7088027905194291 1:2 2:33 3:1 4:2 5:0 6:2 7:1 
-1 1:1 2:27 3:2 4:1 5:1 6:1 7:1 
-1 1:1 2:26 3:1 4:1 5:1 6:1 7:1 
-0.8472920671933168 1:2 2:31 3:1 4:3 5:1 6:1 7:1 
-1 1:1 2:26 3:2 4:1 5:1 6:1 7:1 
-1 1:2 2:37 3:1 4:2 5:10 6:2 7:1 
-1 1:1 2:37 3:3 4:5 5:2 6:2 7:1 
-1 1:1 2:37 3:2 4:1 5:10 6:2 7:1 
-1 1:1 2:33 3:2 4:1 5:3 6:1 7:1 
-1 1:1 2:32 3:1 4:1 5:1 6:1 7:1 
-1 1:1 2:28 3:1 4:1 5:1 6:1 7:1 
-1 1:2 2:34 3:2 4:3 5:6 6:1 7:3 
-1 1:1 2:35 3:1 4:2 5:1 6:2 7:1 
-1 1:1 2:44 3:2 4:1 5:22 6:2 7:4 
-0.1785328792955628 1:1 2:28 3:3 4:1 5:2 6:1 7:1 
-1 1:1 2:31 3:2 4:1 5:6 6:2 7:1 
-1 1:2 2:25 3:2 4:1 5:2 6:1 7:1 
-1 1:1 2:26 3:2 4:1 5:3 6:1 7:1 
-1 1:2 2:27 3:1 4:4 5:1 6:1 7:1 
-1 1:1 2:33 3:1 4:4 5:7 6:1 7:1 
-1 1:2 2:45 3:2 4:1 5:21 6:2 7:3 
-1 1:1 2:36 3:2 4:2 5:6 6:2 7:1 
-1 1:1 2:33 3:2 4:1 5:8 6:2 7:1 
-0.3224431788361726 1:2 2:25 3:3 4:1 5:1 6:1 7:1 
-1 1:1 2:38 3:1 4:2 5:14 6:2 7:1 
-0.9955970408864961 1:1 2:38 3:1 4:1 5:8 6:2 7:1 
-1 1:1 2:24 3:1 4:2 5:1 6:1 7:1 
-1 1:1 2:54 3:5 4:3 5:8 6:2 7:1 
-1 1:1 2:28 3:1 4:1 5:1 6:1 7:1 
-1 1:1 2:30 3:1 4:2 5:7 6:1 7:1 
-1 1:1 2:26 3:2 4:1 5:3 6:1 7:1 
-0.9748648594194428 1:1 2:29 3:4 4:1 5:1 6:1 7:1 
-0.9625250492099779 1:1 2:47 3:3 4:1 5:13 6:2 7:1 
-0.3140979200933937 1:1 2:29 3:4 4:1 5:2 6:1 7:1 
-1 1:1 2:24 3:2 4:1 5:1 6:1 7:1 
-0.9719449296214272 1:1 2:30 3:1 4:5 5:7 6:1 7:1 
-0.4506634136976749 1:1 2:42 3:1 4:1 5:3 6:2 7:1 
-0.223390139019334 1:1 2:32 3:1 4:1 5:1 6:1 7:1 
-0.9588710550131108 1:1 2:38 3:6 4:1 5:7 6:2 7:3 
-1 1:1 2:26 3:5 4:2 5:2 6:1 7:1 
-1 1:1 2:30 3:1 4:2 5:6 6:2 7:1 
-1 1:1 2:29 3:4 4:1 5:3 6:1 7:1 
-1 1:1 2:24 3:1 4:4 5:0 6:1 7:1 
-1 1:2 2:26 3:1 4:1 5:1 6:1 7:1 
-0.9820414074055167 1:1 2:28 3:2 4:1 5:4 6:1 7:4 
-0.3991234788780529 1:1 2:37 3:2 4:1 5:12 6:1 7:1 
-0.5039619793942711 1:1 2:30 3:1 4:2 5:6 6:2 7:1 
-1 1:1 2:30 3:3 4:2 5:1 6:1 7:1 
-0.5237194460831472 1:2 2:27 3:2 4:2 5:2 6:1 7:1 
-1 1:1 2:35 3:1 4:2 5:9 6:2 7:1 
-1 1:1 2:33 3:2 4:1 5:3 6:1 7:1 
-0.1579003218888732 1:1 2:27 3:2 4:2 5:4 6:1 7:1 
-1 1:2 2:25 3:5 4:4 5:3 6:1 7:1 
-1 1:1 2:30 3:1 4:2 5:7 6:1 7:1 
-1 1:1 2:30 3:3 4:2 5:1 6:2 7:1 
-0.1250663055041326 1:2 2:33 3:1 4:1 5:5 6:1 7:1 
-1 1:1 2:50 3:3 4:5 5:12 6:1 7:1 
