svm_type c_svc
kernel_type rbf
gamma 0.142857
nr_class 2
total_sv 803
rho -0.218723
label 1 -1
nr_sv 407 396
SV
1 1:1 2:29 3:4 4:1 5:2 6:1 7:1 
1 1:2 2:31 3:3 4:1 5:2 6:1 7:1 
1 1:2 2:26 3:3 4:2 5:1 6:2 7:1 
1 1:1 2:30 3:2 4:1 5:7 6:1 7:1 
0.2417453499853591 1:1 2:34 3:1 4:5 5:7 6:1 7:1 
1 1:1 2:45 3:2 4:1 5:23 6:1 7:4 
1 1:1 2:37 3:1 4:1 5:6 6:1 7:1 
1 1:2 2:33 3:1 4:5 5:6 6:2 7:1 
1 1:1 2:25 3:1 4:1 5:2 6:1 7:1 
1 1:1 2:38 3:1 4:1 5:3 6:1 7:1 
1 1:1 2:43 3:2 4:1 5:23 6:2 7:5 
1 1:1 2:33 3:3 4:1 5:2 6:1 7:1 
1 1:1 2:26 3:2 4:1 5:2 6:1 7:1 
1 1:2 2:30 3:1 4:1 5:6 6:1 7:1 
1 1:1 2:24 3:1 4:2 5:1 6:1 7:1 
1 1:1 2:31 3:1 4:2 5:7 6:2 7:1 
1 1:1 2:31 3:1 4:2 5:3 6:1 7:4 
1 1:1 2:28 3:1 4:1 5:2 6:1 7:1 
1 1:1 2:31 3:1 4:1 5:1 6:1 7:1 
1 1:1 2:25 3:2 4:2 5:4 6:1 7:1 
1 1:1 2:29 3:1 4:1 5:4 6:1 7:1 
1 1:1 2:31 3:2 4:1 5:6 6:2 7:4 
1 1:1 2:25 3:2 4:1 5:1 6:1 7:1 
1 1:1 2:27 3:2 4:1 5:3 6:1 7:1 
1 1:1 2:28 3:1 4:1 5:2 6:1 7:1 
1 1:1 2:27 3:1 4:2 5:1 6:1 7:1 
1 1:1 2:28 3:3 4:1 5:2 6:1 7:1 
1 1:1 2:43 3:2 4:1 5:21 6:2 7:4 
0.9384720451133729 1:1 2:30 3:1 4:1 5:2 6:1 7:4 
1 1:1 2:31 3:1 4:1 5:7 6:1 7:1 
1 1:1 2:30 3:1 4:2 5:2 6:1 7:1 
1 1:1 2:27 3:2 4:1 5:4 6:1 7:4 
1 1:1 2:29 3:1 4:2 5:6 6:1 7:1 
1 1:1 2:31 3:2 4:2 5:7 6:2 7:1 
1 1:2 2:33 3:3 4:1 5:6 6:1 7:1 
1 1:1 2:28 3:3 4:1 5:2 6:1 7:1 
1 1:1 2:28 3:1 4:1 5:2 6:2 7:1 
1 1:1 2:33 3:1 4:1 5:2 6:1 7:1 
0.7896993214616894 1:1 2:32 3:1 4:1 5:6 6:2 7:1 
1 1:1 2:26 3:2 4:1 5:2 6:1 7:1 
1 1:1 2:29 3:3 4:2 5:1 6:1 7:1 
1 1:1 2:41 3:1 4:2 5:2 6:2 7:1 
1 1:1 2:30 3:2 4:1 5:5 6:1 7:1 
1 1:1 2:35 3:2 4:1 5:8 6:1 7:1 
1 1:1 2:30 3:1 4:1 5:3 6:1 7:4 
1 1:1 2:27 3:1 4:2 5:2 6:1 7:1 
1 1:1 2:41 3:1 4:2 5:2 6:2 7:1 
1 1:1 2:29 3:1 4:1 5:1 6:2 7:1 
1 1:1 2:28 3:1 4:5 5:5 6:1 7:1 
1 1:1 2:24 3:1 4:2 5:1 6:1 7:1 
0.07832138303034547 1:1 2:27 3:3 4:1 5:2 6:1 7:1 
1 1:1 2:29 3:3 4:2 5:1 6:1 7:1 
1 1:1 2:27 3:3 4:1 5:2 6:1 7:1 
1 1:1 2:26 3:2 4:1 5:2 6:1 7:1 
1 1:1 2:27 3:2 4:1 5:3 6:1 7:1 
1 1:1 2:27 3:3 4:1 5:3 6:1 7:1 
1 1:1 2:27 3:2 4:1 5:4 6:1 7:1 
1 1:1 2:30 3:1 4:1 5:2 6:1 7:4 
1 1:1 2:29 3:1 4:1 5:2 6:1 7:1 
1 1:2 2:26 3:2 4:2 5:4 6:2 7:1 
0.6054556640023746 1:1 2:29 3:1 4:2 5:8 6:1 7:1 
1 1:1 2:31 3:1 4:1 5:1 6:1 7:1 
1 1:1 2:36 3:1 4:1 5:6 6:2 7:1 
1 1:1 2:29 3:1 4:1 5:1 6:2 7:1 
1 1:1 2:28 3:3 4:1 5:2 6:1 7:1 
0.3362157800230899 1:1 2:25 3:5 4:2 5:2 6:1 7:1 
0.793889127747987 1:2 2:30 3:3 4:2 5:3 6:2 7:1 
1 1:2 2:29 3:2 4:1 5:6 6:1 7:1 
1 1:1 2:35 3:1 4:2 5:5 6:2 7:1 
0.2447760996275249 1:1 2:29 3:2 4:1 5:5 6:1 7:1 
1 1:1 2:30 3:1 4:2 5:2 6:1 7:1 
1 1:1 2:29 3:1 4:1 5:4 6:1 7:1 
1 1:1 2:29 3:1 4:2 5:6 6:1 7:1 
1 1:1 2:29 3:1 4:2 5:6 6:1 7:1 
1 1:1 2:30 3:2 4:1 5:5 6:1 7:1 
0.1590859608861991 1:1 2:40 3:1 4:1 5:10 6:2 7:1 
1 1:1 2:27 3:2 4:2 5:5 6:1 7:1 
1 1:1 2:31 3:1 4:1 5:1 6:1 7:1 
1 1:1 2:32 3:1 4:1 5:6 6:2 7:1 
1 1:1 2:23 3:2 4:1 5:1 6:1 7:1 
0.3794506300983836 1:1 2:37 3:1 4:2 5:2 6:1 7:1 
1 1:1 2:35 3:1 4:1 5:10 6:1 7:1 
1 1:1 2:27 3:1 4:2 5:1 6:1 7:1 
1 1:1 2:25 3:2 4:2 5:4 6:1 7:1 
1 1:1 2:31 3:1 4:2 5:7 6:2 7:1 
0.7757170634642095 1:1 2:28 3:1 4:4 5:1 6:2 7:1 
1 1:1 2:29 3:2 4:1 5:5 6:1 7:1 
0.7215101582416458 1:2 2:46 3:3 4:3 5:10 6:2 7:3 
1 1:1 2:38 3:3 4:2 5:12 6:2 7:1 
1 1:1 2:26 3:2 4:1 5:1 6:1 7:1 
1 1:2 2:24 3:1 4:2 5:2 6:1 7:1 
1 1:1 2:26 3:2 4:1 5:2 6:1 7:1 
1 1:1 2:27 3:3 4:1 5:3 6:1 7:1 
1 1:1 2:35 3:3 4:2 5:4 6:2 7:1 
1 1:1 2:32 3:1 4:2 5:2 6:2 7:1 
1 1:1 2:32 3:1 4:4 5:5 6:2 7:1 
1 1:1 2:26 3:2 4:1 5:2 6:1 7:1 
1 1:1 2:42 3:2 4:1 5:19 6:2 7:3 
1 1:2 2:30 3:3 4:2 5:3 6:2 7:1 
1 1:1 2:24 3:2 4:1 5:1 6:1 7:1 
0.237923332579512 1:1 2:34 3:5 4:1 5:3 6:2 7:4 
1 1:1 2:24 3:2 4:2 5:1 6:1 7:1 
1 1:2 2:26 3:1 4:2 5:1 6:1 7:1 
1 1:2 2:31 3:3 4:1 5:2 6:1 7:1 
1 1:2 2:24 3:1 4:2 5:2 6:1 7:1 
0.3222537760074551 1:1 2:37 3:1 4:2 5:12 6:1 7:1 
0.4812290427078749 1:2 2:30 3:2 4:2 5:8 6:1 7:1 
1 1:1 2:27 3:2 4:2 5:4 6:1 7:1 
1 1:1 2:33 3:1 4:1 5:2 6:1 7:1 
1 1:1 2:27 3:2 4:1 5:4 6:1 7:4 
1 1:2 2:30 3:1 4:2 5:4 6:1 7:1 
1 1:1 2:29 3:3 4:2 5:1 6:1 7:1 
1 1:1 2:26 3:1 4:2 5:4 6:1 7:1 
0.3939487463515247 1:2 2:26 3:3 4:2 5:1 6:2 7:1 
1 1:1 2:26 3:2 4:1 5:2 6:1 7:1 
1 1:1 2:24 3:2 4:2 5:1 6:1 7:1 
1 1:1 2:34 3:3 4:2 5:1 6:2 7:1 
1 1:1 2:22 3:1 4:2 5:1 6:1 7:1 
1 1:1 2:29 3:4 4:1 5:2 6:1 7:1 
1 1:1 2:35 3:1 4:1 5:4 6:1 7:1 
1 1:1 2:26 3:1 4:2 5:3 6:1 7:1 
1 1:1 2:30 3:1 4:1 5:5 6:1 7:1 
1 1:2 2:28 3:1 4:2 5:4 6:1 7:1 
1 1:1 2:27 3:2 4:1 5:4 6:1 7:4 
1 1:1 2:30 3:1 4:2 5:1 6:1 7:1 
1 1:1 2:26 3:2 4:1 5:3 6:1 7:1 
0.2938761979302856 1:1 2:26 3:1 4:2 5:1 6:1 7:1 
1 1:1 2:29 3:1 4:1 5:4 6:1 7:1 
1 1:1 2:31 3:1 4:2 5:7 6:2 7:1 
1 1:1 2:27 3:1 4:1 5:1 6:1 7:1 
1 1:1 2:29 3:1 4:2 5:6 6:1 7:1 
1 1:1 2:27 3:1 4:1 5:1 6:1 7:1 
0.8018516917547338 1:1 2:52 3:1 4:6 5:4 6:2 7:1 
1 1:1 2:34 3:1 4:1 5:8 6:1 7:1 
1 1:2 2:26 3:1 4:2 5:1 6:1 7:1 
1 1:1 2:29 3:1 4:1 5:4 6:1 7:1 
1 1:1 2:30 3:1 4:2 5:2 6:1 7:1 
1 1:1 2:26 3:2 4:1 5:1 6:1 7:1 
1 1:1 2:29 3:1 4:1 5:4 6:1 7:1 
0.8087268759704241 1:1 2:46 3:1 4:6 5:17 6:2 7:1 
1 1:1 2:30 3:1 4:1 5:2 6:1 7:4 
1 1:1 2:30 3:1 4:2 5:2 6:1 7:1 
0.987421897416237 1:2 2:29 3:3 4:2 5:6 6:1 7:1 
1 1:1 2:30 3:1 4:2 5:1 6:1 7:1 
1 1:1 2:31 3:1 4:2 5:7 6:2 7:1 
1 1:1 2:29 3:1 4:1 5:1 6:2 7:1 
1 1:1 2:27 3:1 4:2 5:2 6:1 7:1 
0.9425461969473921 1:1 2:26 3:3 4:4 5:1 6:2 7:1 
0.6447263942016354 1:1 2:33 3:2 4:2 5:11 6:2 7:1 
1 1:1 2:29 3:1 4:1 5:2 6:1 7:1 
1 1:1 2:24 3:2 4:2 5:1 6:1 7:1 
0.9890593890540006 1:1 2:32 3:1 4:1 5:6 6:2 7:1 
0.760572985487128 1:1 2:51 3:1 4:6 5:21 6:2 7:1 
1 1:1 2:26 3:1 4:1 5:1 6:1 7:1 
1 1:1 2:32 3:1 4:2 5:2 6:2 7:1 
0.8890620666311567 1:1 2:44 3:2 4:1 5:23 6:2 7:3 
1 1:1 2:31 3:1 4:1 5:5 6:1 7:1 
1 1:1 2:42 3:1 4:2 5:7 6:2 7:1 
1 1:1 2:30 3:1 4:2 5:2 6:1 7:1 
1 1:1 2:30 3:1 4:2 5:1 6:1 7:1 
1 1:2 2:33 3:1 4:5 5:6 6:2 7:1 
1 1:2 2:34 3:1 4:2 5:7 6:1 7:1 
1 1:1 2:26 3:2 4:1 5:2 6:1 7:1 
0.7953674088983012 1:1 2:52 3:3 4:1 5:4 6:2 7:1 
1 1:1 2:42 3:2 4:1 5:19 6:2 7:3 
0.02082592814456693 1:1 2:32 3:1 4:1 5:4 6:1 7:2 
1 1:1 2:30 3:1 4:1 5:6 6:1 7:1 
0.7733402687524498 1:1 2:54 3:1 4:6 5:16 6:2 7:1 
1 1:1 2:34 3:3 4:2 5:1 6:2 7:1 
1 1:2 2:34 3:1 4:2 5:3 6:2 7:5 
0.05029534106448637 1:1 2:31 3:2 4:2 5:9 6:1 7:1 
0.3947054552285696 1:1 2:37 3:2 4:2 5:16 6:2 7:1 
1 1:1 2:31 3:1 4:2 5:7 6:2 7:1 
0.2968844228326835 1:1 2:37 3:1 4:2 5:6 6:1 7:1 
1 1:1 2:30 3:1 4:4 5:6 6:1 7:1 
1 1:1 2:31 3:1 4:2 5:7 6:2 7:1 
1 1:1 2:32 3:1 4:2 5:7 6:1 7:1 
0.3250030971759449 1:1 2:40 3:1 4:3 5:6 6:2 7:5 
1 1:1 2:30 3:1 4:2 5:6 6:1 7:1 
0.8662409556252123 1:1 2:31 3:1 4:2 5:1 6:1 7:1 
1 1:1 2:34 3:3 4:2 5:1 6:2 7:1 
1 1:1 2:26 3:2 4:1 5:2 6:1 7:1 
1 1:1 2:29 3:1 4:2 5:6 6:1 7:1 
0.9832359552492013 1:1 2:34 3:1 4:5 5:7 6:1 7:1 
1 1:1 2:36 3:1 4:2 5:10 6:2 7:1 
1 1:1 2:30 3:4 4:1 5:4 6:1 7:1 
1 1:2 2:30 3:1 4:1 5:7 6:1 7:1 
1 1:1 2:32 3:2 4:1 5:8 6:1 7:1 
1 1:1 2:28 3:3 4:1 5:2 6:1 7:1 
1 1:1 2:29 3:1 4:1 5:1 6:2 7:1 
1 1:1 2:30 3:3 4:2 5:1 6:1 7:1 
1 1:2 2:30 3:3 4:2 5:3 6:2 7:1 
0.8845515354393398 1:1 2:33 3:1 4:2 5:2 6:2 7:1 
1 1:2 2:30 3:1 4:1 5:5 6:2 7:5 
1 1:2 2:27 3:1 4:1 5:1 6:1 7:1 
0.808432471230596 1:1 2:30 3:4 4:1 5:4 6:1 7:1 
1 1:1 2:30 3:3 4:2 5:2 6:2 7:1 
1 1:1 2:27 3:2 4:1 5:4 6:1 7:1 
1 1:1 2:32 3:1 4:1 5:4 6:1 7:2 
1 1:2 2:30 3:1 4:1 5:7 6:1 7:1 
1 1:1 2:37 3:1 4:2 5:2 6:1 7:1 
0.8529529334064726 1:2 2:26 3:3 4:5 5:5 6:1 7:1 
1 1:1 2:26 3:2 4:1 5:2 6:1 7:1 
1 1:1 2:31 3:1 4:2 5:7 6:2 7:1 
1 1:1 2:33 3:1 4:1 5:2 6:1 7:1 
0.8937860750729 1:1 2:28 3:1 4:1 5:4 6:1 7:1 
0.3328760630659291 1:1 2:24 3:1 4:4 5:2 6:1 7:1 
1 1:1 2:30 3:3 4:1 5:5 6:1 7:1 
0.0179783403899276 1:1 2:25 3:1 4:2 5:4 6:1 7:1 
1 1:1 2:32 3:1 4:2 5:8 6:1 7:1 
1 1:1 2:32 3:1 4:2 5:7 6:1 7:1 
1 1:1 2:27 3:1 4:2 5:1 6:1 7:1 
0.7622888543009391 1:1 2:56 3:3 4:6 5:21 6:2 7:1 
1 1:1 2:37 3:2 4:1 5:12 6:2 7:1 
1 1:1 2:29 3:1 4:1 5:4 6:1 7:1 
1 1:1 2:32 3:1 4:1 5:4 6:2 7:1 
1 1:1 2:39 3:1 4:2 5:15 6:2 7:1 
1 1:1 2:30 3:4 4:1 5:1 6:1 7:1 
1 1:1 2:31 3:1 4:1 5:1 6:1 7:1 
1 1:1 2:34 3:1 4:2 5:7 6:1 7:1 
1 1:1 2:25 3:2 4:2 5:4 6:1 7:1 
0.8764226607834436 1:1 2:30 3:5 4:2 5:1 6:1 7:1 
1 1:1 2:32 3:3 4:1 5:1 6:2 7:1 
1 1:1 2:32 3:1 4:2 5:7 6:1 7:1 
1 1:1 2:32 3:1 4:1 5:4 6:1 7:2 
0.913492487058544 1:2 2:26 3:1 4:1 5:4 6:1 7:1 
1 1:2 2:27 3:1 4:1 5:1 6:1 7:1 
1 1:1 2:37 3:1 4:2 5:2 6:1 7:1 
1 1:1 2:28 3:1 4:4 5:1 6:2 7:1 
1 1:1 2:34 3:5 4:1 5:3 6:2 7:4 
1 1:1 2:28 3:3 4:1 5:2 6:1 7:1 
0.7928328404747015 1:2 2:26 3:2 4:1 5:3 6:1 7:4 
1 1:1 2:30 3:1 4:1 5:2 6:1 7:4 
1 1:1 2:28 3:1 4:1 5:2 6:1 7:1 
1 1:1 2:42 3:1 4:3 5:1 6:2 7:1 
1 1:1 2:37 3:1 4:2 5:12 6:1 7:1 
1 1:1 2:33 3:1 4:2 5:2 6:2 7:1 
1 1:1 2:31 3:2 4:2 5:7 6:2 7:1 
1 1:1 2:32 3:1 4:4 5:5 6:2 7:1 
1 1:1 2:28 3:1 4:1 5:2 6:1 7:1 
0.3098411961151766 1:2 2:39 3:2 4:3 5:17 6:2 7:4 
1 1:1 2:30 3:1 4:2 5:6 6:1 7:1 
1 1:1 2:31 3:1 4:2 5:7 6:2 7:1 
1 1:1 2:28 3:3 4:1 5:2 6:1 7:1 
1 1:1 2:31 3:1 4:1 5:1 6:1 7:1 
1 1:2 2:23 3:2 4:1 5:1 6:1 7:1 
1 1:1 2:43 3:2 4:1 5:19 6:2 7:4 
1 1:1 2:29 3:4 4:1 5:2 6:1 7:1 
1 1:1 2:29 3:3 4:2 5:1 6:1 7:1 
0.25907856794132 1:1 2:27 3:3 4:2 5:2 6:1 7:1 
1 1:2 2:23 3:1 4:2 5:2 6:1 7:1 
1 1:1 2:33 3:1 4:2 5:2 6:2 7:1 
1 1:1 2:31 3:1 4:2 5:7 6:2 7:1 
1 1:1 2:29 3:3 4:2 5:1 6:1 7:1 
1 1:1 2:30 3:3 4:1 5:4 6:2 7:1 
0.448675947423209 1:1 2:46 3:2 4:3 5:24 6:2 7:4 
1 1:1 2:26 3:2 4:1 5:2 6:1 7:1 
1 1:1 2:25 3:2 4:2 5:4 6:1 7:1 
1 1:2 2:27 3:1 4:1 5:2 6:1 7:1 
1 1:1 2:29 3:1 4:2 5:6 6:1 7:1 
1 1:1 2:29 3:4 4:1 5:2 6:1 7:1 
1 1:1 2:30 3:1 4:2 5:2 6:1 7:1 
0.1334964086449164 1:1 2:25 3:1 4:4 5:4 6:1 7:1 
1 1:1 2:27 3:3 4:1 5:3 6:1 7:1 
1 1:2 2:39 3:1 4:1 5:2 6:1 7:1 
0.6582247306798259 1:1 2:37 3:1 4:6 5:9 6:2 7:1 
0.6994639347787159 1:1 2:30 3:2 4:2 5:8 6:1 7:1 
1 1:1 2:26 3:2 4:1 5:2 6:1 7:1 
1 1:1 2:28 3:1 4:4 5:1 6:2 7:1 
0.7271239554274258 1:1 2:42 3:3 4:3 5:18 6:2 7:1 
1 1:1 2:29 3:3 4:2 5:1 6:1 7:1 
1 1:1 2:27 3:3 4:2 5:2 6:1 7:1 
1 1:1 2:42 3:1 4:3 5:1 6:2 7:1 
0.5664976488629793 1:1 2:27 3:3 4:1 5:2 6:1 7:4 
1 1:1 2:30 3:1 4:1 5:3 6:1 7:4 
1 1:2 2:30 3:3 4:2 5:3 6:2 7:1 
1 1:1 2:29 3:2 4:1 5:5 6:1 7:1 
1 1:1 2:29 3:3 4:2 5:1 6:1 7:1 
1 1:1 2:32 3:1 4:2 5:1 6:1 7:1 
0.7769774349323774 1:1 2:33 3:2 4:2 5:11 6:2 7:1 
1 1:1 2:27 3:1 4:2 5:4 6:1 7:1 
1 1:1 2:31 3:1 4:1 5:1 6:1 7:1 
1 1:1 2:24 3:2 4:2 5:1 6:1 7:1 
1 1:1 2:42 3:2 4:1 5:19 6:2 7:3 
1 1:1 2:27 3:2 4:1 5:4 6:1 7:4 
1 1:1 2:33 3:1 4:2 5:2 6:2 7:1 
1 1:1 2:32 3:1 4:1 5:4 6:1 7:2 
1 1:2 2:39 3:1 4:1 5:2 6:1 7:1 
1 1:1 2:32 3:1 4:2 5:1 6:1 7:1 
1 1:1 2:30 3:1 4:2 5:1 6:1 7:1 
0.6056175106218196 1:2 2:26 3:5 4:2 5:6 6:1 7:1 
0.6770613604979955 1:1 2:24 3:3 4:2 5:1 6:1 7:1 
0.6759646278848034 1:1 2:38 3:1 4:2 5:15 6:2 7:4 
1 1:1 2:29 3:4 4:1 5:2 6:1 7:1 
1 1:1 2:28 3:1 4:4 5:1 6:2 7:1 
1 1:1 2:34 3:1 4:1 5:6 6:2 7:1 
1 1:1 2:45 3:1 4:6 5:6 6:2 7:1 
1 1:1 2:30 3:1 4:1 5:5 6:1 7:1 
1 1:1 2:37 3:1 4:2 5:2 6:1 7:1 
1 1:1 2:28 3:3 4:1 5:3 6:1 7:1 
1 1:1 2:37 3:1 4:1 5:6 6:1 7:1 
1 1:1 2:38 3:3 4:2 5:12 6:2 7:1 
1 1:1 2:29 3:1 4:1 5:1 6:2 7:1 
1 1:1 2:29 3:2 4:1 5:5 6:1 7:1 
0.0534903965136377 1:1 2:22 3:2 4:2 5:1 6:1 7:1 
1 1:2 2:27 3:1 4:4 5:2 6:2 7:1 
1 1:1 2:37 3:1 4:2 5:12 6:1 7:1 
1 1:1 2:32 3:1 4:2 5:8 6:1 7:1 
1 1:1 2:29 3:1 4:2 5:6 6:1 7:1 
1 1:1 2:32 3:1 4:2 5:1 6:1 7:1 
0.2408529372300022 1:1 2:24 3:4 4:1 5:2 6:1 7:1 
1 1:1 2:37 3:1 4:2 5:6 6:1 7:1 
1 1:1 2:32 3:2 4:1 5:9 6:1 7:1 
1 1:1 2:27 3:1 4:1 5:1 6:1 7:1 
0.9186165754761432 1:1 2:35 3:1 4:4 5:4 6:2 7:1 
1 1:1 2:29 3:3 4:2 5:2 6:1 7:1 
0.104285273474303 1:2 2:45 3:3 4:6 5:3 6:2 7:1 
1 1:1 2:29 3:1 4:1 5:1 6:2 7:1 
1 1:1 2:32 3:1 4:1 5:4 6:1 7:2 
1 1:1 2:26 3:1 4:1 5:1 6:1 7:1 
0.3724878626871287 1:2 2:26 3:1 4:2 5:2 6:1 7:1 
1 1:2 2:28 3:1 4:2 5:4 6:1 7:1 
1 1:1 2:27 3:2 4:1 5:4 6:1 7:1 
1 1:1 2:32 3:1 4:2 5:1 6:2 7:1 
1 1:1 2:30 3:1 4:1 5:6 6:1 7:1 
1 1:2 2:27 3:1 4:1 5:1 6:1 7:1 
1 1:2 2:26 3:1 4:2 5:2 6:1 7:1 
0.9975578720071302 1:1 2:37 3:1 4:2 5:2 6:1 7:1 
0.8903982089305168 1:2 2:30 3:2 4:2 5:8 6:1 7:1 
1 1:1 2:27 3:3 4:1 5:2 6:1 7:1 
1 1:1 2:31 3:1 4:2 5:7 6:2 7:1 
1 1:2 2:27 3:3 4:2 5:2 6:2 7:1 
1 1:1 2:30 3:1 4:2 5:1 6:1 7:1 
0.9951226879229936 1:2 2:45 3:3 4:6 5:3 6:2 7:1 
0.9993133086814784 1:1 2:40 3:1 4:1 5:10 6:2 7:1 
1 1:1 2:30 3:1 4:2 5:2 6:1 7:1 
1 1:1 2:31 3:1 4:1 5:1 6:1 7:1 
1 1:1 2:27 3:1 4:2 5:1 6:1 7:1 
1 1:2 2:27 3:1 4:1 5:2 6:1 7:1 
0.04036452605142261 1:1 2:32 3:1 4:2 5:1 6:2 7:1 
1 1:1 2:29 3:1 4:1 5:4 6:1 7:1 
1 1:1 2:32 3:2 4:1 5:9 6:1 7:1 
0.8567657649247464 1:1 2:43 3:3 4:2 5:9 6:2 7:1 
1 1:1 2:29 3:1 4:1 5:4 6:1 7:1 
0.9042050145599941 1:1 2:26 3:1 4:2 5:1 6:1 7:1 
1 1:2 2:30 3:1 4:1 5:7 6:1 7:1 
1 1:1 2:29 3:4 4:1 5:2 6:1 7:1 
1 1:1 2:29 3:1 4:2 5:6 6:1 7:1 
1 1:1 2:30 3:3 4:1 5:5 6:1 7:1 
1 1:1 2:27 3:3 4:1 5:2 6:1 7:1 
1 1:1 2:29 3:1 4:1 5:2 6:1 7:1 
1 1:1 2:27 3:3 4:1 5:2 6:1 7:1 
1 1:1 2:31 3:1 4:1 5:1 6:1 7:1 
1 1:1 2:25 3:1 4:2 5:4 6:1 7:1 
1 1:1 2:32 3:1 4:1 5:4 6:1 7:2 
1 1:1 2:30 3:2 4:2 5:8 6:1 7:1 
1 1:1 2:29 3:1 4:1 5:4 6:1 7:1 
1 1:1 2:31 3:3 4:1 5:1 6:2 7:1 
0.9788053140768935 1:2 2:29 3:3 4:2 5:6 6:1 7:1 
1 1:1 2:25 3:1 4:2 5:4 6:1 7:1 
1 1:1 2:29 3:3 4:2 5:2 6:2 7:5 
1 1:1 2:27 3:2 4:1 5:4 6:1 7:1 
1 1:1 2:32 3:1 4:1 5:7 6:1 7:1 
1 1:1 2:29 3:1 4:1 5:4 6:1 7:1 
1 1:1 2:30 3:3 4:1 5:4 6:2 7:1 
1 1:1 2:29 3:1 4:1 5:2 6:1 7:1 
1 1:2 2:37 3:1 4:1 5:2 6:2 7:1 
1 1:1 2:38 3:2 4:1 5:11 6:1 7:1 
1 1:1 2:37 3:1 4:2 5:12 6:1 7:1 
1 1:1 2:33 3:1 4:2 5:5 6:2 7:1 
1 1:1 2:36 3:2 4:2 5:15 6:2 7:1 
1 1:1 2:30 3:2 4:2 5:8 6:1 7:1 
1 1:2 2:26 3:1 4:2 5:2 6:1 7:1 
0.9975708831277676 1:1 2:32 3:1 4:1 5:4 6:1 7:2 
1 1:1 2:31 3:1 4:1 5:1 6:1 7:1 
0.2307041531372298 1:1 2:29 3:2 4:2 5:6 6:1 7:1 
1 1:1 2:31 3:1 4:1 5:7 6:1 7:1 
1 1:2 2:26 3:1 4:5 5:2 6:1 7:1 
1 1:1 2:27 3:1 4:1 5:1 6:1 7:1 
1 1:2 2:30 3:3 4:2 5:3 6:2 7:1 
0.9334299950744395 1:1 2:44 3:2 4:1 5:23 6:2 7:3 
1 1:1 2:29 3:1 4:1 5:2 6:1 7:1 
1 1:1 2:27 3:3 4:1 5:2 6:1 7:4 
0.7520455775356588 1:1 2:49 3:1 4:1 5:9 6:2 7:4 
1 1:1 2:28 3:1 4:1 5:2 6:1 7:1 
1 1:1 2:31 3:2 4:1 5:6 6:2 7:4 
0.9838075806736278 1:1 2:27 3:3 4:1 5:2 6:1 7:1 
1 1:1 2:27 3:3 4:1 5:2 6:1 7:4 
1 1:1 2:24 3:2 4:2 5:1 6:1 7:1 
1 1:1 2:27 3:3 4:2 5:2 6:1 7:1 
0.9970391050582983 1:1 2:40 3:1 4:3 5:6 6:2 7:5 
1 1:1 2:36 3:1 4:2 5:10 6:2 7:1 
1 1:1 2:35 3:2 4:1 5:8 6:1 7:1 
1 1:1 2:30 3:1 4:2 5:6 6:1 7:1 
1 1:1 2:28 3:1 4:4 5:1 6:2 7:1 
0.9755959931901473 1:1 2:24 3:1 4:4 5:2 6:1 7:1 
0.9259030875143923 1:1 2:31 3:2 4:2 5:9 6:1 7:1 
1 1:1 2:26 3:2 4:1 5:2 6:1 7:1 
1 1:1 2:27 3:3 4:2 5:2 6:1 7:1 
1 1:1 2:37 3:3 4:2 5:4 6:2 7:1 
0.4482536447976897 1:1 2:30 3:5 4:2 5:1 6:1 7:1 
1 1:1 2:34 3:3 4:2 5:1 6:2 7:1 
0.7511318441128376 1:2 2:31 3:2 4:1 5:8 6:1 7:3 
1 1:1 2:28 3:1 4:4 5:1 6:2 7:1 
0.7031203642224658 1:1 2:26 3:2 4:1 5:2 6:1 7:5 
1 1:1 2:26 3:3 4:4 5:1 6:2 7:1 
1 1:1 2:37 3:1 4:1 5:6 6:1 7:1 
-0.9036558485827239 1:1 2:42 3:1 4:4 5:8 6:2 7:1 
-1 1:2 2:30 3:2 4:1 5:6 6:1 7:1 
-0.5835031488559187 1:2 2:37 3:3 4:1 5:4 6:2 7:1 
-1 1:1 2:41 3:1 4:2 5:2 6:1 7:1 
-1 1:1 2:39 3:1 4:1 5:5 6:1 7:1 
-0.6378872513710162 1:2 2:29 3:1 4:4 5:1 6:1 7:1 
-1 1:1 2:30 3:1 4:2 5:7 6:1 7:1 
-1 1:2 2:30 3:2 4:1 5:6 6:1 7:1 
-1 1:1 2:34 3:3 4:1 5:1 6:1 7:1 
-1 1:1 2:29 3:3 4:1 5:3 6:1 7:1 
-1 1:1 2:35 3:1 4:1 5:2 6:1 7:1 
-1 1:1 2:41 3:1 4:2 5:2 6:1 7:1 
-1 1:1 2:29 3:4 4:1 5:2 6:1 7:1 
-1 1:1 2:28 3:1 4:1 5:1 6:1 7:1 
-1 1:1 2:42 3:1 4:4 5:8 6:2 7:1 
-1 1:1 2:36 3:2 4:2 5:6 6:2 7:1 
-1 1:1 2:26 3:1 4:1 5:1 6:1 7:1 
-1 1:2 2:33 3:1 4:1 5:5 6:1 7:1 
-1 1:1 2:31 3:1 4:1 5:0 6:1 7:1 
-1 1:1 2:37 3:2 4:1 5:12 6:1 7:1 
-0.4356602377730813 1:1 2:29 3:2 4:1 5:4 6:1 7:4 
-1 1:1 2:27 3:2 4:1 5:2 6:1 7:1 
-1 1:1 2:37 3:1 4:1 5:3 6:1 7:1 
-0.9388422470434891 1:2 2:37 3:3 4:1 5:4 6:2 7:1 
-1 1:1 2:33 3:2 4:1 5:8 6:2 7:1 
-1 1:1 2:34 3:2 4:1 5:3 6:1 7:4 
-1 1:1 2:26 3:2 4:2 5:3 6:1 7:1 
-1 1:1 2:27 3:2 4:1 5:2 6:1 7:1 
-1 1:1 2:54 3:5 4:3 5:8 6:2 7:1 
-1 1:1 2:24 3:1 4:2 5:1 6:1 7:1 
-1 1:1 2:29 3:1 4:1 5:1 6:2 7:1 
-1 1:1 2:30 3:2 4:1 5:5 6:1 7:1 
-1 1:2 2:32 3:1 4:1 5:5 6:2 7:1 
-1 1:1 2:28 3:4 4:1 5:1 6:1 7:1 
-1 1:1 2:38 3:3 4:1 5:13 6:2 7:1 
-1 1:1 2:32 3:1 4:2 5:8 6:2 7:1 
-1 1:1 2:30 3:1 4:2 5:7 6:1 7:1 
-1 1:1 2:32 3:1 4:1 5:1 6:1 7:1 
-1 1:1 2:37 3:1 4:1 5:3 6:1 7:1 
-0.9816095256929043 1:1 2:28 3:3 4:4 5:1 6:2 7:1 
-0.786768882413069 1:1 2:32 3:3 4:5 5:2 6:2 7:1 
-1 1:1 2:31 3:1 4:1 5:5 6:1 7:5 
-1 1:1 2:37 3:2 4:1 5:12 6:1 7:1 
-1 1:1 2:29 3:1 4:1 5:2 6:1 7:1 
-1 1:1 2:30 3:1 4:1 5:4 6:2 7:1 
-1 1:1 2:28 3:2 4:1 5:2 6:1 7:1 
-1 1:1 2:24 3:2 4:1 5:1 6:1 7:1 
-1 1:1 2:26 3:2 4:2 5:4 6:1 7:1 
-1 1:1 2:34 3:1 4:1 5:5 6:1 7:1 
-1 1:1 2:32 3:1 4:2 5:2 6:2 7:1 
-1 1:1 2:37 3:2 4:1 5:12 6:1 7:1 
-1 1:2 2:25 3:3 4:2 5:1 6:1 7:1 
-0.435793778265303 1:2 2:30 3:1 4:2 5:3 6:1 7:1 
-1 1:1 2:28 3:3 4:4 5:1 6:2 7:1 
-1 1:1 2:41 3:1 4:2 5:2 6:1 7:1 
-1 1:1 2:29 3:3 4:1 5:3 6:1 7:1 
-1 1:1 2:33 3:2 4:2 5:6 6:1 7:2 
-1 1:1 2:28 3:1 4:1 5:1 6:2 7:1 
-1 1:1 2:30 3:2 4:1 5:2 6:1 7:1 
-1 1:2 2:30 3:2 4:1 5:6 6:1 7:1 
-1 1:1 2:37 3:2 4:1 5:12 6:1 7:1 
-1 1:1 2:31 3:4 4:1 5:2 6:1 7:1 
-1 1:2 2:27 3:1 4:4 5:1 6:1 7:1 
-1 1:1 2:37 3:2 4:1 5:12 6:1 7:1 
-1 1:1 2:43 3:2 4:1 5:19 6:2 7:3 
-1 1:1 2:27 3:1 4:1 5:1 6:1 7:1 
-1 1:1 2:27 3:2 4:1 5:2 6:1 7:1 
-1 1:2 2:28 3:1 4:2 5:2 6:2 7:1 
-1 1:2 2:27 3:1 4:4 5:1 6:1 7:1 
-1 1:1 2:29 3:1 4:1 5:2 6:1 7:1 
-1 1:1 2:29 3:4 4:1 5:2 6:1 7:1 
-1 1:1 2:29 3:2 4:1 5:5 6:1 7:1 
-1 1:1 2:31 3:4 4:1 5:2 6:1 7:1 
-1 1:1 2:40 3:2 4:3 5:8 6:2 7:4 
-1 1:1 2:26 3:2 4:2 5:3 6:1 7:1 
-1 1:1 2:30 3:1 4:2 5:6 6:2 7:1 
-1 1:1 2:28 3:1 4:1 5:3 6:1 7:1 
-1 1:2 2:28 3:1 4:2 5:2 6:1 7:1 
-1 1:1 2:32 3:1 4:2 5:8 6:2 7:1 
-1 1:1 2:30 3:1 4:2 5:7 6:1 7:1 
-1 1:1 2:29 3:4 4:1 5:3 6:1 7:1 
-1 1:1 2:32 3:3 4:1 5:5 6:1 7:1 
-1 1:1 2:29 3:1 4:1 5:2 6:1 7:1 
-1 1:1 2:30 3:2 4:2 5:3 6:1 7:1 
-1 1:1 2:28 3:2 4:1 5:1 6:1 7:1 
-1 1:1 2:27 3:2 4:1 5:3 6:1 7:4 
-0.8727576597801242 1:2 2:30 3:3 4:1 5:0 6:2 7:1 
-1 1:2 2:30 3:2 4:1 5:6 6:1 7:1 
-1 1:1 2:30 3:1 4:1 5:6 6:1 7:1 
-1 1:1 2:27 3:2 4:1 5:3 6:1 7:4 
-1 1:2 2:30 3:2 4:1 5:6 6:1 7:1 
-1 1:1 2:41 3:1 4:1 5:1 6:2 7:1 
-1 1:1 2:28 3:4 4:1 5:1 6:1 7:1 
-1 1:1 2:30 3:1 4:2 5:7 6:1 7:1 
-0.07036949473067175 1:1 2:32 3:2 4:2 5:8 6:1 7:1 
-1 1:1 2:31 3:1 4:1 5:0 6:1 7:1 
-1 1:2 2:27 3:2 4:2 5:2 6:1 7:1 
-1 1:1 2:28 3:1 4:2 5:2 6:1 7:2 
-1 1:1 2:30 3:1 4:2 5:7 6:1 7:1 
-1 1:1 2:30 3:1 4:2 5:5 6:2 7:1 
-0.1205296945643033 1:2 2:32 3:2 4:1 5:3 6:1 7:1 
-1 1:1 2:26 3:2 4:2 5:3 6:1 7:1 
-0.2463032374504785 1:1 2:27 3:1 4:1 5:0 6:1 7:1 
-1 1:1 2:29 3:1 4:1 5:4 6:1 7:1 
-1 1:1 2:30 3:1 4:1 5:2 6:1 7:2 
-1 1:1 2:31 3:1 4:1 5:2 6:1 7:1 
-1 1:1 2:48 3:1 4:2 5:15 6:2 7:1 
-1 1:1 2:30 3:1 4:2 5:7 6:1 7:1 
-1 1:1 2:33 3:2 4:1 5:8 6:2 7:1 
-1 1:2 2:30 3:2 4:1 5:6 6:1 7:1 
-0.7634050578491925 1:1 2:35 3:2 4:1 5:5 6:1 7:1 
-1 1:1 2:31 3:1 4:1 5:5 6:1 7:5 
-1 1:1 2:29 3:4 4:1 5:2 6:1 7:1 
-1 1:2 2:24 3:1 4:4 5:1 6:1 7:1 
-1 1:2 2:33 3:1 4:2 5:0 6:2 7:1 
-1 1:1 2:30 3:1 4:2 5:7 6:1 7:1 
-1 1:1 2:26 3:2 4:1 5:2 6:1 7:1 
-1 1:1 2:29 3:2 4:1 5:4 6:1 7:1 
-1 1:1 2:31 3:1 4:1 5:1 6:1 7:1 
-1 1:2 2:28 3:1 4:2 5:2 6:2 7:1 
-1 1:1 2:26 3:2 4:2 5:3 6:1 7:1 
-1 1:1 2:31 3:4 4:1 5:0 6:1 7:1 
-0.2875546549248879 1:1 2:39 3:1 4:1 5:5 6:2 7:1 
-1 1:1 2:32 3:1 4:1 5:2 6:2 7:1 
-1 1:1 2:28 3:3 4:1 5:2 6:1 7:1 
-1 1:2 2:27 3:2 4:1 5:4 6:1 7:1 
-1 1:1 2:30 3:3 4:2 5:1 6:2 7:1 
-0.3936511543972335 1:1 2:30 3:1 4:3 5:3 6:1 7:1 
-1 1:1 2:29 3:2 4:1 5:2 6:1 7:4 
-0.9919692908956247 1:2 2:30 3:1 4:2 5:3 6:1 7:1 
-0.9184136802061282 1:1 2:31 3:1 4:2 5:6 6:1 7:1 
-1 1:2 2:29 3:3 4:2 5:2 6:2 7:1 
-0.7176142825065686 1:1 2:38 3:1 4:1 5:2 6:1 7:3 
-0.7651988552770936 1:2 2:38 3:1 4:2 5:0 6:2 7:1 
-1 1:1 2:30 3:2 4:2 5:3 6:1 7:4 
-1 1:2 2:26 3:1 4:1 5:1 6:1 7:1 
-1 1:1 2:24 3:1 4:2 5:1 6:1 7:1 
-1 1:1 2:44 3:2 4:1 5:22 6:2 7:4 
-1 1:1 2:30 3:1 4:2 5:5 6:2 7:1 
-1 1:1 2:32 3:2 4:2 5:8 6:1 7:1 
-1 1:1 2:30 3:1 4:1 5:6 6:1 7:1 
-1 1:1 2:47 3:1 4:3 5:4 6:2 7:1 
-1 1:1 2:32 3:4 4:1 5:0 6:2 7:1 
-1 1:1 2:28 3:2 4:1 5:3 6:1 7:1 
-1 1:1 2:31 3:1 4:2 5:1 6:1 7:1 
-1 1:1 2:30 3:2 4:1 5:5 6:1 7:1 
-1 1:1 2:25 3:4 4:1 5:1 6:1 7:1 
-1 1:1 2:28 3:3 4:4 5:1 6:2 7:1 
-1 1:1 2:24 3:1 4:2 5:1 6:1 7:1 
-1 1:1 2:31 3:1 4:1 5:3 6:1 7:4 
-1 1:1 2:33 3:2 4:1 5:4 6:1 7:1 
-1 1:1 2:26 3:2 4:1 5:2 6:1 7:1 
-1 1:1 2:32 3:1 4:2 5:8 6:2 7:1 
-1 1:1 2:36 3:2 4:2 5:6 6:2 7:1 
-0.9569388994338011 1:1 2:46 3:1 4:5 5:0 6:2 7:1 
-1 1:1 2:24 3:1 4:2 5:1 6:1 7:1 
-1 1:1 2:27 3:2 4:1 5:2 6:1 7:1 
-1 1:1 2:26 3:2 4:1 5:3 6:1 7:1 
-1 1:1 2:26 3:1 4:2 5:5 6:1 7:1 
-1 1:1 2:29 3:2 4:1 5:5 6:1 7:1 
-1 1:1 2:33 3:2 4:1 5:7 6:1 7:1 
-1 1:1 2:30 3:1 4:2 5:7 6:1 7:1 
-1 1:1 2:26 3:1 4:1 5:1 6:1 7:1 
-1 1:1 2:44 3:2 4:1 5:22 6:2 7:4 
-1 1:1 2:37 3:1 4:1 5:3 6:1 7:1 
-1 1:1 2:26 3:1 4:1 5:1 6:1 7:1 
-0.3032965525807983 1:1 2:34 3:1 4:1 5:1 6:1 7:1 
-1 1:1 2:26 3:2 4:2 5:4 6:1 7:1 
-1 1:1 2:34 3:1 4:1 5:5 6:1 7:1 
-1 1:1 2:28 3:2 4:1 5:4 6:1 7:4 
-1 1:1 2:27 3:2 4:1 5:2 6:1 7:1 
-1 1:1 2:29 3:1 4:1 5:0 6:1 7:1 
-1 1:1 2:28 3:2 4:1 5:1 6:1 7:1 
-1 1:1 2:38 3:1 4:1 5:3 6:1 7:1 
-1 1:1 2:25 3:4 4:1 5:1 6:1 7:1 
-1 1:2 2:27 3:2 4:1 5:4 6:1 7:1 
-1 1:2 2:30 3:2 4:1 5:6 6:1 7:1 
-1 1:1 2:25 3:2 4:1 5:1 6:1 7:1 
-1 1:1 2:30 3:1 4:2 5:7 6:1 7:1 
-1 1:1 2:28 3:1 4:1 5:1 6:1 7:1 
-1 1:1 2:27 3:2 4:1 5:2 6:1 7:1 
-1 1:2 2:27 3:2 4:1 5:4 6:1 7:1 
-1 1:1 2:38 3:2 4:1 5:9 6:2 7:1 
-1 1:2 2:29 3:1 4:2 5:0 6:1 7:1 
-0.9117475404502451 1:2 2:23 3:1 4:1 5:1 6:1 7:1 
-1 1:1 2:34 3:3 4:1 5:2 6:2 7:1 
-1 1:1 2:32 3:2 4:1 5:2 6:1 7:4 
-1 1:1 2:30 3:1 4:2 5:7 6:1 7:1 
-1 1:1 2:28 3:2 4:1 5:1 6:1 7:1 
-1 1:1 2:32 3:1 4:2 5:8 6:2 7:1 
-1 1:1 2:38 3:1 4:2 5:14 6:2 7:1 
-1 1:1 2:25 3:2 4:1 5:1 6:1 7:1 
-1 1:1 2:26 3:2 4:2 5:4 6:1 7:1 
-1 1:1 2:30 3:1 4:2 5:6 6:2 7:1 
-1 1:2 2:28 3:1 4:2 5:2 6:2 7:1 
-1 1:1 2:34 3:1 4:4 5:1 6:2 7:1 
-1 1:2 2:25 3:2 4:1 5:2 6:1 7:1 
-1 1:1 2:33 3:1 4:2 5:5 6:1 7:1 
-0.5216665203411899 1:2 2:33 3:1 4:5 5:4 6:2 7:1 
-1 1:1 2:34 3:1 4:2 5:2 6:1 7:1 
-1 1:2 2:29 3:2 4:1 5:4 6:1 7:1 
-1 1:1 2:32 3:2 4:2 5:8 6:1 7:1 
-1 1:1 2:32 3:1 4:1 5:1 6:1 7:1 
-1 1:1 2:30 3:2 4:1 5:2 6:1 7:1 
-1 1:1 2:27 3:2 4:1 5:2 6:1 7:1 
-1 1:1 2:30 3:6 4:1 5:1 6:1 7:1 
-1 1:1 2:24 3:1 4:2 5:1 6:1 7:1 
-1 1:1 2:34 3:3 4:1 5:2 6:2 7:1 
-1 1:1 2:30 3:2 4:1 5:5 6:1 7:1 
-1 1:1 2:28 3:2 4:1 5:2 6:1 7:1 
-1 1:1 2:30 3:1 4:2 5:3 6:1 7:1 
-1 1:1 2:28 3:2 4:1 5:2 6:1 7:1 
-1 1:1 2:33 3:1 4:1 5:2 6:2 7:1 
-1 1:1 2:28 3:1 4:1 5:3 6:1 7:1 
-0.9176762998311202 1:1 2:24 3:1 4:4 5:0 6:1 7:1 
-1 1:1 2:50 3:3 4:5 5:12 6:1 7:1 
-0.9820356824095711 1:1 2:42 3:3 4:1 5:1 6:2 7:1 
-1 1:1 2:27 3:2 4:2 5:4 6:1 7:1 
-0.4170703350168773 1:2 2:47 3:1 4:6 5:1 6:2 7:1 
-1 1:2 2:25 3:3 4:2 5:1 6:1 7:1 
-1 1:1 2:28 3:1 4:1 5:1 6:2 7:1 
-1 1:1 2:33 3:1 4:1 5:1 6:1 7:5 
-1 1:1 2:44 3:3 4:1 5:3 6:2 7:4 
-1 1:2 2:27 3:1 4:4 5:1 6:1 7:1 
-1 1:1 2:42 3:1 4:1 5:5 6:2 7:1 
-1 1:1 2:30 3:1 4:2 5:7 6:1 7:1 
-1 1:1 2:32 3:1 4:2 5:8 6:2 7:1 
-1 1:1 2:30 3:1 4:2 5:3 6:1 7:1 
-1 1:1 2:32 3:2 4:2 5:8 6:1 7:1 
-1 1:1 2:38 3:1 4:1 5:6 6:2 7:1 
-1 1:1 2:28 3:4 4:1 5:3 6:1 7:1 
-1 1:1 2:30 3:1 4:1 5:6 6:1 7:1 
-1 1:1 2:30 3:1 4:1 5:3 6:1 7:1 
-1 1:2 2:33 3:1 4:5 5:4 6:2 7:1 
-1 1:2 2:33 3:1 4:5 5:4 6:2 7:1 
-1 1:1 2:25 3:2 4:1 5:1 6:1 7:1 
-1 1:1 2:30 3:3 4:2 5:1 6:2 7:1 
-1 1:1 2:32 3:1 4:1 5:1 6:1 7:1 
-1 1:1 2:34 3:3 4:1 5:2 6:2 7:1 
-0.8454021236667953 1:2 2:45 3:2 4:1 5:21 6:2 7:3 
-1 1:1 2:33 3:1 4:1 5:3 6:2 7:2 
-1 1:2 2:24 3:1 4:4 5:1 6:1 7:1 
-1 1:1 2:30 3:1 4:4 5:2 6:1 7:1 
-1 1:1 2:26 3:2 4:2 5:4 6:1 7:1 
-1 1:1 2:30 3:2 4:2 5:3 6:1 7:4 
-1 1:1 2:27 3:2 4:2 5:4 6:1 7:1 
-1 1:1 2:30 3:1 4:2 5:7 6:1 7:1 
-1 1:1 2:28 3:1 4:1 5:1 6:1 7:1 
-1 1:1 2:30 3:1 4:2 5:5 6:2 7:1 
-1 1:1 2:28 3:1 4:1 5:1 6:1 7:1 
-1 1:1 2:30 3:1 4:1 5:1 6:1 7:1 
-0.001069903341697749 1:1 2:27 3:2 4:2 5:4 6:1 7:1 
-1 1:2 2:30 3:2 4:1 5:6 6:1 7:1 
-1 1:1 2:43 3:2 4:1 5:19 6:2 7:3 
-1 1:1 2:26 3:2 4:2 5:4 6:1 7:1 
-1 1:1 2:26 3:2 4:2 5:4 6:1 7:1 
-1 1:1 2:27 3:2 4:1 5:2 6:1 7:1 
-0.8270650652508524 1:1 2:37 3:2 4:1 5:8 6:2 7:1 
-1 1:2 2:25 3:1 4:2 5:1 6:2 7:1 
-0.3215553772619851 1:1 2:25 3:1 4:2 5:0 6:1 7:1 
-1 1:1 2:44 3:2 4:1 5:22 6:2 7:4 
-1 1:1 2:29 3:2 4:3 5:1 6:1 7:1 
-1 1:1 2:32 3:1 4:1 5:2 6:2 7:1 
-1 1:1 2:26 3:2 4:2 5:4 6:1 7:1 
-1 1:1 2:30 3:1 4:2 5:5 6:2 7:1 
-1 1:1 2:24 3:1 4:2 5:1 6:1 7:1 
-0.9546670981121455 1:1 2:30 3:1 4:5 5:7 6:1 7:1 
-1 1:1 2:28 3:1 4:2 5:3 6:1 7:1 
-1 1:1 2:26 3:2 4:2 5:3 6:1 7:1 
-1 1:2 2:27 3:2 4:1 5:1 6:1 7:1 
-1 1:1 2:31 3:1 4:1 5:5 6:1 7:5 
-0.4408272582231003 1:1 2:35 3:1 4:1 5:2 6:2 7:4 
-1 1:1 2:31 3:1 4:2 5:2 6:1 7:1 
-0.587183816853267 1:1 2:31 3:2 4:1 5:2 6:1 7:1 
-1 1:2 2:32 3:1 4:1 5:6 6:1 7:1 
-0.9955130090026232 1:1 2:30 3:1 4:5 5:7 6:1 7:1 
-1 1:1 2:33 3:1 4:2 5:7 6:1 7:1 
-1 1:1 2:32 3:1 4:2 5:2 6:1 7:1 
-1 1:1 2:33 3:1 4:4 5:7 6:1 7:1 
-1 1:1 2:35 3:2 4:1 5:5 6:1 7:1 
-1 1:1 2:33 3:1 4:2 5:7 6:1 7:1 
-1 1:1 2:29 3:2 4:2 5:6 6:1 7:2 
-1 1:1 2:30 3:1 4:2 5:6 6:2 7:1 
-1 1:1 2:31 3:1 4:1 5:2 6:1 7:1 
-1 1:1 2:28 3:2 4:1 5:1 6:1 7:1 
-1 1:2 2:60 3:2 4:1 5:33 6:2 7:3 
-1 1:1 2:26 3:1 4:2 5:3 6:1 7:1 
-1 1:1 2:25 3:2 4:1 5:1 6:1 7:1 
-1 1:1 2:30 3:1 4:2 5:7 6:1 7:1 
-1 1:1 2:26 3:2 4:2 5:3 6:1 7:1 
-1 1:1 2:27 3:1 4:2 5:3 6:1 7:1 
-1 1:1 2:37 3:2 4:1 5:12 6:1 7:1 
-0.1068440389741757 1:1 2:33 3:3 4:1 5:1 6:1 7:1 
-0.6596736110090758 1:1 2:26 3:1 4:1 5:0 6:1 7:1 
-1 1:1 2:26 3:1 4:1 5:0 6:1 7:1 
-1 1:1 2:43 3:2 4:1 5:19 6:2 7:3 
-1 1:2 2:33 3:1 4:5 5:4 6:2 7:1 
-1 1:1 2:30 3:1 4:3 5:1 6:2 7:1 
-0.6199762604470912 1:1 2:37 3:3 4:5 5:2 6:2 7:1 
-1 1:1 2:26 3:2 4:1 5:3 6:1 7:1 
-1 1:1 2:32 3:1 4:1 5:1 6:1 7:1 
-1 1:1 2:28 3:3 4:4 5:1 6:2 7:1 
-1 1:1 2:35 3:1 4:2 5:9 6:2 7:1 
-1 1:1 2:26 3:2 4:2 5:4 6:1 7:1 
-1 1:1 2:30 3:1 4:2 5:5 6:2 7:1 
-1 1:2 2:25 3:2 4:1 5:2 6:1 7:1 
-1 1:1 2:35 3:1 4:2 5:9 6:2 7:1 
-1 1:1 2:31 3:1 4:2 5:1 6:1 7:1 
-1 1:1 2:32 3:2 4:2 5:8 6:1 7:1 
-1 1:1 2:31 3:2 4:1 5:2 6:1 7:1 
-1 1:1 2:30 3:1 4:2 5:3 6:1 7:1 
-1 1:1 2:36 3:2 4:2 5:6 6:2 7:1 
-1 1:1 2:26 3:2 4:2 5:3 6:1 7:1 
-1 1:1 2:43 3:2 4:1 5:19 6:2 7:3 
-0.410560016768621 1:1 2:40 3:1 4:1 5:0 6:2 7:1 
-1 1:1 2:28 3:2 4:1 5:1 6:1 7:1 
-1 1:2 2:30 3:2 4:1 5:6 6:1 7:1 
-1 1:1 2:28 3:4 4:1 5:3 6:1 7:1 
-1 1:1 2:30 3:1 4:2 5:6 6:2 7:1 
-1 1:1 2:32 3:1 4:2 5:8 6:2 7:1 
-1 1:1 2:35 3:1 4:2 5:9 6:2 7:1 
-1 1:1 2:38 3:1 4:2 5:14 6:2 7:1 
-1 1:1 2:32 3:1 4:2 5:2 6:2 7:1 
-1 1:1 2:30 3:1 4:2 5:7 6:1 7:1 
-0.416491977709365 1:2 2:29 3:1 4:1 5:1 6:2 7:1 
-1 1:1 2:27 3:2 4:1 5:3 6:1 7:4 
-1 1:1 2:28 3:2 4:1 5:4 6:1 7:4 
-1 1:1 2:28 3:2 4:1 5:3 6:1 7:1 
-1 1:1 2:28 3:1 4:1 5:3 6:1 7:1 
-0.6517180509123933 1:1 2:33 3:1 4:2 5:7 6:1 7:1 
-0.95592738759419 1:1 2:37 3:1 4:3 5:0 6:2 7:1 
-1 1:2 2:38 3:1 4:2 5:0 6:2 7:1 
-1 1:1 2:28 3:3 4:4 5:1 6:2 7:1 
-1 1:1 2:30 3:1 4:2 5:5 6:2 7:1 
-0.6040931190068136 1:1 2:29 3:2 4:1 5:3 6:1 7:1 
-1 1:1 2:30 3:3 4:2 5:1 6:2 7:1 
-1 1:1 2:32 3:1 4:1 5:7 6:1 7:4 
-1 1:1 2:27 3:1 4:1 5:1 6:1 7:1 
-0.9958424967091647 1:1 2:38 3:1 4:1 5:2 6:1 7:3 
-1 1:1 2:30 3:1 4:1 5:0 6:1 7:1 
-1 1:2 2:23 3:1 4:1 5:1 6:1 7:1 
-1 1:1 2:31 3:1 4:2 5:6 6:1 7:1 
-1 1:1 2:29 3:4 4:1 5:3 6:1 7:1 
-1 1:1 2:28 3:1 4:1 5:3 6:1 7:1 
-1 1:1 2:47 3:1 4:6 5:3 6:2 7:2 
-1 1:1 2:32 3:1 4:1 5:1 6:1 7:1 
-1 1:1 2:26 3:2 4:2 5:4 6:1 7:1 
-1 1:1 2:27 3:4 4:1 5:1 6:1 7:1 
-1 1:1 2:29 3:4 4:1 5:3 6:1 7:1 
-1 1:1 2:30 3:1 4:2 5:6 6:2 7:1 
-1 1:1 2:24 3:1 4:2 5:1 6:1 7:1 
-0.3087125932662874 1:1 2:29 3:2 4:1 5:3 6:1 7:4 
-1 1:1 2:28 3:2 4:1 5:2 6:1 7:5 
-1 1:1 2:31 3:1 4:1 5:3 6:1 7:1 
-1 1:1 2:35 3:1 4:2 5:0 6:1 7:1 
-0.01073382736597095 1:2 2:29 3:1 4:1 5:1 6:2 7:1 
-0.7271232475746368 1:1 2:28 3:2 4:2 5:4 6:2 7:1 
-1 1:1 2:27 3:2 4:1 5:3 6:1 7:4 
-1 1:1 2:28 3:1 4:1 5:3 6:1 7:1 
-0.9970397671990017 1:1 2:32 3:2 4:2 5:8 6:1 7:1 
-1 1:2 2:29 3:1 4:4 5:1 6:1 7:1 
-1 1:1 2:29 3:4 4:1 5:1 6:1 7:1 
-1 1:1 2:38 3:1 4:1 5:8 6:2 7:1 
-1 1:1 2:29 3:1 4:2 5:3 6:1 7:4 
-1 1:1 2:26 3:2 4:1 5:2 6:1 7:1 
-0.7921062945405333 1:1 2:35 3:1 4:2 5:9 6:2 7:1 
-1 1:1 2:31 3:2 4:1 5:2 6:1 7:1 
-1 1:1 2:28 3:4 4:1 5:1 6:1 7:1 
-1 1:2 2:31 3:3 4:2 5:1 6:1 7:1 
-1 1:2 2:45 3:1 4:1 5:13 6:1 7:5 
-1 1:2 2:30 3:2 4:1 5:6 6:1 7:1 
-0.3254196384730914 1:1 2:32 3:2 4:1 5:3 6:1 7:1 
-1 1:1 2:28 3:1 4:1 5:1 6:1 7:1 
-0.8560750743716846 1:1 2:29 3:2 4:1 5:3 6:1 7:1 
-0.96764337200919 1:2 2:23 3:1 4:1 5:1 6:1 7:1 
-0.6110636818255641 1:2 2:26 3:1 4:1 5:0 6:1 7:1 
-1 1:1 2:28 3:2 4:1 5:2 6:1 7:1 
-1 1:1 2:30 3:1 4:4 5:2 6:1 7:1 
-1 1:2 2:25 3:2 4:1 5:2 6:1 7:1 
-1 1:1 2:31 3:1 4:2 5:1 6:1 7:1 
-1 1:1 2:29 3:3 4:1 5:3 6:1 7:1 
-0.9956936455945282 1:1 2:30 3:2 4:1 5:2 6:1 7:1 
-1 1:1 2:27 3:1 4:2 5:3 6:1 7:1 
-1 1:1 2:31 3:2 4:1 5:2 6:1 7:1 
-1 1:1 2:32 3:1 4:2 5:8 6:2 7:1 
-1 1:1 2:28 3:1 4:1 5:1 6:2 7:1 
-1 1:1 2:31 3:1 4:2 5:6 6:1 7:1 
-1 1:1 2:24 3:1 4:2 5:1 6:1 7:1 
-1 1:1 2:27 3:2 4:2 5:3 6:1 7:1 
-1 1:2 2:28 3:1 4:2 5:2 6:2 7:1 
-1 1:1 2:28 3:3 4:4 5:1 6:2 7:1 
-1 1:1 2:27 3:2 4:1 5:2 6:1 7:1 
-1 1:1 2:37 3:3 4:5 5:2 6:2 7:1 
-1 1:1 2:25 3:2 4:1 5:1 6:1 7:1 
-1 1:1 2:31 3:1 4:1 5:2 6:1 7:1 
-1 1:1 2:30 3:1 4:1 5:6 6:1 7:1 
