svm_type c_svc
kernel_type rbf
gamma 0.0078125
nr_class 2
total_sv 656
rho 0.568057
label 1 2
nr_sv 323 333
SV
8 1:1 2:30 3:1 4:1 5:5 6:1 7:1 8:1 
8 1:1 2:29 3:1 4:2 5:2 6:1 7:1 8:1 
8 1:1 2:33 3:2 4:1 5:6 6:2 7:1 8:2 
8 1:1 2:27 3:1 4:1 5:3 6:2 7:1 8:1 
8 1:1 2:44 3:2 4:3 5:19 6:1 7:1 8:1 
8 1:1 2:43 3:1 4:3 5:14 6:1 7:1 8:3 
8 1:1 2:31 3:1 4:3 5:3 6:2 7:1 8:1 
6.389186175648758 1:2 2:33 3:1 4:1 5:0 6:1 7:1 8:1 
8 1:1 2:29 3:2 4:3 5:3 6:2 7:1 8:1 
8 1:1 2:26 3:2 4:3 5:2 6:2 7:1 8:1 
8 1:1 2:47 3:1 4:6 5:4 6:1 7:1 8:1 
8 1:1 2:26 3:2 4:3 5:2 6:2 7:1 8:1 
8 1:1 2:28 3:4 4:3 5:3 6:2 7:1 8:1 
8 1:1 2:29 3:2 4:3 5:4 6:2 7:1 8:1 
8 1:1 2:31 3:2 4:1 5:5 6:2 7:1 8:1 
8 1:1 2:30 3:1 4:3 5:3 6:2 7:1 8:1 
8 1:1 2:28 3:4 4:3 5:3 6:2 7:1 8:1 
8 1:1 2:30 3:2 4:3 5:6 6:2 7:1 8:1 
8 1:1 2:27 3:2 4:3 5:2 6:2 7:1 8:1 
8 1:1 2:29 3:2 4:3 5:5 6:2 7:1 8:1 
8 1:1 2:28 3:2 4:3 5:3 6:2 7:1 8:1 
8 1:1 2:38 3:3 4:3 5:13 6:1 7:1 8:1 
8 1:2 2:27 3:2 4:3 5:4 6:2 7:1 8:1 
8 1:1 2:27 3:2 4:3 5:4 6:2 7:1 8:1 
8 1:2 2:29 3:5 4:3 5:5 6:2 7:1 8:1 
8 1:2 2:40 3:3 4:1 5:13 6:1 7:1 8:1 
8 1:1 2:28 3:1 4:1 5:6 6:1 7:1 8:1 
3.558982646909057 1:1 2:31 3:6 4:1 5:2 6:2 7:1 8:1 
8 1:1 2:27 3:2 4:1 5:2 6:2 7:1 8:1 
8 1:1 2:27 3:2 4:1 5:1 6:2 7:1 8:1 
8 1:1 2:26 3:2 4:1 5:4 6:2 7:1 8:1 
8 1:1 2:29 3:1 4:3 5:2 6:2 7:1 8:1 
8 1:1 2:28 3:2 4:3 5:2 6:2 7:1 8:1 
8 1:1 2:28 3:2 4:3 5:2 6:2 7:1 8:1 
8 1:1 2:27 3:2 4:1 5:2 6:2 7:1 8:1 
8 1:2 2:27 3:2 4:1 5:2 6:2 7:1 8:1 
8 1:2 2:29 3:2 4:3 5:4 6:2 7:1 8:1 
8 1:2 2:32 3:1 4:3 5:5 6:1 7:1 8:1 
8 1:2 2:26 3:1 4:3 5:2 6:2 7:1 8:5 
8 1:1 2:27 3:1 4:2 5:2 6:2 7:1 8:1 
8 1:1 2:30 3:1 4:2 5:7 6:2 7:1 8:1 
8 1:1 2:35 3:1 4:1 5:9 6:1 7:1 8:1 
8 1:1 2:30 3:2 4:1 5:5 6:2 7:1 8:1 
8 1:1 2:32 3:3 4:2 5:2 6:1 7:1 8:1 
8 1:1 2:41 3:1 4:1 5:7 6:1 7:1 8:1 
8 1:1 2:29 3:2 4:3 5:4 6:2 7:1 8:5 
8 1:1 2:28 3:1 4:3 5:3 6:2 7:1 8:1 
8 1:1 2:31 3:2 4:1 5:6 6:2 7:1 8:1 
8 1:1 2:27 3:2 4:1 5:4 6:2 7:1 8:1 
8 1:1 2:31 3:1 4:1 5:6 6:2 7:1 8:1 
8 1:1 2:24 3:1 4:1 5:1 6:2 7:1 8:1 
8 1:1 2:34 3:1 4:1 5:1 6:1 7:1 8:1 
8 1:1 2:33 3:1 4:5 5:7 6:2 7:1 8:1 
8 1:1 2:32 3:1 4:1 5:2 6:1 7:1 8:1 
8 1:1 2:28 3:2 4:1 5:4 6:1 7:1 8:1 
8 1:1 2:30 3:1 4:1 5:3 6:2 7:1 8:1 
8 1:1 2:27 3:2 4:1 5:3 6:2 7:1 8:1 
8 1:1 2:37 3:3 4:2 5:2 6:1 7:1 8:1 
8 1:1 2:30 3:3 4:1 5:1 6:1 7:1 8:1 
8 1:2 2:42 3:1 4:3 5:6 6:1 7:1 8:5 
8 1:2 2:45 3:1 4:3 5:13 6:2 7:1 8:5 
8 1:2 2:28 3:1 4:1 5:2 6:1 7:1 8:1 
8 1:2 2:25 3:1 4:1 5:0 6:2 7:1 8:1 
8 1:2 2:43 3:3 4:1 5:0 6:1 7:1 8:1 
8 1:2 2:24 3:1 4:5 5:1 6:2 7:1 8:1 
8 1:2 2:25 3:1 4:1 5:0 6:2 7:1 8:1 
8 1:2 2:33 3:1 4:2 5:4 6:1 7:1 8:1 
8 1:2 2:25 3:3 4:1 5:1 6:2 7:1 8:1 
8 1:2 2:29 3:1 4:1 5:4 6:2 7:1 8:1 
8 1:2 2:38 3:2 4:1 5:13 6:1 7:1 8:2 
2.659283530843984 1:2 2:25 3:1 4:2 5:0 6:2 7:1 8:1 
8 1:2 2:31 3:1 4:1 5:2 6:1 7:1 8:1 
8 1:2 2:37 3:1 4:1 5:10 6:1 7:1 8:1 
8 1:2 2:20 3:1 4:5 5:1 6:2 7:1 8:1 
8 1:2 2:30 3:1 4:2 5:4 6:2 7:1 8:1 
3.241277897317416 1:2 2:29 3:1 4:3 5:1 6:1 7:1 8:1 
8 1:1 2:27 3:2 4:3 5:3 6:2 7:1 8:1 
8 1:1 2:34 3:1 4:1 5:9 6:2 7:1 8:1 
8 1:1 2:24 3:1 4:5 5:0 6:2 7:1 8:1 
8 1:1 2:26 3:8 4:1 5:2 6:2 7:1 8:1 
8 1:1 2:28 3:1 4:1 5:3 6:2 7:1 8:1 
8 1:1 2:30 3:1 4:3 5:6 6:2 7:1 8:1 
8 1:1 2:28 3:1 4:1 5:3 6:2 7:1 8:1 
8 1:1 2:33 3:1 4:1 5:5 6:2 7:1 8:1 
8 1:1 2:33 3:8 4:1 5:2 6:1 7:1 8:1 
8 1:1 2:32 3:1 4:1 5:8 6:1 7:1 8:1 
8 1:2 2:32 3:8 4:5 5:2 6:1 7:1 8:1 
8 1:1 2:38 3:1 4:1 5:14 6:1 7:1 8:1 
8 1:1 2:30 3:1 4:1 5:6 6:1 7:1 8:1 
8 1:1 2:32 3:2 4:1 5:8 6:2 7:1 8:1 
8 1:1 2:33 3:1 4:1 5:7 6:2 7:1 8:1 
8 1:1 2:31 3:1 4:5 5:1 6:1 7:1 8:1 
8 1:1 2:42 3:1 4:5 5:8 6:1 7:1 8:1 
8 1:1 2:33 3:1 4:1 5:7 6:2 7:1 8:1 
8 1:1 2:35 3:1 4:1 5:1 6:1 7:1 8:1 
8 1:1 2:26 3:1 4:1 5:1 6:2 7:1 8:1 
8 1:1 2:29 3:1 4:2 5:6 6:2 7:1 8:1 
8 1:1 2:30 3:1 4:1 5:7 6:2 7:1 8:1 
8 1:1 2:27 3:8 4:3 5:2 6:2 7:1 8:1 
8 1:1 2:26 3:2 4:1 5:3 6:2 7:1 8:1 
8 1:1 2:32 3:3 4:3 5:5 6:2 7:1 8:1 
8 1:1 2:24 3:1 4:1 5:1 6:2 7:1 8:1 
8 1:1 2:27 3:1 4:1 5:2 6:2 7:1 8:1 
8 1:1 2:44 3:2 4:3 5:22 6:1 7:1 8:3 
8 1:1 2:28 3:3 4:5 5:1 6:1 7:1 8:1 
2.667636589678407 1:1 2:59 3:1 4:2 5:3 6:1 7:1 8:1 
8 1:2 2:51 3:3 4:1 5:22 6:1 7:1 8:1 
8 1:2 2:47 3:1 4:4 5:1 6:1 7:1 8:1 
8 1:2 2:56 3:1 4:2 5:17 6:1 7:1 8:1 
8 1:2 2:20 3:1 4:5 5:1 6:2 7:1 8:1 
8 1:2 2:24 3:6 4:2 5:2 6:2 7:1 8:1 
3.610363435469149 1:2 2:48 3:3 4:4 5:0 6:1 7:1 8:1 
8 1:2 2:24 3:1 4:5 5:0 6:2 7:1 8:1 
0.530447699791349 1:1 2:46 3:1 4:2 5:0 6:1 7:1 8:1 
8 1:1 2:50 3:3 4:2 5:12 6:2 7:1 8:1 
8 1:2 2:53 3:3 4:4 5:17 6:1 7:1 8:1 
8 1:1 2:47 3:1 4:4 5:3 6:1 7:1 8:2 
8 1:2 2:52 3:1 4:4 5:7 6:1 7:1 8:1 
2.562034766989749 1:1 2:62 3:3 4:1 5:7 6:1 7:1 8:1 
7.325467887277115 1:1 2:54 3:3 4:2 5:0 6:1 7:1 8:1 
8 1:1 2:48 3:1 4:1 5:15 6:1 7:1 8:1 
8 1:2 2:37 3:3 4:3 5:10 6:1 7:1 8:1 
8 1:2 2:23 3:1 4:3 5:1 6:2 7:1 8:1 
8 1:1 2:40 3:3 4:3 5:5 6:1 7:1 8:5 
8 1:2 2:25 3:3 4:3 5:1 6:2 7:1 8:1 
8 1:1 2:43 3:2 4:3 5:19 6:1 7:1 8:1 
8 1:2 2:31 3:1 4:2 5:4 6:1 7:1 8:1 
8 1:2 2:26 3:2 4:1 5:2 6:2 7:1 8:1 
8 1:1 2:29 3:2 4:1 5:6 6:2 7:1 8:2 
8 1:1 2:26 3:2 4:1 5:3 6:2 7:1 8:1 
8 1:1 2:34 3:1 4:3 5:1 6:1 7:1 8:1 
3.012192394698852 1:1 2:43 3:7 4:1 5:11 6:3 7:1 8:2 
8 1:2 2:28 3:8 4:1 5:3 6:1 7:1 8:1 
8 1:2 2:33 3:1 4:3 5:5 6:2 7:1 8:1 
8 1:2 2:30 3:2 4:3 5:6 6:2 7:1 8:1 
0.01386010039439573 1:1 2:29 3:2 4:3 5:3 6:2 7:1 8:3 
8 1:1 2:24 3:2 4:3 5:1 6:2 7:1 8:1 
8 1:1 2:29 3:2 4:3 5:3 6:2 7:1 8:1 
8 1:1 2:28 3:2 4:3 5:2 6:2 7:1 8:1 
8 1:1 2:27 3:2 4:3 5:2 6:2 7:1 8:1 
8 1:1 2:28 3:1 4:3 5:3 6:2 7:1 8:1 
8 1:1 2:37 3:2 4:3 5:12 6:2 7:1 8:1 
8 1:1 2:27 3:2 4:3 5:2 6:2 7:1 8:1 
8 1:1 2:27 3:2 4:3 5:2 6:2 7:1 8:1 
8 1:1 2:34 3:1 4:3 5:3 6:1 7:1 8:1 
8 1:1 2:34 3:3 4:3 5:2 6:1 7:1 8:1 
8 1:1 2:35 3:1 4:3 5:1 6:1 7:1 8:1 
8 1:1 2:25 3:2 4:3 5:0 6:2 7:1 8:1 
8 1:1 2:30 3:2 4:3 5:5 6:2 7:1 8:3 
8 1:1 2:27 3:2 4:3 5:2 6:2 7:1 8:1 
8 1:1 2:29 3:2 4:3 5:3 6:2 7:1 8:1 
8 1:1 2:30 3:4 4:3 5:2 6:1 7:1 8:1 
8 1:1 2:35 3:2 4:3 5:5 6:2 7:1 8:1 
8 1:1 2:41 3:1 4:3 5:1 6:1 7:1 8:1 
8 1:1 2:31 3:1 4:3 5:1 6:1 7:1 8:1 
8 1:1 2:26 3:4 4:3 5:1 6:2 7:1 8:1 
8 1:1 2:33 3:1 4:3 5:6 6:2 7:1 8:1 
4.352107853807087 1:1 2:35 3:1 4:1 5:1 6:2 7:1 8:1 
8 1:2 2:28 3:1 4:3 5:2 6:2 7:1 8:1 
8 1:1 2:36 3:1 4:3 5:1 6:1 7:1 8:1 
8 1:1 2:26 3:1 4:3 5:1 6:2 7:1 8:1 
8 1:1 2:26 3:4 4:3 5:2 6:2 7:1 8:1 
8 1:1 2:33 3:1 4:3 5:3 6:1 7:1 8:2 
8 1:1 2:28 3:2 4:3 5:2 6:2 7:1 8:1 
8 1:1 2:32 3:1 4:3 5:7 6:2 7:1 8:3 
8 1:1 2:27 3:1 4:3 5:1 6:2 7:1 8:1 
7.385560100551177 1:2 2:28 3:1 4:1 5:2 6:2 7:1 8:1 
8 1:1 2:29 3:2 4:3 5:4 6:2 7:1 8:1 
8 1:1 2:26 3:2 4:3 5:2 6:2 7:1 8:1 
8 1:1 2:30 3:2 4:3 5:5 6:2 7:1 8:1 
8 1:1 2:28 3:2 4:3 5:3 6:2 7:1 8:1 
8 1:1 2:36 3:3 4:3 5:3 6:1 7:1 8:3 
5.273461626800107 1:1 2:38 3:2 4:6 5:3 6:2 7:1 8:1 
8 1:2 2:26 3:2 4:3 5:3 6:2 7:1 8:1 
8 1:1 2:25 3:4 4:3 5:1 6:2 7:1 8:1 
8 1:1 2:25 3:3 4:3 5:1 6:2 7:1 8:3 
8 1:1 2:32 3:2 4:3 5:4 6:2 7:1 8:1 
8 1:2 2:27 3:2 4:3 5:2 6:2 7:1 8:1 
8 1:1 2:35 3:1 4:3 5:2 6:1 7:1 8:1 
8 1:1 2:41 3:1 4:3 5:2 6:1 7:1 8:1 
8 1:1 2:34 3:1 4:3 5:1 6:1 7:1 8:1 
8 1:1 2:22 3:1 4:3 5:1 6:2 7:1 8:1 
8 1:1 2:33 3:2 4:3 5:8 6:1 7:1 8:1 
8 1:1 2:26 3:1 4:3 5:1 6:2 7:1 8:1 
8 1:1 2:29 3:1 4:3 5:1 6:1 7:1 8:1 
8 1:1 2:27 3:2 4:3 5:2 6:2 7:1 8:1 
8 1:1 2:30 3:1 4:6 5:1 6:1 7:1 8:1 
8 1:1 2:24 3:4 4:3 5:1 6:2 7:1 8:1 
8 1:1 2:26 3:2 4:1 5:3 6:2 7:1 8:1 
8 1:1 2:36 3:1 4:3 5:5 6:2 7:1 8:1 
8 1:2 2:27 3:2 4:3 5:2 6:2 7:1 8:1 
8 1:1 2:25 3:1 4:1 5:0 6:2 7:1 8:1 
8 1:1 2:39 3:1 4:3 5:5 6:2 7:1 8:1 
8 1:1 2:27 3:2 4:3 5:2 6:2 7:1 8:3 
8 1:1 2:28 3:2 4:3 5:3 6:2 7:1 8:1 
8 1:1 2:29 3:3 4:3 5:3 6:1 7:1 8:3 
8 1:1 2:38 3:1 4:3 5:4 6:2 7:1 8:1 
8 1:1 2:26 3:2 4:3 5:1 6:2 7:1 8:1 
8 1:1 2:25 3:1 4:3 5:0 6:2 7:1 8:1 
8 1:1 2:26 3:2 4:3 5:2 6:2 7:1 8:1 
8 1:1 2:24 3:1 4:3 5:0 6:2 7:1 8:1 
8 1:1 2:34 3:1 4:3 5:1 6:1 7:1 8:1 
8 1:1 2:29 3:2 4:3 5:3 6:2 7:1 8:1 
8 1:2 2:27 3:2 4:3 5:3 6:2 7:1 8:1 
8 1:1 2:27 3:1 4:3 5:1 6:2 7:1 8:1 
8 1:1 2:31 3:2 4:3 5:6 6:2 7:1 8:1 
0.4702416069597933 1:1 2:26 3:1 4:3 5:0 6:2 7:1 8:1 
8 1:1 2:27 3:2 4:3 5:2 6:2 7:1 8:1 
4.55558167325949 1:1 2:26 3:1 4:3 5:0 6:2 7:1 8:1 
8 1:1 2:32 3:2 4:3 5:7 6:2 7:1 8:1 
8 1:1 2:26 3:2 4:3 5:1 6:2 7:1 8:1 
8 1:1 2:29 3:2 4:1 5:3 6:2 7:1 8:1 
8 1:1 2:35 3:1 4:3 5:12 6:2 7:1 8:1 
8 1:1 2:28 3:2 4:3 5:4 6:2 7:1 8:3 
8 1:1 2:28 3:2 4:3 5:3 6:2 7:1 8:1 
8 1:1 2:36 3:2 4:1 5:6 6:1 7:1 8:1 
8 1:1 2:26 3:2 4:3 5:2 6:2 7:1 8:1 
8 1:1 2:29 3:1 4:3 5:2 6:2 7:1 8:1 
8 1:1 2:25 3:4 4:3 5:1 6:2 7:1 8:1 
8 1:1 2:25 3:2 4:3 5:0 6:2 7:1 8:1 
8 1:1 2:27 3:2 4:3 5:2 6:2 7:1 8:1 
8 1:1 2:30 3:2 4:1 5:4 6:2 7:1 8:1 
8 1:2 2:27 3:2 4:3 5:3 6:2 7:1 8:1 
8 1:1 2:34 3:1 4:1 5:6 6:2 7:1 8:1 
8 1:1 2:32 3:6 4:3 5:15 6:3 7:1 8:1 
8 1:1 2:33 3:2 4:3 5:6 6:1 7:1 8:1 
8 1:1 2:31 3:1 4:3 5:3 6:2 7:1 8:1 
8 1:1 2:30 3:1 4:6 5:3 6:2 7:1 8:1 
8 1:2 2:25 3:1 4:1 5:1 6:1 7:1 8:1 
8 1:1 2:28 3:2 4:3 5:3 6:2 7:1 8:1 
8 1:1 2:28 3:1 4:3 5:1 6:1 7:1 8:1 
8 1:1 2:35 3:1 4:3 5:3 6:2 7:1 8:1 
8 1:2 2:40 3:7 4:3 5:1 6:3 7:1 8:1 
8 1:1 2:30 3:2 4:3 5:4 6:2 7:1 8:3 
8 1:1 2:28 3:2 4:3 5:2 6:2 7:1 8:1 
8 1:1 2:31 3:2 4:3 5:6 6:1 7:1 8:1 
8 1:1 2:27 3:1 4:1 5:4 6:1 7:1 8:1 
8 1:1 2:29 3:1 4:1 5:2 6:2 7:1 8:1 
8 1:1 2:33 3:2 4:3 5:6 6:1 7:1 8:1 
8 1:1 2:27 3:2 4:3 5:2 6:2 7:1 8:1 
8 1:2 2:23 3:1 4:1 5:0 6:2 7:1 8:1 
8 1:1 2:31 3:2 4:3 5:6 6:2 7:1 8:1 
8 1:1 2:31 3:1 4:1 5:5 6:2 7:1 8:1 
8 1:1 2:29 3:2 4:3 5:4 6:2 7:1 8:1 
8 1:1 2:34 3:1 4:3 5:5 6:2 7:1 8:1 
8 1:1 2:37 3:1 4:1 5:1 6:1 7:1 8:1 
8 1:1 2:33 3:1 4:3 5:2 6:1 7:1 8:1 
8 1:1 2:29 3:2 4:3 5:4 6:2 7:1 8:1 
8 1:1 2:27 3:1 4:1 5:2 6:2 7:1 8:1 
8 1:1 2:29 3:1 4:3 5:4 6:2 7:1 8:1 
8 1:2 2:30 3:2 4:3 5:3 6:1 7:1 8:3 
8 1:2 2:30 3:2 4:3 5:5 6:2 7:1 8:3 
8 1:1 2:30 3:2 4:3 5:6 6:2 7:1 8:3 
8 1:1 2:26 3:2 4:3 5:3 6:2 7:1 8:1 
8 1:1 2:30 3:2 4:1 5:3 6:2 7:1 8:1 
8 1:1 2:26 3:2 4:3 5:2 6:2 7:1 8:1 
8 1:2 2:30 3:2 4:3 5:5 6:2 7:1 8:1 
8 1:1 2:25 3:2 4:3 5:1 6:2 7:1 8:1 
8 1:2 2:27 3:2 4:1 5:2 6:2 7:1 8:1 
8 1:1 2:27 3:2 4:3 5:2 6:2 7:1 8:1 
8 1:1 2:26 3:1 4:3 5:1 6:2 7:1 8:1 
8 1:1 2:33 3:2 4:3 5:4 6:2 7:1 8:1 
8 1:1 2:27 3:2 4:3 5:2 6:2 7:1 8:1 
8 1:1 2:41 3:1 4:1 5:2 6:2 7:1 8:1 
8 1:1 2:28 3:2 4:3 5:3 6:2 7:1 8:5 
8 1:1 2:28 3:2 4:3 5:2 6:2 7:1 8:1 
8 1:1 2:27 3:2 4:1 5:1 6:2 7:1 8:1 
8 1:1 2:34 3:2 4:3 5:5 6:2 7:1 8:1 
5.919993175712735 1:1 2:35 3:1 4:3 5:2 6:1 7:1 8:3 
8 1:1 2:29 3:2 4:3 5:3 6:2 7:1 8:1 
8 1:1 2:27 3:2 4:3 5:2 6:2 7:1 8:1 
8 1:1 2:36 3:1 4:1 5:2 6:1 7:1 8:1 
8 1:1 2:34 3:2 4:3 5:6 6:2 7:1 8:1 
8 1:1 2:28 3:2 4:3 5:2 6:2 7:1 8:1 
8 1:1 2:27 3:2 4:3 5:2 6:2 7:1 8:1 
8 1:1 2:33 3:2 4:3 5:7 6:2 7:1 8:1 
8 1:1 2:39 3:1 4:3 5:5 6:1 7:1 8:1 
8 1:1 2:30 3:2 4:3 5:6 6:2 7:1 8:1 
8 1:1 2:29 3:2 4:3 5:4 6:2 7:1 8:1 
8 1:1 2:38 3:1 4:3 5:3 6:2 7:1 8:1 
1.18001667918057 1:1 2:29 3:2 4:3 5:3 6:2 7:1 8:3 
8 1:1 2:27 3:2 4:3 5:2 6:2 7:1 8:1 
8 1:2 2:25 3:2 4:3 5:2 6:2 7:1 8:1 
8 1:1 2:27 3:2 4:3 5:2 6:2 7:1 8:1 
8 1:1 2:31 3:1 4:3 5:4 6:1 7:1 8:1 
8 1:2 2:26 3:1 4:3 5:1 6:2 7:1 8:1 
8 1:1 2:33 3:2 4:3 5:7 6:2 7:1 8:1 
8 1:1 2:34 3:2 4:3 5:4 6:2 7:1 8:1 
8 1:1 2:32 3:2 4:3 5:5 6:1 7:1 8:1 
8 1:1 2:26 3:1 4:3 5:0 6:2 7:1 8:1 
8 1:1 2:25 3:2 4:3 5:1 6:2 7:1 8:1 
8 1:1 2:29 3:2 4:3 5:3 6:2 7:1 8:1 
8 1:1 2:26 3:1 4:3 5:0 6:2 7:1 8:1 
8 1:1 2:27 3:2 4:3 5:2 6:2 7:1 8:1 
8 1:1 2:26 3:1 4:3 5:0 6:2 7:1 8:1 
8 1:1 2:31 3:4 4:3 5:6 6:1 7:1 8:3 
8 1:1 2:28 3:2 4:3 5:2 6:2 7:1 8:1 
8 1:1 2:29 3:2 4:3 5:4 6:2 7:1 8:3 
8 1:1 2:28 3:2 4:3 5:3 6:2 7:1 8:1 
8 1:1 2:27 3:1 4:3 5:1 6:2 7:1 8:1 
8 1:1 2:26 3:2 4:3 5:1 6:2 7:1 8:3 
8 1:1 2:29 3:2 4:3 5:4 6:2 7:1 8:1 
8 1:1 2:32 3:1 4:1 5:2 6:1 7:1 8:1 
8 1:1 2:26 3:4 4:3 5:2 6:2 7:1 8:1 
8 1:1 2:28 3:4 4:3 5:3 6:2 7:1 8:1 
8 1:2 2:27 3:2 4:3 5:2 6:2 7:1 8:1 
8 1:1 2:35 3:1 4:3 5:5 6:2 7:1 8:4 
8 1:1 2:34 3:1 4:3 5:4 6:2 7:1 8:1 
8 1:1 2:31 3:2 4:3 5:5 6:2 7:1 8:3 
8 1:1 2:27 3:1 4:3 5:2 6:2 7:1 8:1 
8 1:1 2:34 3:1 4:1 5:2 6:2 7:1 8:1 
8 1:1 2:28 3:4 4:3 5:3 6:2 7:1 8:1 
8 1:1 2:30 3:2 4:3 5:7 6:1 7:1 8:1 
8 1:1 2:30 3:1 4:3 5:4 6:1 7:1 8:1 
8 1:1 2:26 3:1 4:1 5:3 6:2 7:1 8:1 
8 1:2 2:32 3:3 4:3 5:5 6:2 7:1 8:1 
8 1:1 2:26 3:1 4:1 5:5 6:2 7:1 8:1 
8 1:1 2:28 3:2 4:3 5:2 6:2 7:1 8:1 
8 1:2 2:34 3:3 4:1 5:1 6:1 7:1 8:3 
8 1:1 2:28 3:2 4:3 5:2 6:2 7:1 8:1 
8 1:1 2:30 3:1 4:3 5:4 6:2 7:1 8:1 
8 1:1 2:34 3:2 4:3 5:4 6:2 7:1 8:1 
8 1:1 2:38 3:2 4:3 5:9 6:1 7:1 8:1 
-8 1:2 2:33 3:1 4:2 5:6 6:1 7:1 8:1 
-8 1:1 2:31 3:1 4:5 5:2 6:2 7:1 8:1 
-8 1:1 2:57 3:1 4:2 5:15 6:1 7:1 8:1 
-1.636394123026366 1:1 2:40 3:2 4:6 5:17 6:1 7:1 8:3 
-8 1:1 2:34 3:3 4:1 5:1 6:1 7:1 8:1 
-8 1:1 2:35 3:2 4:3 5:8 6:2 7:1 8:1 
-8 1:1 2:34 3:1 4:2 5:7 6:2 7:2 8:1 
-8 1:1 2:31 3:1 4:5 5:2 6:2 7:1 8:1 
-8 1:2 2:33 3:1 4:2 5:2 6:1 7:1 8:1 
-8 1:1 2:36 3:1 4:3 5:6 6:1 7:1 8:1 
-8 1:1 2:29 3:1 4:3 5:1 6:1 7:1 8:1 
-8 1:1 2:37 3:1 4:1 5:6 6:2 7:1 8:1 
-8 1:2 2:38 3:1 4:3 5:5 6:1 7:1 8:4 
-8 1:1 2:24 3:2 4:1 5:1 6:2 7:1 8:1 
-8 1:2 2:31 3:2 4:3 5:8 6:2 7:1 8:4 
-8 1:2 2:29 3:2 4:3 5:6 6:2 7:1 8:4 
-5.23199682220734 1:2 2:49 3:1 4:1 5:22 6:1 7:1 8:5 
-8 1:2 2:39 3:1 4:3 5:2 6:2 7:1 8:1 
-8 1:2 2:34 3:1 4:1 5:3 6:1 7:1 8:5 
-8 1:2 2:37 3:1 4:3 5:2 6:1 7:1 8:1 
-8 1:2 2:47 3:3 4:3 5:14 6:1 7:1 8:3 
-6.252342455226857 1:1 2:27 3:1 4:1 5:4 6:2 7:1 8:1 
-8 1:1 2:31 3:1 4:2 5:4 6:1 7:1 8:1 
-7.093876070963101 1:1 2:29 3:1 4:1 5:6 6:2 7:1 8:1 
-8 1:1 2:29 3:3 4:1 5:2 6:2 7:1 8:1 
-8 1:1 2:31 3:1 4:2 5:7 6:2 7:1 8:1 
-2.650408728557766 1:1 2:43 3:3 4:1 5:2 6:1 7:1 8:1 
-8 1:2 2:26 3:1 4:2 5:2 6:2 7:1 8:1 
-0.307683150401606 1:1 2:29 3:1 4:1 5:6 6:2 7:1 8:1 
-8 1:1 2:33 3:1 4:1 5:2 6:1 7:1 8:1 
-8 1:1 2:25 3:3 4:3 5:1 6:2 7:1 8:1 
-8 1:1 2:29 3:2 4:1 5:6 6:2 7:1 8:1 
-8 1:1 2:25 3:2 4:3 5:2 6:2 7:1 8:1 
-8 1:1 2:24 3:3 4:1 5:1 6:2 7:1 8:1 
-3.176340311156203 1:1 2:27 3:1 4:1 5:4 6:2 7:1 8:1 
-8 1:2 2:26 3:3 4:1 5:3 6:2 7:1 8:1 
-2.6530057703781 1:1 2:37 3:3 4:1 5:4 6:1 7:1 8:1 
-8 1:1 2:30 3:3 4:1 5:1 6:2 7:1 8:1 
-8 1:1 2:30 3:1 4:1 5:4 6:1 7:1 8:5 
-8 1:1 2:32 3:1 4:1 5:7 6:2 7:1 8:1 
-5.422252986829765 1:1 2:52 3:3 4:3 5:4 6:1 7:1 8:1 
-8 1:1 2:24 3:2 4:1 5:1 6:2 7:1 8:1 
-8 1:1 2:36 3:3 4:3 5:2 6:1 7:1 8:1 
-8 1:1 2:31 3:3 4:2 5:4 6:2 7:1 8:1 
-8 1:1 2:32 3:1 4:1 5:6 6:2 7:1 8:1 
-8 1:1 2:30 3:3 4:1 5:2 6:1 7:1 8:1 
-8 1:1 2:38 3:3 4:1 5:12 6:1 7:1 8:1 
-8 1:1 2:26 3:3 4:5 5:1 6:1 7:1 8:1 
-8 1:1 2:28 3:1 4:3 5:4 6:2 7:1 8:1 
-8 1:1 2:37 3:1 4:2 5:6 6:2 7:1 8:1 
-8 1:1 2:24 3:8 4:1 5:2 6:2 7:1 8:1 
-8 1:1 2:31 3:1 4:1 5:4 6:2 7:1 8:1 
-8 1:1 2:29 3:3 4:1 5:2 6:1 7:1 8:5 
-8 1:1 2:32 3:1 4:5 5:5 6:1 7:1 8:1 
-8 1:1 2:30 3:1 4:1 5:6 6:2 7:1 8:1 
-8 1:2 2:43 3:3 4:1 5:1 6:1 7:1 8:1 
-8 1:2 2:26 3:1 4:1 5:2 6:2 7:1 8:1 
-8 1:2 2:27 3:3 4:5 5:2 6:2 7:1 8:1 
-8 1:2 2:27 3:3 4:1 5:2 6:1 7:1 8:1 
-8 1:1 2:30 3:1 4:3 5:3 6:2 7:1 8:1 
-8 1:1 2:27 3:2 4:1 5:4 6:2 7:1 8:1 
-8 1:1 2:33 3:1 4:1 5:5 6:1 7:1 8:1 
-8 1:1 2:30 3:1 4:5 5:3 6:2 7:1 8:1 
-8 1:1 2:32 3:1 4:1 5:2 6:1 7:1 8:1 
-8 1:1 2:28 3:3 4:1 5:2 6:1 7:1 8:1 
-8 1:1 2:30 3:1 4:3 5:6 6:2 7:1 8:1 
-8 1:1 2:28 3:3 4:3 5:2 6:2 7:1 8:1 
-8 1:1 2:37 3:2 4:1 5:16 6:1 7:1 8:1 
-8 1:1 2:31 3:1 4:1 5:7 6:2 7:1 8:1 
-8 1:1 2:26 3:1 4:1 5:3 6:2 7:1 8:1 
-8 1:1 2:30 3:1 4:1 5:2 6:2 7:1 8:1 
-8 1:1 2:34 3:1 4:5 5:6 6:1 7:1 8:1 
-8 1:1 2:26 3:3 4:1 5:2 6:2 7:1 8:1 
-8 1:2 2:30 3:3 4:1 5:3 6:1 7:1 8:1 
-8 1:1 2:32 3:3 4:1 5:1 6:1 7:1 8:1 
-8 1:1 2:32 3:2 4:1 5:8 6:2 7:1 8:1 
-8 1:1 2:34 3:2 4:3 5:10 6:2 7:1 8:1 
-1.412156637386457 1:1 2:42 3:3 4:6 5:18 6:1 7:1 8:1 
-8 1:1 2:29 3:3 4:1 5:1 6:2 7:1 8:1 
-8 1:1 2:28 3:2 4:1 5:5 6:2 7:1 8:1 
-8 1:1 2:30 3:8 4:5 5:2 6:1 7:1 8:1 
-8 1:1 2:32 3:1 4:1 5:1 6:1 7:1 8:1 
-8 1:1 2:26 3:8 4:5 5:2 6:2 7:1 8:1 
-8 1:1 2:35 3:1 4:5 5:4 6:1 7:1 8:1 
-8 1:1 2:26 3:3 4:1 5:3 6:2 7:1 8:1 
-8 1:1 2:39 3:1 4:1 5:3 6:1 7:1 8:1 
-2.249601455779911 1:1 2:36 3:2 4:1 5:15 6:1 7:1 8:1 
-8 1:1 2:32 3:1 4:1 5:8 6:2 7:1 8:1 
-8 1:1 2:29 3:1 4:1 5:2 6:2 7:1 8:1 
-8 1:1 2:31 3:8 4:1 5:2 6:1 7:1 8:1 
-8 1:1 2:26 3:1 4:1 5:1 6:2 7:1 8:1 
-8 1:2 2:25 3:1 4:5 5:2 6:2 7:1 8:1 
-8 1:1 2:30 3:1 4:1 5:6 6:2 7:1 8:1 
-8 1:1 2:31 3:1 4:3 5:5 6:2 7:1 8:1 
-8 1:1 2:27 3:3 4:1 5:2 6:2 7:1 8:1 
-8 1:1 2:25 3:1 4:1 5:1 6:2 7:1 8:1 
-8 1:1 2:49 3:1 4:3 5:9 6:1 7:1 8:3 
-8 1:1 2:32 3:1 4:5 5:3 6:1 7:1 8:1 
-8 1:1 2:37 3:1 4:5 5:3 6:2 7:1 8:1 
-8 1:1 2:27 3:1 4:1 5:1 6:2 7:1 8:1 
-8 1:1 2:27 3:1 4:1 5:2 6:1 7:1 8:1 
-8 1:1 2:33 3:1 4:1 5:5 6:1 7:1 8:1 
-8 1:1 2:32 3:1 4:1 5:8 6:2 7:1 8:1 
-0.3304250642130425 1:1 2:39 3:1 4:1 5:15 6:1 7:1 8:1 
-8 1:1 2:47 3:1 4:4 5:17 6:1 7:1 8:1 
-0.2296978658321824 1:1 2:45 3:1 4:4 5:6 6:1 7:1 8:1 
-8 1:1 2:52 3:1 4:4 5:4 6:1 7:1 8:1 
-4.792522168030466 1:1 2:45 3:1 4:1 5:20 6:1 7:1 8:1 
-4.059335021699252 1:1 2:54 3:1 4:4 5:15 6:1 7:1 8:1 
-5.185498254845412 1:1 2:54 3:1 4:2 5:5 6:1 7:1 8:1 
-2.456370256127707 1:1 2:54 3:1 4:2 5:22 6:1 7:1 8:1 
-8 1:2 2:45 3:3 4:4 5:3 6:1 7:1 8:1 
-8 1:1 2:44 3:1 4:4 5:15 6:1 7:1 8:1 
-5.470340060747797 1:1 2:56 3:3 4:4 5:21 6:1 7:1 8:1 
-5.313970685935251 1:1 2:46 3:1 4:4 5:17 6:1 7:1 8:1 
-8 1:2 2:25 3:1 4:5 5:2 6:2 7:1 8:1 
-8 1:2 2:49 3:1 4:2 5:3 6:1 7:1 8:1 
-8 1:1 2:37 3:1 4:3 5:6 6:2 7:1 8:1 
-8 1:1 2:28 3:2 4:3 5:5 6:2 7:1 8:1 
-8 1:1 2:35 3:2 4:1 5:12 6:2 7:1 8:1 
-8 1:1 2:30 3:8 4:1 5:1 6:2 7:1 8:1 
-8 1:2 2:27 3:1 4:5 5:2 6:1 7:1 8:1 
-8 1:1 2:28 3:2 4:3 5:5 6:2 7:1 8:1 
-6.562797938448692 1:1 2:41 3:2 4:3 5:19 6:1 7:1 8:3 
-8 1:1 2:30 3:3 4:3 5:5 6:2 7:1 8:1 
-8 1:1 2:37 3:1 4:1 5:3 6:1 7:1 8:1 
-8 1:2 2:31 3:2 4:3 5:8 6:2 7:1 8:1 
-8 1:1 2:33 3:1 4:3 5:7 6:2 7:1 8:1 
-2.696989308001315 1:2 2:26 3:8 4:1 5:6 6:2 7:1 8:1 
-8 1:2 2:29 3:3 4:1 5:6 6:2 7:1 8:1 
-8 1:2 2:44 3:3 4:5 5:4 6:1 7:1 8:1 
-5.959583172977411 1:1 2:37 3:2 4:3 5:12 6:1 7:1 8:1 
-8 1:1 2:32 3:1 4:3 5:4 6:2 7:1 8:2 
-8 1:2 2:27 3:3 4:1 5:4 6:2 7:1 8:1 
-1.108069694773649 1:1 2:38 3:1 4:2 5:5 6:1 7:1 8:1 
-8 1:2 2:30 3:1 4:3 5:6 6:2 7:1 8:1 
-8 1:2 2:44 3:2 4:1 5:21 6:2 7:1 8:1 
-8 1:1 2:32 3:2 4:3 5:6 6:2 7:1 8:3 
-8 1:1 2:38 3:1 4:3 5:3 6:2 7:1 8:1 
-8 1:1 2:27 3:3 4:3 5:1 6:2 7:1 8:1 
-0.9727677881203783 1:1 2:24 3:4 4:3 5:2 6:2 7:1 8:1 
-8 1:1 2:27 3:4 4:1 5:2 6:2 7:1 8:1 
-8 1:1 2:27 3:2 4:3 5:3 6:2 7:1 8:1 
-8 1:1 2:41 3:2 4:3 5:15 6:1 7:1 8:1 
-8 1:1 2:26 3:2 4:3 5:2 6:2 7:1 8:5 
-8 1:2 2:30 3:2 4:1 5:8 6:2 7:1 8:1 
-8 1:1 2:27 3:2 4:3 5:4 6:2 7:1 8:1 
-8 1:2 2:27 3:2 4:3 5:4 6:2 7:1 8:1 
-2.102297649568279 1:1 2:29 3:2 4:3 5:6 6:2 7:1 8:1 
-8 1:1 2:27 3:2 4:3 5:4 6:2 7:1 8:3 
-8 1:1 2:35 3:1 4:1 5:5 6:1 7:1 8:1 
-8 1:1 2:29 3:1 4:3 5:5 6:2 7:1 8:1 
-8 1:1 2:28 3:1 4:3 5:2 6:1 7:1 8:1 
-8 1:1 2:27 3:1 4:3 5:1 6:2 7:1 8:1 
-8 1:1 2:29 3:1 4:1 5:1 6:1 7:1 8:1 
-8 1:1 2:28 3:4 4:3 5:2 6:2 7:1 8:1 
-8 1:1 2:28 3:1 4:3 5:1 6:2 7:1 8:1 
-8 1:1 2:30 3:4 4:3 5:1 6:1 7:1 8:1 
-1.041377040635268 1:1 2:23 3:2 4:3 5:1 6:2 7:1 8:1 
-8 1:2 2:33 3:3 4:3 5:6 6:2 7:1 8:1 
-8 1:1 2:24 3:2 4:3 5:1 6:2 7:1 8:1 
-8 1:1 2:28 3:3 4:3 5:4 6:2 7:1 8:1 
-8 1:1 2:31 3:4 4:3 5:2 6:1 7:1 8:1 
-8 1:1 2:30 3:2 4:3 5:6 6:2 7:1 8:1 
-8 1:1 2:33 3:3 4:3 5:4 6:1 7:1 8:1 
-8 1:1 2:28 3:1 4:3 5:1 6:2 7:1 8:1 
-8 1:1 2:42 3:1 4:6 5:1 6:1 7:1 8:1 
-8 1:1 2:31 3:1 4:3 5:1 6:2 7:1 8:1 
-8 1:1 2:28 3:1 4:3 5:2 6:2 7:1 8:1 
-8 1:1 2:33 3:3 4:3 5:7 6:1 7:1 8:1 
-8 1:1 2:25 3:1 4:3 5:1 6:2 7:1 8:1 
-8 1:1 2:27 3:1 4:3 5:1 6:2 7:1 8:1 
-8 1:1 2:28 3:2 4:3 5:4 6:2 7:1 8:1 
-8 1:1 2:32 3:1 4:1 5:1 6:2 7:1 8:1 
-8 1:1 2:27 3:1 4:3 5:1 6:2 7:1 8:1 
-8 1:1 2:34 3:4 4:3 5:5 6:1 7:1 8:1 
-8 1:1 2:28 3:4 4:3 5:2 6:2 7:1 8:1 
-8 1:1 2:31 3:3 4:3 5:1 6:2 7:1 8:1 
-8 1:1 2:31 3:4 4:3 5:4 6:1 7:1 8:1 
-8 1:1 2:26 3:1 4:3 5:1 6:2 7:1 8:1 
-8 1:1 2:28 3:1 4:3 5:1 6:2 7:1 8:1 
-8 1:1 2:30 3:1 4:3 5:2 6:2 7:1 8:3 
-8 1:1 2:29 3:4 4:3 5:2 6:2 7:1 8:1 
-8 1:1 2:30 3:4 4:3 5:1 6:2 7:1 8:1 
-8 1:1 2:30 3:2 4:3 5:6 6:2 7:1 8:3 
-8 1:1 2:33 3:3 4:3 5:2 6:1 7:1 8:1 
-8 1:1 2:30 3:1 4:1 5:2 6:2 7:1 8:1 
-8 1:1 2:31 3:3 4:3 5:2 6:1 7:1 8:1 
-8 1:2 2:27 3:1 4:1 5:2 6:2 7:1 8:1 
-8 1:1 2:25 3:2 4:3 5:2 6:2 7:1 8:5 
-8 1:1 2:31 3:4 4:3 5:2 6:2 7:1 8:3 
-8 1:1 2:29 3:2 4:3 5:5 6:2 7:1 8:1 
-8 1:1 2:24 3:2 4:3 5:1 6:2 7:1 8:1 
-8 1:1 2:27 3:1 4:3 5:1 6:2 7:1 8:1 
-8 1:1 2:34 3:1 4:3 5:6 6:1 7:1 8:1 
-8 1:1 2:28 3:1 4:3 5:2 6:1 7:1 8:1 
-8 1:1 2:29 3:1 4:3 5:2 6:2 7:1 8:1 
-8 1:1 2:29 3:1 4:3 5:2 6:1 7:1 8:1 
-8 1:1 2:26 3:1 4:3 5:2 6:2 7:1 8:1 
-8 1:1 2:26 3:1 4:3 5:2 6:2 7:1 8:1 
-8 1:1 2:34 3:3 4:3 5:9 6:2 7:1 8:1 
-8 1:1 2:34 3:1 4:1 5:2 6:2 7:1 8:1 
-8 1:1 2:35 3:1 4:3 5:4 6:2 7:1 8:1 
-8 1:1 2:34 3:1 4:1 5:1 6:1 7:1 8:1 
-8 1:1 2:24 3:2 4:3 5:1 6:2 7:1 8:1 
-8 1:1 2:31 3:2 4:3 5:6 6:1 7:1 8:3 
-8 1:1 2:30 3:4 4:3 5:2 6:2 7:1 8:1 
-8 1:1 2:30 3:1 4:3 5:2 6:2 7:1 8:1 
-8 1:1 2:32 3:1 4:3 5:2 6:1 7:1 8:1 
-8 1:1 2:30 3:1 4:3 5:3 6:2 7:1 8:1 
-8 1:1 2:32 3:3 4:3 5:4 6:1 7:1 8:1 
-8 1:1 2:29 3:1 4:3 5:2 6:2 7:1 8:1 
-8 1:2 2:26 3:2 4:3 5:3 6:2 7:1 8:1 
-8 1:2 2:30 3:1 4:3 5:2 6:1 7:1 8:1 
-8 1:1 2:28 3:1 4:3 5:2 6:2 7:1 8:1 
-8 1:2 2:27 3:1 4:3 5:1 6:2 7:1 8:1 
-8 1:1 2:29 3:1 4:3 5:1 6:2 7:1 8:1 
-8 1:1 2:34 3:1 4:1 5:1 6:1 7:1 8:1 
-8 1:1 2:28 3:1 4:3 5:2 6:2 7:1 8:1 
-8 1:1 2:27 3:1 4:1 5:2 6:2 7:1 8:1 
-8 1:2 2:24 3:2 4:3 5:1 6:2 7:1 8:1 
-8 1:1 2:25 3:2 4:3 5:2 6:2 7:1 8:1 
-8 1:1 2:27 3:1 4:3 5:1 6:2 7:1 8:1 
-8 1:1 2:27 3:1 4:3 5:2 6:2 7:1 8:1 
-8 1:2 2:26 3:1 4:1 5:1 6:2 7:1 8:1 
-8 1:1 2:25 3:1 4:3 5:1 6:2 7:1 8:1 
-3.334943487064245 1:1 2:41 3:8 4:3 5:4 6:2 7:1 8:1 
-8 1:1 2:26 3:3 4:3 5:2 6:2 7:1 8:1 
-8 1:1 2:27 3:1 4:3 5:2 6:2 7:1 8:1 
-8 1:1 2:28 3:1 4:3 5:2 6:2 7:1 8:1 
-8 1:1 2:28 3:1 4:1 5:1 6:2 7:1 8:1 
-8 1:1 2:33 3:1 4:3 5:4 6:1 7:1 8:1 
-8 1:2 2:29 3:2 4:3 5:5 6:1 7:1 8:1 
-8 1:1 2:26 3:2 4:3 5:2 6:2 7:1 8:1 
-8 1:2 2:29 3:2 4:3 5:6 6:2 7:1 8:1 
-8 1:2 2:24 3:2 4:3 5:1 6:2 7:1 8:1 
-8 1:1 2:28 3:2 4:3 5:5 6:2 7:1 8:1 
-8 1:2 2:24 3:2 4:3 5:1 6:2 7:1 8:1 
-8 1:1 2:40 3:1 4:1 5:9 6:1 7:1 8:3 
-8 1:1 2:28 3:1 4:3 5:2 6:2 7:1 8:1 
-8 1:1 2:27 3:2 4:3 5:4 6:2 7:1 8:1 
-8 1:1 2:30 3:2 4:3 5:5 6:2 7:1 8:1 
-8 1:1 2:26 3:2 4:3 5:2 6:2 7:1 8:1 
-8 1:2 2:23 3:2 4:3 5:1 6:2 7:1 8:1 
-8 1:1 2:41 3:1 4:1 5:2 6:1 7:1 8:1 
-8 1:2 2:30 3:1 4:3 5:5 6:1 7:1 8:5 
-8 1:1 2:25 3:2 4:3 5:2 6:2 7:1 8:1 
-8 1:1 2:25 3:2 4:3 5:1 6:2 7:1 8:1 
-8 1:1 2:39 3:3 4:3 5:6 6:2 7:1 8:1 
-8 1:1 2:31 3:3 4:3 5:1 6:1 7:1 8:1 
-8 1:1 2:29 3:1 4:3 5:4 6:2 7:1 8:1 
-3.852057022067032 1:1 2:23 3:2 4:3 5:1 6:2 7:1 8:1 
-8 1:1 2:29 3:1 4:3 5:2 6:2 7:1 8:1 
-8 1:1 2:24 3:1 4:1 5:1 6:2 7:1 8:1 
-8 1:1 2:29 3:4 4:1 5:6 6:2 7:1 8:1 
-8 1:1 2:27 3:2 4:3 5:4 6:2 7:1 8:1 
-8 1:1 2:26 3:2 4:3 5:3 6:2 7:1 8:1 
-8 1:2 2:26 3:1 4:1 5:1 6:2 7:1 8:1 
-8 1:1 2:29 3:2 4:3 5:4 6:2 7:1 8:1 
-8 1:2 2:26 3:2 4:3 5:3 6:2 7:1 8:3 
-8 1:1 2:24 3:2 4:3 5:1 6:2 7:1 8:1 
-8 1:1 2:26 3:2 4:3 5:2 6:2 7:1 8:1 
-8 1:1 2:34 3:4 4:3 5:2 6:2 7:1 8:1 
-0.2415113261305135 1:1 2:24 3:4 4:3 5:2 6:2 7:1 8:1 
-8 1:1 2:38 3:3 4:1 5:5 6:1 7:1 8:4 
-8 1:1 2:45 3:3 4:3 5:2 6:1 7:1 8:1 
-8 1:2 2:28 3:2 4:3 5:4 6:2 7:1 8:1 
-8 1:1 2:28 3:2 4:3 5:5 6:2 7:1 8:1 
-8 1:1 2:25 3:2 4:3 5:2 6:2 7:1 8:1 
-8 1:1 2:33 3:3 4:3 5:2 6:2 7:1 8:1 
-8 1:1 2:29 3:2 4:3 5:6 6:2 7:1 8:3 
-8 1:1 2:24 3:2 4:3 5:1 6:2 7:1 8:1 
-8 1:1 2:26 3:1 4:1 5:2 6:2 7:1 8:1 
-8 1:1 2:30 3:1 4:3 5:4 6:1 7:1 8:1 
-8 1:1 2:30 3:1 4:3 5:5 6:2 7:1 8:1 
-8 1:1 2:30 3:1 4:3 5:5 6:2 7:1 8:1 
-8 1:1 2:25 3:2 4:3 5:1 6:2 7:1 8:1 
-8 1:1 2:34 3:1 4:2 5:1 6:1 7:1 8:1 
-8 1:1 2:26 3:2 4:3 5:3 6:2 7:1 8:1 
-8 1:1 2:27 3:1 4:3 5:1 6:2 7:1 8:1 
-2.139259649485932 1:1 2:38 3:1 4:1 5:15 6:1 7:1 8:3 
-8 1:1 2:26 3:2 4:3 5:2 6:2 7:1 8:1 
-8 1:2 2:23 3:1 4:1 5:1 6:2 7:1 8:1 
-8 1:1 2:31 3:1 4:3 5:2 6:2 7:1 8:1 
-8 1:1 2:30 3:1 4:1 5:1 6:1 7:1 8:1 
-8 1:1 2:26 3:1 4:3 5:1 6:2 7:1 8:1 
-8 1:1 2:25 3:1 4:3 5:2 6:2 7:1 8:1 
-8 1:1 2:26 3:2 4:3 5:1 6:2 7:1 8:1 
-8 1:1 2:35 3:3 4:1 5:4 6:1 7:1 8:1 
-8 1:1 2:34 3:1 4:3 5:8 6:2 7:1 8:1 
-8 1:1 2:24 3:2 4:3 5:1 6:2 7:1 8:1 
-8 1:2 2:26 3:2 4:3 5:3 6:2 7:1 8:1 
-8 1:1 2:25 3:2 4:3 5:1 6:2 7:1 8:1 
-8 1:1 2:26 3:3 4:3 5:2 6:2 7:1 8:1 
-8 1:1 2:25 3:2 4:3 5:2 6:2 7:1 8:1 
-8 1:1 2:31 3:1 4:3 5:2 6:1 7:1 8:1 
-8 1:1 2:35 3:1 4:3 5:4 6:1 7:1 8:1 
-8 1:1 2:31 3:1 4:3 5:2 6:1 7:1 8:1 
-8 1:1 2:28 3:2 4:3 5:4 6:2 7:1 8:1 
-8 1:1 2:29 3:2 4:3 5:5 6:2 7:1 8:1 
-8 1:2 2:25 3:2 4:3 5:2 6:2 7:1 8:1 
-8 1:1 2:28 3:2 4:3 5:5 6:2 7:1 8:1 
-8 1:1 2:25 3:2 4:3 5:2 6:2 7:1 8:1 
-8 1:1 2:27 3:1 4:3 5:1 6:2 7:1 8:1 
-8 1:1 2:25 3:1 4:1 5:2 6:2 7:1 8:1 
-8 1:1 2:26 3:2 4:3 5:2 6:2 7:1 8:1 
-8 1:1 2:25 3:2 4:3 5:2 6:2 7:1 8:1 
-8 1:1 2:25 3:2 4:3 5:1 6:2 7:1 8:1 
-8 1:2 2:34 3:1 4:3 5:5 6:2 7:1 8:1 
-0.08390959742889986 1:1 2:34 3:2 4:3 5:11 6:2 7:1 8:5 
-8 1:1 2:34 3:1 4:3 5:6 6:1 7:1 8:5 
-8 1:1 2:35 3:1 4:3 5:5 6:2 7:1 8:1 
-8 1:1 2:37 3:1 4:3 5:6 6:1 7:1 8:1 
-3.343307351507816 1:1 2:29 3:2 4:3 5:6 6:2 7:1 8:1 
-8 1:1 2:37 3:1 4:1 5:6 6:2 7:1 8:1 
-8 1:2 2:27 3:1 4:3 5:2 6:2 7:1 8:1 
-8 1:1 2:32 3:1 4:3 5:7 6:2 7:2 8:1 
-8 1:1 2:25 3:2 4:3 5:1 6:2 7:1 8:1 
-8 1:2 2:30 3:1 4:1 5:4 6:2 7:1 8:1 
-8 1:1 2:29 3:1 4:3 5:1 6:2 7:1 8:1 
-8 1:1 2:30 3:3 4:3 5:6 6:2 7:1 8:1 
-8 1:1 2:32 3:1 4:3 5:4 6:1 7:1 8:1 
-8 1:1 2:33 3:1 4:3 5:2 6:2 7:1 8:1 
-8 1:1 2:25 3:2 4:3 5:2 6:2 7:1 8:1 
-8 1:1 2:30 3:3 4:3 5:4 6:1 7:1 8:1 
-8 1:1 2:42 3:1 4:3 5:6 6:2 7:1 8:1 
-8 1:1 2:28 3:3 4:3 5:3 6:2 7:1 8:1 
-5.344606925735178 1:1 2:37 3:1 4:1 5:9 6:2 7:1 8:1 
-8 1:1 2:28 3:1 4:3 5:2 6:2 7:1 8:1 
-8 1:1 2:38 3:2 4:3 5:11 6:2 7:1 8:1 
-8 1:1 2:29 3:3 4:3 5:4 6:2 7:1 8:1 
-8 1:1 2:29 3:2 4:3 5:6 6:2 7:1 8:1 
-8 1:1 2:24 3:2 4:3 5:1 6:2 7:1 8:1 
